<?xml version="1.0"?>
<opencv_storage>
<opencv_ml_svm>
  <format>3</format>
  <svmType>C_SVC</svmType>
  <kernel>
    <type>POLY</type>
    <degree>3.</degree>
    <gamma>3.</gamma>
    <coef0>0.</coef0></kernel>
  <C>1.</C>
  <term_criteria><epsilon>1.1920928955078125e-07</epsilon>
    <iterations>1000</iterations></term_criteria>
  <var_count>72</var_count>
  <class_count>7</class_count>
  <class_labels type_id="opencv-matrix">
    <rows>7</rows>
    <cols>1</cols>
    <dt>i</dt>
    <data>
      1 2 3 4 5 6 7</data></class_labels>
  <sv_total>140</sv_total>
  <support_vectors>
    <_>
      0. 0. 0. 4.22311455e-01 5.86499810e-01 7.30696917e-01
      7.96269417e-01 9.04979825e-01 8.96737397e-01 9.69407976e-01
      9.96232033e-01 1. 9.44286108e-01 8.24517071e-01 7.93492973e-01 0.
      3.68859261e-01 3.26042205e-01 0. 0. 8.17970753e-01 7.95236588e-01
      8.51637959e-01 8.28941464e-01 8.75816941e-01 8.81998599e-01
      8.43417287e-01 8.39029968e-01 7.87504435e-01 6.06483817e-01
      7.19796836e-01 5.97649038e-01 5.31117499e-01 0. 0. 0. 0.
      3.00346643e-01 4.15277988e-01 5.02767205e-01 5.13323188e-01
      6.09741807e-01 6.75447166e-01 6.30000949e-01 7.79574573e-01
      7.76538074e-01 7.77096748e-01 7.06257105e-01 8.00025821e-01
      7.97899842e-01 4.63652372e-01 2.84556776e-01 7.47034788e-01
      6.94891870e-01 4.23870593e-01 4.25434381e-01 4.67137188e-01
      4.74487454e-01 0. 7.13533819e-01 8.31367612e-01 8.50448132e-01
      8.62065971e-01 8.56597900e-01 8.80924463e-01 8.59723866e-01
      8.46288979e-01 8.40991974e-01 7.74978697e-01 7.37051964e-01
      6.91417038e-01 0.</_>
    <_>
      0. 4.72496152e-01 0. 5.84726870e-01 6.33131504e-01 6.73720539e-01
      7.12684155e-01 7.17596352e-01 7.29420364e-01 7.47828245e-01
      9.75572944e-01 1. 5.81661820e-01 4.36516076e-01 0. 5.74668467e-01
      5.97980797e-01 5.25065780e-01 0. 5.86286902e-01 4.00401771e-01
      1.45107418e-01 5.46495438e-01 5.97920477e-01 4.82750595e-01
      6.40079319e-01 6.48413420e-01 6.64275527e-01 6.63817048e-01
      6.02024019e-01 6.09842300e-01 5.06828964e-01 4.92851496e-01
      5.31054795e-01 4.92525876e-01 4.86493200e-01 2.58417338e-01
      3.53788614e-01 0. 2.00846866e-01 0. 0. 4.81201857e-01
      5.86018860e-01 6.93900824e-01 7.14056373e-01 8.02219868e-01
      8.05287004e-01 8.29143763e-01 6.00750148e-01 6.14761412e-01
      3.90114337e-01 5.73156774e-01 7.23593593e-01 5.27436018e-01 0.
      5.34073174e-01 5.09534776e-01 5.18117368e-01 7.70146370e-01
      6.96091294e-01 6.99956059e-01 8.94886553e-01 8.65362346e-01
      8.40812504e-01 8.21683049e-01 7.46737361e-01 6.71983480e-01
      6.16388857e-01 0. 0. 3.48868340e-01</_>
    <_>
      0. 3.38033438e-01 3.42266321e-01 4.18057680e-01 4.60889548e-01
      5.17430305e-01 5.79113722e-01 6.63624108e-01 6.56271100e-01 1.
      9.74907339e-01 9.86452162e-01 9.46656704e-01 9.10543144e-01
      7.53659904e-01 5.06338358e-01 0. 6.61706448e-01 6.92754924e-01
      6.90595567e-01 6.95552945e-01 4.94398475e-01 0. 2.16006443e-01
      7.65169144e-01 7.67773271e-01 7.57635415e-01 8.22645783e-01
      8.45721185e-01 8.25900733e-01 7.64684975e-01 7.77035892e-01
      7.32115149e-01 7.09310472e-01 6.66193962e-01 6.17760241e-01
      4.00674582e-01 3.29982519e-01 0. 0. 6.05182827e-01 6.62643850e-01
      8.19025397e-01 8.36638749e-01 8.75032663e-01 9.39544678e-01 0.
      9.23479378e-01 9.14149106e-01 9.11507964e-01 8.96658242e-01
      7.92558670e-01 4.40985799e-01 5.44740558e-01 5.38396239e-01
      3.63316804e-01 4.71392035e-01 8.08277726e-01 8.28176737e-01
      8.21273685e-01 8.36300671e-01 7.91547954e-01 8.01419914e-01
      7.69159079e-01 7.43815184e-01 0. 6.57026947e-01 5.90298474e-01
      5.26824296e-01 0. 0. 0.</_>
    <_>
      0. 3.92832160e-01 4.32312369e-01 5.04984438e-01 5.55111945e-01
      6.10502481e-01 6.69851601e-01 6.74971521e-01 9.78558183e-01 1.
      9.48645771e-01 7.92053938e-01 7.54765451e-01 5.86772859e-01
      6.18785501e-01 6.39567375e-01 4.17406619e-01 6.13140881e-01
      6.11046255e-01 0. 0. 5.95558167e-01 6.37160242e-01 6.59633696e-01
      6.58225060e-01 1.59257770e-01 7.06674457e-01 6.56151414e-01
      7.27680862e-01 7.55694449e-01 7.43105590e-01 4.81760442e-01
      6.02904141e-01 5.79452813e-01 6.36189938e-01 3.52612346e-01
      5.54731607e-01 0. 3.52171868e-01 2.57770866e-01 0. 4.94618118e-01
      6.30528867e-01 7.40594864e-01 3.67527515e-01 3.89945090e-01
      8.91792595e-01 9.05349076e-01 8.97334516e-01 9.26685810e-01
      8.81664515e-01 8.04505825e-01 8.37118268e-01 5.11052430e-01
      4.37281668e-01 5.05132020e-01 5.41277766e-01 4.79163080e-01
      8.48923981e-01 8.71821225e-01 8.68950069e-01 8.63017321e-01
      8.55959773e-01 8.26433063e-01 2.52784997e-01 4.21484619e-01
      6.72437251e-01 6.08235478e-01 0. 0. 2.65775561e-01 0.</_>
    <_>
      0. 3.43856484e-01 3.46059978e-01 4.22402203e-01 4.62780416e-01
      5.16122580e-01 5.45156419e-01 8.15760791e-01 8.54669750e-01
      8.72486711e-01 8.95928323e-01 8.53132308e-01 5.41532278e-01
      5.98541498e-01 6.13858819e-01 0. 0. 5.64711988e-01 5.62781513e-01
      4.32080388e-01 4.34499204e-01 0. 0. 5.83538353e-01 6.27112031e-01
      6.30934060e-01 6.89105034e-01 6.86417460e-01 7.11256802e-01
      7.36317873e-01 7.51451433e-01 7.34615028e-01 7.33972013e-01
      3.27167302e-01 4.84786958e-01 6.77564681e-01 6.37932301e-01 0. 0.
      2.83285111e-01 2.91786402e-01 6.25475705e-01 6.83508813e-01
      8.52353573e-01 8.25641155e-01 6.07309818e-01 1. 9.58934546e-01
      6.91956758e-01 7.03146517e-01 6.91419601e-01 7.83900261e-01
      5.67904949e-01 5.87006092e-01 5.83389819e-01 5.16290545e-01
      7.53619730e-01 6.63392544e-01 6.49971724e-01 6.31179452e-01
      8.49777818e-01 7.93112218e-01 7.56498337e-01 3.53810668e-01
      6.32345855e-01 5.65281928e-01 1.73543587e-01 2.02087596e-01 0.
      2.20927402e-01 2.52593815e-01 0.</_>
    <_>
      0. 0. 0. 4.29156363e-01 5.57889462e-01 7.03509390e-01
      7.87604570e-01 8.39429438e-01 5.99045813e-01 9.74218369e-01 1.
      9.78732824e-01 3.64048064e-01 6.00191176e-01 6.19172215e-01
      6.42099798e-01 6.31683171e-01 8.06108057e-01 7.27376044e-01
      6.13171339e-01 8.05415392e-01 7.78427422e-01 8.07923496e-01
      7.85806000e-01 8.17857683e-01 8.23471069e-01 8.14285815e-01
      7.80203879e-01 7.79812574e-01 5.39896548e-01 5.26836693e-01
      5.42462766e-01 5.27312338e-01 4.78470951e-01 0. 3.45938168e-02
      2.24312931e-01 0. 4.20369238e-01 4.65308219e-01 4.75692481e-01
      5.24160683e-01 6.07229650e-01 7.32147157e-01 6.70821011e-01
      8.27535689e-01 8.01989257e-01 7.84851134e-01 7.63593316e-01
      7.76677787e-01 7.77752161e-01 5.47953069e-01 7.41247356e-01
      6.50891483e-01 0. 4.13550913e-01 4.15628076e-01 4.66599584e-01
      3.57466906e-01 0. 7.80262589e-01 7.36150265e-01 8.42159867e-01
      8.60483408e-01 8.61192584e-01 8.66558015e-01 8.22517395e-01
      8.35075557e-01 4.60613042e-01 7.22944498e-01 6.66072011e-01 0.</_>
    <_>
      0. 3.04476261e-01 3.74750644e-01 2.09909454e-01 4.64273691e-01
      5.51380575e-01 5.81517279e-01 9.80569243e-01 1. 7.27830887e-01
      7.04174101e-01 7.08199024e-01 9.21311378e-01 9.04582500e-01
      4.23931301e-01 4.43477929e-01 4.99857664e-01 6.60702169e-01
      5.91015995e-01 5.90819657e-01 6.64516568e-01 5.32106876e-01
      4.74565685e-01 6.34403944e-01 7.07344413e-01 6.95089340e-01
      7.53211141e-01 7.72160351e-01 6.05915189e-01 7.76163697e-01
      7.63428748e-01 5.92710197e-01 7.16331661e-01 6.73312485e-01
      6.54388189e-01 0. 4.35121268e-01 3.00752044e-01 1.00015134e-01
      3.43772620e-01 5.65551460e-01 6.21204197e-01 7.26063907e-01
      6.68024004e-01 7.79625893e-01 6.02486312e-01 7.93041468e-01
      8.96697104e-01 6.62718356e-01 6.57647252e-01 6.61115825e-01
      7.56186783e-01 5.27256846e-01 5.21996856e-01 5.18860042e-01
      4.85595644e-01 4.55971032e-01 6.73853636e-01 7.47445941e-01
      7.68416405e-01 8.25281084e-01 8.13763738e-01 8.04886341e-01
      7.73029089e-01 7.24521458e-01 6.81472063e-01 5.96209049e-01
      5.33553183e-01 0. 1.76214680e-01 0. 0.</_>
    <_>
      0. 3.78443778e-01 2.07014397e-01 4.57465559e-01 5.09924114e-01
      5.68053484e-01 6.14131987e-01 6.95522964e-01 9.29181457e-01
      8.76599312e-01 1. 9.77802753e-01 6.66908860e-01 6.60786748e-01
      6.63645267e-01 4.01060164e-01 5.59265852e-01 6.27290487e-01
      5.16552448e-01 6.20231926e-01 0. 4.58983362e-01 5.01203239e-01
      6.65556252e-01 6.63253307e-01 6.50812924e-01 7.11555123e-01
      7.08433151e-01 7.34388232e-01 7.67260671e-01 7.47699380e-01
      3.87297451e-01 4.82444406e-01 5.04510701e-01 6.38561130e-01
      5.98071814e-01 5.21388650e-01 4.85873312e-01 3.84075075e-01 0.
      2.21495077e-01 6.06102645e-01 6.67298675e-01 7.31525004e-01
      3.48588228e-01 9.06814694e-01 9.55596268e-01 9.63016629e-01
      9.51079428e-01 7.13943720e-01 7.01884985e-01 8.32711339e-01
      5.72037280e-01 0. 4.85437483e-01 5.20924509e-01 4.89951432e-01
      8.21925104e-01 6.56171441e-01 8.53598952e-01 8.49799931e-01
      8.52996469e-01 8.14845502e-01 6.59274817e-01 5.61451435e-01
      3.44399214e-01 6.21303678e-01 0. 0. 2.16524482e-01 0.
      2.75961310e-01</_>
    <_>
      0. 7.59058893e-02 2.82828599e-01 4.29787189e-01 5.14908195e-01
      5.72338760e-01 6.33755267e-01 6.98106349e-01 7.10312009e-01
      7.06752598e-01 7.54692197e-01 9.61584926e-01 1. 0. 7.52961636e-01
      5.00620663e-01 4.91889268e-01 6.88271582e-01 6.85350239e-01
      6.84586644e-01 6.23093426e-01 6.96088374e-01 5.38749099e-01
      5.18320680e-01 6.70518816e-01 7.64038086e-01 7.95761943e-01
      8.15961897e-01 7.94525802e-01 0. 5.15135825e-01 5.58463097e-01
      5.13238847e-01 6.30311966e-01 5.48050582e-01 4.75037068e-01
      2.99300522e-01 0. 2.33308792e-01 4.13969725e-01 5.63838482e-01
      6.19219720e-01 7.24619508e-01 8.53366971e-01 8.72833312e-01
      8.40089917e-01 8.63011301e-01 9.21742797e-01 6.56314492e-01
      6.50783837e-01 6.22367024e-01 6.42902493e-01 7.73898542e-01
      4.79395837e-01 4.76291448e-01 4.75618869e-01 4.77388322e-01
      7.36198008e-01 7.77942955e-01 7.99257815e-01 7.94888914e-01
      7.97819853e-01 7.80966341e-01 7.76906669e-01 7.29644239e-01
      5.16610026e-01 6.49026275e-01 5.85693598e-01 5.25805771e-01 0. 0.
      0.</_>
    <_>
      0. 3.58624250e-01 3.96990955e-01 4.80916560e-01 4.90789056e-01
      5.50458372e-01 5.98463178e-01 2.91967750e-01 7.97986209e-01
      9.99669433e-01 1. 6.97564960e-01 7.05495000e-01 5.86917043e-01
      6.35952830e-01 6.56704128e-01 6.36825919e-01 6.24739468e-01
      6.57891750e-01 0. 0. 6.73475564e-01 6.82325244e-01 6.71708345e-01
      7.02497900e-01 6.89186513e-01 7.52274096e-01 7.73714602e-01
      7.75267422e-01 8.02766442e-01 7.88383245e-01 7.50411332e-01
      7.37373590e-01 7.25449979e-01 6.71278954e-01 6.22924328e-01
      5.47267735e-01 3.66039127e-01 3.30006897e-01 0. 5.38627684e-01
      6.79826319e-01 7.13011503e-01 7.62516439e-01 2.30351120e-01
      9.18659568e-01 9.44405138e-01 9.23622429e-01 9.39761639e-01
      9.34402883e-01 8.88830423e-01 8.30227137e-01 0. 2.50253230e-01
      5.37935197e-01 5.01421571e-01 4.33556050e-01 8.53098154e-01
      8.28327417e-01 8.52957904e-01 8.50646079e-01 8.25929582e-01
      7.96362817e-01 7.62368917e-01 7.60789692e-01 6.88584208e-01
      5.65893590e-01 4.96757179e-01 0. 0. 0. 0.</_>
    <_>
      0. 4.28650022e-01 2.54075646e-01 3.29086304e-01 5.93255579e-01
      6.49664223e-01 6.95767581e-01 6.84563994e-01 1. 9.94362354e-01
      9.95247245e-01 9.76563275e-01 7.10977495e-01 5.48959672e-01
      6.31352782e-01 6.53785288e-01 0. 6.32627010e-01 6.29337490e-01 0.
      6.31170571e-01 0. 6.60233140e-01 6.53157651e-01 0. 6.55458450e-01
      6.94868386e-01 7.12741017e-01 0. 7.15877831e-01 7.02883720e-01
      6.67315960e-01 4.81212378e-01 4.36386108e-01 5.29471695e-01
      5.23859203e-01 5.20554900e-01 3.79300177e-01 0. 0. 4.38581139e-01
      4.05604392e-01 6.39913857e-01 7.06630766e-01 7.96823978e-01
      9.15663958e-01 8.66472006e-01 6.51386380e-01 8.84535789e-01
      8.78914416e-01 7.23771095e-01 7.77662754e-01 8.01480353e-01
      4.63799924e-01 4.60303575e-01 4.96245772e-01 2.52416641e-01 0.
      8.15075159e-01 8.39428246e-01 8.37632895e-01 8.43161762e-01
      6.59111023e-01 8.28706384e-01 8.00756156e-01 5.05779445e-01
      6.88410819e-01 5.72987735e-01 5.09611607e-01 1.18232779e-01 0.
      2.89741904e-01</_>
    <_>
      0. 0. 0. 0. 5.31714201e-01 7.27251947e-01 7.99431801e-01
      8.75010610e-01 9.20194626e-01 6.80863082e-01 9.96502757e-01
      9.70070779e-01 1. 9.62019086e-01 9.29541230e-01 8.25979829e-01
      8.04350257e-01 7.96401024e-01 3.40002149e-01 8.67845774e-01
      7.51520514e-01 8.85256886e-01 8.16664755e-01 9.48671997e-01
      9.11929309e-01 9.14298475e-01 9.58355725e-01 9.45338309e-01
      9.16013718e-01 6.04104698e-01 7.02570617e-01 6.62315190e-01
      7.35386491e-01 4.12246853e-01 0. 0. 0. 3.49075705e-01
      4.33976293e-01 5.20743310e-01 6.70752406e-01 6.85471237e-01
      8.11208606e-01 7.75942326e-01 7.54533350e-01 9.78819847e-01
      9.82129395e-01 9.32195783e-01 9.76908863e-01 9.73355711e-01
      9.40502703e-01 8.75055730e-01 7.75091887e-01 5.13815701e-01
      5.10269284e-01 5.50341189e-01 5.52979410e-01 0. 8.85197282e-01
      7.34955847e-01 9.33176339e-01 9.37857568e-01 9.51153040e-01
      9.43513334e-01 9.18362737e-01 0. 3.52085799e-01 6.22720003e-01
      7.67567396e-01 7.00508714e-01 5.99927068e-01 0.</_>
    <_>
      0. 0. 4.14159805e-01 5.45665681e-01 6.44158304e-01 7.10298538e-01
      7.80758500e-01 8.54470193e-01 8.43705058e-01 9.17577803e-01
      9.16047752e-01 8.92386019e-01 9.09881055e-01 8.70171368e-01
      8.87941062e-01 6.83664739e-01 6.72438383e-01 6.56513810e-01 0. 0.
      7.35305965e-01 7.50229359e-01 6.85685694e-01 8.60289872e-01
      8.55148077e-01 8.80526543e-01 8.96464348e-01 8.93124640e-01
      8.64934087e-01 8.41456652e-01 4.88779247e-01 5.92524529e-01
      7.16118753e-01 6.50183737e-01 5.51854789e-01 3.42783421e-01 0. 0.
      3.42616588e-01 4.27608877e-01 5.13603270e-01 6.27832413e-01
      7.51528859e-01 8.05343509e-01 3.68175179e-01 9.21722591e-01
      9.21408236e-01 9.26276803e-01 1. 6.96545482e-01 6.62000775e-01
      3.48998725e-01 8.64308000e-01 5.73319256e-01 5.70393085e-01
      5.30850887e-01 5.33522487e-01 5.00386000e-01 8.07144761e-01
      9.22949970e-01 9.22698021e-01 9.30796623e-01 8.98672581e-01
      9.15360868e-01 8.87919605e-01 8.91278863e-01 4.28828299e-01
      7.80294478e-01 7.09895909e-01 6.43832743e-01 0. 0.</_>
    <_>
      0. 3.51477683e-01 3.87059480e-01 3.93050790e-01 5.03664255e-01
      5.56468546e-01 6.13241136e-01 0. 1. 9.75337267e-01 9.27285671e-01
      4.74964947e-01 7.16178656e-01 6.83825314e-01 4.82383072e-01
      5.93998611e-01 6.49550438e-01 5.11847615e-01 5.73571086e-01
      6.05209470e-01 0. 4.86709386e-01 6.27550006e-01 6.47637546e-01
      6.88112974e-01 6.94209933e-01 6.87265396e-01 7.07660496e-01
      7.28057206e-01 7.34900057e-01 6.97805762e-01 5.64568520e-01
      4.20894742e-01 2.77394235e-01 5.03643036e-01 4.92161542e-01 0.
      2.30752304e-01 0. 0. 4.15485561e-01 5.29068470e-01 6.00899816e-01
      7.07032979e-01 2.15583995e-01 8.08580160e-01 8.08732271e-01
      8.36465359e-01 8.51582885e-01 8.47257733e-01 3.57257426e-01
      7.45649219e-01 7.76826084e-01 4.65617955e-01 4.94124293e-01
      4.61290956e-01 4.64352876e-01 4.06494439e-01 7.52147317e-01
      7.86146283e-01 7.86091805e-01 7.92642891e-01 7.85506546e-01
      7.56895959e-01 7.34295845e-01 4.15318221e-01 6.54659450e-01
      5.48970282e-01 4.48631734e-01 0. 0. 9.27010775e-02</_>
    <_>
      0. 3.51922363e-01 2.27092162e-01 4.91311550e-01 4.99923259e-01
      5.92428982e-01 6.34145916e-01 6.80529594e-01 6.91972733e-01
      9.54416931e-01 1. 6.70702517e-01 6.87052429e-01 6.71583116e-01
      6.44115388e-01 6.21776104e-01 6.35766029e-01 0. 1.51961595e-01 0.
      6.28196657e-01 6.39986575e-01 6.18057013e-01 4.99597192e-01
      6.51962578e-01 6.53865874e-01 7.07161129e-01 7.24001288e-01
      5.70141912e-01 7.26603210e-01 6.53449178e-01 5.67683876e-01
      5.97896338e-01 6.17237926e-01 5.70943236e-01 4.98754352e-01
      4.33511287e-01 2.76020557e-01 0. 1.85514510e-01 3.92274678e-01
      4.61899459e-01 6.42493486e-01 7.45261192e-01 8.01132143e-01
      7.77096391e-01 7.98742652e-01 8.46879125e-01 8.45019102e-01
      8.72090638e-01 6.19452298e-01 6.57467544e-01 7.78725207e-01
      5.09559810e-01 4.44436491e-01 5.07795632e-01 4.14074659e-01
      4.54885662e-01 7.69946873e-01 7.93068349e-01 7.92740166e-01
      7.98587322e-01 6.34494841e-01 7.86286771e-01 7.61380315e-01
      7.42279112e-01 6.25986099e-01 5.83161116e-01 4.84999388e-01
      1.36410266e-01 1.97551727e-01 2.59433568e-01</_>
    <_>
      0. 0. 3.47831488e-01 4.26545382e-01 5.51519275e-01 6.10920191e-01
      7.24626839e-01 8.13092530e-01 8.27684522e-01 8.24438989e-01
      8.51571500e-01 8.56311679e-01 8.43849897e-01 8.39257538e-01
      7.26835549e-01 7.83669174e-01 8.09031248e-01 6.80163205e-01
      7.86222935e-01 0. 6.08805954e-01 5.79898059e-01 0. 7.30172336e-01
      8.60866249e-01 8.48637402e-01 8.69194746e-01 8.85079741e-01
      9.08124626e-01 0. 6.37386620e-01 7.15896010e-01 7.00912058e-01
      6.06155634e-01 6.66137338e-01 5.43449998e-01 2.06672847e-01 0. 0.
      5.16937792e-01 5.97491980e-01 6.90419137e-01 3.58662277e-01
      3.77358288e-01 8.39756966e-01 8.11856806e-01 8.11830759e-01
      9.71360385e-01 9.87824500e-01 1. 9.35356975e-01 8.99624050e-01
      8.19222033e-01 5.39344013e-01 5.73194921e-01 5.36238968e-01
      5.38441837e-01 7.81494915e-01 8.26670825e-01 7.68727720e-01
      1.90401092e-01 9.01497781e-01 8.92144620e-01 8.57775092e-01
      8.05242717e-01 8.09853911e-01 7.47033477e-01 6.78882718e-01
      6.14135265e-01 5.19175172e-01 0. 0.</_>
    <_>
      0. 0. 0. 4.38906342e-01 2.15259999e-01 3.45577240e-01
      7.42956102e-01 8.12683463e-01 8.25379372e-01 8.46002877e-01
      7.17560291e-01 8.50153744e-01 7.02651083e-01 8.79966736e-01 0.
      6.89853728e-01 7.15705156e-01 8.12162817e-01 7.34982550e-01
      6.24239266e-01 6.65145099e-01 0. 8.52726698e-01 8.45676959e-01
      8.28777134e-01 8.86040866e-01 9.00766134e-01 9.24689353e-01
      9.23659444e-01 3.50094557e-01 7.08992422e-01 7.23598897e-01
      7.07707286e-01 7.16032267e-01 2.84265131e-01 2.41130859e-01 0. 0.
      0. 5.11779487e-01 0. 7.46971786e-01 7.13320971e-01 3.36169809e-01
      5.43283224e-01 8.53775859e-01 9.87028420e-01 7.33434021e-01 1.
      9.73356485e-01 8.77994299e-01 8.65494192e-01 4.95924532e-01
      5.27229428e-01 3.39979529e-01 5.24788022e-01 5.27465761e-01
      4.96343225e-01 4.33607697e-01 7.62005270e-01 8.91785562e-01
      9.10043955e-01 9.19577420e-01 8.84201527e-01 8.82182956e-01
      6.77979767e-01 7.49636769e-01 6.99218452e-01 6.32707238e-01 0. 0.
      0.</_>
    <_>
      0. 3.28864962e-01 1.30963936e-01 2.02143490e-01 0. 5.38302183e-01
      6.41745090e-01 9.88426983e-01 1. 6.90152109e-01 7.13626325e-01
      7.39192426e-01 7.27422476e-01 7.38680422e-01 7.08650470e-01
      4.64252144e-01 6.57131910e-01 6.80222809e-01 0. 1.81063280e-01 0.
      0. 7.16450632e-01 7.10569680e-01 6.51197851e-01 7.29914427e-01
      7.21767902e-01 7.63232589e-01 7.86893368e-01 7.91877389e-01
      5.43263555e-01 5.26960194e-01 4.99355137e-01 5.92929542e-01
      6.47891521e-01 5.00833154e-01 3.00397038e-01 2.67478496e-01
      1.68579251e-01 0. 4.88872260e-01 6.17065549e-01 7.20492840e-01
      6.91718936e-01 3.69594425e-01 8.34692359e-01 7.64565885e-01
      7.89942086e-01 9.24159527e-01 8.90222371e-01 8.34029615e-01
      8.22711170e-01 5.23525238e-01 4.85359609e-01 4.47437555e-01
      4.81495142e-01 4.84735698e-01 4.25543964e-01 7.89964199e-01
      8.14328015e-01 8.14106464e-01 8.20579112e-01 8.13083470e-01
      7.83446670e-01 7.59877682e-01 4.85071748e-01 6.77505076e-01
      5.68741322e-01 4.65153903e-01 0. 9.84988809e-02 1.31185949e-01</_>
    <_>
      0. 0. 2.95016110e-01 1.17796354e-01 5.37921429e-01 5.97818375e-01
      6.62057281e-01 7.49291480e-01 7.41804123e-01 7.88503051e-01
      8.14298570e-01 7.40104318e-01 8.36229920e-01 8.33146870e-01
      7.37810731e-01 7.91838527e-01 7.63618469e-01 7.88572073e-01
      2.10008204e-01 0. 3.19095165e-01 3.59686971e-01 8.33622634e-01
      7.99897611e-01 8.12147498e-01 8.68947983e-01 8.61471832e-01
      9.07667279e-01 9.31967556e-01 7.32353330e-01 6.69704795e-01
      7.47390211e-01 5.72671175e-01 7.08328426e-01 6.90453529e-01
      4.30163354e-01 3.54483426e-01 2.81393349e-01 0. 5.09660602e-01
      6.32399440e-01 7.23714113e-01 3.98820698e-01 0. 5.87891221e-01
      8.91375244e-01 9.65024889e-01 9.99587834e-01 9.87891734e-01 1.
      9.36934531e-01 8.78177047e-01 5.61622381e-01 4.06160802e-01
      4.37741637e-01 5.10300875e-01 4.79024261e-01 8.60903025e-01
      8.82134318e-01 8.94726872e-01 8.91375244e-01 8.95247996e-01
      8.85117054e-01 8.46918344e-01 8.22733045e-01 4.96838182e-01
      7.35562861e-01 6.67530358e-01 5.08056343e-01 0. 0. 0.</_>
    <_>
      0. 3.16528350e-01 1.05332047e-01 0. 5.15916109e-01 5.73368847e-01
      7.31243551e-01 7.68869877e-01 7.61344969e-01 7.57039547e-01
      7.81645834e-01 7.92313457e-01 7.53788650e-01 7.99007058e-01
      7.70572066e-01 7.25136459e-01 7.31016040e-01 7.55965114e-01 0.
      7.52776325e-01 0. 7.73432136e-01 2.34863177e-01 8.17443967e-01
      7.52976537e-01 8.22685063e-01 8.42906892e-01 8.82938504e-01 0.
      7.35749483e-01 6.54553235e-01 6.06449723e-01 3.85625035e-01
      5.51967919e-01 6.12305641e-01 0. 3.89395267e-01 0. 2.49198839e-01
      5.11598229e-01 6.33170128e-01 0. 2.79693276e-01 0. 7.70218909e-01
      7.90607631e-01 8.91251445e-01 1. 9.88854647e-01 9.83926177e-01
      8.74203622e-01 8.03348601e-01 5.62690079e-01 2.37752840e-01
      5.52423060e-01 0. 4.86838520e-01 8.26596320e-01 8.70054364e-01
      8.92551422e-01 8.88041019e-01 8.90521944e-01 8.71614695e-01
      8.39835644e-01 8.14481020e-01 0. 7.26218343e-01 5.93088150e-01
      4.99083668e-01 7.31765404e-02 1.07207544e-01 0.</_>
    <_>
      0. 0. 0. 3.24371189e-01 2.95650214e-01 2.11297646e-01
      5.57639897e-01 6.70688212e-01 9.62376118e-01 1. 7.23377705e-01
      7.31328070e-01 7.14091063e-01 7.34342635e-01 7.35831618e-01
      7.06176937e-01 6.92142606e-01 6.28115296e-01 5.91216743e-01
      6.80316269e-01 0. 2.35950172e-01 7.14536428e-01 2.53921568e-01
      7.60209739e-01 7.38154531e-01 7.72216260e-01 8.06712270e-01
      3.42897296e-01 5.37944496e-01 6.37565672e-01 5.30332208e-01
      5.97528338e-01 5.77024519e-01 2.58168817e-01 0. 0. 3.12358201e-01
      4.36566710e-01 0. 5.81126332e-01 2.42689997e-01 0. 6.44359708e-01
      7.13564515e-01 6.89204991e-01 7.94718385e-01 7.82907963e-01
      7.74658144e-01 7.72094131e-01 7.59358346e-01 5.76436102e-01
      4.07516122e-01 4.26201612e-01 0. 4.24206525e-01 1.56446621e-01
      3.71986717e-01 6.71121955e-01 7.09404588e-01 7.19778895e-01
      6.27191603e-01 7.00513124e-01 7.13483572e-01 6.91834450e-01
      6.54288888e-01 6.61445558e-01 5.76918304e-01 5.37464678e-01
      4.50782150e-01 0. 0.</_>
    <_>
      0. 5.14348567e-01 5.82180619e-01 6.63417578e-01 7.03406990e-01
      4.55866337e-01 7.63764441e-01 7.68390179e-01 7.79921412e-01
      7.75861144e-01 7.51768351e-01 7.14690864e-01 5.05033255e-01
      6.62343800e-01 6.76920712e-01 0. 0. 0. 0. 0. 0. 0. 0. 0.
      9.66401696e-01 1. 7.48124897e-01 7.67247200e-01 7.92724431e-01
      7.71769464e-01 7.59664834e-01 4.61163431e-01 0. 6.71896875e-01
      6.21465623e-01 5.43595672e-01 4.05640841e-01 3.06638658e-01 0.
      1.80180520e-01 0. 6.90270543e-01 7.03823984e-01 7.51646221e-01
      7.42906153e-01 0. 5.94731987e-01 5.98222196e-01 6.05260313e-01 0.
      8.05811644e-01 6.56284034e-01 6.48293316e-01 6.74235582e-01
      6.66716635e-01 6.34788096e-01 6.05951190e-01 7.54103005e-01
      7.00222433e-01 7.11144388e-01 7.07414329e-01 6.94177330e-01
      7.22600520e-01 7.41052747e-01 7.66115725e-01 7.70856559e-01
      7.60463655e-01 7.43606329e-01 0. 0. 0. 3.52229983e-01</_>
    <_>
      0. 0. 0. 0. 7.59666681e-01 6.94421530e-01 0. 0. 7.57802486e-01 1.
      9.76964891e-01 9.59646761e-01 9.48358774e-01 8.96593630e-01
      9.12895918e-01 0. 0. 0. 0. 0. 0. 0. 0. 0. 9.19713497e-01
      9.38642979e-01 9.48714674e-01 0. 9.37963545e-01 0. 0.
      7.51925826e-01 6.13259673e-01 0. 0. 0. 0. 0. 0. 6.88081563e-01
      5.11789024e-01 7.34947264e-01 7.03687370e-01 4.10111815e-01
      4.48929071e-01 5.19859314e-01 5.19189000e-01 5.99315345e-01
      7.63100564e-01 7.30193555e-01 7.02597737e-01 5.81447124e-01
      5.97677231e-01 0. 5.88626802e-01 0. 5.55790782e-01 5.33942163e-01
      6.86046362e-01 6.45737231e-01 6.30345702e-01 6.47741973e-01
      6.58910990e-01 6.78792179e-01 6.80234969e-01 7.13103354e-01
      7.52538323e-01 8.13133538e-01 0. 0. 0. 0.</_>
    <_>
      0. 0. 0. 5.03327608e-01 6.77147925e-01 8.45104456e-01 0.
      6.37219429e-01 9.45622742e-01 9.63835418e-01 9.89676952e-01
      9.66814637e-01 9.30237055e-01 8.91085923e-01 9.09594655e-01 0. 0.
      0. 0. 7.54265249e-01 7.58727551e-01 7.73688078e-01 0. 0.
      9.50356185e-01 9.36519742e-01 9.81232226e-01 1. 9.72798169e-01
      6.93752110e-01 4.16295707e-01 8.19968164e-01 8.03598702e-01
      6.50602698e-01 4.76345062e-01 0. 0. 0. 0. 0. 8.27162743e-01
      8.57146621e-01 8.39352846e-01 7.91669607e-01 6.39982224e-01
      6.09438360e-01 6.36979342e-01 6.98323548e-01 2.79629052e-01
      9.34502959e-01 4.38440740e-01 7.11403072e-01 7.29368031e-01
      6.83369517e-01 8.34173083e-01 7.94267476e-01 7.66111255e-01
      7.35383630e-01 7.45671153e-01 7.35411406e-01 6.81710958e-01
      7.01805174e-01 6.91233754e-01 7.41020203e-01 7.68410742e-01
      8.04676712e-01 8.14977944e-01 8.10674369e-01 0. 0. 0. 0.</_>
    <_>
      0. 0. 5.19583881e-01 7.04373717e-01 7.69710302e-01 8.24585795e-01
      0. 6.74028099e-01 9.47399676e-01 9.67139602e-01 9.35246170e-01
      9.38987076e-01 9.22116876e-01 8.95796657e-01 0. 6.32267654e-01
      6.60341024e-01 8.55987549e-01 0. 0. 0. 8.68777692e-01
      2.67002851e-01 0. 7.23937213e-01 9.58168685e-01 9.99486804e-01
      9.95990396e-01 7.83887625e-01 1. 6.74357831e-01 4.38749254e-01
      8.24958980e-01 7.70087957e-01 6.63286746e-01 4.77782100e-01 0. 0.
      0. 0. 8.13015342e-01 8.83513927e-01 9.01126027e-01 8.45777929e-01
      0. 0. 6.68269694e-01 6.71231508e-01 8.69446695e-01 9.79805231e-01
      7.34583259e-01 7.61692643e-01 7.50793278e-01 7.42202759e-01
      6.89553976e-01 0. 8.63545775e-01 7.92414725e-01 7.74671018e-01
      7.50451505e-01 7.68509686e-01 7.51430750e-01 7.64471471e-01
      7.88975894e-01 7.91075587e-01 8.23921859e-01 8.45434070e-01
      8.24419796e-01 0. 0. 0. 0.</_>
    <_>
      0. 0. 0. 4.76693749e-01 5.62240243e-01 6.75978184e-01
      7.27724493e-01 8.18158627e-01 8.55029643e-01 8.51823568e-01
      8.81207645e-01 8.63532543e-01 8.41519535e-01 8.54434967e-01 0.
      8.14042747e-01 0. 0. 0. 0. 0. 0. 0. 0. 0. 9.14181232e-01
      7.54293263e-01 9.73954618e-01 1. 9.74519372e-01 6.55194581e-01 0.
      7.96091020e-01 6.97518110e-01 6.11886621e-01 0. 0. 0. 0. 0.
      7.95015037e-01 5.63428462e-01 8.24908018e-01 3.39707255e-01
      6.13015890e-01 6.10028923e-01 3.07455271e-01 0. 5.10562301e-01
      8.91833067e-01 6.82190657e-01 6.91354930e-01 6.81024492e-01
      6.28090620e-01 7.79722154e-01 7.01173663e-01 7.09107459e-01
      6.78145528e-01 6.87808335e-01 6.62762105e-01 6.58661485e-01
      6.44373536e-01 6.34573281e-01 6.84561610e-01 7.13325262e-01
      4.70009297e-01 7.29680538e-01 7.09689260e-01 0. 0. 0. 0.</_>
    <_>
      0. 4.77568239e-01 6.45990968e-01 6.92909062e-01 7.52283752e-01
      8.17191720e-01 8.69509041e-01 8.56025815e-01 8.78540218e-01
      8.96483839e-01 8.66155922e-01 8.44294071e-01 8.31566215e-01
      5.77675045e-01 5.96171498e-01 7.46062219e-01 7.73043931e-01
      6.71867728e-01 0. 6.69010282e-01 6.33103073e-01 8.13898146e-01
      8.37639987e-01 8.15183163e-01 8.31961930e-01 0. 9.05653059e-01
      9.28509831e-01 9.59227324e-01 9.41122830e-01 6.63188875e-01
      6.43131077e-01 0. 7.98464119e-01 7.00938463e-01 6.54093087e-01
      4.85768974e-01 3.25033486e-01 0. 0. 1.73025489e-01 8.35467935e-01
      8.52303147e-01 8.90441775e-01 3.56245905e-01 3.25114489e-01
      6.92861617e-01 7.03179717e-01 8.25367928e-01 1. 6.24770999e-01
      8.12967420e-01 8.01821113e-01 7.85211504e-01 7.36550927e-01
      8.96263540e-01 8.58835995e-01 8.30211341e-01 8.10534418e-01
      8.00465226e-01 7.81277835e-01 7.87321508e-01 7.78196156e-01
      8.03379595e-01 8.28870118e-01 8.38708222e-01 7.94065654e-01
      7.73895085e-01 0. 1.65240631e-01 0. 0.</_>
    <_>
      0. 0. 0. 4.76046681e-01 5.57352841e-01 6.65275097e-01
      7.81177163e-01 0. 8.40739191e-01 8.57743740e-01 8.82233620e-01
      8.61534357e-01 8.69136274e-01 8.43351722e-01 7.98517883e-01
      8.21888804e-01 0. 0. 0. 0. 0. 0. 0. 0. 0. 9.13994491e-01
      9.68734622e-01 9.90323901e-01 9.65914786e-01 1. 6.90078318e-01 0.
      7.72816956e-01 8.42725515e-01 6.33446336e-01 0. 0. 0. 0.
      4.40659583e-01 8.37539375e-01 5.80525517e-01 8.93218279e-01
      3.31433088e-01 6.41858220e-01 6.38015389e-01 0. 4.87772197e-01
      8.99579883e-01 0. 7.15740502e-01 7.36928880e-01 6.79945230e-01
      6.28742218e-01 3.25759798e-01 7.69905686e-01 7.01458097e-01
      6.78773046e-01 6.53340042e-01 6.65696859e-01 6.62798405e-01
      6.49536848e-01 6.70209885e-01 6.87597930e-01 7.14234233e-01
      7.19333708e-01 7.08542764e-01 6.90339208e-01 0. 0. 0. 0.</_>
    <_>
      0. 0. 4.10203338e-01 6.53754354e-01 7.12112904e-01 7.75195122e-01
      8.25076759e-01 8.79518807e-01 8.91627073e-01 9.11348879e-01
      9.13323641e-01 8.89334083e-01 8.75446677e-01 8.52572143e-01 0.
      6.08355999e-01 8.18851888e-01 0. 0. 0. 0. 0. 0. 8.76817644e-01
      8.58468592e-01 9.35130239e-01 9.27126288e-01 9.75137770e-01 1.
      9.78255153e-01 9.63368595e-01 8.87360096e-01 8.08192313e-01
      7.60254502e-01 7.03168094e-01 3.86294752e-01 0. 0. 0. 0.
      8.80024016e-01 5.02636075e-01 9.39231396e-01 8.40865910e-01
      3.40660632e-01 6.58075988e-01 3.38005990e-01 7.12530255e-01
      3.43644470e-01 9.62470472e-01 7.82044232e-01 7.69897521e-01
      7.95788169e-01 7.43723273e-01 6.60426259e-01 8.47336590e-01
      7.78885603e-01 7.56088078e-01 7.30031610e-01 7.42151141e-01
      7.37577260e-01 7.42539346e-01 7.56850183e-01 7.53637671e-01
      7.82309055e-01 8.18631828e-01 7.97604740e-01 0. 0. 0. 0. 0.</_>
    <_>
      0. 0. 0. 0. 5.74590027e-01 7.18437314e-01 8.34295094e-01 0.
      9.38053668e-01 9.59213018e-01 7.78282404e-01 9.62715507e-01
      7.41926789e-01 9.03484881e-01 7.22840488e-01 8.84435058e-01 0. 0.
      0. 0. 0. 0. 0. 9.29622650e-01 9.12272394e-01 9.67901468e-01
      9.80606377e-01 1. 9.99041975e-01 9.53391612e-01 8.69698942e-01
      8.19193125e-01 7.85262048e-01 5.58198512e-01 0. 0. 0. 0. 0.
      7.71632493e-01 7.92698681e-01 8.05571377e-01 7.86300480e-01
      7.37925649e-01 5.62908947e-01 2.69174904e-01 5.56897700e-01
      6.94202423e-01 4.37117010e-01 8.81714582e-01 8.49322021e-01
      6.58824086e-01 6.40897572e-01 5.98366737e-01 7.78653622e-01
      7.03864634e-01 7.06255376e-01 6.80526793e-01 6.64147735e-01
      6.42623723e-01 6.57817006e-01 6.61823034e-01 6.75982177e-01
      6.73353434e-01 6.99678123e-01 7.10143864e-01 7.40703881e-01
      7.68575311e-01 7.39478886e-01 0. 0. 0.</_>
    <_>
      0. 0. 2.31669441e-01 6.38416469e-01 7.35427976e-01 7.99679041e-01
      8.67977023e-01 9.05771911e-01 9.16843832e-01 9.35974300e-01
      7.41815686e-01 9.41490889e-01 9.07533765e-01 8.70274365e-01
      8.89584541e-01 0. 0. 2.35939547e-01 0. 2.72736579e-01 0.
      1.99668512e-01 2.85339952e-01 2.11921841e-01 9.28276420e-01
      9.13645327e-01 9.79687810e-01 9.99471724e-01 1. 9.81034696e-01
      6.54827476e-01 0. 8.61971378e-01 6.97803438e-01 6.12069845e-01 0.
      0. 0. 0. 0. 8.33772242e-01 8.62643600e-01 8.79330754e-01
      8.29698801e-01 3.10256571e-01 6.40969038e-01 6.40657425e-01
      6.99964643e-01 3.18695128e-01 9.64420974e-01 0. 7.81073987e-01
      7.60669708e-01 7.14788556e-01 8.61560225e-01 7.82943666e-01
      7.85567701e-01 7.58227050e-01 7.40246773e-01 7.32316613e-01
      7.15076864e-01 7.34762073e-01 7.47481346e-01 7.69965410e-01
      7.71603286e-01 8.01392794e-01 8.19575965e-01 7.99739361e-01 0. 0.
      0. 0.</_>
    <_>
      0. 0. 0. 0. 6.88465238e-01 8.01869512e-01 9.22145784e-01
      9.61523354e-01 9.74636316e-01 9.95014489e-01 9.96596932e-01
      9.78669882e-01 9.35399592e-01 9.48760748e-01 8.84137869e-01
      9.08060133e-01 0. 0. 0. 0. 0. 0. 0. 9.32713926e-01 0.
      9.66531694e-01 1. 9.92267847e-01 9.92845714e-01 6.96439087e-01 0.
      8.15748870e-01 7.48606682e-01 5.27851641e-01 0. 0. 0. 0. 0.
      7.47798026e-01 8.05375457e-01 8.32134902e-01 7.27374196e-01
      7.97621429e-01 5.84903240e-01 5.81021667e-01 5.82202911e-01
      2.58054972e-01 8.23439360e-01 8.90318573e-01 0. 7.07367659e-01
      7.23864853e-01 6.78886354e-01 6.31966293e-01 7.85518110e-01
      7.50196397e-01 7.24491477e-01 7.08329380e-01 6.86356366e-01
      7.02369034e-01 7.06868529e-01 7.21632302e-01 7.18787968e-01
      7.20040858e-01 7.79218018e-01 8.20072114e-01 8.15895677e-01
      7.84835756e-01 0. 0. 0.</_>
    <_>
      0. 0. 0. 4.74581540e-01 5.98023236e-01 7.04548657e-01
      8.17617357e-01 8.35936964e-01 8.69175673e-01 8.90006542e-01
      6.88318133e-01 8.94251704e-01 8.80001426e-01 8.56081784e-01 0.
      8.01403940e-01 8.25804710e-01 0. 0. 0. 0. 0. 0. 0. 9.10104632e-01
      8.97131562e-01 9.57990825e-01 9.75940168e-01 1. 9.79331255e-01
      7.36298680e-01 6.68193400e-01 8.28228652e-01 7.68316031e-01
      5.99298656e-01 0. 0. 0. 0. 0. 8.40442121e-01 8.66571426e-01
      8.49413395e-01 0. 6.07553482e-01 6.04428649e-01 3.25995713e-01 0.
      9.08898771e-01 0. 7.50591576e-01 7.39106476e-01 6.85942054e-01
      6.38421834e-01 7.76965916e-01 7.41724074e-01 7.12562263e-01
      6.91493511e-01 6.67207837e-01 6.79271162e-01 6.76375091e-01
      6.82923853e-01 6.75631642e-01 6.98651910e-01 7.22960532e-01
      7.55021274e-01 7.44664252e-01 7.10486233e-01 0. 0. 0. 0.</_>
    <_>
      0. 0. 5.02522349e-01 6.25292659e-01 6.81978047e-01 0.
      4.81621981e-01 7.63711393e-01 7.76969075e-01 7.73177862e-01
      7.48162866e-01 7.31466711e-01 2.34604284e-01 6.74186707e-01
      6.91394210e-01 6.30908847e-01 0. 1.24032922e-01 0. 0.
      6.04093134e-01 6.46375954e-01 5.83976328e-01 2.48685956e-01
      2.64049441e-01 6.27829313e-01 6.70806527e-01 9.25284088e-01
      9.79948342e-01 9.34332550e-01 8.11260521e-01 4.78412032e-01
      4.13600951e-01 3.66353899e-01 0. 0. 0. 0. 6.08843029e-01
      7.23122656e-01 5.20017445e-01 5.33078194e-01 3.84854108e-01 1.
      9.70249295e-01 7.01767623e-01 7.00245082e-01 7.08588004e-01 0. 0.
      0. 0. 0. 0. 5.72119057e-01 5.72236121e-01 6.15518451e-01
      6.22099936e-01 6.30733013e-01 5.04792750e-01 5.70015550e-01
      5.57940364e-01 7.33047247e-01 7.54499674e-01 5.74098170e-01
      7.61193633e-01 6.37990713e-01 6.82384372e-01 6.99581742e-01
      4.77600098e-01 0. 0.</_>
    <_>
      0. 0. 4.44827050e-01 6.08740807e-01 7.02683210e-01 7.51012504e-01
      7.97255456e-01 8.03500831e-01 8.18559349e-01 7.89714217e-01
      7.88240552e-01 7.66182423e-01 7.00820088e-01 7.15478182e-01
      7.19736934e-01 6.23740077e-01 6.88532770e-01 6.44487381e-01 0.
      6.39307916e-01 6.81251347e-01 6.95603609e-01 6.22154713e-01
      5.27016521e-01 6.45880520e-01 6.97838783e-01 6.79628432e-01
      9.45340037e-01 1. 8.43584418e-01 5.04417121e-01 4.86150771e-01
      6.39833570e-01 7.33352363e-01 0. 0. 7.00443447e-01 0.
      3.61002922e-01 4.87608492e-01 7.27480531e-01 7.51786232e-01
      9.70216036e-01 9.88965929e-01 9.67746377e-01 7.15921819e-01
      6.89383268e-01 5.86468160e-01 5.11349261e-01 6.09656692e-01
      6.77922308e-01 6.14094317e-01 8.62150490e-02 0. 2.37184718e-01
      5.40959477e-01 6.24203980e-01 5.49302518e-01 6.51856959e-01
      6.30126715e-01 3.57682824e-01 5.98880887e-01 6.43370509e-01
      7.74980962e-01 7.76269257e-01 8.05595934e-01 7.92261422e-01
      1.93358302e-01 5.17359078e-01 5.40134549e-01 0. 0.</_>
    <_>
      0. 0. 4.53816324e-01 6.55562341e-01 7.49134243e-01 8.10559392e-01
      8.59383106e-01 8.66859317e-01 7.21582353e-01 8.53648186e-01
      8.25660169e-01 7.52387702e-01 7.62157440e-01 6.90377772e-01
      7.42004812e-01 5.94483852e-01 0. 6.07953727e-01 6.81105912e-01
      6.82132900e-01 6.85831964e-01 6.91615939e-01 6.00342274e-01
      6.99168861e-01 5.95802963e-01 6.87689960e-01 9.24127281e-01 1.
      9.72965002e-01 7.35989451e-01 5.22685826e-01 7.38814056e-01 0. 0.
      0. 0. 0. 0. 7.80947864e-01 4.36313987e-01 8.18392634e-01
      7.96631515e-01 7.10674405e-01 9.41531837e-01 9.10548627e-01
      5.23568571e-01 6.59543157e-01 6.65924311e-01 6.44313753e-01
      6.57509565e-01 6.60088360e-01 5.63176513e-01 4.48119119e-02 0.
      1.96571141e-01 0. 0. 5.95109046e-01 5.33168733e-01 5.47317624e-01
      6.48936927e-01 4.64921892e-01 6.24320209e-01 8.06362569e-01
      8.36213470e-01 8.42462420e-01 8.31973732e-01 3.35471660e-01
      5.60099661e-01 5.84502041e-01 0. 0.</_>
    <_>
      0. 0. 0. 5.72435975e-01 6.68570936e-01 7.27026641e-01
      7.88923621e-01 7.94029236e-01 8.06732118e-01 8.02774608e-01
      7.77819872e-01 7.60139942e-01 7.50249207e-01 0. 6.11149132e-01 0.
      0. 0. 0. 1.53930604e-01 0. 0. 6.77387595e-01 6.56454206e-01
      6.85677528e-01 6.91209316e-01 6.83375061e-01 1. 9.75316405e-01
      7.08582520e-01 7.16501415e-01 7.58221984e-01 4.60667431e-01 0. 0.
      0. 0. 2.46030748e-01 3.89200628e-01 4.64170039e-01 7.27109075e-01
      5.27920246e-01 5.88723779e-01 9.53708172e-01 9.44152832e-01
      6.83329761e-01 6.58674002e-01 5.63190222e-01 6.00466669e-01
      6.61078990e-01 5.98620236e-01 0. 1.64878294e-01 0. 1.96100473e-01
      5.47245383e-01 5.50586879e-01 5.90527296e-01 6.06886685e-01
      5.98535180e-01 5.66777647e-01 5.52314222e-01 6.88914776e-01
      7.57511973e-01 7.84357250e-01 7.89642096e-01 7.49514580e-01
      7.61506617e-01 6.38257742e-01 6.26433969e-01 6.84191167e-01 0.</_>
    <_>
      0. 0. 5.50231516e-01 6.61358237e-01 7.43255973e-01 6.90967500e-01
      7.92558968e-01 8.13624561e-01 8.26119304e-01 8.00334930e-01
      7.50868201e-01 7.54129171e-01 6.95051789e-01 7.06520081e-01
      2.72809714e-01 6.74306154e-01 5.68841279e-01 5.55819154e-01
      2.16623858e-01 0. 6.57143533e-01 6.29803240e-01 8.61962065e-02
      6.69145405e-01 6.52663052e-01 6.85117722e-01 6.69436395e-01
      9.02721345e-01 1. 9.78581429e-01 9.00244057e-01 6.56412125e-01
      7.17280447e-01 0. 0. 0. 0. 7.26024330e-01 3.61842215e-01 0.
      4.82761621e-01 7.92509854e-01 4.77705896e-01 0. 9.58798170e-01
      6.45823717e-01 6.92300320e-01 6.96805477e-01 6.86443031e-01
      5.04616201e-01 6.39865637e-01 5.84289312e-01 0. 2.19304428e-01
      5.52656651e-01 5.85620999e-01 5.90478420e-01 6.28585756e-01
      6.53557718e-01 6.65038764e-01 0. 3.81168813e-01 6.14464223e-01
      6.57578111e-01 8.01340163e-01 7.86903381e-01 7.68201649e-01
      7.79393256e-01 5.86019933e-01 7.02317655e-01 0. 0.</_>
    <_>
      0. 6.11722827e-01 6.85186863e-01 0. 7.25166798e-01 5.94013929e-01
      7.67981827e-01 8.22373688e-01 8.64006639e-01 8.09310913e-01
      6.58566058e-01 7.85335243e-01 7.02780128e-01 0. 0. 1.48229599e-01
      6.12758636e-01 0. 1.77143753e-01 0. 0. 0. 6.35449588e-01
      6.14905715e-01 6.45762265e-01 5.54917276e-01 4.76500511e-01
      8.95247936e-01 9.46333885e-01 9.49982345e-01 8.48925054e-01
      4.36050981e-01 3.73306453e-01 3.27683628e-01 1.72034323e-01 0. 0.
      0. 0. 0. 0. 8.80244613e-01 8.95084023e-01 9.46181357e-01 1.
      9.72980022e-01 6.70780063e-01 7.03187346e-01 7.42657244e-01
      7.56458580e-01 5.69068074e-01 7.03157127e-01 6.59424186e-01 0. 0.
      6.74421132e-01 6.07379079e-01 5.43613315e-01 4.50889200e-01
      3.84841591e-01 0. 7.81974614e-01 7.91517556e-01 7.32662082e-01
      8.09486151e-01 8.64170909e-01 3.11817914e-01 0. 6.13322079e-01
      6.35892510e-01 7.04189479e-01 0.</_>
    <_>
      0. 0. 3.82202834e-01 5.48081636e-01 6.43884003e-01 6.93156302e-01
      6.05448067e-01 7.83845603e-01 6.99251950e-01 8.00383687e-01
      6.37704968e-01 7.81962574e-01 7.60415077e-01 6.18814826e-01
      6.88889325e-01 6.26913071e-01 6.53880835e-01 0. 0. 2.16277748e-01
      2.58222342e-01 0. 0. 0. 7.09225595e-01 7.13636518e-01
      7.04338610e-01 9.41508770e-01 9.96339262e-01 1. 6.87159777e-01
      7.00861454e-01 0. 0. 0. 0. 0. 2.35574514e-01 4.29601669e-01
      8.34559143e-01 7.71782756e-01 8.69850218e-01 9.00764763e-01
      9.24659133e-01 8.61908674e-01 6.36018336e-01 6.62726939e-01
      6.65375233e-01 6.51040256e-01 6.31298661e-01 5.62269628e-01 0.
      1.72079325e-01 0. 5.10746360e-01 5.49942136e-01 5.15609622e-01
      3.64634007e-01 5.79516411e-01 5.07623494e-01 0. 4.21984345e-01
      6.88308179e-01 7.08958328e-01 7.09997296e-01 7.38994539e-01
      7.24299371e-01 7.19544053e-01 0. 4.71217871e-01 6.65881455e-01 0.</_>
    <_>
      0. 4.53961104e-01 6.70053720e-01 4.64694768e-01 6.65418923e-01
      5.32255113e-01 5.47401488e-01 7.60904014e-01 8.31201971e-01
      5.70902944e-01 7.97318578e-01 7.26308703e-01 7.33671129e-01
      4.71545815e-01 0. 4.90631700e-01 0. 0. 4.61765230e-01
      4.25578356e-01 0. 0. 6.32340729e-01 6.10590935e-01 4.80894148e-01
      6.57388985e-01 6.67243063e-01 8.87747824e-01 9.64987457e-01
      9.69383478e-01 8.08323920e-01 8.69715929e-01 8.09603214e-01
      3.47242177e-01 2.68849462e-01 7.65757620e-01 7.97183752e-01
      5.81643701e-01 6.20393574e-01 0. 4.27478135e-01 4.73539472e-01
      5.36156833e-01 0. 1. 9.17423129e-01 6.89244807e-01 7.20437706e-01
      7.28784442e-01 7.23493874e-01 5.48692942e-01 6.81252062e-01
      2.55614191e-01 1.09428473e-01 2.51649469e-01 5.72618902e-01
      6.50506616e-01 6.56735122e-01 6.30407870e-01 6.66847825e-01
      6.99208498e-01 6.87585592e-01 7.07971096e-01 7.01939821e-01
      3.72315705e-01 8.55540633e-01 8.12762499e-01 5.81173599e-01
      5.66671848e-01 6.90398335e-01 0. 0.</_>
    <_>
      0. 4.97199357e-01 6.87731385e-01 0. 0. 6.24782443e-01
      6.91676378e-01 6.78217351e-01 8.80162358e-01 8.51194978e-01
      7.71579981e-01 7.77980983e-01 7.56383061e-01 7.68466651e-01
      6.34870470e-01 6.93943620e-01 6.47718132e-01 0. 0. 0. 0.
      4.89231467e-01 6.65282130e-01 6.29846632e-01 6.26329541e-01
      6.65034473e-01 6.34073019e-01 8.93282235e-01 1. 3.34114820e-01
      5.30648291e-01 4.59996939e-01 3.94695938e-01 3.11082244e-01 0. 0.
      0. 5.97486794e-01 0. 8.08852553e-01 4.25868869e-01 4.87768292e-01
      0. 0. 9.73009109e-01 9.62761283e-01 3.76416206e-01 7.28300989e-01
      7.37013161e-01 7.31585264e-01 5.47073781e-01 6.87752783e-01
      6.30891979e-01 0. 0. 0. 6.19828820e-01 6.70777500e-01
      2.87494183e-01 5.87212503e-01 6.53901279e-01 2.33357087e-01
      6.01798713e-01 8.67230713e-01 9.19977665e-01 6.83290243e-01
      6.91276550e-01 2.64294207e-01 0. 6.05851769e-01 0. 0.</_>
    <_>
      0. 0. 4.79317814e-01 7.49289215e-01 7.14355052e-01 0.
      6.68723166e-01 7.07219660e-01 9.08999145e-01 9.03318763e-01
      8.74640942e-01 8.08392048e-01 7.68360078e-01 7.81918228e-01 0.
      6.11670971e-01 6.72051907e-01 6.95822299e-01 6.91705465e-01
      6.56391323e-01 5.15705228e-01 5.92699468e-01 6.89407110e-01
      6.82104051e-01 6.97996974e-01 6.84322357e-01 9.27252233e-01
      9.46969330e-01 1. 9.76700783e-01 4.21138078e-01 6.77892208e-01
      7.43629813e-01 0. 0. 0. 6.46788418e-01 0. 7.58082092e-01
      7.75189281e-01 4.51972693e-01 5.11826217e-01 7.54015088e-01
      9.05825257e-01 9.26265001e-01 8.12793851e-01 6.32767797e-01
      6.65521085e-01 6.44798815e-01 6.56718433e-01 6.10987663e-01
      5.99333346e-01 5.54659903e-01 0. 0. 1.75242588e-01 5.05987287e-01
      5.91335416e-01 4.07563388e-01 6.60409033e-01 6.75246358e-01
      4.98901606e-01 5.11398613e-01 7.66156614e-01 8.68900716e-01
      8.52059722e-01 8.81553769e-01 3.72307748e-01 8.16570148e-02
      7.21364737e-01 5.90399683e-01 0.</_>
    <_>
      0. 0. 4.45401430e-01 6.92524791e-01 6.55825496e-01 4.75552022e-01
      7.12526023e-01 7.50913203e-01 8.25300574e-01 8.15111995e-01
      7.89906025e-01 7.65543878e-01 7.73293197e-01 7.65832901e-01
      7.32658327e-01 6.58886790e-01 0. 2.17859775e-01 0. 2.55308658e-01
      6.42068803e-01 6.48626506e-01 5.00413895e-01 6.95374370e-01
      6.26577675e-01 4.95455801e-01 3.27874780e-01 9.18817997e-01 1.
      5.46338975e-01 5.56132972e-01 8.26180696e-01 8.44780326e-01
      7.81886578e-01 8.43643606e-01 0. 0. 8.15409243e-01 8.24976087e-01
      8.31631780e-01 5.00367403e-01 9.39215243e-01 9.55736756e-01
      9.59805071e-01 9.49004114e-01 6.67916536e-01 6.92807376e-01
      6.96736157e-01 6.84068680e-01 0. 6.31741881e-01 0. 2.09054410e-01
      1.64655373e-01 0. 0. 5.47794938e-01 5.61268806e-01 5.24426401e-01
      4.99738544e-01 6.67818844e-01 6.87231123e-01 7.30471075e-01
      7.25043237e-01 7.79783666e-01 8.09103668e-01 7.95503199e-01
      7.39996612e-01 6.75113440e-01 5.42187989e-01 0. 0.</_>
    <_>
      0. 0. 4.49933469e-01 6.62776470e-01 7.23226726e-01 7.89333880e-01
      8.05888057e-01 8.31400454e-01 7.42306709e-01 8.18008840e-01
      7.89863229e-01 0. 7.27775335e-01 0. 0. 0. 0. 0. 0. 0. 0.
      6.49634182e-01 6.10677719e-01 0. 6.70832455e-01 6.90935433e-01
      6.79818332e-01 8.71097863e-01 9.56306338e-01 0. 0. 7.84997225e-01
      8.97665799e-01 8.84668112e-01 0. 8.55913043e-01 8.45829129e-01
      8.43345881e-01 0. 4.11443591e-01 3.33606333e-01 5.11839986e-01
      4.00505990e-01 1. 9.81704473e-01 8.94014895e-01 7.21277297e-01
      6.95083618e-01 7.02983141e-01 6.95942879e-01 6.25432253e-01
      1.40248150e-01 0. 0. 0. 5.79373419e-01 5.83705127e-01
      4.24911678e-01 4.34545010e-01 2.30821490e-01 0. 5.04341900e-01
      7.05482304e-01 6.94840908e-01 3.82179141e-01 6.46499634e-01
      6.79629505e-01 6.93091929e-01 6.95073009e-01 6.81289256e-01 0. 0.</_>
    <_>
      0. 0. 4.46236581e-01 6.16814077e-01 6.77481472e-01 7.28309214e-01
      4.96076912e-01 7.99815893e-01 8.13086212e-01 8.08478475e-01
      7.51908600e-01 7.55219162e-01 7.40502656e-01 0. 0. 0. 0. 0. 0. 0.
      6.71196043e-01 5.93510211e-01 6.88755333e-01 6.63561761e-01
      6.94899857e-01 7.00250924e-01 6.91439629e-01 9.10201252e-01
      9.95216370e-01 1. 0. 4.84380126e-01 4.67129409e-01 3.27879876e-01
      0. 0. 5.86187720e-01 6.24935210e-01 7.29027465e-02 4.36506957e-01
      4.84098226e-01 5.46930552e-01 9.34075058e-01 9.74013925e-01
      9.63398695e-01 8.69943738e-01 7.00552106e-01 7.05864727e-01
      6.82682753e-01 6.41110718e-01 6.07002020e-01 0. 0. 0. 0.
      5.63544810e-01 6.07180893e-01 2.50200361e-01 1.35588139e-01
      4.87922370e-01 6.64356172e-01 4.38152999e-01 5.72172761e-01
      7.92528033e-01 6.83037162e-01 8.00102890e-01 7.88740814e-01
      4.86699849e-01 6.10833943e-01 7.08300173e-01 0. 0.</_>
    <_>
      0. 4.75196749e-01 6.37202203e-01 6.44973814e-01 7.03142285e-01
      7.52202868e-01 7.99940228e-01 8.07118237e-01 7.98922420e-01
      7.69139409e-01 6.30675137e-01 6.64605856e-01 6.74580634e-01
      6.37069225e-01 5.85915923e-01 6.79735899e-01 6.69143975e-01
      1.11412354e-01 0. 0. 5.36596000e-01 5.50964892e-01 6.47055864e-01
      6.25685811e-01 2.13234231e-01 6.60740077e-01 6.71625078e-01
      9.37893748e-01 9.91803825e-01 1. 8.16744804e-01 4.67045844e-01
      4.49748516e-01 7.02981591e-01 7.31272995e-01 8.00382853e-01
      7.93425441e-01 7.15948641e-01 0. 0. 6.32089853e-01 6.80946946e-01
      9.34263170e-01 9.92168605e-01 9.75596905e-01 9.46231484e-01
      6.99566603e-01 7.32661784e-01 7.21139312e-01 6.84874892e-01
      6.33999705e-01 0. 0. 0. 0. 5.80471396e-01 6.63241208e-01
      2.78099090e-01 6.88411295e-01 6.64961159e-01 6.62915945e-01
      7.15231299e-01 6.95300996e-01 7.45801151e-01 8.29146445e-01
      8.34866405e-01 6.20511770e-01 7.52295017e-01 7.70159900e-01
      7.42423952e-01 6.84421182e-01 0.</_>
    <_>
      0. 0. 0. 0. 6.40198588e-01 7.19905853e-01 7.34245256e-02
      6.40382707e-01 7.11271644e-01 8.85097325e-01 8.58354449e-01
      8.41364324e-01 6.41515136e-01 6.53675735e-01 7.68559098e-01 0. 0.
      7.18442440e-01 6.80209339e-01 7.15493977e-01 3.23421746e-01
      5.83167851e-01 7.49057889e-01 7.40279615e-01 7.55233884e-01
      7.28300691e-01 1. 9.68338490e-01 8.41008365e-01 5.13642192e-01 0.
      7.27047563e-01 5.84985256e-01 6.07132137e-01 0. 3.31183314e-01 0.
      7.97019064e-01 7.99547791e-01 4.85697865e-01 4.95068789e-01
      7.80042112e-01 8.89698148e-01 8.93244922e-01 8.53728294e-01
      6.15392089e-01 5.90434730e-01 5.94538629e-01 5.84061742e-01
      5.35147846e-01 4.71335590e-01 0. 0. 0. 7.44674504e-02 0.
      5.09118140e-01 5.14956534e-01 5.23197651e-01 0. 5.77689171e-01
      5.65867841e-01 5.86704314e-01 6.32442117e-01 6.58536375e-01
      7.43032157e-01 7.83662617e-01 6.69582605e-01 6.54861450e-01
      6.75686061e-01 6.21137202e-01 5.01577675e-01</_>
    <_>
      0. 0. 0. 5.68582356e-01 7.48781860e-01 6.94616914e-01
      7.60061860e-01 8.48220348e-01 8.39654028e-01 8.31981838e-01
      8.06180418e-01 7.85709500e-01 7.42684066e-01 7.54523098e-01
      7.06276596e-01 0. 0. 0. 6.17790461e-01 6.54898942e-01
      2.52977818e-01 6.68521225e-01 6.41647577e-01 5.16001761e-01
      6.95719123e-01 7.01693416e-01 6.42354310e-01 9.73856449e-01 1.
      8.83458257e-01 8.93828630e-01 3.66379887e-01 3.50025803e-01 0. 0.
      0. 0. 5.77904463e-01 6.17986262e-01 4.00988996e-01 8.37874949e-01
      8.63511622e-01 8.29906821e-01 9.19056594e-01 9.10835683e-01
      6.44235134e-01 6.45048499e-01 6.72790885e-01 6.58996761e-01
      6.55222118e-01 6.40231729e-01 5.80671906e-01 0. 0. 0. 0.
      5.60257733e-01 6.02672040e-01 4.24750805e-01 3.20807129e-01
      6.63662195e-01 6.49627745e-01 5.58870316e-01 6.06108606e-01
      8.13364744e-01 8.16865385e-01 8.02783906e-01 7.96909571e-01
      2.07814798e-01 7.40154564e-01 5.70441306e-01 0.</_>
    <_>
      0. 3.56285781e-01 4.75636154e-01 6.41626418e-01 6.99625552e-01
      7.48818636e-01 6.92521989e-01 8.35341692e-01 8.25450599e-01
      8.16338122e-01 0. 0. 7.02428341e-01 0. 6.87604189e-01
      5.90072572e-01 6.64665818e-01 6.50146663e-01 5.69230914e-01
      5.29625118e-01 6.53570175e-01 6.23461783e-01 2.30526984e-01
      6.46010637e-01 5.03981292e-01 6.81952953e-01 6.73387110e-01
      9.42101002e-01 1. 5.11987150e-01 4.58221912e-01 7.30394244e-01
      8.20220292e-01 7.70556986e-01 0. 7.33337939e-01 7.67333686e-01 0.
      0. 3.88749629e-01 4.73192155e-01 4.99603420e-01 5.51001191e-01
      5.89226782e-01 9.43278074e-01 8.52089643e-01 6.86776936e-01
      7.23396420e-01 6.16050839e-01 0. 6.46789849e-01 5.46269894e-01
      1.69179887e-01 2.07266286e-01 0. 5.92917979e-01 5.97179592e-01
      6.41731262e-01 2.94702321e-01 6.73701763e-01 6.53234363e-01
      6.89657211e-01 5.39384246e-01 8.06285024e-01 8.34624946e-01
      8.16719770e-01 6.35299563e-01 7.55208015e-01 7.72567034e-01
      7.43823826e-01 0. 0.</_>
    <_>
      0. 4.73501265e-01 5.54333031e-01 6.44565880e-01 7.03316212e-01
      7.52734959e-01 7.83472478e-01 7.87493408e-01 8.00844014e-01
      7.68505156e-01 7.15383112e-01 7.44807124e-01 5.59334457e-01
      6.57887399e-01 6.75071836e-01 5.24962485e-01 0. 0. 4.98949051e-01
      0. 0. 6.31547093e-01 6.04653299e-01 6.17478311e-01 5.97466648e-01
      5.49180806e-01 6.56343877e-01 9.19283688e-01 9.75127101e-01
      9.32956338e-01 5.26794970e-01 8.71424019e-01 7.35720754e-01
      3.93324971e-01 3.46247911e-01 0. 0. 0. 2.95976829e-02 0.
      7.12809026e-01 4.94292021e-01 2.52000153e-01 1. 9.82903183e-01
      9.53276932e-01 7.33037293e-01 6.53356671e-01 7.46351659e-01
      6.20106339e-01 6.22607112e-01 0. 1.22113399e-01 0. 0.
      2.34438166e-01 2.76984870e-01 6.78680837e-01 6.52201474e-01
      5.07708192e-01 6.96808696e-01 5.96134543e-01 6.94810927e-01
      8.28426957e-01 8.29020023e-01 8.34684789e-01 0. 6.65294111e-01
      5.97180307e-01 7.05122471e-01 6.45880222e-01 0.</_>
    <_>
      0. 2.08904639e-01 3.83527845e-01 4.90732223e-01 5.83281457e-01
      6.40299261e-01 7.01118588e-01 6.88225687e-01 7.26581156e-01
      7.43306041e-01 7.18837321e-01 5.99361062e-01 5.39870560e-01
      6.30616188e-01 6.48032069e-01 1.25017136e-01 4.41699684e-01
      4.68754828e-01 5.08948490e-02 0. 0. 4.74295735e-01 6.02222264e-01
      6.60016418e-01 6.74963474e-01 6.14551723e-01 6.93632662e-01
      7.16169298e-01 9.86186862e-01 9.91520524e-01 8.08728576e-01
      7.74452150e-01 8.67075384e-01 8.62297356e-01 0. 0. 0.
      2.39323869e-01 3.11821848e-01 4.53278512e-01 5.36667824e-01
      5.47612369e-01 5.91322124e-01 1. 9.16987300e-01 7.18613088e-01
      7.17225432e-01 7.21461654e-01 6.81214690e-01 6.92533493e-01
      2.45925784e-01 2.33895645e-01 1.58748120e-01 2.26491690e-01
      5.68861544e-01 6.03413105e-01 5.04171729e-01 6.18259430e-01
      5.93959093e-01 6.17595613e-01 4.94104087e-01 5.88341534e-01
      7.23921359e-01 7.43404508e-01 7.44258046e-01 7.27420807e-01
      4.88537967e-01 5.78624487e-01 5.64102948e-01 6.16352916e-01 0. 0.</_>
    <_>
      0. 0. 4.80287164e-01 6.39946461e-01 7.31274068e-01 7.91429579e-01
      6.74805045e-01 8.58394861e-01 8.69323492e-01 8.63493621e-01
      8.36640894e-01 8.12946439e-01 7.68695116e-01 5.46459556e-01
      7.15348125e-01 0. 0. 6.04645491e-01 0. 1.52527392e-01
      6.79550588e-01 6.50938213e-01 2.75105149e-01 2.88032681e-01
      7.00731218e-01 7.04054117e-01 6.94384992e-01 9.74208057e-01 1.
      5.61735630e-01 4.89274383e-01 4.20558035e-01 0. 0. 0.
      5.65653145e-01 6.72248125e-01 0. 6.79295897e-01 4.25887764e-01
      2.38087609e-01 5.32487571e-01 8.62586558e-01 9.34658825e-01
      9.25427020e-01 8.38844180e-01 6.54170752e-01 6.57713234e-01
      6.45226300e-01 6.59242988e-01 6.28883719e-01 5.34946263e-01
      1.85063273e-01 6.94525987e-02 0. 0. 5.53385735e-01 6.02997720e-01
      4.95985895e-01 5.55722296e-01 4.88473833e-01 0. 7.53724396e-01
      7.50020146e-01 8.29439998e-01 7.60623813e-01 8.42353404e-01
      2.89978594e-01 7.53724396e-01 7.75057435e-01 7.54106939e-01 0.</_>
    <_>
      0. 4.86524850e-01 6.92200124e-01 7.47595370e-01 4.71491516e-01
      5.22272885e-01 8.21077406e-01 8.28628838e-01 8.20310771e-01
      7.59956002e-01 8.14982057e-01 0. 7.26882279e-01 6.73005462e-01
      6.90402567e-01 6.49999559e-01 6.79571033e-01 5.94964385e-01
      6.68991625e-01 0. 6.36648118e-01 5.67841053e-01 6.66897655e-01
      6.81275070e-01 5.39268613e-01 6.81358993e-01 6.61960006e-01
      9.94295597e-01 9.95586455e-01 1. 8.97434652e-01 3.41180563e-01
      6.25924706e-01 7.25744128e-01 3.13644528e-01 0. 0. 0. 0.
      3.92568171e-01 4.02805090e-01 4.16549742e-01 7.86674976e-01
      3.65418673e-01 9.80960786e-01 9.75214362e-01 6.94330096e-01
      7.31538296e-01 7.09426999e-01 7.23354518e-01 6.89287066e-01
      6.75080478e-01 1.26016855e-01 2.03772843e-01 0. 6.38279438e-01
      6.42630756e-01 6.88101828e-01 4.57579225e-01 3.45601797e-01
      3.97634596e-01 5.79532325e-01 6.34513021e-01 8.50404263e-01
      7.65803695e-01 8.56854498e-01 8.45062196e-01 0. 5.77573240e-01
      7.61466622e-01 7.01756120e-01 0.</_>
    <_>
      0. 0. 0. 0. 6.67192221e-01 0. 4.21478093e-01 0. 0. 5.22488415e-01
      9.56419289e-01 4.63051945e-01 9.70604897e-01 1. 0. 1.01852216e-01
      0. 0. 0. 0. 0. 6.39294565e-01 9.41156089e-01 8.59465778e-01
      8.18942666e-01 0. 0. 8.53004575e-01 6.67923450e-01 2.97996610e-01
      6.85476482e-01 3.70527655e-01 0. 0. 0. 5.94969951e-02
      1.46418661e-01 0. 0. 0. 6.06109023e-01 0. 5.56275189e-01 0. 0.
      7.77772844e-01 9.03040648e-01 0. 8.01267266e-01 0. 6.45626247e-01
      1.74786747e-01 7.04672337e-01 0. 0. 6.02609098e-01 6.99108601e-01
      0. 4.42569494e-01 5.53342402e-01 7.86510289e-01 3.96000534e-01
      8.84102881e-01 5.70713103e-01 8.79304767e-01 6.99108601e-01
      7.70204604e-01 5.29909849e-01 0. 5.77515125e-01 0. 0.</_>
    <_>
      0. 0. 0. 0. 0. 4.32782650e-01 3.56967270e-01 4.72753406e-01 0.
      7.61560440e-01 8.20440054e-01 8.83463442e-01 9.02097523e-01
      9.74495769e-01 7.47106016e-01 7.15912282e-01 6.93636417e-01
      5.97147465e-01 0. 0. 0. 0. 0. 0. 6.55990660e-01 1. 6.25464916e-01
      9.16110635e-01 0. 4.44063783e-01 0. 0. 6.66867137e-01 0. 0. 0. 0.
      0. 6.20774627e-01 4.53993618e-01 0. 6.64164722e-01 0.
      6.27378881e-01 7.94689476e-01 7.31291175e-01 9.10860419e-01
      8.56108725e-01 8.77975285e-01 6.49561942e-01 0. 6.18173778e-01
      5.97147405e-01 7.63673067e-01 7.56228149e-01 0. 0. 6.04444146e-01
      7.89533556e-01 5.52089751e-01 8.53742063e-01 7.80032456e-01
      8.26174259e-01 0. 6.37744784e-01 7.03612030e-01 7.73084462e-01
      7.30881214e-01 0. 5.89379072e-01 4.05148238e-01 0.</_>
    <_>
      0. 0. 0. 0. 6.29628956e-01 2.86968529e-01 0. 3.99831414e-01 0. 0.
      9.22380149e-01 6.86703563e-01 9.39513266e-01 9.70880866e-01
      6.72778130e-01 0. 0. 0. 0. 0. 0. 0. 0. 6.64753854e-01 1.
      9.28019285e-01 9.74941134e-01 0. 0. 0. 5.68149686e-01
      6.41938090e-01 0. 0. 0. 0. 0. 0. 3.27937573e-01 5.90534985e-01
      5.09353638e-01 0. 6.49211586e-01 6.92001462e-01 0. 7.97297418e-01
      0. 9.21167314e-01 5.69590926e-01 8.27031255e-01 6.02158368e-01
      7.58591235e-01 3.09702992e-01 4.74034607e-01 0. 3.01162153e-01 0.
      7.41197824e-01 3.15425962e-01 5.01092255e-01 6.11005306e-01 0.
      8.83586109e-01 8.71867716e-01 5.76355159e-01 5.24208844e-01
      4.08133745e-01 0. 0. 0. 6.11371160e-01 0.</_>
    <_>
      0. 4.97476727e-01 2.59608716e-01 5.87030649e-01 4.31845129e-01
      5.32552361e-01 6.37263894e-01 6.75191939e-01 7.19964325e-01
      6.57988131e-01 8.25430036e-01 5.47909617e-01 7.89773107e-01
      8.58457267e-01 7.18588650e-01 0. 5.20944357e-01 0. 0. 0.
      5.15263855e-01 6.85521603e-01 7.82252192e-01 0. 8.41140866e-01
      8.13104570e-01 8.60612094e-01 5.75154722e-01 7.43165910e-01 0.
      5.34217238e-01 4.25989062e-01 4.98292089e-01 0. 1.44799709e-01
      2.23020554e-01 0. 0. 0. 5.53438485e-01 4.76214319e-01
      5.76740563e-01 6.09631836e-01 3.63516986e-01 6.98391497e-01
      7.51551151e-01 5.84301472e-01 8.70082259e-01 1. 3.17707002e-01 0.
      7.17705488e-01 6.97373569e-01 6.06460631e-01 0. 0. 2.05988333e-01
      0. 8.80747676e-01 9.07226324e-01 6.91124320e-01 9.77651775e-01
      9.55710113e-01 6.08965576e-01 7.78480768e-01 0. 0. 0. 0. 0. 0. 0.</_>
    <_>
      0. 0. 0. 4.17043239e-01 5.95766306e-01 6.99367225e-01 0.
      4.77335364e-01 7.04416811e-01 0. 9.86362696e-01 4.09693927e-01 1.
      9.16100860e-01 0. 8.55658889e-01 6.75990105e-01 0. 0. 0. 0.
      3.38651121e-01 0. 7.00813711e-01 6.61414385e-01 9.56258595e-01
      5.25550544e-01 8.71779919e-01 0. 7.05673575e-01 4.78659421e-01
      6.61414385e-01 0. 0. 0. 0. 1.64589688e-01 0. 0. 0. 5.96827686e-01
      4.41517472e-01 0. 4.77865428e-01 7.04776168e-01 8.10844421e-01 0.
      5.24344921e-01 7.72469640e-01 9.15409684e-01 6.23384595e-01
      2.58527666e-01 0. 7.41022587e-01 4.90673393e-01 0. 0. 0.
      7.76066363e-01 6.22775078e-01 8.42239559e-01 9.54138279e-01
      4.08456177e-01 9.25585806e-01 0. 6.38630450e-01 4.76539135e-01 0.
      4.40081656e-01 5.17051876e-01 0. 0.</_>
    <_>
      0. 0. 0. 0. 0. 6.28930330e-01 3.87365431e-01 4.91796196e-01
      7.51390100e-01 8.02855074e-01 6.41012669e-01 9.77485418e-01
      9.34195697e-01 1. 0. 0. 8.87242198e-01 3.30229104e-01
      8.67024660e-01 0. 0. 0. 3.47668737e-01 6.90142870e-01
      9.63880837e-01 9.34195697e-01 8.08474958e-01 0. 4.76732880e-01
      6.43167317e-01 3.20566356e-01 3.87365431e-01 0. 0. 0. 0.
      3.46581757e-01 0. 0. 2.74948418e-01 4.43380803e-01 0.
      5.76338172e-01 0. 6.18240893e-01 0. 7.19583929e-01 0.
      7.93558776e-01 0. 6.52678728e-01 1.38751715e-01 5.30429006e-01 0.
      4.42528993e-01 0. 0. 0. 6.98475420e-01 7.23418832e-01
      5.83495021e-01 7.93558776e-01 0. 8.85113239e-01 0. 7.25848734e-01
      0. 4.72226709e-01 0. 4.43380803e-01 0. 0.</_>
    <_>
      0. 0. 0. 0. 0. 6.42231882e-01 5.74568570e-01 0. 5.50916433e-01 0.
      6.52796090e-01 9.20659602e-01 1. 7.96392560e-01 8.35038245e-01
      7.40293741e-01 7.22318769e-01 6.37272179e-01 0. 0. 0. 0. 0.
      6.76662862e-01 9.74496901e-01 6.79458439e-01 7.83823431e-01
      8.80204022e-01 6.16433501e-01 7.79289067e-01 7.35098839e-01
      5.28936028e-01 0. 0. 0. 0. 0. 4.62429613e-01 3.87896687e-01
      5.47690630e-01 6.39144599e-01 4.98122364e-01 0. 0. 7.82033861e-01
      5.13680041e-01 5.65896749e-01 7.87390172e-01 5.79353750e-01
      8.11056018e-01 7.78230727e-01 8.22859049e-01 4.96382028e-01 0.
      6.38628602e-01 0. 6.41654074e-01 2.71694064e-01 0. 8.39173138e-01
      8.00315380e-01 8.36911261e-01 3.39396656e-01 5.50392568e-01
      8.14048111e-01 7.18543589e-01 6.14491820e-01 0. 6.44025922e-01
      6.17101550e-01 5.25104702e-01 4.39400136e-01</_>
    <_>
      0. 0. 0. 0. 5.24634600e-01 0. 7.22202659e-01 3.19488913e-01
      8.00696611e-01 5.78267097e-01 9.51608419e-01 9.61578012e-01
      6.47233605e-01 0. 9.86491561e-01 6.52432501e-01 0. 0. 0. 0.
      9.30166960e-01 9.41779375e-01 9.82078552e-01 9.11550522e-01
      9.41656291e-01 9.11952913e-01 1. 8.36542308e-01 8.88622344e-01
      6.25234842e-01 7.47837245e-01 6.44453645e-01 0. 0. 0. 0. 0. 0.
      5.61360955e-01 2.63161868e-01 6.66599989e-01 5.95406473e-01
      6.25481784e-01 0. 2.24010170e-01 8.61082852e-01 8.63187730e-01 0.
      8.78308356e-01 7.37334251e-01 8.74453366e-01 6.10455453e-01
      8.28938246e-01 8.15721154e-01 6.58792794e-01 6.59524977e-01
      8.17494154e-01 8.31844330e-01 6.86263978e-01 8.79406631e-01
      8.45517457e-01 6.13798440e-01 8.24103355e-01 8.71534288e-01
      8.70559096e-01 0. 6.73629403e-01 0. 0. 6.78796828e-01 0. 0.</_>
    <_>
      0. 0. 0. 0. 0. 0. 6.81577504e-01 6.21017218e-01 4.08567846e-01 0.
      8.05365920e-01 9.58138585e-01 8.18483233e-01 1. 9.69948053e-01
      8.55601370e-01 7.01544881e-01 0. 0. 0. 0. 0. 7.21672297e-01
      9.69114721e-01 9.37133729e-01 8.76465201e-01 5.07653594e-01
      9.02965188e-01 0. 5.60989797e-01 7.16257751e-01 5.23046315e-01 0.
      0. 0. 0. 0. 5.25567889e-01 6.02405906e-01 0. 4.83191043e-01
      6.39201760e-01 6.06295049e-01 7.02591121e-01 7.42243469e-01
      7.34484315e-01 6.86088741e-01 5.43702543e-01 7.58686125e-01
      7.25630701e-01 7.89430439e-01 0. 5.24028301e-01 0. 4.44720954e-01
      0. 3.05259943e-01 0. 0. 4.77225751e-01 8.20902586e-01
      7.97760248e-01 5.44916987e-01 7.86540806e-01 7.87753820e-01
      3.93176824e-01 4.25627343e-02 6.08109474e-01 5.76359808e-01 0. 0.
      0.</_>
    <_>
      0. 0. 0. 0. 3.82976741e-01 7.09813237e-01 6.42754555e-01 0.
      6.59753382e-01 9.16404843e-01 7.61860192e-01 0. 1. 0.
      8.38920951e-01 7.46100307e-01 0. 8.72879922e-01 0. 0.
      8.65058959e-01 7.30761051e-01 9.11962986e-01 9.38617289e-01
      3.13914210e-01 8.42479885e-01 9.28590775e-01 5.62385023e-01
      4.06054020e-01 7.27243066e-01 6.87358141e-01 4.23470289e-01
      4.89310026e-01 0. 0. 0. 0. 0. 0. 3.84091169e-01 6.15718782e-01
      4.08049136e-01 5.06310821e-01 0. 5.44859052e-01 0. 9.01971936e-01
      8.55519414e-01 9.14911032e-01 9.39209104e-01 0. 8.79028201e-01 0.
      0. 6.06345177e-01 0. 5.37195683e-01 3.19982886e-01 8.75129580e-01
      9.01924551e-01 9.33731973e-01 6.43751264e-01 0. 9.43703890e-01
      7.88601339e-01 7.99849212e-01 7.60062814e-01 6.60077214e-01
      6.97052836e-01 0. 0. 0.</_>
    <_>
      0. 0. 0. 0. 0. 6.32312357e-01 7.25108862e-01 4.49803829e-01
      5.47008991e-01 0. 9.35356140e-01 0. 9.01692331e-01 9.86948013e-01
      7.38736749e-01 7.79653072e-01 7.62092710e-01 7.50600457e-01
      6.75881803e-01 0. 0. 0. 9.21234131e-01 9.43093479e-01 1.
      8.79290044e-01 9.60460126e-01 6.12858176e-01 7.11019516e-01
      5.14801383e-01 7.24519074e-01 5.33291221e-01 6.58583522e-01 0. 0.
      0. 0. 2.58756638e-01 5.43874025e-01 6.26653254e-01 3.39709699e-01
      5.32268509e-02 0. 3.99825603e-01 4.97057676e-01 3.45119536e-01
      8.86391759e-01 8.40344667e-01 7.00724363e-01 7.25108862e-01
      8.51629794e-01 1.67068541e-01 0. 4.40844506e-01 5.79393744e-01
      7.16807842e-01 7.91263580e-01 8.02173436e-01 8.18874776e-01
      6.21171951e-01 8.68200421e-01 0. 6.27335072e-01 5.21128774e-01
      7.68794358e-01 8.22347641e-01 6.84887350e-01 0. 6.21171951e-01
      6.86342180e-01 0. 0.</_>
    <_>
      0. 0. 0. 4.46038067e-01 6.84655607e-01 6.19531333e-01
      1.82133302e-01 4.32438254e-01 7.22698390e-01 8.64792109e-01
      5.70505738e-01 8.75760794e-01 8.37467313e-01 8.65768492e-01
      6.19052589e-01 8.16496432e-01 8.68059695e-01 6.51007473e-01
      7.84102321e-01 6.46712780e-01 0. 0. 8.91512215e-01 8.49522471e-01
      8.78667235e-01 8.53196084e-01 8.93106997e-01 5.89896321e-01
      5.40513933e-01 8.43551576e-01 8.03798795e-01 5.19168377e-01
      7.37639546e-01 3.39326173e-01 6.25910580e-01 5.43358445e-01
      3.97504210e-01 0. 0. 0. 0. 5.03514946e-01 5.95299184e-01
      7.83629656e-01 0. 7.11224139e-01 9.55334723e-01 9.60441291e-01
      9.75479066e-01 1. 0. 8.54844987e-01 9.04355228e-01 6.86342239e-01
      7.47103751e-01 7.45733500e-01 8.89014781e-01 8.98682714e-01
      9.33375835e-01 8.02857697e-01 9.86614406e-01 7.09157884e-01
      6.92362905e-01 9.34772253e-01 4.92923409e-01 0. 7.58426070e-01
      6.63166463e-01 0. 0. 0. 0.</_>
    <_>
      0. 0. 0. 0. 0. 5.79294324e-01 7.52494931e-01 6.97458088e-01
      5.92943013e-01 6.35298431e-01 9.53316867e-01 9.60343897e-01
      9.22336519e-01 9.99312639e-01 9.71370280e-01 9.88002062e-01
      3.17942202e-01 9.61110175e-01 3.09018373e-01 0. 3.76722902e-01
      9.67979252e-01 1. 9.62232888e-01 9.31812525e-01 9.63659942e-01
      8.05540740e-01 5.75213373e-01 7.09665418e-01 0. 6.78192854e-01
      6.45110846e-01 0. 0. 0. 0. 0. 3.73977065e-01 5.07975101e-01
      5.83599091e-01 0. 0. 6.27056181e-01 1.39712587e-01 7.30722368e-01
      7.72893250e-01 8.17935109e-01 8.24806571e-01 7.87362635e-01
      7.53537714e-01 8.41710567e-01 6.17274821e-01 6.64670467e-01
      5.28524876e-01 7.84490108e-01 7.82799184e-01 7.72921816e-02
      8.08884740e-01 8.27420592e-01 7.91713893e-01 5.90371490e-01
      7.65171289e-01 8.38965654e-01 2.89163470e-01 7.89852023e-01
      8.38848650e-01 3.90539378e-01 4.46476698e-01 3.61023217e-01
      6.84889913e-01 4.04004961e-01 5.94265878e-01</_>
    <_>
      0. 0. 0. 0. 0. 0. 0. 4.27720279e-01 5.92963874e-01 7.13477194e-01
      7.96267867e-01 8.03986132e-01 8.52399170e-01 8.71876419e-01
      7.66006172e-01 9.15069520e-01 7.84990132e-01 7.14594781e-01 0. 0.
      0. 0. 0. 0. 1. 9.29402709e-01 9.64585900e-01 9.57534254e-01
      6.62318826e-01 7.99109399e-01 7.16227472e-01 7.36134410e-01
      7.10048854e-01 0. 0. 0. 0. 4.11486596e-01 5.93918681e-01
      6.62021875e-01 0. 0. 5.32198071e-01 5.62394083e-01 7.64267921e-01
      8.48046362e-01 6.76690519e-01 8.50171089e-01 0. 8.32674503e-01
      7.25962400e-01 5.72401702e-01 5.57271004e-01 6.07434392e-01 0.
      1.29184276e-01 7.34514475e-01 7.46864796e-01 5.75544953e-01
      7.84621716e-01 6.76399887e-01 6.54679120e-01 6.89355493e-01
      7.27251649e-01 6.42842650e-01 2.24370763e-01 6.53299809e-01
      6.21828496e-01 5.16606390e-01 4.97981191e-01 0. 0.</_>
    <_>
      0. 0. 0. 0. 0. 0. 0. 7.05634654e-01 8.23645592e-01 8.62022221e-01
      8.61840665e-01 9.52328444e-01 9.66664493e-01 7.24218190e-01
      9.93509889e-01 7.31909156e-01 0. 0. 0. 0. 0. 7.20341861e-01 0. 1.
      9.69466865e-01 9.76651132e-01 9.28080440e-01 9.18114841e-01
      4.15398717e-01 7.55156934e-01 6.39141321e-01 0. 0. 0. 0. 0. 0.
      4.81080145e-01 6.91289827e-02 6.12776995e-01 6.27914548e-01
      7.25825131e-01 4.09113556e-01 7.82991529e-01 6.86877429e-01
      7.24818170e-01 7.25034058e-01 7.70160377e-01 7.02572048e-01
      8.05866361e-01 5.18149078e-01 6.86218858e-01 6.14816904e-01
      6.64015234e-01 7.19544709e-01 0. 5.44847488e-01 7.38790810e-01
      6.24498844e-01 5.88042378e-01 7.97798574e-01 5.61694503e-01
      5.93868852e-01 7.52642691e-01 7.11304665e-01 7.19303012e-01
      6.86142862e-01 7.09297061e-01 6.31229162e-01 6.10502481e-01
      5.37521124e-01 5.26406586e-01</_>
    <_>
      0. 0. 0. 4.92369354e-01 6.33048594e-01 6.54989243e-01
      8.25275898e-01 0. 6.09787285e-01 9.70291436e-01 0. 9.36249971e-01
      9.89189684e-01 9.55753565e-01 9.83228028e-01 9.97951448e-01 0.
      2.54449666e-01 0. 0. 3.18818927e-01 0. 1. 9.60770488e-01
      9.28725600e-01 9.93089676e-01 7.09871233e-01 9.73132789e-01
      8.85467052e-01 5.25618732e-01 8.08615685e-01 6.88547373e-01
      6.02930129e-01 0. 0. 0. 0. 0. 0. 5.62804580e-01 5.81036329e-01
      7.23244190e-01 7.78279722e-01 8.11983109e-01 8.49175751e-01
      8.89420152e-01 9.34478819e-01 6.64051712e-01 9.64583397e-01
      9.34165955e-01 9.66433764e-01 0. 7.87903249e-01 6.50460541e-01
      6.43784463e-01 7.07349896e-01 9.03443515e-01 9.25326705e-01
      7.40333855e-01 9.63842213e-01 9.30996299e-01 3.90946269e-01
      9.79354978e-01 7.91769147e-01 9.74300444e-01 7.53898978e-01
      5.75418651e-01 7.42130578e-01 8.00216496e-01 0. 0. 0.</_>
    <_>
      0. 8.52804556e-02 4.10631150e-01 0. 0. 0. 7.00583458e-01 0.
      5.20069599e-01 4.03613627e-01 9.35227275e-01 9.42738771e-01
      9.11481321e-01 9.51294243e-01 1. 0. 1.66308507e-01 0. 0.
      9.13788378e-01 9.22604382e-01 0. 0. 9.75962460e-01 8.98806512e-01
      6.38627946e-01 8.94433498e-01 6.61911428e-01 6.63483143e-01
      7.05071926e-01 0. 0. 1.40771806e-01 0. 0. 0. 4.50660855e-01 0.
      4.53540742e-01 5.67570448e-01 3.59071940e-01 5.96710026e-01
      6.17771685e-01 5.23022592e-01 0. 7.35795319e-01 5.82514167e-01
      4.72107798e-01 0. 7.26852953e-01 7.03117073e-01 0. 0.
      4.85716760e-01 4.26783293e-01 5.34337163e-01 6.46225214e-01
      5.51170588e-01 6.68855190e-01 5.87398231e-01 7.31495500e-01
      7.58823156e-01 6.70810163e-01 7.40723431e-01 7.43190169e-01
      7.84877956e-01 0. 2.19054282e-01 5.06781340e-01 3.17364037e-01
      5.77124834e-01 0.</_>
    <_>
      0. 0. 0. 0. 0. 0. 0. 0. 6.71115100e-01 7.75820911e-01
      8.84672940e-01 8.92247140e-01 9.49414015e-01 7.64826357e-01
      9.29173172e-01 9.77336109e-01 0. 0. 0. 0. 0. 0. 0. 1.
      9.29668844e-01 9.82551336e-01 9.40270483e-01 8.92050087e-01
      8.18530619e-01 6.79972708e-01 6.50509477e-01 0. 0. 0. 0.
      3.93290639e-01 0. 3.13103832e-02 0. 6.15661860e-01 0.
      4.20468360e-01 6.71476364e-01 7.24628091e-01 7.55037665e-01
      6.77077889e-01 7.51141369e-01 7.18528390e-01 7.31025219e-01
      1.76898211e-01 6.81798041e-01 6.94545567e-01 3.70952129e-01
      5.72812676e-01 0. 4.64686275e-01 6.22244000e-01 6.91667855e-01
      6.42152011e-01 6.77185297e-01 0. 6.81958139e-01 6.71620846e-01
      7.05595613e-01 6.69034183e-01 6.74287438e-01 6.44150436e-01
      6.61644459e-01 6.39190197e-01 5.55533290e-01 4.93094295e-01
      4.84749228e-01</_>
    <_>
      0. 0. 0. 2.49411687e-01 5.03502727e-01 7.06948340e-01
      7.32223451e-01 8.40563118e-01 8.73398840e-01 9.04183090e-01
      9.06986237e-01 9.51546967e-01 9.64584172e-01 9.57846880e-01
      9.34292853e-01 9.68344986e-01 8.26390505e-01 8.72341335e-01 0. 0.
      0. 0. 0. 1. 9.72417533e-01 9.82877374e-01 9.72016931e-01
      9.28439081e-01 9.27724242e-01 8.53352249e-01 8.67998660e-01 0.
      6.84138238e-01 5.89047611e-01 2.25094840e-01 0. 0. 0.
      3.95023137e-01 5.19018769e-01 5.34866810e-01 7.37600923e-01
      7.62011170e-01 0. 6.47485197e-01 8.90747726e-01 7.67311454e-01
      9.37867463e-01 9.84519541e-01 9.23438966e-01 9.26853180e-01
      9.80820775e-01 7.10469186e-01 7.56750047e-01 7.51106441e-01
      5.19518673e-01 0. 9.53984261e-01 9.70249534e-01 8.83202612e-01
      9.08082783e-01 9.66257453e-01 9.53122079e-01 9.08511519e-01
      9.05585706e-01 5.41219950e-01 4.26349819e-01 7.33168304e-01
      6.32338762e-01 0. 0. 0.</_>
    <_>
      0. 0. 0. 0. 0. 0. 5.70307910e-01 6.62537992e-01 7.59074330e-01
      8.22656631e-01 8.23781312e-01 8.69849086e-01 9.10000622e-01
      9.03779566e-01 8.39035153e-01 9.42015827e-01 0. 0. 8.09479713e-01
      8.58555496e-01 8.67873311e-01 8.76531124e-01 0. 1. 9.12984371e-01
      7.86860406e-01 9.11070406e-01 9.05953765e-01 9.39637661e-01
      8.43140125e-01 7.87228048e-01 6.54040754e-01 4.58723247e-01 0. 0.
      0. 0. 4.22749102e-01 5.23396552e-01 5.79001427e-01 6.97193205e-01
      6.05352223e-01 5.36948621e-01 5.61857760e-01 8.62299204e-01
      6.52712345e-01 7.55763888e-01 8.67250860e-01 8.79661441e-01
      8.54671359e-01 8.11110258e-01 8.23769629e-01 6.59166992e-01
      6.99375451e-01 6.95295572e-01 6.46088839e-01 7.99228251e-01
      7.59912550e-01 7.71562636e-01 7.40357578e-01 7.79323339e-01
      7.87632287e-01 7.48364627e-01 7.75440276e-01 7.41893053e-01
      7.10077107e-01 7.19870031e-01 6.27582848e-01 5.41331232e-01
      5.24482489e-01 0. 0.</_>
    <_>
      0. 0. 0. 0. 0. 0. 5.74361324e-01 6.64833069e-01 7.60278165e-01
      8.21981728e-01 8.57260823e-01 8.64704370e-01 9.19352233e-01
      8.95565748e-01 9.18447018e-01 8.83805335e-01 8.70096445e-01
      8.98889005e-01 9.42210555e-01 8.44520926e-01 0. 9.54456270e-01
      9.44903314e-01 9.62380886e-01 7.84956813e-01 9.43555474e-01 1.
      9.57380474e-01 9.91656601e-01 0. 6.62470222e-01 7.90530562e-01
      5.97470760e-01 0. 0. 0. 0. 4.64725524e-01 3.18781227e-01
      6.24882877e-01 7.45359361e-01 4.98830318e-01 4.09655839e-01
      6.10251486e-01 9.12723243e-01 8.75361800e-01 8.73500824e-01
      8.86106372e-01 9.26444054e-01 8.76197278e-01 8.98610771e-01
      9.10105109e-01 6.95348740e-01 7.33235419e-01 5.76982558e-01
      7.72536635e-01 7.75713027e-01 8.86839569e-01 8.64357471e-01
      6.81336939e-01 8.34820688e-01 8.60288262e-01 8.48360300e-01
      8.06305230e-01 7.72101104e-01 7.77463019e-01 7.21374094e-01
      6.30811810e-01 5.65589428e-01 0. 0. 0.</_>
    <_>
      0. 0. 0. 0. 0. 0. 0. 6.49115264e-01 7.38064170e-01 5.44916689e-01
      8.60391080e-01 9.01342809e-01 7.15283811e-01 8.29459071e-01
      9.48703825e-01 9.56824422e-01 9.75090325e-01 0. 8.61756623e-01
      1.48486823e-01 2.85752892e-01 9.32526112e-01 1. 9.90510821e-01
      9.90977883e-01 8.91611040e-01 9.65452135e-01 9.55960631e-01
      7.68923402e-01 8.03042948e-01 8.12118351e-01 0. 0. 0. 0.
      1.35902509e-01 4.02433336e-01 5.36510110e-01 5.84918082e-01
      6.45662904e-01 7.00700045e-01 3.93082440e-01 0. 7.34180391e-01
      8.20496202e-01 6.20141029e-01 8.10508549e-01 7.54631281e-01
      7.90948093e-01 8.04927528e-01 8.05161774e-01 7.88917065e-01
      5.36497355e-01 7.03122437e-01 6.98784590e-01 6.54165447e-01 0.
      5.35730064e-01 7.74006844e-01 7.63092279e-01 6.23135388e-01
      7.27472782e-01 7.52812088e-01 5.86790502e-01 7.43815005e-01
      7.19817579e-01 4.72053140e-01 4.89773691e-01 6.29800260e-01
      5.57030439e-01 5.02302945e-01 4.93691564e-01</_>
    <_>
      0. 0. 0. 0. 3.73728633e-01 6.42460048e-01 7.26495624e-01
      3.11227322e-01 8.41989279e-01 8.34695220e-01 9.01311636e-01
      9.37268257e-01 9.46907341e-01 9.38015401e-01 9.59032178e-01
      9.54712510e-01 8.42266500e-01 8.34385216e-01 6.86616898e-01
      8.26199591e-01 7.87692666e-01 8.41479421e-01 7.16876984e-01 1.
      9.77450609e-01 9.83398080e-01 9.71694231e-01 9.95281219e-01
      6.65379524e-01 7.08625317e-01 7.86762714e-01 7.63726354e-01
      5.34649551e-01 5.17203152e-01 0. 0. 0. 0. 3.98442149e-01
      5.44184089e-01 6.13570929e-01 7.16965079e-01 4.41449404e-01
      5.93452990e-01 8.54140520e-01 8.83556068e-01 9.79830146e-01
      9.54831481e-01 9.40769672e-01 9.80924428e-01 9.80615556e-01
      9.02969599e-01 8.31149459e-01 9.05245006e-01 6.65360570e-01
      9.00856555e-01 4.38005209e-01 9.22596991e-01 9.48325872e-01
      9.21084106e-01 9.39850211e-01 9.42880273e-01 9.20844376e-01
      8.85332704e-01 8.83541822e-01 8.29622030e-01 7.64766812e-01
      7.16260552e-01 6.33976400e-01 0. 0. 0.</_>
    <_>
      0. 0. 0. 0. 0. 6.24875486e-01 6.43271506e-01 7.43870318e-01
      8.01738381e-01 8.52845669e-01 8.82506728e-01 9.14660990e-01
      9.35460210e-01 9.32503819e-01 8.22737813e-01 8.85966599e-01
      9.13886905e-01 9.36967254e-01 9.24827099e-01 8.82976174e-01 0.
      8.19658875e-01 8.41700077e-01 7.24404395e-01 1. 9.72196341e-01
      9.89509940e-01 9.58069623e-01 9.56347585e-01 9.31289554e-01
      6.86164141e-01 8.15175772e-01 6.48627579e-01 2.78487325e-01 0. 0.
      0. 0. 0. 5.23514271e-01 5.86449802e-01 7.87013590e-01
      7.49302864e-01 5.11165202e-01 9.17182803e-01 9.12316322e-01
      9.41399813e-01 9.45811450e-01 8.72984290e-01 9.24076676e-01
      9.27060008e-01 9.39250588e-01 6.67234182e-01 6.18892908e-01
      8.60542178e-01 8.63286614e-01 8.26493084e-01 9.22689915e-01
      8.92230451e-01 8.94794405e-01 8.95070136e-01 7.31752932e-01
      8.71494830e-01 6.89886451e-01 8.34499598e-01 8.13013613e-01
      7.88857400e-01 6.88880086e-01 6.15868390e-01 0. 0. 0.</_>
    <_>
      0. 0. 0. 0. 0. 6.34521127e-01 7.05472827e-01 8.14213395e-01
      3.39204490e-01 9.58626449e-01 9.61454034e-01 1. 9.90078509e-01
      9.88138080e-01 9.71809804e-01 9.69734311e-01 9.51320112e-01
      9.83954787e-01 2.96502352e-01 3.36000741e-01 9.83275652e-01
      9.50416863e-01 9.68454182e-01 9.86107767e-01 9.68246102e-01
      9.87665832e-01 9.09178019e-01 8.71871769e-01 8.98761332e-01
      7.90114880e-01 7.76127517e-01 6.12150908e-01 0. 0. 0. 0. 0. 0.
      4.21151310e-01 5.06746292e-01 5.66370845e-01 6.32981777e-01
      7.39709318e-01 6.70026124e-01 8.50595713e-01 8.47122967e-01
      8.77073824e-01 8.82761896e-01 8.91987145e-01 8.85197043e-01
      7.98458815e-01 9.10623074e-01 8.00978124e-01 9.06046808e-01
      8.21228921e-01 8.61213267e-01 9.11926270e-01 8.89022112e-01
      9.12193716e-01 9.05250609e-01 8.87458146e-01 9.07064378e-01
      9.17583168e-01 7.37929523e-01 8.80127251e-01 9.10436690e-01
      6.40111625e-01 5.65621376e-01 7.62898564e-01 6.59353375e-01 0. 0.</_>
    <_>
      0. 3.25642735e-01 0. 3.90260518e-01 4.32753205e-01 4.53796029e-01
      7.64687181e-01 4.96473104e-01 7.39039898e-01 7.13180959e-01
      7.13957369e-01 6.95241988e-01 6.83812082e-01 6.64999664e-01
      6.68263733e-01 6.77723527e-01 0. 0. 0. 0. 0. 0. 0. 7.00808227e-01
      6.97771907e-01 7.00728178e-01 7.27408767e-01 7.43889928e-01
      7.65507519e-01 7.69003928e-01 5.73693097e-01 3.50840598e-01
      2.47371778e-01 0. 0. 4.87474233e-01 4.56707627e-01 3.98714095e-01
      2.85752058e-01 0. 0. 4.01667058e-01 5.17635345e-01 5.31905472e-01
      0. 4.74984467e-01 7.02242851e-01 7.29870498e-01 7.22256362e-01
      7.20401704e-01 6.97309375e-01 7.14723110e-01 6.98675931e-01 0. 0.
      6.49530113e-01 0. 1.89692676e-01 0. 4.28780586e-01 7.00608075e-01
      7.04822302e-01 6.92343354e-01 1. 0. 5.74868619e-01 5.34575403e-01
      4.64911044e-01 0. 1.57125160e-01 0. 0.</_>
    <_>
      0. 0. 0. 0. 3.27417046e-01 4.74632412e-01 5.29359579e-01 0.
      5.98222971e-01 8.56027961e-01 8.33884776e-01 8.37522089e-01
      8.25898170e-01 8.46505761e-01 6.03294432e-01 6.21910453e-01 0. 0.
      1.96509585e-01 0. 1.67857498e-01 0. 6.18801475e-01 5.99553168e-01
      8.56146336e-01 8.45642745e-01 8.55162263e-01 8.69935155e-01
      9.14132595e-01 4.61396247e-01 0. 0. 5.49312532e-01 5.10243118e-01
      4.34405893e-01 2.72675604e-01 0. 0. 0. 3.98734301e-01
      4.72877204e-01 4.94235754e-01 5.34672558e-01 0. 4.20701534e-01
      6.35300219e-01 1. 2.48205781e-01 6.87706292e-01 6.81464434e-01
      6.70569479e-01 4.67527092e-01 6.43724859e-01 5.98789215e-01
      5.66268802e-01 5.65731704e-01 0. 1.43434063e-01 5.96187055e-01
      4.54106867e-01 6.45139873e-01 6.51289999e-01 6.45004451e-01
      9.88469899e-01 6.41005218e-01 6.24198377e-01 6.14535093e-01
      5.44206619e-01 5.03897011e-01 4.15965915e-01 0. 0.</_>
    <_>
      0. 0. 0. 2.99452543e-01 4.37086850e-01 4.88856077e-01
      5.30377686e-01 8.32204968e-02 8.83207321e-01 8.78873169e-01
      8.76852334e-01 8.64962935e-01 8.56232822e-01 8.67674470e-01
      6.17797554e-01 0. 0. 0. 0. 0. 0. 0. 4.72904056e-01 4.54670429e-01
      8.59413683e-01 8.47213089e-01 8.73098075e-01 1. 9.09795284e-01
      6.69268608e-01 6.41840696e-01 6.12635314e-01 5.71210742e-01
      5.48972309e-01 4.72052902e-01 3.37822944e-01 0. 0. 0. 0.
      4.13454592e-01 5.33268154e-01 5.46171904e-01 0. 4.30126518e-01
      6.92887306e-01 6.94166243e-01 7.23171353e-01 7.48570859e-01
      7.41604686e-01 7.41194010e-01 5.49649715e-01 6.91969991e-01
      4.29356873e-01 6.47037089e-01 6.13603890e-01 0. 1.80397570e-01
      6.44190431e-01 4.97611493e-01 6.92615986e-01 6.97444975e-01
      7.09164381e-01 7.05924094e-01 6.84169769e-01 6.44067883e-01
      6.51090503e-01 5.75974405e-01 5.20665467e-01 0. 0. 0.</_>
    <_>
      0. 5.81522942e-01 2.05394104e-01 1.71640515e-01 6.16397977e-01
      5.97216368e-01 8.88853848e-01 8.75661016e-01 8.36690426e-01
      8.25745225e-01 8.00701499e-01 7.82437325e-01 7.24151313e-01
      7.37332821e-01 4.91651565e-01 6.84922874e-01 7.08918273e-01 0. 0.
      0. 0. 4.60729927e-01 7.20117688e-01 6.98593974e-01 0.
      7.57768750e-01 7.87309945e-01 7.82915294e-01 8.31678689e-01
      8.63326192e-01 8.71609628e-01 6.19046450e-01 6.04490638e-01
      6.13312066e-01 5.97559333e-01 5.58402777e-01 5.54003894e-01
      5.54994583e-01 0. 4.95837152e-01 4.38229948e-01 3.73498827e-01
      3.87368232e-01 5.46133637e-01 7.11026132e-01 5.07032201e-02 0.
      9.36518312e-01 9.74019945e-01 1. 7.40864158e-01 7.28615165e-01
      7.08499372e-01 6.26792371e-01 0. 0. 0. 0. 0. 9.67842460e-01
      9.65769470e-01 9.52114284e-01 9.31839585e-01 8.98859322e-01
      2.64670193e-01 7.53237247e-01 0. 3.49871874e-01 3.66111934e-01
      4.30684716e-01 4.88063157e-01 0.</_>
    <_>
      0. 5.96271574e-01 6.00242734e-01 6.40439868e-01 6.68086231e-01
      6.48525059e-01 6.63287699e-01 9.78384197e-01 9.59344029e-01
      9.26935256e-01 9.00141954e-01 8.57710600e-01 8.27910841e-01
      5.76836348e-01 7.99248934e-01 0. 7.95969844e-01 0. 0. 0. 0.
      8.02489698e-01 7.77084708e-01 7.98649192e-01 5.28766632e-01
      8.27042282e-01 8.56662571e-01 8.74948382e-01 8.99653971e-01
      9.03064966e-01 6.47755027e-01 6.30702138e-01 6.01239860e-01
      6.22192919e-01 2.14586243e-01 5.98544061e-01 5.57726264e-01 0.
      4.90696311e-01 4.27277207e-01 0. 3.36820513e-01 2.73124069e-01
      6.68086350e-01 7.57966101e-01 0. 8.54305506e-01 9.36129689e-01
      9.73905087e-01 1. 7.50687659e-01 7.13378370e-01 6.62022352e-01
      5.81627369e-01 0. 3.33245069e-01 0. 9.08684969e-01 9.24692571e-01
      0. 9.53959763e-01 9.56509590e-01 9.65380967e-01 9.27947044e-01 0.
      8.08364391e-01 6.69519126e-01 2.74654806e-01 0. 4.04177874e-01
      4.63151485e-01 5.27102709e-01</_>
    <_>
      0. 0. 0. 0. 4.01424021e-01 5.49142718e-01 6.03569329e-01
      6.60603464e-01 6.94610775e-01 7.29489505e-01 9.90756035e-01 1.
      7.70025849e-01 7.25350738e-01 7.40569234e-01 2.64483750e-01 0. 0.
      0. 0. 0. 0. 0. 7.31588662e-01 5.50573945e-01 7.57524431e-01
      7.65405297e-01 7.56303489e-01 7.34314144e-01 6.99964345e-01 0.
      6.50867283e-01 5.83310902e-01 4.75549757e-01 0. 0. 0.
      4.16918814e-01 4.80379403e-01 5.57587981e-01 0. 6.16122782e-01
      6.42002285e-01 6.30355477e-01 7.01732099e-01 6.99174047e-01
      7.20533371e-01 7.25934744e-01 7.15514123e-01 7.11549401e-01
      4.24629986e-01 6.56042635e-01 6.18880749e-01 0. 0. 0. 0. 0.
      6.24786556e-01 3.94027025e-01 4.07787651e-01 6.69854999e-01
      6.79004192e-01 9.54284430e-01 9.53988314e-01 6.58847809e-01
      6.24728382e-01 6.36161149e-01 6.10033810e-01 5.59971273e-01
      5.14156640e-01 0.</_>
    <_>
      0. 0. 3.85772228e-01 4.89232123e-01 5.66236496e-01 6.17294610e-01
      0. 0. 7.11052954e-01 7.26771295e-01 9.70726311e-01 9.31538701e-01
      9.46874857e-01 6.91971719e-01 0. 0. 6.27953231e-01 6.52779460e-01
      0. 6.45109773e-01 0. 0. 0. 6.70745432e-01 6.56139076e-01
      9.71269906e-01 9.64251816e-01 9.79347587e-01 1. 6.53241396e-01
      6.60552800e-01 0. 6.00858271e-01 5.49285114e-01 5.02055526e-01
      3.37350309e-01 0. 0. 0. 4.07922417e-01 5.15026450e-01
      5.54715633e-01 0. 0. 0. 0. 7.69400120e-01 7.78256238e-01
      7.86341667e-01 7.81824172e-01 7.72026718e-01 4.96400356e-01
      7.37659454e-01 7.01442897e-01 6.93930626e-01 0. 0. 0.
      5.01971126e-01 5.53831279e-01 7.48178303e-01 7.53091633e-01
      7.64320314e-01 5.41259289e-01 7.59321272e-01 7.40341425e-01
      2.36058414e-01 0. 6.23735905e-01 0. 0. 0.</_>
    <_>
      0. 5.85171521e-01 6.21076822e-01 2.54831344e-01 3.28553617e-01
      6.70984924e-01 6.70337141e-01 9.48477268e-01 9.40528095e-01
      9.09293115e-01 8.85146499e-01 8.21945846e-01 8.30689073e-01
      8.10863733e-01 7.84244418e-01 8.04749310e-01 8.12655389e-01 0. 0.
      0. 0. 8.21440160e-01 8.07560921e-01 7.87513077e-01 5.13682485e-01
      8.46511841e-01 8.54539931e-01 8.89690757e-01 9.16081190e-01
      3.68751377e-01 6.48918509e-01 6.32572651e-01 6.35521829e-01
      6.14703238e-01 5.73944092e-01 1.91279396e-01 5.60507774e-01
      5.60018957e-01 4.65212256e-01 4.32035476e-01 4.06700641e-01 0.
      3.24067563e-01 6.76158667e-01 7.42693603e-01 0. 1.88444078e-01
      9.62600827e-01 1. 8.00183058e-01 8.03704143e-01 7.92152464e-01
      7.40350187e-01 6.21016026e-01 3.12404752e-01 3.45561296e-01 0. 0.
      7.25675344e-01 0. 7.66091287e-01 9.95304704e-01 9.57406640e-01
      9.20544446e-01 0. 7.82749772e-01 6.21988535e-01 3.16041470e-01 0.
      3.33857268e-01 4.30524498e-01 4.89584267e-01</_>
    <_>
      0. 0. 2.70022035e-01 3.96088481e-01 4.68672633e-01 5.17192304e-01
      0. 0. 5.91386020e-01 8.77590537e-01 8.77343774e-01 8.61658216e-01
      8.50787520e-01 8.57005239e-01 0. 5.87364137e-01 6.07481241e-01 0.
      1.76491052e-01 0. 1.49285287e-01 0. 0. 6.43907428e-01
      6.30152225e-01 0. 6.92395151e-01 1. 7.47621715e-01 5.21139979e-01
      7.64408767e-01 4.71420377e-01 0. 0. 6.60508633e-01 5.91680288e-01
      4.68268216e-01 3.79057258e-01 2.04617277e-01 0. 5.83069146e-01
      6.96337998e-01 2.60131478e-01 0. 5.62670410e-01 8.72517526e-01
      8.53315473e-01 8.75861704e-01 3.81953627e-01 5.90830028e-01
      5.51578879e-01 0. 0. 0. 0. 6.77850246e-01 6.79917872e-01
      5.14944494e-01 5.31892180e-01 7.39671052e-01 7.25620866e-01
      7.28880346e-01 7.20653117e-01 6.91970527e-01 6.68556273e-01
      2.32684016e-01 5.58386266e-01 5.03523648e-01 0. 0. 0. 0.</_>
    <_>
      0. 4.96366680e-01 4.99824494e-01 5.48908293e-01 5.93218565e-01
      6.18052065e-01 6.01215899e-01 9.46619630e-01 9.17166948e-01
      8.82415831e-01 9.04579043e-01 8.59932244e-01 8.47451568e-01
      8.42465639e-01 5.38572848e-01 7.86773264e-01 8.11017692e-01
      7.90242791e-01 8.22256088e-01 0. 0. 0. 8.49345028e-01
      5.77134252e-01 8.80838394e-01 9.05010998e-01 9.19216037e-01
      9.15507972e-01 9.94367063e-01 1. 6.99489057e-01 6.93984091e-01
      4.37788635e-01 3.45452219e-01 2.66597599e-01 6.20767355e-01
      5.82137704e-01 5.81391811e-01 4.39772755e-01 4.09324169e-01 0.
      3.15358430e-01 6.67951524e-01 7.06070364e-01 7.56050050e-01 0.
      9.24193084e-01 9.85312939e-01 9.64569926e-01 9.88232911e-01
      7.34748244e-01 6.88846111e-01 6.34203672e-01 8.70889127e-01
      8.32527459e-01 0. 6.24218345e-01 6.74361050e-01 4.91806090e-01
      8.89440715e-01 8.85002255e-01 8.87827098e-01 8.47705901e-01
      7.86714971e-01 7.86125481e-01 6.65497661e-01 5.94688833e-01
      2.37238660e-01 0. 2.56245971e-01 3.25386852e-01 3.90016228e-01</_>
    <_>
      0. 4.51923251e-01 0. 5.65761924e-01 6.15992129e-01 0. 0.
      6.87004328e-01 9.79750276e-01 9.54317212e-01 9.30070102e-01
      9.34008300e-01 9.21095788e-01 9.27837312e-01 0. 0. 6.05742872e-01
      0. 0. 0. 6.00274026e-01 5.73080957e-01 0. 0. 9.43640172e-01
      9.21417415e-01 9.40647185e-01 9.77669954e-01 1. 7.18998253e-01
      7.05591977e-01 4.00974512e-01 0. 0. 5.98966837e-01 5.59817314e-01
      4.85885084e-01 4.18380439e-01 2.87484586e-01 0. 1.56254664e-01
      5.72179615e-01 6.32453620e-01 6.78083479e-01 0. 0. 8.69627535e-01
      8.99272621e-01 8.98560166e-01 9.27620888e-01 7.03122079e-01
      6.47228599e-01 5.95493734e-01 8.14516187e-01 7.78378963e-01 0. 0.
      5.95349252e-01 6.47036612e-01 8.52307856e-01 8.52644265e-01
      8.59511197e-01 6.37946367e-01 8.47099423e-01 8.21003556e-01 0.
      6.95068717e-01 6.31954730e-01 0. 1.55703127e-01 0. 3.20053101e-01</_>
    <_>
      0. 3.54480505e-01 4.20676500e-01 0. 5.43460250e-01 5.84211111e-01
      0. 6.41534567e-01 6.52165532e-01 9.63962257e-01 9.39253092e-01
      9.21952248e-01 9.09839690e-01 9.15889740e-01 0. 6.16161227e-01
      1.55516103e-01 0. 1.19485751e-01 0. 0. 0. 6.32024884e-01
      6.14436328e-01 0. 9.91525471e-01 9.84484315e-01 1. 7.29705453e-01
      7.38033473e-01 7.29546309e-01 4.58888620e-01 0. 6.53331280e-01
      6.14481926e-01 5.70777655e-01 4.38108951e-01 3.74211729e-01 0.
      2.19397515e-01 4.97386098e-01 6.50055707e-01 7.05852151e-01 0. 0.
      8.31059813e-01 8.77090037e-01 9.07534599e-01 7.14256346e-01
      3.72430891e-01 6.56865001e-01 6.05506718e-01 5.27560174e-01 0. 0.
      7.35015631e-01 7.38212585e-01 5.60925305e-01 5.99584401e-01
      6.19868100e-01 8.15644920e-01 8.07715595e-01 8.00178230e-01
      7.71147251e-01 7.47705460e-01 6.67155683e-01 6.23070955e-01
      5.46246171e-01 1.07747443e-01 0. 0. 0.</_>
    <_>
      0. 5.05592227e-01 5.41529953e-01 5.85454643e-01 3.20706069e-01
      6.28199041e-01 6.13477468e-01 6.30085945e-01 9.05757546e-01
      8.95210862e-01 8.70266259e-01 8.51059437e-01 8.37984920e-01
      8.15692008e-01 7.87667930e-01 8.27561677e-01 3.36478174e-01 0. 0.
      0. 0. 0. 5.18554807e-01 8.55666578e-01 9.14062679e-01
      9.21392858e-01 9.34557140e-01 9.53313768e-01 1. 9.33901250e-01
      6.62747979e-01 6.29072249e-01 6.44349039e-01 4.10817116e-01
      6.02751076e-01 5.63840926e-01 5.56365669e-01 4.90626216e-01
      4.28668648e-01 3.96008492e-01 3.71183753e-01 2.46534124e-01 0.
      6.66129231e-01 6.84968233e-01 0. 0. 9.18951333e-01 9.64694321e-01
      7.55304098e-01 7.70165443e-01 7.24526644e-01 6.84222400e-01
      6.39217496e-01 3.02349120e-01 8.31439674e-01 8.38274240e-01
      6.87943518e-01 5.19366503e-01 7.19452441e-01 9.24932659e-01
      8.89130116e-01 8.81864607e-01 8.52168560e-01 0. 7.37587452e-01
      6.05434597e-01 0. 2.60628939e-01 3.54184121e-01 3.78572762e-01
      4.11189795e-01</_>
    <_>
      0. 0. 0. 0. 0. 0. 0. 6.18964851e-01 7.49319792e-01 8.38412106e-01
      8.62382472e-01 8.91641438e-01 9.52951372e-01 7.44875729e-01
      4.42199886e-01 4.00928020e-01 6.91849709e-01 7.17382312e-01 0. 0.
      0. 0. 0. 7.56566525e-01 0. 7.83769131e-01 1. 9.69180286e-01
      9.89443302e-01 3.47412318e-01 8.06173027e-01 8.34195793e-01 0. 0.
      1.41271859e-01 0. 5.61903894e-01 6.60017014e-01 6.99213624e-01
      7.36710966e-01 0. 5.78692377e-01 5.92623532e-01 8.41782093e-01
      8.43828142e-01 8.38688254e-01 8.39884281e-01 8.23607624e-01
      7.68816292e-01 7.81005800e-01 4.32787001e-01 6.98476970e-01
      6.40021324e-01 5.96864522e-01 5.61308086e-01 0. 5.66693008e-01
      6.04448855e-01 4.56349820e-01 2.50980616e-01 0. 7.22138226e-01
      7.15514243e-01 7.36186683e-01 7.34716892e-01 7.18386173e-01
      6.81504786e-01 6.93001986e-01 6.64292693e-01 6.00175738e-01
      5.60252547e-01 5.15762269e-01</_>
    <_>
      0. 0. 9.16559845e-02 3.02924633e-01 4.30775225e-01 4.78496045e-01
      5.29907167e-01 0. 5.93301177e-01 8.77127171e-01 8.58858347e-01
      8.45783889e-01 8.37565005e-01 8.60310555e-01 5.77001572e-01
      5.94920754e-01 0. 0. 0. 0. 0. 0. 0. 6.23886228e-01 6.10689104e-01
      6.56287849e-01 1. 9.36762691e-01 7.08195806e-01 6.92910731e-01
      4.49433148e-01 0. 5.91270447e-01 5.44454992e-01 5.36588550e-01
      3.19776148e-01 2.00968415e-01 0. 0. 5.07995307e-01 5.53126991e-01
      5.90610325e-01 0. 0. 7.09873796e-01 7.06982970e-01 7.47585952e-01
      7.53390133e-01 7.59620905e-01 7.53122628e-01 5.19035518e-01
      4.71680969e-01 6.75319672e-01 6.00998700e-01 5.66609204e-01 0.
      6.01906717e-01 6.13334298e-01 6.57475471e-01 6.40068591e-01
      6.63685858e-01 6.66540205e-01 4.89577323e-01 6.49736643e-01
      6.29478037e-01 0. 5.43211699e-01 5.03521800e-01 0. 0. 0. 0.</_>
    <_>
      0. 4.10397112e-01 4.13308710e-01 4.46047246e-01 0. 0.
      4.93303835e-01 7.03529716e-01 6.97277725e-01 6.93309665e-01
      6.71598434e-01 6.61023557e-01 6.45039737e-01 6.28272057e-01
      2.99963225e-02 5.96990287e-01 6.16472661e-01 6.61090553e-01 0. 0.
      0. 6.67074680e-01 6.35203660e-01 6.19232893e-01 6.43890917e-01
      7.90697277e-01 8.41647387e-01 6.96719348e-01 7.17053473e-01
      7.42302716e-01 7.56639361e-01 7.66881824e-01 2.32686713e-01
      1.69406146e-01 0. 4.47915971e-01 0. 3.87435675e-01 3.31786305e-01
      2.51782775e-01 0. 0. 4.35909122e-01 5.67371190e-01 0. 0. 1.
      7.22548068e-01 7.36770868e-01 7.33788848e-01 5.46284795e-01
      5.10042191e-01 4.39652860e-01 6.59346163e-01 6.28357649e-01 0.
      6.62190437e-01 4.65994596e-01 5.08059442e-01 6.97264075e-01
      6.92898750e-01 6.94362998e-01 6.78712189e-01 6.52981222e-01
      6.11949921e-01 5.33538938e-01 4.19961154e-01 0. 1.37441352e-01 0.
      2.73259878e-01 3.25363487e-01</_>
    <_>
      0. 0. 2.79056579e-01 4.11564320e-01 4.49312121e-01 4.98868287e-01
      5.67217231e-01 5.57344556e-01 8.58692348e-01 8.54426920e-01
      8.31705511e-01 8.35290372e-01 8.06597352e-01 7.88964212e-01
      8.04621816e-01 0. 0. 0. 0. 0. 0. 0. 0. 0. 6.23833716e-01
      8.59680891e-01 8.35757375e-01 8.53046775e-01 8.75428498e-01
      8.78538847e-01 0. 0. 0. 5.57069898e-01 5.09409070e-01
      2.79795915e-01 0. 0. 0. 4.40524071e-01 5.15456498e-01
      5.77278912e-01 1.77795544e-01 0. 4.35413927e-01 7.16476083e-01 1.
      9.45691347e-01 7.31420994e-01 7.12798297e-01 4.65439111e-01
      6.68780088e-01 6.31004572e-01 6.14957929e-01 5.81860125e-01 0.
      6.18710339e-01 4.06758279e-01 4.53810930e-01 4.65143144e-01
      6.84822559e-01 6.88433170e-01 9.45254266e-01 9.33512807e-01
      9.55102861e-01 6.13225996e-01 5.95385671e-01 5.21338344e-01
      4.67178464e-01 0. 0. 0.</_>
    <_>
      0. 3.05092335e-01 3.67297888e-01 4.37101513e-01 4.83173192e-01
      5.21784544e-01 0. 5.77173531e-01 5.88419139e-01 7.99117565e-01
      7.75993586e-01 8.00190806e-01 7.80117214e-01 7.78544366e-01
      5.66002846e-01 0. 1.39502555e-01 0. 0. 0. 0. 0. 0. 0.
      7.86659956e-01 7.89616704e-01 8.34986448e-01 8.54364097e-01
      6.41617179e-01 8.59778762e-01 8.66302311e-01 0. 0. 5.28901458e-01
      4.84195888e-01 3.55959266e-01 2.33981669e-01 0. 0. 4.25853401e-01
      3.96932393e-01 5.50201833e-01 1.61899760e-01 0. 4.10934538e-01 1.
      9.78940487e-01 9.83823121e-01 7.22469509e-01 6.92628622e-01
      7.06278861e-01 4.56448674e-01 6.52522504e-01 6.18338108e-01 0. 0.
      0. 1.38860285e-01 4.60176468e-01 3.37722003e-01 6.84204996e-01
      6.87325001e-01 9.72247064e-01 6.70345306e-01 6.49639010e-01 0.
      5.76812088e-01 5.20312786e-01 0. 0. 0. 0.</_>
    <_>
      0. 4.61453497e-01 5.39097846e-01 5.45981705e-01 5.89025259e-01 0.
      6.26006842e-01 6.48429692e-01 9.45405722e-01 9.40693498e-01
      9.13581491e-01 8.49476337e-01 8.40461910e-01 8.38842332e-01
      5.87905288e-01 7.89436936e-01 8.15094531e-01 0. 0. 0. 0.
      8.14548492e-01 7.88760304e-01 8.37780833e-01 8.21916759e-01
      8.57576013e-01 8.91080618e-01 8.87534499e-01 9.38799679e-01 1.
      7.05480874e-01 4.33686197e-01 3.40232462e-01 2.61575431e-01
      6.12648547e-01 6.06521845e-01 5.29647350e-01 4.58982170e-01
      3.56547982e-01 0. 0. 0. 6.40064299e-01 7.06060171e-01 0.
      5.87436855e-01 9.14740562e-01 9.41724658e-01 9.56364036e-01
      9.49913204e-01 7.13016868e-01 6.54555023e-01 8.50202739e-01
      8.08744490e-01 0. 0. 8.38769436e-01 6.01429462e-01 6.44713640e-01
      9.04452741e-01 9.03145134e-01 9.08747137e-01 8.71497631e-01 0. 0.
      6.92041278e-01 5.99859893e-01 0. 2.31311381e-01 0. 2.54593074e-01
      3.59035075e-01</_>
    <_>
      0. 4.05796796e-01 4.38882828e-01 4.79938179e-01 5.26613116e-01 0.
      0. 5.78739643e-01 8.25373888e-01 7.98754930e-01 7.98135161e-01
      7.80128300e-01 7.67749190e-01 7.46766865e-01 7.37834036e-01
      5.35539985e-01 7.05432832e-01 7.30533123e-01 7.55027652e-01 0. 0.
      7.67333269e-01 7.22354650e-01 7.53173411e-01 7.38158464e-01
      9.08980370e-01 9.01726842e-01 1. 8.27830315e-01 8.34306896e-01
      8.40836287e-01 0. 0. 0. 4.90947157e-01 4.50129986e-01
      3.86735260e-01 2.64383495e-01 5.17443605e-02 0. 4.74257082e-01
      5.25429606e-01 5.80078483e-01 6.21540964e-01 0. 7.09988952e-01
      7.51760542e-01 7.78686464e-01 7.68331110e-01 7.63918221e-01
      7.25938857e-01 7.44244576e-01 6.97902799e-01 6.85356736e-01 0. 0.
      0. 4.73974317e-01 7.11798728e-01 7.21890450e-01 7.17912614e-01
      7.20367491e-01 7.05020845e-01 6.78757012e-01 6.58502758e-01
      6.38921022e-01 5.60205996e-01 5.02248883e-01 0. 0. 0.
      2.55678862e-01</_>
    <_>
      0. 3.54520559e-01 4.23872024e-01 5.01089752e-01 5.51582754e-01 0.
      0. 6.25657797e-01 9.29405034e-01 9.00175691e-01 8.99714530e-01
      8.58916700e-01 8.47724617e-01 8.28159750e-01 8.33215773e-01
      8.54451120e-01 0. 0. 5.45579553e-01 5.79471171e-01 0. 0.
      6.08669877e-01 5.88409781e-01 9.04640019e-01 8.95553112e-01
      9.07557666e-01 9.25615966e-01 1. 7.14115202e-01 7.21168458e-01
      4.87610996e-01 4.26841736e-01 0. 6.09418035e-01 5.64013660e-01
      4.93204087e-01 0. 2.56588101e-01 0. 0. 6.50661826e-01
      6.95631325e-01 0. 5.87857425e-01 8.71824503e-01 8.95668983e-01
      9.01692927e-01 8.89325202e-01 8.83293569e-01 6.25946164e-01
      5.69498003e-01 7.97110140e-01 0. 0. 0. 5.44354320e-01
      7.63791859e-01 8.05218756e-01 8.26212585e-01 8.21421027e-01
      8.23587537e-01 7.85405099e-01 7.52917349e-01 7.03838646e-01
      6.13100827e-01 5.46389222e-01 4.82336640e-01 0. 0. 0. 0.</_>
    <_>
      0. 3.82325023e-01 4.55008715e-01 5.35928488e-01 5.88760257e-01 0.
      0. 6.65784001e-01 9.32878494e-01 9.28079605e-01 9.02892113e-01
      8.86293530e-01 8.46475780e-01 8.58805895e-01 8.45306456e-01
      8.21891010e-01 8.46464694e-01 8.67012799e-01 3.98213923e-01
      4.32538897e-01 0. 0. 8.93239021e-01 8.50107133e-01 8.95921588e-01
      9.02336299e-01 9.22421277e-01 9.35268700e-01 9.87591743e-01 1.
      6.96098566e-01 4.52408075e-01 3.57310385e-01 6.00922823e-01
      5.90991974e-01 5.07238328e-01 3.59799773e-01 0. 2.20016927e-01 0.
      0. 5.40749490e-01 6.50051594e-01 0. 5.51427662e-01 5.74179292e-01
