<?xml version="1.0"?>
<opencv_storage>
<opencv_ml_svm>
  <format>3</format>
  <svmType>C_SVC</svmType>
  <kernel>
    <type>POLY</type>
    <degree>3.</degree>
    <gamma>3.</gamma>
    <coef0>0.</coef0></kernel>
  <C>1.</C>
  <term_criteria><epsilon>1.1920928955078125e-07</epsilon>
    <iterations>1000</iterations></term_criteria>
  <var_count>18</var_count>
  <class_count>9</class_count>
  <class_labels type_id="opencv-matrix">
    <rows>9</rows>
    <cols>1</cols>
    <dt>i</dt>
    <data>
      1 2 3 4 5 6 7 8 9</data></class_labels>
  <sv_total>135</sv_total>
  <support_vectors>
    <_>
      0. 5.96172273e-01 9.31106448e-01 1. 8.20160568e-01 8.04630995e-01
      8.59825850e-01 8.65648091e-01 7.03354359e-01 0. 5.42443991e-01
      6.72393799e-01 8.16333473e-01 8.07385027e-01 6.71128333e-01
      8.51590633e-01 9.04219806e-01 8.87611151e-01</_>
    <_>
      0. 6.29992962e-01 7.33035386e-01 1. 6.04146600e-01 5.24187803e-01
      6.01353526e-01 6.71154439e-01 6.35826111e-01 5.40827096e-01
      3.63750964e-01 7.07321525e-01 8.42652202e-01 6.13268614e-01
      7.34269917e-01 7.77409852e-01 9.00923848e-01 7.48794615e-01</_>
    <_>
      0. 4.74379987e-01 6.91784918e-01 1. 7.85162687e-01 6.87847912e-01
      7.46891856e-01 8.18635166e-01 7.96129823e-01 6.75324619e-01
      5.68878651e-01 8.33837986e-01 8.97657692e-01 9.06631947e-01
      5.22394896e-01 8.21579516e-01 8.08755577e-01 6.57318056e-01</_>
    <_>
      0. 5.56199789e-01 8.38178217e-01 1. 6.19920611e-01 7.98194408e-01
      8.15577209e-01 8.23013604e-01 6.51148379e-01 5.34546256e-01
      4.85037953e-01 7.62784481e-01 8.43010247e-01 8.14378977e-01
      6.85366750e-01 8.63219380e-01 8.88566434e-01 8.90999436e-01</_>
    <_>
      0. 5.08238971e-01 8.33637536e-01 8.97828043e-01 6.51164532e-01
      6.98662996e-01 7.02931464e-01 1. 8.96730542e-01 5.79128802e-01
      5.67671239e-01 6.38084888e-01 9.73255515e-01 9.87691402e-01
      6.74591005e-01 9.38652098e-01 8.79568100e-01 4.13392276e-01</_>
    <_>
      0. 3.71679544e-01 1. 9.19288039e-01 9.30450857e-01 6.82485044e-01
      7.38448381e-01 7.82826781e-01 7.97375381e-01 6.95715547e-01
      5.51708817e-01 8.60670090e-01 8.63567531e-01 7.20121443e-01
      4.87650931e-01 7.30825484e-01 7.88326025e-01 6.34270728e-01</_>
    <_>
      0. 4.66653496e-01 8.80671799e-01 9.51398253e-01 8.62234473e-01
      6.24030530e-01 6.79235995e-01 7.82281816e-01 7.94475257e-01
      6.70569241e-01 5.13737440e-01 8.23058784e-01 1. 8.39208782e-01
      8.03602099e-01 8.49836946e-01 7.91730404e-01 5.90940475e-01</_>
    <_>
      0. 4.58195418e-01 6.89988971e-01 8.20567727e-01 7.00538576e-01
      6.00156069e-01 6.49770677e-01 8.13154519e-01 8.13036859e-01
      5.13570130e-01 4.02235031e-01 5.49475849e-01 1. 7.57014036e-01
      4.80352521e-01 7.20657170e-01 7.18257070e-01 5.78638434e-01</_>
    <_>
      0. 5.64565957e-01 9.24659193e-01 8.76218498e-01 7.95791507e-01 0.
      8.40175211e-01 1. 6.86116278e-01 6.33152127e-01 5.63783586e-01
      7.10076809e-01 9.42255676e-01 8.19294333e-01 5.77406883e-01
      8.86674404e-01 8.61374021e-01 6.86384678e-01</_>
    <_>
      0. 5.33858120e-01 8.66267800e-01 1. 8.27074766e-01 0. 0.
      9.41375673e-01 9.65788603e-01 6.60996616e-01 4.87089217e-01
      7.04219520e-01 9.29619312e-01 8.24928939e-01 5.37233531e-01
      8.40916753e-01 8.08006763e-01 6.75455153e-01</_>
    <_>
      0. 5.73199511e-01 5.95010042e-01 8.44146430e-01 7.64441848e-01 0.
      7.67721295e-01 8.63411009e-01 9.06939089e-01 5.15866816e-01
      3.50664794e-01 5.45505881e-01 1. 7.60997593e-01 4.61248636e-01
      7.57689059e-01 7.63607919e-01 6.43850505e-01</_>
    <_>
      0. 4.13359821e-01 6.26867115e-01 1. 8.85267973e-01 4.55084801e-01
      6.45049393e-01 9.75015163e-01 7.40462542e-01 6.20983481e-01
      5.85736811e-01 7.28914380e-01 7.64940202e-01 7.19420433e-01
      4.04450446e-01 6.77195489e-01 9.17948604e-01 6.58102632e-01</_>
    <_>
      0. 4.98890847e-01 9.60800350e-01 1. 7.19235420e-01 6.80285215e-01
      6.88958049e-01 7.76881099e-01 6.29255056e-01 5.69370627e-01
      5.77770054e-01 6.43138170e-01 8.45282674e-01 8.30311418e-01
      4.61917907e-01 7.71082461e-01 7.60964572e-01 6.15288794e-01</_>
    <_>
      0. 6.71335042e-01 7.41489708e-01 7.38532603e-01 6.63647473e-01 0.
      0. 1. 8.03510070e-01 6.82266295e-01 3.66887540e-01 7.70950079e-01
      6.19197190e-01 8.12904477e-01 6.65083408e-01 7.48384595e-01
      7.34911561e-01 7.38116384e-01</_>
    <_>
      0. 7.70908594e-01 7.01522946e-01 1. 8.98236156e-01 0.
      9.07226801e-01 9.43175495e-01 7.58554518e-01 6.98368788e-01
      7.30331063e-01 7.87596643e-01 8.06951225e-01 8.38211775e-01
      6.63326800e-01 7.72238433e-01 7.66258717e-01 8.67783189e-01</_>
    <_>
      0. 7.32011735e-01 9.02728975e-01 9.21557665e-01 8.71082723e-01
      8.21410537e-01 8.68826866e-01 1. 9.73574996e-01 8.09558570e-01
      8.08172822e-01 8.94977331e-01 7.97082603e-01 9.72807288e-01
      8.54133368e-01 7.83177257e-01 8.01454186e-01 0.</_>
    <_>
      0. 7.60211229e-01 9.34578657e-01 9.54079211e-01 8.67420852e-01
      8.44061136e-01 8.53757501e-01 1. 9.54453468e-01 7.83221483e-01
      8.31357121e-01 8.63279104e-01 7.96403050e-01 9.75218117e-01
      8.67256999e-01 8.01949084e-01 8.27088952e-01 0.</_>
    <_>
      0. 7.97193170e-01 9.63738859e-01 9.80827570e-01 9.18384969e-01
      8.79242957e-01 9.32546139e-01 1. 8.38500917e-01 7.00135410e-01
      7.86601305e-01 8.16646934e-01 7.83745170e-01 9.43367124e-01
      8.65437925e-01 7.56517291e-01 7.73101032e-01 8.25196862e-01</_>
    <_>
      0. 8.39155436e-01 9.20950413e-01 9.16356504e-01 8.01078081e-01
      7.46009946e-01 8.21633339e-01 9.22720313e-01 9.03292418e-01
      7.58674562e-01 3.27324182e-01 8.67426157e-01 7.85653651e-01 1.
      9.21032548e-01 8.56138170e-01 8.71199787e-01 8.82926822e-01</_>
    <_>
      0. 5.39831400e-01 8.15440774e-01 8.57901573e-01 8.16715956e-01 0.
      0. 9.68003154e-01 1. 8.27039361e-01 8.27462435e-01 8.83088827e-01
      8.91397715e-01 7.11281955e-01 7.63391852e-01 6.82304919e-01
      7.02880144e-01 0.</_>
    <_>
      0. 6.85773790e-01 8.77358615e-01 9.00381684e-01 8.42416883e-01
      6.17242694e-01 8.88852060e-01 1. 9.92692947e-01 7.96434045e-01
      8.78118813e-01 9.35893178e-01 6.80970192e-01 9.54486251e-01
      8.37804258e-01 7.44053841e-01 7.66412079e-01 0.</_>
    <_>
      0. 5.28400958e-01 8.72939706e-01 9.16602552e-01 8.80614281e-01
      6.73848614e-02 9.35948849e-01 1. 9.78482723e-01 6.56457663e-01
      7.97489583e-01 8.34182262e-01 6.47967458e-01 8.81981254e-01
      7.65147209e-01 6.69736803e-01 6.64064050e-01 0.</_>
    <_>
      0. 7.55581379e-01 9.75425601e-01 9.72997189e-01 8.97685409e-01 0.
      9.26756203e-01 1. 8.01397502e-01 6.03052497e-01 7.95943856e-01
      8.22653651e-01 7.51903236e-01 8.81571412e-01 7.80541539e-01
      7.17314184e-01 7.38051832e-01 0.</_>
    <_>
      0. 0. 9.73383129e-01 9.69787002e-01 9.81967807e-01 6.85956180e-01
      7.86347389e-01 9.03645992e-01 9.60442245e-01 7.75361419e-01
      7.83557057e-01 8.39170814e-01 7.80222297e-01 7.76078463e-01
      6.67122602e-01 5.63391864e-01 1. 6.13242149e-01</_>
    <_>
      0. 0. 8.31697226e-01 8.28057289e-01 8.35763097e-01 8.30833912e-02
      5.58355339e-02 1. 7.94870913e-01 6.42355502e-01 6.44568801e-01
      6.81050658e-01 6.18186891e-01 6.36547387e-01 5.32921076e-01
      4.58749712e-01 8.56422246e-01 5.32389879e-01</_>
    <_>
      0. 7.54075706e-01 1. 9.71408904e-01 9.40238595e-01 0.
      9.46570098e-01 9.82027769e-01 8.00215125e-01 7.25859880e-01
      1.81464925e-01 8.16914976e-01 7.69084573e-01 9.02440012e-01
      8.23579192e-01 6.98318541e-01 7.66998887e-01 7.79104054e-01</_>
    <_>
      0. 7.43237734e-01 8.05990577e-01 7.77090251e-01 6.99821770e-01
      6.32913530e-01 6.50617480e-01 9.83658493e-01 9.33302224e-01
      7.06747472e-01 7.25262761e-01 1. 8.68421137e-01 7.36728489e-01
      6.58985853e-01 7.26517558e-01 8.51558447e-01 8.31873834e-01</_>
    <_>
      0. 8.57510448e-01 9.67557013e-01 8.86001170e-01 7.83135414e-01
      7.08505929e-01 7.26983905e-01 1. 7.84986317e-01 6.73368633e-01
      7.72432804e-01 9.42179441e-01 9.06166375e-01 6.75177157e-01 0.
      7.35295594e-01 8.76549721e-01 9.15020287e-01</_>
    <_>
      0. 8.10528278e-01 8.86977255e-01 8.59101474e-01 7.61565983e-01
      5.23436546e-01 7.04786539e-01 1. 6.93510115e-01 0. 4.40561354e-01
      9.39206839e-01 6.66729808e-01 6.70336545e-01 5.61720729e-01
      6.78805053e-01 8.06334555e-01 8.44415426e-01</_>
    <_>
      0. 7.38262534e-01 8.68198633e-01 8.54777694e-01 7.76699841e-01
      6.54705644e-01 6.96646452e-01 1. 9.78474438e-01 8.45820725e-01
      8.24557126e-01 9.61869657e-01 7.00479150e-01 6.90937340e-01
      5.71214795e-01 5.88831782e-01 8.22852910e-01 8.88091087e-01</_>
    <_>
      0. 7.52849400e-01 8.60443294e-01 8.45251918e-01 0. 6.47961259e-01
      6.72681034e-01 9.29783344e-01 9.84518111e-01 8.50859106e-01
      8.37807834e-01 1. 8.93879116e-01 6.98534489e-01 5.96030414e-01
      7.18151510e-01 7.27835119e-01 7.23892629e-01</_>
    <_>
      0. 7.19620407e-01 6.85617387e-01 9.06542420e-01 8.09334755e-01
      7.12417603e-01 7.56289244e-01 1. 7.29525745e-01 8.14831138e-01
      5.04289448e-01 9.07857597e-01 6.29617095e-01 5.99426806e-01
      5.24058223e-01 5.74812710e-01 6.69592679e-01 8.13082755e-01</_>
    <_>
      0. 4.76837307e-01 7.20181882e-01 7.39677548e-01 6.54716730e-01
      1.41257182e-01 7.05942273e-01 9.95183945e-01 1. 6.53822958e-01
      5.44130147e-01 9.84060943e-01 7.02370405e-01 6.07749760e-01
      5.73386014e-01 5.94774842e-01 7.09978342e-01 7.15850651e-01</_>
    <_>
      0. 5.44791579e-01 8.01560342e-01 7.67511010e-01 7.88287818e-01
      5.12470901e-01 8.55277836e-01 9.27760780e-01 9.58477259e-01 0.
      5.10289252e-01 1. 9.96785760e-01 7.87800014e-01 7.45758116e-01
      7.69109905e-01 7.75919676e-01 7.43181884e-01</_>
    <_>
      0. 4.52206522e-01 7.85947263e-01 7.80548751e-01 8.20769072e-01
      5.48085570e-01 6.03708148e-01 9.96820450e-01 1. 6.33189917e-01
      6.23710811e-01 9.93534207e-01 7.82899559e-01 7.22596586e-01
      6.64898276e-01 9.40342724e-01 9.29447889e-01 5.77239811e-01</_>
    <_>
      0. 5.59459209e-01 6.40700340e-01 8.20079744e-01 8.28070283e-01 0.
      5.67458510e-01 1. 9.21748340e-01 2.54780293e-01 2.61056095e-01
      7.86393642e-01 9.94420648e-01 6.05931580e-01 5.70964575e-01
      6.19861901e-01 9.46547449e-01 6.89930201e-01</_>
    <_>
      0. 6.39801860e-01 3.48780751e-01 1. 0. 0. 8.96572351e-01
      8.66595805e-01 6.40227497e-01 1.28396094e-01 5.39037883e-01
      4.87832546e-01 8.01256180e-01 6.16820514e-01 5.25473535e-01
      6.67722583e-01 7.50698566e-01 7.51061380e-01</_>
    <_>
      0. 3.82551879e-01 7.36474276e-01 9.86258745e-01 7.43284464e-01 0.
      6.14922702e-01 9.74954247e-01 4.00253177e-01 6.42178893e-01
      6.25752985e-01 6.89111531e-01 1. 7.23822355e-01 8.57836604e-01
      9.66649711e-01 8.61889780e-01 0.</_>
    <_>
      0. 6.21091723e-01 3.99522960e-01 9.83726442e-01 7.64523029e-01 0.
      6.70222402e-01 1. 6.06672704e-01 0. 5.53145885e-01 6.51494920e-01
      7.53866196e-01 7.85097003e-01 4.49971974e-01 7.12850213e-01
      8.55458140e-01 4.74156141e-01</_>
    <_>
      0. 6.24073744e-01 7.35323548e-01 8.40642273e-01 8.71225297e-01
      5.16650081e-01 7.85677135e-01 8.82695973e-01 5.30298114e-01
      2.15193480e-01 0. 4.75639373e-01 9.44324076e-01 7.28608310e-01
      6.18184626e-01 9.27530408e-01 1. 0.</_>
    <_>
      0. 0. 7.01775193e-01 1. 8.78120065e-01 0. 7.98806429e-01
      8.78252864e-01 6.58017576e-01 1.41342938e-01 5.30173302e-01
      6.67698085e-01 7.72522390e-01 8.12563241e-01 6.53391480e-01
      6.93244755e-01 8.63111138e-01 5.82195640e-01</_>
    <_>
      0. 0. 7.78949976e-01 9.49545205e-01 9.95658457e-01 0. 1.
      9.39175546e-01 7.87640989e-01 0. 6.95288479e-01 8.03428352e-01
      8.14766645e-01 8.66180062e-01 7.56906331e-01 8.61164212e-01
      8.09432149e-01 7.94909954e-01</_>
    <_>
      0. 0. 7.57085919e-01 9.69876885e-01 1. 4.20315683e-01
      9.68529642e-01 9.48266387e-01 7.09416807e-01 2.37440437e-01
      5.94607770e-01 6.58028007e-01 7.73180127e-01 7.91693449e-01
      7.77664304e-01 8.17360938e-01 8.18326294e-01 8.61267567e-01</_>
    <_>
      0. 6.81110203e-01 7.50457764e-01 9.54432964e-01 9.43187535e-01
      8.18201542e-01 9.45283592e-01 9.33432639e-01 7.39761293e-01
      5.18107951e-01 5.20593166e-01 7.77599514e-01 9.84499097e-01
      9.83930767e-01 8.78732800e-01 1. 9.79460657e-01 7.74814308e-01</_>
    <_>
      0. 0. 7.94410527e-01 9.64628518e-01 1. 8.89602184e-01
      9.98512447e-01 9.53226268e-01 7.51227379e-01 3.63042265e-01
      6.35209441e-01 6.06322229e-01 8.17837894e-01 8.34759533e-01
      7.34456420e-01 8.19008410e-01 8.10412765e-01 7.88399994e-01</_>
    <_>
      0. 0. 7.64006972e-01 9.61814404e-01 9.80812311e-01 8.56930614e-01
      1. 9.74326015e-01 7.41536319e-01 0. 6.75964355e-01 5.72765768e-01
      8.95306349e-01 8.79496634e-01 7.49912024e-01 9.00317848e-01
      8.42384875e-01 8.65812778e-01</_>
    <_>
      0. 5.15178680e-01 8.09462011e-01 1. 9.85875010e-01 8.07147801e-01
      9.78372455e-01 9.14325655e-01 7.49260306e-01 0. 4.79326993e-01
      7.03199506e-01 8.66763413e-01 8.93514574e-01 9.05440807e-01
      9.30622697e-01 9.52015281e-01 7.84744918e-01</_>
    <_>
      0. 7.06717968e-01 9.26828980e-01 8.90822589e-01 8.19054008e-01
      8.16484213e-01 8.40034723e-01 9.00921226e-01 9.30324256e-01
      7.19315410e-01 5.98405540e-01 8.24002206e-01 1. 9.51000214e-01
      5.80832183e-01 9.17440295e-01 9.09017444e-01 7.70531118e-01</_>
    <_>
      0. 7.04266667e-01 7.02404201e-01 9.25972819e-01 8.84737432e-01 0.
      8.93267989e-01 9.69363749e-01 1. 7.30691612e-01 5.22909880e-01
      9.04828250e-01 9.23395872e-01 9.30596113e-01 5.81058800e-01
      8.57874095e-01 8.65430236e-01 8.08447182e-01</_>
    <_>
      0. 6.48508012e-01 9.44716752e-01 9.40680325e-01 9.27108884e-01 0.
      9.56171274e-01 9.62937891e-01 7.59512961e-01 6.62957609e-01
      6.68232083e-01 5.61931193e-01 8.46794605e-01 7.92380512e-01
      4.59188074e-01 7.42714345e-01 1. 7.37268627e-01</_>
    <_>
      0. 6.24305069e-01 9.08100307e-01 9.04316127e-01 8.78933728e-01
      3.72477621e-01 9.16519940e-01 1. 8.17136824e-01 7.56734848e-01
      7.54511237e-01 9.65893924e-01 9.40759778e-01 6.22411251e-01
      2.21891031e-01 8.19154203e-01 8.25420916e-01 6.58154845e-01</_>
    <_>
      0. 5.37320614e-01 7.30784297e-01 1. 7.35230923e-01 5.22718310e-01
      0. 8.89305532e-01 5.90196609e-01 6.87265158e-01 6.77425861e-01
      8.74187768e-01 8.50681365e-01 5.39446175e-01 4.43073690e-01
      6.74321592e-01 6.89014316e-01 6.72962546e-01</_>
    <_>
      0. 6.25208020e-01 7.34772563e-01 9.64067400e-01 9.52059329e-01 0.
      9.70959008e-01 9.92925704e-01 9.96174932e-01 6.66839361e-01
      6.72920346e-01 8.27644467e-01 8.41470420e-01 7.80981421e-01
      4.61911678e-01 7.17870772e-01 1. 7.26428032e-01</_>
    <_>
      0. 5.40317714e-01 8.95452082e-01 8.92120898e-01 8.99640560e-01
      4.25613523e-01 9.65807140e-01 1. 8.35759103e-01 7.13000000e-01
      7.15021133e-01 8.98019433e-01 8.73404562e-01 7.73787677e-01
      6.97774947e-01 7.04598844e-01 9.44754541e-01 0.</_>
    <_>
      0. 6.20439947e-01 5.79446971e-01 8.02741110e-01 6.95859551e-01 0.
      7.01300621e-01 1. 6.36264086e-01 3.79204959e-01 5.93693972e-01
      7.11427629e-01 9.24792647e-01 6.28006518e-01 4.31583643e-01
      6.51425481e-01 7.27477670e-01 7.53900588e-01</_>
    <_>
      0. 4.13829654e-01 5.89027584e-01 7.56319463e-01 7.98249364e-01
      3.23589951e-01 0. 9.17427540e-01 7.46430874e-01 4.92693871e-01 0.
      7.47184038e-01 1. 5.97248018e-01 4.41592574e-01 3.84186238e-01
      9.42725599e-01 1.86683059e-01</_>
    <_>
      0. 5.22869587e-01 8.40933204e-01 8.02448392e-01 7.95903683e-01 0.
      0. 9.08277273e-01 7.44601846e-01 6.88383877e-01 4.76217479e-01
      1.23560287e-01 9.40479994e-01 8.75096142e-01 7.08282888e-01
      8.73042583e-01 1. 6.97382867e-01</_>
    <_>
      0. 3.97059202e-01 8.54014158e-01 8.24876666e-01 8.58908236e-01
      6.64593637e-01 7.07672179e-01 1. 7.85715222e-01 6.55531526e-01 0.
      7.56091475e-01 8.40116680e-01 7.39221513e-01 5.67744017e-01
      8.23155344e-01 8.82897139e-01 6.28209710e-01</_>
    <_>
      0. 4.38753068e-01 8.14635992e-01 7.80916393e-01 7.86113203e-01
      8.17472756e-01 8.69614124e-01 1. 8.11496258e-01 7.46519923e-01
      5.32455742e-01 7.78957307e-01 9.15489078e-01 7.35294163e-01
      6.39165938e-01 8.84221911e-01 8.49128962e-01 6.55561447e-01</_>
    <_>
      0. 4.01269346e-01 8.24979603e-01 7.96872199e-01 7.79550850e-01
      6.23738289e-01 7.04184651e-01 8.04324090e-01 8.08260858e-01
      6.38523459e-01 2.97545314e-01 7.97080159e-01 8.55981529e-01
      6.61219120e-01 4.89171296e-01 8.20719302e-01 1. 4.73923057e-01</_>
    <_>
      0. 4.68521327e-01 8.38643014e-01 9.17527318e-01 7.57545888e-01
      6.19006991e-01 6.94980145e-01 9.72158432e-01 8.51804435e-01
      7.06937075e-01 6.01930439e-01 3.76307726e-01 9.49142694e-01
      8.91820371e-01 7.03371286e-01 9.15944278e-01 1. 6.23722374e-01</_>
    <_>
      0. 3.75490785e-01 7.93023825e-01 9.27009344e-01 6.52579546e-01
      6.87548995e-01 5.49250364e-01 9.09023523e-01 7.96335697e-01
      6.62252128e-01 5.10286272e-01 8.10984194e-01 8.92154634e-01
      6.98596358e-01 5.48454165e-01 8.84207606e-01 1. 5.32348752e-01</_>
    <_>
      0. 8.37114036e-01 8.69314969e-01 9.61641073e-01 7.23025799e-01
      6.90553367e-01 7.08528459e-01 8.85965288e-01 7.52791405e-01
      4.28853273e-01 5.93515217e-01 4.08863932e-01 1. 9.57926869e-01
      7.50813067e-01 9.79311049e-01 6.20675802e-01 3.83832723e-01</_>
    <_>
      0. 5.06265044e-01 8.25779855e-01 8.19069624e-01 7.42516696e-01
      3.14256400e-01 7.34370470e-01 8.75740707e-01 9.05848384e-01
      5.43405652e-01 5.12173653e-01 3.46468836e-01 9.32662427e-01
      8.24062586e-01 7.02860296e-01 1. 4.26510692e-01 6.01626277e-01</_>
    <_>
      0. 5.58631837e-01 8.72537911e-01 8.39843214e-01 7.59386659e-01
      5.17361462e-01 7.63194084e-01 8.45575809e-01 8.05012345e-01
      5.01334131e-01 4.68625993e-01 3.03063631e-01 9.09154832e-01
      9.03641820e-01 7.04540074e-01 9.16732550e-01 1. 6.32932603e-01</_>
    <_>
      0. 5.02460122e-01 7.83450067e-01 7.25772023e-01 6.66828930e-01 0.
      6.65561914e-01 7.23831117e-01 7.75679171e-01 5.03176391e-01
      4.68317419e-01 3.46538365e-01 8.97458792e-01 8.91565382e-01
      6.93890631e-01 1. 9.34204698e-01 6.06863976e-01</_>
    <_>
      0. 4.88189131e-01 9.59794998e-01 1. 7.30641007e-01 5.57319820e-01
      7.66509712e-01 8.20967495e-01 6.28555417e-01 5.29929698e-01
      3.63047063e-01 6.91344500e-01 8.75221133e-01 6.91573560e-01
      6.14474714e-01 8.32250476e-01 7.95462787e-01 6.11981452e-01</_>
    <_>
      0. 4.55924064e-01 8.05626273e-01 7.54042923e-01 7.38837183e-01
      1.19634219e-01 7.34890699e-01 8.10409606e-01 8.13652813e-01
      5.53003013e-01 4.18626219e-01 5.52472889e-01 7.63710976e-01
      7.59981573e-01 7.08860040e-01 7.23429739e-01 1. 5.94875097e-01</_>
    <_>
      0. 4.65525806e-01 8.71399105e-01 8.41687977e-01 8.49712253e-01
      5.86845338e-01 8.50737870e-01 1. 9.12437320e-01 5.98658562e-01
      4.40806121e-01 5.65896749e-01 8.05165470e-01 8.02778363e-01
      7.28278339e-01 7.46736825e-01 7.50152469e-01 6.93754375e-01</_>
    <_>
      0. 6.18215144e-01 8.87574136e-01 8.21633041e-01 7.29108810e-01
      4.40853029e-01 7.24840045e-01 8.14806163e-01 8.54893386e-01
      2.42439896e-01 5.44471383e-01 7.07123637e-01 9.72999096e-01 1.
      5.98139644e-01 9.89193320e-01 9.40107346e-01 7.14110851e-01</_>
    <_>
      0. 4.07127529e-01 7.43307292e-01 9.31847095e-01 7.13271797e-01
      6.58384264e-01 7.45562553e-01 8.26948762e-01 9.10255253e-01
      6.06332779e-01 4.87396955e-01 7.56562054e-01 1. 8.20959389e-01
      7.04799056e-01 8.76355290e-01 7.32692659e-01 2.64038891e-01</_>
    <_>
      0. 5.87518990e-01 8.37068200e-01 9.00413454e-01 8.05312037e-01 0.
      7.87808001e-01 8.71757627e-01 9.27212656e-01 5.43037474e-01
      4.69870448e-01 6.96442246e-01 9.57282186e-01 1. 9.18470323e-01
      9.76778448e-01 9.31605518e-01 6.53098762e-01</_>
    <_>
      0. 4.92779583e-01 9.60952103e-01 1. 9.40659583e-01 0.
      9.18661535e-01 9.92761552e-01 6.84391677e-01 5.83504915e-01
      5.83960593e-01 6.97153926e-01 8.78459394e-01 9.06694770e-01
      7.60827899e-01 8.12110841e-01 7.85096288e-01 6.34515285e-01</_>
    <_>
      0. 3.86693060e-01 6.77764237e-01 1. 7.39290714e-01 0.
      7.37720072e-01 7.62010276e-01 7.00214922e-01 4.79946405e-01
      5.63007534e-01 7.04684317e-01 7.27453649e-01 7.11813927e-01 0.
      6.18557334e-01 9.60542679e-01 6.45527422e-01</_>
    <_>
      0. 6.00744665e-01 9.67305779e-01 9.54399049e-01 8.87391388e-01
      5.88026464e-01 9.23156738e-01 9.95525897e-01 1. 6.15272760e-01
      4.24714357e-01 7.26862371e-01 9.70711887e-01 9.64725852e-01
      8.59047532e-01 9.23205554e-01 8.90285492e-01 7.08431005e-01</_>
    <_>
      0. 5.96847832e-01 9.06953871e-01 8.67266655e-01 7.84363091e-01 0.
      7.93245435e-01 8.58347535e-01 8.83403122e-01 5.88103056e-01
      5.51942647e-01 7.40092993e-01 9.93824542e-01 7.85742283e-01
      6.25378788e-01 7.47258365e-01 1. 7.69714952e-01</_>
    <_>
      0. 5.46954632e-01 8.49736512e-01 8.08121502e-01 7.31900394e-01
      7.82128990e-01 7.86602676e-01 1. 9.14000630e-01 5.33757389e-01
      4.63253200e-01 6.96260512e-01 9.11675513e-01 9.09655750e-01
      3.01811188e-01 8.72931600e-01 8.69000196e-01 6.48418605e-01</_>
    <_>
      0. 4.59042519e-01 7.97826052e-01 7.69663334e-01 7.49435425e-01 0.
      5.72538972e-01 8.04297328e-01 8.31659496e-01 5.35124958e-01
      4.43724245e-01 5.69527984e-01 1. 7.26718485e-01 0. 6.91319168e-01
      9.42540646e-01 5.89321375e-01</_>
    <_>
      0. 5.69876015e-01 9.22301590e-01 8.91090214e-01 8.02593768e-01
      8.18363011e-01 8.27646255e-01 9.10173178e-01 1. 6.21990323e-01
      4.72723067e-01 7.06240118e-01 9.74677503e-01 9.67923105e-01
      8.47280025e-01 9.11134422e-01 9.11998689e-01 6.66869819e-01</_>
    <_>
      0. 5.73162615e-01 8.77903998e-01 8.20971549e-01 7.55984843e-01
      7.64247537e-01 7.55861461e-01 1. 8.51608396e-01 5.28373659e-01
      3.69301081e-01 6.44442439e-01 8.30809832e-01 8.24524581e-01
      7.60802329e-01 8.24578941e-01 8.30872476e-01 7.08326757e-01</_>
    <_>
      0. 5.17288387e-01 6.26856208e-01 9.35828805e-01 8.93455386e-01 0.
      6.40959203e-01 1. 7.64830887e-01 6.95269525e-01 5.13009608e-01
      7.46910512e-01 9.14005399e-01 6.75424278e-01 5.49852371e-01
      8.16244841e-01 7.83703744e-01 6.28363729e-01</_>
    <_>
      0. 4.93536294e-01 7.48385906e-01 9.66293156e-01 7.48597145e-01 0.
      7.74674237e-01 1. 7.88278282e-01 5.84916830e-01 6.83980286e-01
      8.18880618e-01 8.06426585e-01 7.41628289e-01 5.88591158e-01
      6.57451212e-01 7.16732204e-01 7.19953477e-01</_>
    <_>
      0. 4.95621234e-01 5.53621233e-01 8.48232985e-01 7.07675040e-01 0.
      7.16767907e-01 1. 8.39739084e-01 4.11920279e-01 3.80565792e-01
      4.56187874e-01 7.21984744e-01 7.43335068e-01 7.16001868e-01
      8.20887387e-01 8.02258909e-01 6.25303328e-01</_>
    <_>
      0. 5.78956962e-01 9.26279306e-01 1. 9.25953448e-01 0.
      8.61683547e-01 9.99185264e-01 9.59812701e-01 4.96936679e-01
      4.60312426e-01 7.14179695e-01 8.80383730e-01 8.77140045e-01
      8.20677876e-01 8.63488615e-01 8.12935829e-01 5.76693594e-01</_>
    <_>
      0. 3.54405582e-01 5.14636099e-01 1. 8.70018005e-01 3.86679232e-01
      0. 9.74730551e-01 6.97331071e-01 5.93670905e-01 5.93306959e-01
      6.04432940e-01 7.55747855e-01 5.92109561e-01 6.32725954e-01
      6.50721431e-01 9.51239645e-01 0.</_>
    <_>
      0. 5.07237017e-01 9.13512647e-01 1. 8.68211091e-01 3.34195316e-01
      3.65916073e-01 9.82100904e-01 6.06023014e-01 5.34411013e-01
      3.77374709e-01 6.39422417e-01 8.38190496e-01 8.24023426e-01
      7.66401947e-01 8.01108479e-01 7.68283606e-01 5.52226543e-01</_>
    <_>
      0. 4.15544540e-01 5.06727755e-01 8.47033858e-01 8.00996780e-01
      4.86775815e-01 5.54277718e-01 1. 6.20924950e-01 5.18148005e-01
      2.97907799e-01 6.02420092e-01 7.45014489e-01 6.63815379e-01
      6.72169805e-01 6.72020137e-01 6.42701983e-01 5.05131125e-01</_>
    <_>
      0. 4.52512562e-01 5.19628882e-01 8.70625973e-01 8.28795850e-01
      4.77617443e-01 8.67619395e-01 1. 6.22954428e-01 4.98777449e-01
      3.72576714e-01 6.16016924e-01 7.95339286e-01 7.53696203e-01
      6.89032614e-01 7.64322639e-01 7.41780758e-01 5.58617592e-01</_>
    <_>
      0. 5.96698701e-01 9.69578624e-01 9.00870621e-01 8.28561783e-01
      8.31469715e-01 8.48932564e-01 9.67775464e-01 1. 7.14085340e-01
      5.72247267e-01 8.09157193e-01 9.83120918e-01 9.22634900e-01
      9.20803010e-01 9.47043598e-01 9.20515478e-01 6.81327522e-01</_>
    <_>
      0. 3.60118836e-01 9.10789311e-01 9.32949603e-01 6.47928417e-01 0.
      6.90158665e-01 7.50572026e-01 7.37674296e-01 5.43527007e-01
      6.04859352e-01 7.86588848e-01 7.56048441e-01 6.72173262e-01
      6.15788698e-01 6.76313221e-01 1. 5.39757252e-01</_>
    <_>
      0. 5.82574785e-01 9.84566987e-01 9.79998171e-01 6.67631924e-01 0.
      6.45585775e-01 1. 7.43262768e-01 6.50303304e-01 0. 7.33780622e-01
      8.76438022e-01 8.57715309e-01 7.54050195e-01 8.16949606e-01
      8.20894361e-01 6.34323835e-01</_>
    <_>
      0. 4.28978562e-01 6.88379169e-01 7.31410205e-01 7.20842540e-01
      5.02637804e-01 7.17471361e-01 7.44550943e-01 6.89155757e-01 0.
      5.73399007e-01 7.33952343e-01 7.22170711e-01 6.18123949e-01
      6.00746512e-01 6.47751749e-01 1. 6.33582056e-01</_>
    <_>
      0. 5.83743691e-01 6.84706271e-01 9.47523713e-01 9.35813069e-01 0.
      6.51178598e-01 1. 7.09189594e-01 6.00420952e-01 5.61553121e-01
      6.70863330e-01 8.23094606e-01 7.85628259e-01 7.32178092e-01
      7.68003881e-01 7.70267129e-01 0.</_>
    <_>
      0. 0. 6.03601456e-01 9.09532607e-01 8.82096887e-01 0.
      6.98946238e-01 1. 6.10490143e-01 0. 6.08309090e-01 7.02654421e-01
      7.15298176e-01 5.92036903e-01 5.50523579e-01 5.90292156e-01
      8.98651063e-01 5.52653790e-01</_>
    <_>
      0. 5.50709188e-01 8.30329478e-01 1. 7.98828542e-01 0.
      8.37445855e-01 8.79294455e-01 8.26358080e-01 4.85660374e-01
      4.17307019e-01 6.51144624e-01 7.83329844e-01 7.68852472e-01
      7.43825614e-01 8.20040762e-01 7.78306365e-01 6.08015656e-01</_>
    <_>
      0. 2.23560676e-01 5.25411606e-01 1. 9.20458436e-01 0.
      6.91750646e-01 7.51703441e-01 7.01455057e-01 4.80895460e-01
      5.84191322e-01 7.21491992e-01 7.35576212e-01 5.63501000e-01
      6.37204170e-01 6.52139843e-01 6.37533128e-01 5.79983830e-01</_>
    <_>
      0. 4.07399833e-01 8.79962206e-01 1. 8.69110644e-01 0.
      6.24708354e-01 9.70843017e-01 7.00064361e-01 5.72190642e-01
      5.05427599e-01 7.24733412e-01 7.33121097e-01 5.94384730e-01
      6.38244331e-01 6.55842066e-01 6.41483903e-01 0.</_>
    <_>
      0. 5.69029450e-01 8.73101473e-01 1. 7.36581683e-01 0.
      7.87851572e-01 9.34825778e-01 8.31503630e-01 5.02379596e-01
      3.93523484e-01 6.31451309e-01 8.39145958e-01 8.37542593e-01
      7.89848626e-01 8.52388501e-01 8.26322079e-01 6.28091156e-01</_>
    <_>
      0. 4.48959619e-01 7.75143564e-01 8.57964218e-01 7.24355996e-01
      6.23144925e-01 6.32618725e-01 9.18371856e-01 7.85013556e-01
      4.14507449e-01 4.13866580e-01 5.72178304e-01 1. 7.33817756e-01
      7.27177203e-01 7.37967014e-01 7.37680852e-01 4.90657508e-01</_>
    <_>
      0. 4.42912757e-01 5.55321395e-01 9.11723316e-01 8.57528150e-01
      5.42783797e-01 5.91753483e-01 1. 6.62320554e-01 5.42967856e-01
      4.47932363e-01 7.03922510e-01 7.26709425e-01 6.44238174e-01
      6.34753108e-01 6.71892822e-01 6.71428859e-01 0.</_>
    <_>
      0. 3.89525384e-01 6.28937781e-01 8.62208664e-01 6.14061534e-01
      5.79729974e-01 5.93175888e-01 8.03374171e-01 8.52395654e-01
      3.06122839e-01 4.51856107e-01 5.41580617e-01 1. 7.60704339e-01
      3.47755253e-01 8.24923873e-01 7.67058492e-01 5.81193686e-01</_>
    <_>
      0. 4.25844103e-01 8.03652644e-01 8.28835785e-01 8.01327765e-01
      5.86281538e-01 6.64402485e-01 9.09366012e-01 7.77285933e-01
      7.01416433e-01 7.44979084e-01 9.46180761e-01 1. 8.44445825e-01
      8.88548076e-01 9.67670143e-01 9.21673715e-01 6.67094290e-01</_>
    <_>
      0. 6.26547158e-01 9.36972022e-01 9.59043205e-01 8.91043663e-01
      3.73544574e-01 8.46082628e-01 9.09112811e-01 7.95753837e-01
      5.80654502e-01 4.96128142e-01 8.02666724e-01 9.32404339e-01
      7.36508548e-01 7.83046663e-01 1. 9.39167321e-01 7.32142687e-01</_>
    <_>
      0. 5.75295806e-01 9.12835598e-01 9.41864014e-01 8.72714877e-01
      8.53770494e-01 9.22093630e-01 9.33277309e-01 7.39290535e-01
      5.54907084e-01 7.42746830e-01 8.76351595e-01 9.66391683e-01
      8.56470704e-01 7.82799542e-01 1. 9.36630011e-01 7.20095634e-01</_>
    <_>
      0. 5.02942979e-01 9.45687413e-01 9.02960718e-01 8.15345287e-01 0.
      7.99836636e-01 9.02740717e-01 9.16087449e-01 5.60798883e-01
      4.66811776e-01 6.05088055e-01 1. 7.78534293e-01 6.89072490e-01
      9.66018558e-01 8.91566753e-01 5.73732197e-01</_>
    <_>
      0. 4.33793128e-01 7.27780998e-01 7.47401953e-01 6.75750017e-01
      6.24618828e-01 6.53645277e-01 1. 6.33847773e-01 4.73070621e-01
      5.25964558e-01 7.06696033e-01 7.77875245e-01 6.80950403e-01
      5.64835787e-01 8.21364045e-01 7.62568772e-01 5.90314329e-01</_>
    <_>
      0. 5.39964139e-01 7.79304981e-01 7.98487842e-01 7.32904077e-01
      7.04438150e-01 7.41844118e-01 8.18337917e-01 6.89347267e-01
      6.20613039e-01 6.65010631e-01 7.15958893e-01 9.50640559e-01
      6.68298841e-01 8.08310449e-01 1. 8.83887291e-01 6.72066331e-01</_>
    <_>
      0. 5.03684282e-01 9.56533253e-01 9.24152434e-01 8.56560051e-01
      1.53707489e-01 8.46456170e-01 8.97146285e-01 9.60419059e-01
      5.58059156e-01 5.36599219e-01 5.94788969e-01 1. 9.94150937e-01
      8.47484529e-01 9.82691288e-01 8.86832058e-01 6.60855174e-01</_>
    <_>
      0. 6.25980675e-01 8.20203900e-01 8.17975938e-01 7.88825452e-01
      3.32135499e-01 7.37426758e-01 8.50679874e-01 6.79296494e-01
      6.33633137e-01 7.08825588e-01 7.01618195e-01 9.68153715e-01
      5.90198994e-01 9.45579529e-01 1. 9.40761030e-01 6.81205332e-01</_>
    <_>
      0. 5.23396730e-01 7.90594935e-01 9.09043074e-01 8.70010018e-01
      6.67554736e-01 9.10819232e-01 9.74808872e-01 7.92814910e-01
      7.08180010e-01 7.79886603e-01 9.70634043e-01 1. 7.21877933e-01
      8.47505152e-01 9.33373272e-01 8.87960851e-01 6.61932170e-01</_>
    <_>
      0. 5.74320436e-01 8.59235048e-01 9.29851353e-01 9.01170015e-01
      6.81761503e-01 9.52578545e-01 1. 8.57192457e-01 7.36579180e-01
      7.41312146e-01 9.36525285e-01 9.63399410e-01 6.25327885e-01
      7.54076600e-01 8.70809555e-01 8.29598010e-01 6.06240749e-01</_>
    <_>
      0. 2.77506053e-01 8.09325576e-01 8.07311177e-01 7.28621006e-01
      7.41306484e-01 5.93016982e-01 8.22905779e-01 8.21468294e-01
      5.52766740e-01 6.40209436e-01 6.91485465e-01 9.77636337e-01
      8.55453730e-01 7.93993473e-01 1. 9.28729713e-01 6.78139389e-01</_>
    <_>
      0. 6.24503613e-01 9.72442567e-01 1. 9.21174228e-01 8.96102548e-01
      9.35605764e-01 9.96802747e-01 7.90991485e-01 6.22181654e-01
      7.07474411e-01 9.16983664e-01 9.48052347e-01 6.70961499e-01
      7.31368542e-01 9.79668915e-01 9.29578483e-01 6.93227470e-01</_>
    <_>
      0. 6.38687015e-01 8.74647260e-01 9.84533489e-01 9.30832744e-01 0.
      9.48568821e-01 1. 8.37741613e-01 6.96679950e-01 7.46722162e-01
      8.70484173e-01 9.57093358e-01 8.05872321e-01 7.97573984e-01
      9.36755538e-01 9.29926097e-01 6.89593971e-01</_>
    <_>
      0. 4.39430147e-01 9.10882056e-01 1. 8.79739821e-01 9.07299101e-01
      0. 9.94853973e-01 6.63936317e-01 6.03184700e-01 7.91980743e-01
      7.61016607e-01 5.12963355e-01 5.97311854e-01 6.15753889e-01
      5.00637829e-01 6.51102543e-01 6.55963063e-01</_>
    <_>
      0. 4.58191067e-01 4.68466014e-01 4.52211112e-01 3.97753596e-01 0.
      0. 1.59385681e-01 8.15595925e-01 3.70290160e-01 3.31502765e-01 0.
      0. 0. 1. 0. 0. 0.</_>
    <_>
      0. 8.81039202e-01 8.27907801e-01 8.41414571e-01 7.26135671e-01
      5.76694846e-01 7.14904547e-01 9.05435443e-01 6.89516962e-01
      6.88592196e-01 5.27858675e-01 7.53994703e-01 8.89849424e-01
      9.94189262e-01 1. 9.16586339e-01 0. 7.07436085e-01</_>
    <_>
      0. 7.32044995e-01 7.89104819e-01 9.58491743e-01 9.69054759e-01
      8.43545258e-01 9.58624244e-01 9.92339969e-01 7.73310423e-01
      3.89064133e-01 7.57362366e-01 9.18213964e-01 1. 8.39893103e-01
      7.89840579e-01 8.01650643e-01 9.89310682e-01 4.37841505e-01</_>
    <_>
      0. 7.25532353e-01 6.06350780e-01 9.46837425e-01 8.07874918e-01
      7.82619298e-01 8.50462019e-01 9.99618232e-01 6.52040839e-01
      2.72996515e-01 7.21282780e-01 8.39448750e-01 9.63006914e-01
      8.52658629e-01 7.91569114e-01 8.28755260e-01 1. 4.35435802e-01</_>
    <_>
      0. 5.83280027e-01 5.79401135e-01 5.94354868e-01 6.74833775e-01 0.
      6.86118484e-01 6.01033628e-01 4.58963752e-01 0. 0. 0. 0.
      8.71885180e-01 1. 0. 0. 0.</_>
    <_>
      0. 7.55398691e-01 8.21120799e-01 7.02396214e-01 6.82000518e-01
      6.61642373e-01 8.70315611e-01 1. 8.50151062e-01 7.19715774e-01
      5.94577193e-01 8.24288607e-01 9.63145733e-01 8.61348331e-01
      8.17789316e-01 9.27393496e-01 9.84962642e-01 8.14566612e-01</_>
    <_>
      0. 4.09938723e-01 8.48652363e-01 7.16929972e-01 7.89970815e-01
      7.67638206e-01 9.43000793e-01 1. 4.95630711e-01 1.87876388e-01
      6.57811522e-01 6.68072402e-01 8.97469401e-01 7.03943908e-01
      6.24125659e-01 7.54124224e-01 9.90876436e-01 8.40058923e-01</_>
    <_>
      0. 8.78275096e-01 0. 8.81456554e-01 9.84605432e-01 0.
      9.56889033e-01 8.51334393e-01 8.08073878e-01 5.06011128e-01
      4.10583735e-01 8.59340727e-01 9.42319095e-01 9.56313193e-01
      5.29255509e-01 9.47002590e-01 1. 9.84282672e-01</_>
    <_>
      0. 0. 9.85494018e-01 8.13689649e-01 0. 0. 6.37924314e-01
      6.40423834e-01 7.19070077e-01 4.24572557e-01 3.85181457e-01
      7.74263322e-01 1. 9.82506096e-01 3.96829247e-01 4.09217119e-01
      7.52860546e-01 0.</_>
    <_>
      0. 1.17054202e-01 8.63717973e-01 8.18959653e-01 6.95923388e-01
      6.52247667e-01 6.89272940e-01 7.49159515e-01 7.53737867e-01
      4.23076123e-01 7.20452726e-01 7.40476429e-01 9.27227139e-01 0.
      4.20267284e-01 4.04911369e-01 1. 9.57079113e-01</_>
    <_>
      0. 0. 9.12466168e-01 7.31888711e-01 6.28915787e-01 5.52819669e-01
      6.95295453e-01 8.42381835e-01 6.76856160e-01 5.79193115e-01
      2.54397690e-01 7.09897757e-01 6.08186245e-01 5.84685206e-01
      5.42716265e-01 5.09844601e-01 1. 8.93163383e-01</_>
    <_>
      0. 5.94655156e-01 7.37651467e-01 1. 4.81857717e-01 7.15739906e-01
      8.58337462e-01 7.20817864e-01 4.91589189e-01 6.36447489e-01
      5.68275869e-01 4.04129326e-01 7.66893923e-01 6.84325516e-01
      3.34323347e-01 6.54744446e-01 9.05218899e-01 6.41969681e-01</_>
    <_>
      0. 7.24512339e-01 5.73105574e-01 1. 8.35386038e-01 0. 0.
      7.97907650e-01 8.37212682e-01 7.40590453e-01 2.89475739e-01
      8.51548195e-01 9.04544413e-01 4.73601639e-01 4.18797761e-01
      8.31003428e-01 8.61048400e-01 9.09843326e-01</_>
    <_>
      0. 5.93490124e-01 5.02437353e-01 8.91076565e-01 5.41775823e-01
      7.39088953e-01 7.55276620e-01 8.03603292e-01 7.84268439e-01
      7.31770456e-01 7.39330053e-01 9.03545201e-01 1. 7.82944262e-01
      3.06054473e-01 8.28595698e-01 9.06975210e-01 7.41704643e-01</_>
    <_>
      0. 0. 0. 3.17689419e-01 4.59921360e-01 0. 5.25244951e-01
      5.91851115e-01 3.77011031e-01 2.28592753e-01 1.74195558e-01
      1.71939060e-01 1.88586339e-01 2.19884977e-01 2.52923816e-01
      2.68762290e-01 1. 0.</_>
    <_>
      0. 6.87493920e-01 7.97277167e-02 8.21348727e-01 8.15063596e-01
      8.01197886e-01 0. 1. 7.07516730e-01 6.73493505e-01 6.99514449e-01
      7.48414934e-01 8.91507924e-01 7.47329175e-01 5.40980279e-01
      7.11712301e-01 9.19868231e-01 7.90964246e-01</_>
    <_>
      0. 4.68509793e-01 4.94265258e-01 1. 9.00165677e-01 8.18949282e-01
      4.90051597e-01 5.36323130e-01 3.62405360e-01 7.11633086e-01
      7.09616065e-01 7.83927023e-01 9.45274472e-01 8.97957742e-01
      7.45556474e-01 5.81016243e-01 6.51214361e-01 6.34153008e-01</_>
    <_>
      0. 0. 9.94110048e-01 1. 9.02428150e-01 5.29729605e-01
      8.52799416e-01 8.51741791e-01 2.16608196e-01 2.04416737e-01 0.
      4.23491091e-01 7.97875524e-01 6.16772890e-01 6.41146302e-01
      6.99047387e-01 0. 0.</_>
    <_>
      0. 7.90163651e-02 6.33350670e-01 7.92664707e-01 8.71152818e-01
      8.02080870e-01 2.69928724e-01 1. 9.99855459e-01 1.41574606e-01
      8.06785047e-01 9.79661584e-01 7.03620374e-01 6.38292015e-01
      6.45482242e-01 6.67508721e-01 9.09999430e-01 6.76390827e-01</_>
    <_>
      0. 0. 8.03635657e-01 7.14285314e-01 5.87270617e-01 6.17916286e-01
      0. 0. 9.62248266e-01 5.38022876e-01 5.12860119e-01 6.21179760e-01
      1. 0. 8.36950719e-01 6.87801242e-01 0. 0.</_></support_vectors>
  <decision_functions>
    <_>
      <sv_count>13</sv_count>
      <rho>3.0593596487724636e-02</rho>
      <alpha>
        5.5982126786164453e-05 5.7892188435275542e-05
        5.8856450602381277e-04 8.2166124216724069e-04
        7.9765307268615262e-04 1.4481583030102247e-03
        -6.4342675057484566e-04 -1.0873306906817449e-03
        -1.6454133901310362e-04 -3.9259215267780398e-04
        -6.2610212777228188e-06 -4.5708050740007368e-04
        -1.0186789774835764e-03</alpha>
      <index>
        1 5 6 8 9 11 13 14 16 18 19 23 24</index></_>
    <_>
      <sv_count>11</sv_count>
      <rho>-2.1812486898959382e+00</rho>
      <alpha>
        2.5307708083828788e-04 2.7774632072291914e-04
        3.5353201176345673e-04 1.0234186639613805e-04
        3.0926621489236529e-04 7.2440713745277609e-04
        9.9760411934401755e-04 -2.0171855607682690e-04
        -7.5294418340786189e-04 -6.0113585702415556e-04
        -1.4621761549011166e-03</alpha>
      <index>
        0 1 5 8 9 10 11 27 31 34 35</index></_>
    <_>
      <sv_count>19</sv_count>
      <rho>-6.6930426928200115e-01</rho>
      <alpha>
        6.5528035762603149e-03 4.4343015041772224e-03
        3.9854997333687433e-03 9.7823612599730759e-04
        7.1908272598910326e-03 1.4697840475040283e-02
        5.8409478324186938e-03 1.4841302281005872e-02
        -2.4595705884279239e-03 -2.6323470278003490e-03
        -4.4911133966762913e-03 -6.5548091751760906e-03
        -5.3520848846665857e-03 -5.1127878852443129e-04
        -1.2324039020433874e-02 -6.0900068740314551e-03
        -7.0561793396561314e-03 -8.2929180392979397e-03
        -2.7574116534683861e-03</alpha>
      <index>
        0 2 4 5 6 8 10 11 36 37 39 40 44 46 47 48 49 51 54</index></_>
    <_>
      <sv_count>16</sv_count>
      <rho>2.0353895970123039e+00</rho>
      <alpha>
        4.9787491932962256e-03 9.7623190361658604e-03
        1.7494161825879538e-03 4.4044826069520177e-03
        4.0914827010712066e-04 6.6793542896284445e-04
        4.3476920406962095e-04 5.4573887960224285e-05
        -1.1812350318213115e-03 -5.3269113022459300e-04
        -2.7062706429974467e-03 -9.1542387340202407e-03
        -4.6791778788454891e-03 -1.2175679250647751e-03
        -1.4390662986469712e-03 -1.5511461684810258e-03</alpha>
      <index>
        1 4 5 7 8 9 11 12 55 57 58 61 62 63 64 65</index></_>
    <_>
      <sv_count>19</sv_count>
      <rho>-5.1755696736767209e-01</rho>
      <alpha>
        1.1620908308792312e-02 6.0805143812499478e-03
        1.1342951967390382e-02 2.0776352986444001e-02
        4.2047501910569248e-03 4.9588833224637766e-02
        7.2974241236201838e-03 3.9143617072099984e-02
        1.2485138321283245e-02 -2.9652572346435056e-02
        -8.0683891971485271e-03 -1.7245397803593153e-02
        -1.3007337817016200e-02 -1.2512170439655520e-02
        -1.0705889304628813e-02 -1.6568898169044593e-02
        -6.0150539351825592e-03 -3.9415011749520258e-02
        -9.3497698143500882e-03</alpha>
      <index>
        0 1 4 5 6 8 9 10 11 66 68 69 72 75 76 77 78 80 81</index></_>
    <_>
      <sv_count>14</sv_count>
      <rho>1.5866877391095890e+00</rho>
      <alpha>
        7.8855547791628784e-04 1.8829584476848691e-03
        3.1397605866645317e-03 5.3181385584139124e-03
        1.6481955941059336e-03 2.9934878091999735e-04
        2.9588740704299154e-04 5.9070089711293287e-04
        -2.4362443672113310e-03 -1.0253497648756678e-03
        -4.4203779821099468e-03 -2.7230516278401707e-03
        -5.1106472417038098e-04 -2.8474572836539704e-03</alpha>
      <index>
        0 1 4 6 8 9 10 11 85 87 88 89 95 98</index></_>
    <_>
      <sv_count>16</sv_count>
      <rho>9.9189476815682120e-01</rho>
      <alpha>
        3.8986023734903399e-03 4.0806469213134039e-04
        4.9921711111243572e-03 4.0169761447387932e-03
        2.3319975402550245e-03 5.3430038424314248e-03
        7.6094831107959818e-05 4.4353811737348099e-03
        7.1598086959715423e-04 -8.8619020317291051e-03
        -3.6437217569510586e-03 -1.3613023788299908e-03
        -5.3045337578063881e-03 -5.0411675492992910e-03
        -3.5053134737060608e-04 -1.6551137566247743e-03</alpha>
      <index>
        0 1 4 6 7 8 9 10 11 100 102 103 105 107 112 113</index></_>
    <_>
      <sv_count>19</sv_count>
      <rho>3.5129893544228818e+00</rho>
      <alpha>
        6.4513242276966745e-03 4.6704582118429122e-04
        3.5028758071495784e-03 6.5609153718962853e-05
        5.9252989272161475e-03 1.6383635082411418e-03
        -5.9620819597752210e-05 -5.3979592758764084e-04
        -2.3525841862820042e-03 -6.8013201495357718e-04
        -6.0415200143156878e-04 -4.2486586175872766e-04
        -2.9187157904168653e-03 -5.0181861244892826e-03
        -3.3296214100617346e-03 -4.3844034565798766e-05
        -7.5190374394535275e-04 -6.2663832258369955e-04
        -7.0045720753278786e-04</alpha>
      <index>
        1 3 7 8 11 12 114 116 117 120 122 123 125 126 127 128 131 132
        133</index></_>
    <_>
      <sv_count>13</sv_count>
      <rho>4.8763666904674785e-01</rho>
      <alpha>
        6.6318528273556158e-04 3.7746636966969836e-04
        4.7991717174639711e-05 1.3094918828188934e-04
        3.3980310791574287e-04 1.1339248808578911e-04
        4.6948028088493921e-04 2.6095980042617549e-04
        -4.5212236241019133e-04 -3.4879630345325022e-04
        -2.5760991129855344e-04 -8.9418518570605733e-04
        -4.5051447230638259e-04</alpha>
      <index>
        13 14 15 17 18 20 23 24 29 31 32 34 35</index></_>
    <_>
      <sv_count>13</sv_count>
      <rho>5.6753205252119543e-01</rho>
      <alpha>
        5.8809525452553179e-04 2.4366754110857021e-03
        2.5848408765250907e-04 1.9997145717681581e-04
        3.4443907977715161e-04 8.6749976631849671e-04
        7.9775911466654730e-04 1.5448632814343079e-04
        -7.0873598310587963e-04 -1.7084368381114327e-03
        -9.6603008261822681e-04 -1.4447647585889515e-03
        -8.1944283692169620e-04</alpha>
      <index>
        13 14 15 18 22 23 24 25 42 48 49 51 53</index></_>
    <_>
      <sv_count>10</sv_count>
      <rho>1.1204112383995324e+00</rho>
      <alpha>
        2.8720886442948546e-04 1.7259431346906227e-04
        4.4252308023871477e-04 3.6171968412543769e-05
        8.9302009621341691e-04 -3.4764696542928579e-04
        -4.4308314075292449e-04 -4.9951264924531118e-04
        -4.2771206751251859e-04 -1.1356349982318373e-04</alpha>
      <index>
        13 16 18 23 24 55 56 58 61 63</index></_>
    <_>
      <sv_count>12</sv_count>
      <rho>2.3238611193742202e+00</rho>
      <alpha>
        3.2227236086850497e-03 5.7033856568742788e-04
        1.0837874630684638e-04 1.7753466040625038e-04
        2.0316737917709595e-03 7.3669873910573770e-04
        -3.8831099298394025e-04 -6.2223395737478733e-05
        -1.1897876682885344e-03 -2.0653008243365034e-04
        -1.1314108489551976e-03 -3.8690851235634689e-03</alpha>
      <index>
        14 21 22 23 24 25 67 68 72 78 80 81</index></_>
    <_>
      <sv_count>13</sv_count>
      <rho>1.9396771952844707e+00</rho>
      <alpha>
        3.5174458498753977e-05 2.7775704182520882e-05
        9.3957362052919354e-04 1.5551921592533941e-03
        2.9008849647529255e-04 1.5473179323085657e-03
        2.9356121212513838e-04 -4.8435514471334613e-04
        -3.7472715728972426e-04 -1.0371718730865186e-03
        -1.0914846786002266e-03 -5.5993439883353661e-04
        -1.1410103308495075e-03</alpha>
      <index>
        13 14 18 22 23 24 25 83 85 88 89 92 96</index></_>
    <_>
      <sv_count>8</sv_count>
      <rho>-6.1061581673400378e-01</rho>
      <alpha>
        1.1204467602492097e-04 1.4766008033818040e-03
        3.5026093841116109e-04 5.3408639000202733e-04
        4.5997613142644998e-04 2.0515117285644123e-04
        -1.3420511327691682e-03 -1.7960689793336377e-03</alpha>
      <index>
        13 14 18 22 23 24 105 113</index></_>
    <_>
      <sv_count>12</sv_count>
      <rho>2.9480970779998716e+00</rho>
      <alpha>
        1.1899115498961949e-03 1.1973721950571314e-03
        5.4809128494765348e-04 9.9675398865240600e-04
        -9.9952022636841907e-04 -5.0137179679732953e-04
        -1.2540280283679186e-04 -1.2560395504681325e-03
        -3.3782549392305333e-05 -2.4081541749593579e-05
        -3.7792411185636680e-04 -6.1400643908444638e-04</alpha>
      <index>
        13 17 18 24 114 116 117 120 122 123 125 127</index></_>
    <_>
      <sv_count>13</sv_count>
      <rho>2.0728083088070695e-01</rho>
      <alpha>
        1.3499690067630755e-03 2.7106432853504434e-04
        8.1709947965432413e-04 1.4248491998167015e-03
        1.2731142697737928e-03 -1.8793316418675405e-04
        -1.2398773246925437e-05 -1.0616831032536289e-04
        -1.2905496567731567e-03 -1.1506462375671792e-03
        -1.3127933616812011e-03 -3.2479708967885623e-04
        -7.5080969108350267e-04</alpha>
      <index>
        27 30 31 34 35 36 38 46 47 50 51 52 54</index></_>
    <_>
      <sv_count>9</sv_count>
      <rho>1.6729495046831278e+00</rho>
      <alpha>
        1.0543599592608247e-04 5.1202451114427245e-04
        9.8661360660888021e-04 3.4017127742050547e-04
        -2.3317142651878929e-04 -8.6253235292208929e-04
        -6.4348624848964745e-04 -5.2037356531442238e-05
        -1.5301800663777249e-04</alpha>
      <index>
        30 31 34 35 55 58 61 63 65</index></_>
    <_>
      <sv_count>11</sv_count>
      <rho>1.2345917849476504e-01</rho>
      <alpha>
        8.8087721319675213e-05 6.6486639935199639e-05
        8.9993012373807443e-04 9.1853046377452559e-04
        1.4267840993652905e-03 -3.3528157216738453e-04
        -1.9785486061696983e-04 -4.3930679158358195e-05
        -1.2256691368149083e-03 -1.1182938863963025e-03
        -4.7878891297884136e-04</alpha>
      <index>
        27 30 31 34 35 73 76 77 79 80 81</index></_>
    <_>
      <sv_count>13</sv_count>
      <rho>2.0001569253470723e+00</rho>
      <alpha>
        2.3410360150124049e-04 9.9137472483880257e-06
        3.8883019488926640e-04 6.3264163080120497e-04
        8.0731276408383388e-04 8.1070759228885460e-04
        -4.8556639253268576e-04 -1.8975322247479507e-04
        -5.9467258447841106e-04 -2.1063224723816008e-04
        -1.3026548197987394e-03 -1.3797824504277177e-05
        -8.6432439785720714e-05</alpha>
      <index>
        28 30 31 33 34 35 83 86 88 90 91 93 95</index></_>
    <_>
      <sv_count>11</sv_count>
      <rho>9.8174963753161615e-01</rho>
      <alpha>
        1.0990870943467829e-04 8.6393097758771255e-04
        5.0847430783029551e-04 1.2897328783943937e-03
        2.1466934814908558e-04 -3.0052782545703669e-04
        -2.1510966367546919e-04 -1.9897271479076686e-04
        -1.3262363406874719e-03 -7.9172606770696100e-04
        -1.5414360907845990e-04</alpha>
      <index>
        30 31 33 34 35 100 101 102 105 110 113</index></_>
    <_>
      <sv_count>16</sv_count>
      <rho>2.0546620612608466e+00</rho>
      <alpha>
        1.1745211914310873e-03 1.0710033652752670e-04
        1.2736156538034426e-04 7.7013254754515091e-04
        4.6574148731755142e-04 1.7512505348684622e-03
        1.2697263185238632e-03 -1.9525146799145344e-04
        -6.4052020899566626e-04 -1.6984127733680704e-03
        -2.1352578791642622e-04 -3.3794539284350223e-04
        -1.9290987069490540e-04 -2.1226794633635393e-04
        -1.1275366054555550e-03 -1.0474639279920515e-03</alpha>
      <index>
        26 28 30 31 33 34 35 116 117 120 122 123 124 125 127 133</index></_>
    <_>
      <sv_count>14</sv_count>
      <rho>2.9007763753162741e+00</rho>
      <alpha>
        7.3423646484102828e-04 6.4533360069426570e-04
        2.4895220363232921e-03 8.0872627224399998e-04
        3.2939011815673585e-03 1.6659111593106963e-03
        1.9760359359928081e-04 -3.9048183823992797e-04
        -2.0944696517670975e-04 -1.8032215972827246e-03
        -2.3678408348541125e-03 -1.7484654486354533e-03
        -2.7213931436639860e-03 -5.9438448072700995e-04</alpha>
      <index>
        36 37 39 44 47 51 53 55 57 58 59 61 62 65</index></_>
    <_>
      <sv_count>16</sv_count>
      <rho>3.3083522283245590e+00</rho>
      <alpha>
        1.1438675987236913e-03 3.5020943200073811e-03
        3.3237916210913042e-04 9.8388480029357184e-03
        1.3667047266677111e-02 8.3961035258605255e-03
        1.5869127268109066e-03 6.8337501582928480e-03
        7.6589589038446107e-03 -6.1059233686518938e-03
        -5.3511337272366087e-03 -6.9669809299148441e-03
        -4.2214438465017013e-03 -4.8196329612410968e-04
        -1.7253290420395907e-02 -1.2579226076436857e-02</alpha>
      <index>
        36 37 39 40 48 49 50 51 54 69 72 73 75 76 80 81</index></_>
    <_>
      <sv_count>17</sv_count>
      <rho>3.8946945046273345e+00</rho>
      <alpha>
        1.2669426127139977e-03 7.4399190553957532e-05
        2.3572092428569454e-03 1.0802142649884114e-02
        1.4740563296346491e-03 2.3949242650176225e-03
        9.9503791520947458e-05 2.8356601839648215e-03
        4.7815228768232016e-03 -2.0401565868030367e-03
        -4.9605701291275785e-03 -1.8327786773282486e-04
        -4.6823435767713653e-03 -1.6363056714879695e-04
        -1.5411391866886205e-03 -9.7791038439561054e-03
        -2.7361393847419235e-03</alpha>
      <index>
        36 37 39 40 42 51 52 53 54 83 87 88 89 91 92 93 98</index></_>
    <_>
      <sv_count>19</sv_count>
      <rho>1.0052501523841695e+00</rho>
      <alpha>
        2.0706360214813088e-03 3.8145976153146099e-03
        3.9099255158638486e-04 1.1440639310438025e-03
        6.8814563343679025e-04 8.5027695325137450e-04
        2.5854022418496934e-04 1.8929354074023871e-03
        4.3537085001747836e-04 7.9010656648360669e-03
        1.7685600651132875e-04 1.4540331117237112e-03
        1.6150043223985967e-03 4.1727004730231817e-04
        3.7483361337320919e-03 -9.0028697430841690e-03
        -5.3866243084674387e-03 -6.1526709487254357e-03
        -6.3159594739461613e-03</alpha>
      <index>
        36 37 39 41 42 43 44 45 46 47 48 50 51 53 54 100 103 105 113</index></_>
    <_>
      <sv_count>21</sv_count>
      <rho>4.2445343335492218e+00</rho>
      <alpha>
        2.6861697717691264e-03 7.1757439231932136e-04
        3.6279968079207668e-03 1.0600047472954008e-04
        2.8328337327818284e-04 3.7270037074987315e-03
        7.2289301641143000e-03 1.8289687615096759e-03
        2.5466182694911972e-03 -2.4346265903476597e-03
        -1.1137188085933692e-03 -3.8138662277121451e-03
        -5.0463926930324624e-04 -2.8468262364530379e-03
        -1.0669119556948180e-03 -6.6851594765683436e-04
        -1.6089808303125217e-03 -2.0155273981393956e-03
        -4.1017831165148233e-03 -1.8263495624326967e-03
        -7.5079977947029703e-04</alpha>
      <index>
        36 39 43 44 46 47 51 53 54 114 116 117 118 120 121 122 123 126
        127 128 132</index></_>
    <_>
      <sv_count>15</sv_count>
      <rho>-2.0454194939927737e+00</rho>
      <alpha>
        2.0662043338861416e-05 2.8840501942258277e-03
        3.4098795014938371e-03 4.2663746413615315e-03
        3.0338233332137142e-03 3.9069639702018020e-03
        2.5465481360238710e-03 2.3657100854164323e-04
        6.0845351737226499e-06 -3.9803559986618647e-03
        -5.7775688959827119e-03 -2.2372019166209123e-03
        -1.1634184482954596e-03 -6.2042597594158880e-03
        -9.4815234459798465e-04</alpha>
      <index>
        55 57 58 59 61 62 63 64 65 66 70 76 77 79 80</index></_>
    <_>
      <sv_count>13</sv_count>
      <rho>-1.0249520493625124e+00</rho>
      <alpha>
        2.5627030320062973e-03 6.8242228290623416e-04
        1.4031077803754990e-03 1.8064875720934031e-04
        1.3042125051707211e-03 1.5600496449375803e-03
        1.4974784850679793e-03 4.3281325313077686e-04
        -1.2753014073755462e-03 -1.3976656724908278e-03
        -1.0810742571886877e-03 -9.0505736484498898e-04
        -4.9643370389043755e-03</alpha>
      <index>
        55 57 58 60 61 62 63 64 84 86 88 90 98</index></_>
    <_>
      <sv_count>12</sv_count>
      <rho>-7.2466868655953343e-01</rho>
      <alpha>
        1.0135938049650873e-04 3.0582549040704711e-03
        4.5390049082622798e-03 5.1141935459633303e-04
        2.2027865738555395e-03 4.2970650486071123e-03
        -2.5045185627706593e-03 -3.3115696040203792e-03
        -4.0103186953722647e-03 -2.2168716925785917e-03
        -7.3640878990853520e-04 -1.9302028252378214e-03</alpha>
      <index>
        55 58 61 62 63 65 100 104 105 106 107 111</index></_>
    <_>
      <sv_count>15</sv_count>
      <rho>1.8837044016079176e+00</rho>
      <alpha>
        1.0656264060442135e-03 2.7485892007238734e-03
        4.3896428164230200e-04 5.8541957271350130e-04
        1.1478876535554650e-03 -5.7706210089219080e-04
        -2.0696291211204322e-03 -4.2865095002603569e-04
        -4.9522761422439378e-04 -4.7124282188780708e-04
        -5.4431219347608089e-04 -1.4904562043526755e-04
        -8.2039268405320772e-04 -1.8110708177921045e-04
        -2.4981692678472994e-04</alpha>
      <index>
        55 58 61 62 65 117 120 123 125 126 127 130 132 133 134</index></_>
    <_>
      <sv_count>17</sv_count>
      <rho>-3.6859512036319053e+00</rho>
      <alpha>
        8.2802192020327847e-03 1.2368246446470480e-02
        1.3265509319367133e-02 1.0835832657122032e-02
        1.9916193136785437e-03 5.9160928152071060e-04
        2.3048883749184478e-02 9.6761889779075011e-04
        9.6563350316274318e-03 -8.8476181201009845e-03
        -8.5998220461899130e-03 -1.9266747664031685e-02
        -1.2120108400974059e-02 -5.8649362629020312e-03
        -1.1835298748486308e-03 -1.1047065414129588e-02
        -1.4076046115617431e-02</alpha>
      <index>
        66 67 70 71 72 74 79 80 81 82 87 88 89 90 91 94 98</index></_>
    <_>
      <sv_count>12</sv_count>
      <rho>-2.2434671355551870e+00</rho>
      <alpha>
        6.1557965269251535e-03 1.0296936754654621e-03
        6.6715604679642125e-03 1.0883765298017808e-02
        3.5819494125309674e-03 2.1364646469404455e-03
        7.2572295699957151e-03 -1.0530344943445751e-02
        -8.3822124662521168e-03 -8.8303982238892124e-03
        -9.1070071096402382e-03 -8.6649685461244507e-04</alpha>
      <index>
        66 67 68 69 70 71 80 100 102 105 107 113</index></_>
    <_>
      <sv_count>15</sv_count>
      <rho>3.6479939806313042e+00</rho>
      <alpha>
        1.9930567814981015e-03 5.2776308702094416e-04
        1.1248242839405056e-03 1.0160424090978784e-03
        2.6870745208043331e-03 8.6757011031075057e-04
        -3.8439495672564931e-04 -1.4213790058770737e-03
        -1.5664217922510689e-03 -1.4710471814425677e-04
        -6.6491388214150182e-04 -1.5864133416007788e-03
        -6.3649620333040900e-04 -9.0705143875204888e-04
        -9.0215585384972408e-04</alpha>
      <index>
        66 67 70 73 79 81 116 117 120 122 123 125 126 127 132</index></_>
    <_>
      <sv_count>15</sv_count>
      <rho>-1.1500399755631547e+00</rho>
      <alpha>
        1.1633262404144398e-03 5.5020984616403930e-04
        7.5973181136284023e-04 1.7315893475955844e-03
        3.4393547636347803e-03 1.6073464789024539e-03
        6.6733647128976788e-04 5.3569817237642068e-04
        1.2934423848227857e-03 5.6247981766899453e-04
        -1.7708560096029057e-04 -1.3687528275269859e-03
        -5.9259500312716078e-03 -4.0576251709983106e-03
        -7.8110170347491458e-04</alpha>
      <index>
        82 83 85 87 88 89 91 93 97 98 100 102 105 107 110</index></_>
    <_>
      <sv_count>20</sv_count>
      <rho>1.2362927422203807e+00</rho>
      <alpha>
        6.5775806583261614e-03 8.6229831624533537e-05
        1.2799684191539906e-03 1.5204478279857991e-04
        9.9818088943151220e-03 5.3948092545561389e-05
        3.7518329050841362e-03 -8.7624938955123573e-04
        -2.7041702799312423e-03 -3.3411093343909334e-03
        -1.3303480284072662e-03 -5.1478381432992781e-04
        -5.4100217811427827e-04 -6.8009945641786453e-04
        -2.5997955721241876e-04 -2.5794348006437399e-03
        -1.3559397140604727e-03 -3.7854248234243625e-03
        -1.7653181262364541e-03 -2.1495540811278849e-03</alpha>
      <index>
        86 87 88 89 91 95 99 115 117 118 119 120 121 122 123 125 127 129
        132 133</index></_>
    <_>
      <sv_count>19</sv_count>
      <rho>1.2429950702891917e+00</rho>
      <alpha>
        2.7467913172372050e-03 2.0208045981956850e-03
        7.8473086888345613e-03 4.0683074721314981e-04
        1.0768349457587502e-03 -1.6205758976424968e-04
        -3.6651764998341747e-04 -2.6128216256725571e-04
        -8.2619588236697772e-04 -2.9917959638627771e-03
        -1.9387839014539244e-03 -3.5586001040143823e-04
        -9.3589811050128412e-05 -1.0094653058747838e-03
        -6.2158202491685414e-04 -1.5280020564885234e-03
        -1.9152223793932792e-03 -1.6688276587518737e-03
        -3.5938790036386329e-04</alpha>
      <index>
        100 103 105 108 109 114 116 117 118 120 121 123 125 126 127 128
        132 133 134</index></_></decision_functions></opencv_ml_svm>
</opencv_storage>
