<?xml version="1.0"?>
<opencv_storage>
<opencv_ml_svm>
  <format>3</format>
  <svmType>C_SVC</svmType>
  <kernel>
    <type>POLY</type>
    <degree>3.</degree>
    <gamma>3.</gamma>
    <coef0>0.</coef0></kernel>
  <C>1.</C>
  <term_criteria><epsilon>1.1920928955078125e-07</epsilon>
    <iterations>1000</iterations></term_criteria>
  <var_count>36</var_count>
  <class_count>9</class_count>
  <class_labels type_id="opencv-matrix">
    <rows>9</rows>
    <cols>1</cols>
    <dt>i</dt>
    <data>
      1 2 3 4 5 6 7 8 9</data></class_labels>
  <sv_total>165</sv_total>
  <support_vectors>
    <_>
      0. 0. 3.16827387e-01 6.29956722e-01 7.57880569e-01 9.61023629e-01
      1. 7.63746917e-01 2.73842275e-01 4.78959888e-01 4.77320969e-01
      3.70208055e-01 4.03679222e-01 3.91931355e-01 8.87547135e-01
      8.08632731e-01 7.06043839e-01 0. 0. 4.46825117e-01 4.58254039e-01
      5.93913674e-01 6.85249805e-01 9.76342678e-01 9.22929585e-01
      8.31685722e-01 4.62532520e-01 0. 1.86956182e-01 2.84959137e-01
      8.56860697e-01 8.61756146e-01 7.83340335e-01 7.90852606e-01
      7.22752035e-01 0.</_>
    <_>
      0. 0. 0. 4.99505192e-01 7.47557580e-01 9.15479302e-01 1.
      9.79690373e-01 4.74912673e-01 4.92215663e-01 4.94386703e-01
      4.60602552e-01 4.46233541e-01 3.37610513e-01 4.71801668e-01
      5.65617204e-01 5.04571676e-01 0. 0. 0. 6.15235507e-01
      7.55602777e-01 9.67383027e-01 9.55641091e-01 8.43109250e-01
      6.02963984e-01 4.53081161e-01 4.06075567e-01 3.62900496e-01
      7.12720394e-01 7.38549173e-01 0. 8.21963847e-01 7.53473699e-01
      7.13377535e-01 0.</_>
    <_>
      0. 1.85572833e-01 0. 1.61547884e-01 7.65469790e-01 8.08438957e-01
      1. 7.01352715e-01 6.74902737e-01 0. 0. 0. 6.01304591e-01
      6.80158734e-01 6.52617514e-01 4.79859114e-01 4.90461290e-01
      3.33554566e-01 2.83434838e-01 2.10327819e-01 0. 4.78207141e-01
      5.64762115e-01 8.11632752e-01 8.74625981e-01 8.67111802e-01
      7.61043370e-01 5.10111868e-01 2.19671056e-01 2.23244399e-01 0. 0.
      2.85787463e-01 6.31715715e-01 6.93892181e-01 4.57918942e-01</_>
    <_>
      0. 0. 0. 0. 6.51250005e-01 7.57989585e-01 1. 7.28631735e-01
      8.47363055e-01 8.40792298e-01 0. 1.65814281e-01 1.78751439e-01
      2.53975779e-01 3.08527619e-01 3.39406997e-01 2.63983071e-01
      1.99316651e-01 3.52296084e-01 5.54527283e-01 5.61217010e-01
      6.13124013e-01 9.26213503e-01 8.33672464e-01 8.15823674e-01
      7.88884580e-01 6.56481922e-01 0. 3.92652690e-01 4.08694178e-01
      3.34174275e-01 2.27947176e-01 3.06674033e-01 0. 6.01516724e-01
      6.24764681e-01</_>
    <_>
      0. 3.50367993e-01 4.79382843e-01 6.03170514e-01 7.50726223e-01
      6.57213449e-01 6.65774345e-01 6.61005259e-01 6.82978988e-01
      5.87924719e-01 5.44145048e-01 2.69938648e-01 2.36036435e-01 0.
      8.25637937e-01 8.52959931e-01 4.32323009e-01 4.55944210e-01
      4.79315400e-01 4.78455842e-01 6.21565163e-01 7.45834231e-01
      6.83461010e-01 9.93451059e-01 1. 0. 6.33624375e-01 6.09976292e-01
      3.93739045e-01 4.00851160e-01 8.57580364e-01 8.15259397e-01
      7.51427054e-01 5.26078463e-01 0. 1.71131074e-01</_>
    <_>
      0. 3.59777957e-01 2.67034203e-01 2.80739009e-01 7.70118415e-01
      6.34983659e-01 6.40209973e-01 5.97677588e-01 5.71961343e-01
      5.13468623e-01 0. 0. 0. 0. 8.31396207e-02 1.59324989e-01
      6.86079681e-01 6.47465706e-01 5.89703083e-01 3.77332181e-01
      3.15854192e-01 3.00247148e-02 7.45645344e-01 8.14763904e-01 1.
      8.67948413e-01 7.13606477e-01 3.96665424e-01 4.32617724e-01
      3.78047973e-01 0. 7.31832087e-01 7.54138649e-01 0. 0. 0.</_>
    <_>
      0. 3.32215190e-01 3.40602666e-01 2.81790048e-01 1. 6.87253237e-01
      6.62480712e-01 8.60544741e-01 2.15952009e-01 2.48869255e-01 0. 0.
      8.65690827e-01 8.34758818e-01 8.87093067e-01 6.95642471e-01
      7.48390734e-01 0. 1.04291737e-01 0. 0. 0. 8.20337236e-01
      9.80967581e-01 9.85708714e-01 6.67501867e-01 6.53197587e-01
      1.46004096e-01 3.82980943e-01 4.01520878e-01 7.49952495e-01
      7.36901522e-01 2.50617087e-01 7.12074041e-01 7.26402283e-01 0.</_>
    <_>
      0. 0. 6.39085650e-01 8.60890448e-01 8.80079150e-01 9.93808329e-01
      1. 9.15067077e-01 6.41003773e-02 1.78761691e-01 2.17523068e-01 0.
      7.76154757e-01 8.60999942e-01 8.26801658e-01 7.51730442e-01 0.
      2.60318279e-01 2.53996938e-01 1.76106155e-01 5.52188098e-01
      7.38322794e-01 8.26374173e-01 8.51396859e-01 9.63378191e-01
      7.01272190e-01 8.50095272e-01 1.72865659e-01 0. 4.26701844e-01
      4.76471692e-01 3.90250862e-01 8.50483239e-01 8.87011826e-01
      8.23975921e-01 0.</_>
    <_>
      0. 0. 6.26819432e-01 6.76305771e-01 5.18206358e-01 8.90391290e-01
      8.81201625e-01 8.41521442e-01 2.78524131e-01 7.80277014e-01
      7.85436690e-01 7.15232849e-01 0. 8.34650993e-01 8.44378173e-01
      7.67618060e-01 5.97274065e-01 0. 0. 0. 0. 7.00874686e-01
      7.74627507e-01 5.95651567e-01 9.50929284e-01 1. 8.17042112e-01
      6.66500449e-01 3.89970183e-01 4.44598883e-01 4.38478023e-01
      9.46713090e-01 9.71606433e-01 7.31723011e-01 7.76151180e-01 0.</_>
    <_>
      0. 0. 1.31489649e-01 6.90036297e-01 8.43270838e-01 9.17055786e-01
      8.65192354e-01 8.85128558e-01 2.42573202e-01 8.44946384e-01
      8.52885544e-01 8.59331131e-01 0. 0. 7.65944064e-01 8.27036798e-01
      7.35845029e-01 2.88320631e-01 0. 0. 6.74435496e-01 8.11358631e-01
      7.95551062e-01 7.45819926e-01 1. 9.26124454e-01 8.59514058e-01
      5.35587668e-01 5.30225933e-01 4.57469732e-01 3.51510435e-01
      3.32460999e-01 0. 5.68531096e-01 6.39623344e-01 0.</_>
    <_>
      0. 2.02249050e-01 2.11100712e-01 8.87970865e-01 9.06885564e-01
      7.94230640e-01 9.21996593e-01 8.81181598e-01 0. 0. 7.74955988e-01
      8.19706798e-01 0. 8.51497114e-01 8.41274500e-01 0. 1.63963750e-01
      2.37223029e-01 2.29381636e-01 2.28004679e-01 4.04228568e-01
      5.92065275e-01 6.28265262e-01 8.87083828e-01 9.47487533e-01 1.
      9.34620380e-01 8.80389988e-01 5.17317772e-01 4.93811965e-01
      4.47854906e-01 3.79844546e-01 0. 4.64697897e-01 4.80264992e-01 0.</_>
    <_>
      0. 4.73623186e-01 7.47325540e-01 7.60748863e-01 7.33562291e-01
      7.82386601e-01 8.51974666e-01 8.11174095e-01 3.28540832e-01
      6.31686091e-01 5.56861937e-01 6.70497119e-01 6.84819937e-01
      7.59675562e-01 8.28449488e-01 8.65909219e-01 7.83556402e-01 0.
      1.12125866e-01 0. 0. 5.69274187e-01 5.88644564e-01 9.32645142e-01
      1. 4.13439184e-01 6.29146457e-01 7.78678715e-01 6.97195292e-01
      5.54659843e-01 9.75942075e-01 9.62217152e-01 4.14276123e-01
      3.60297322e-01 8.97013322e-02 1.26754433e-01</_>
    <_>
      0. 0. 4.20170307e-01 4.43851262e-01 6.71132207e-01 8.22653711e-01
      8.55380297e-01 8.73764634e-01 8.06146383e-01 8.00034344e-01
      3.63665611e-01 3.71565819e-01 8.97391021e-01 8.88109446e-01
      9.35884297e-01 7.91826367e-01 6.35654747e-01 5.60508311e-01
      3.52716237e-01 9.85598862e-02 6.30847454e-01 6.08449161e-01
      4.34055895e-01 4.30085599e-01 9.78035748e-01 1. 7.63923109e-01
      5.08461654e-01 5.43950260e-01 7.70330489e-01 7.83353865e-01
      8.18323195e-01 8.77459526e-01 7.60331094e-01 6.23253345e-01 0.</_>
    <_>
      0. 4.97641593e-01 5.14321029e-01 5.24513721e-01 8.06532204e-01
      8.51827323e-01 8.27977777e-01 7.80380726e-01 7.10642338e-01
      7.16925502e-01 2.97075599e-01 6.75952911e-01 7.61530697e-01
      7.66107321e-01 7.73647249e-01 7.53746927e-01 6.75816059e-01
      6.19794250e-01 2.76705593e-01 0. 2.81245887e-01 7.07131445e-01
      7.42360234e-01 9.49209988e-01 1. 9.96551752e-01 2.70489484e-01
      5.79405129e-01 5.75498760e-01 7.89070129e-01 8.13509524e-01
      9.29791808e-01 9.03287768e-01 7.58539319e-01 5.55737495e-01 0.</_>
    <_>
      0. 3.90674442e-01 5.08589268e-01 5.58476686e-01 8.66952419e-01
      8.39868903e-01 7.99751341e-01 8.19280028e-01 7.45985270e-01
      7.38402784e-01 0. 7.64140248e-01 8.04193795e-01 8.85329843e-01
      9.19883132e-01 6.54422641e-01 6.47685349e-01 4.37758237e-01
      5.69680691e-01 4.74711061e-01 3.32818389e-01 6.16626263e-01
      6.89979315e-01 8.30551386e-01 8.42054605e-01 8.35687459e-01
      7.46521115e-01 5.17361224e-01 5.16645551e-01 7.55508423e-01
      7.83353150e-01 7.87137926e-01 1. 6.28180325e-01 5.13761222e-01
      1.85675070e-01</_>
    <_>
      0. 4.12253261e-01 4.93604481e-01 5.44273615e-01 5.96391976e-01
      9.00193691e-01 9.73600030e-01 8.17674935e-01 8.10984194e-01 0. 0.
      0. 8.68202627e-01 9.00236309e-01 9.40192282e-01 7.08586633e-01
      6.63465798e-01 6.35436475e-01 5.93055427e-01 4.31295335e-01 0.
      6.40269339e-01 6.82812929e-01 8.39389563e-01 8.67825568e-01
      8.53206992e-01 7.23574460e-01 5.08056521e-01 5.04752874e-01
      7.55777478e-01 7.76324928e-01 7.76431859e-01 1. 6.92735672e-01
      4.93795246e-01 1.94611505e-01</_>
    <_>
      0. 4.89328355e-01 5.66444755e-01 6.24406993e-01 6.31173790e-01
      8.97261977e-01 9.05163944e-01 7.85298526e-01 0. 0. 0. 0.
      7.90884495e-01 8.54183853e-01 9.30144846e-01 8.74732196e-01
      3.29939216e-01 4.85876322e-01 4.44288701e-01 2.61205375e-01 0.
      4.95774984e-01 5.51213443e-01 1. 7.40879536e-01 7.36681581e-01
      6.91703498e-01 6.56860113e-01 4.40392852e-01 6.54391587e-01
      6.92607641e-01 7.66967595e-01 7.58369923e-01 7.40975201e-01
      6.16556883e-01 0.</_>
    <_>
      0. 2.75936067e-01 4.16190624e-01 5.07421136e-01 5.71833611e-01
      8.91535640e-01 8.85792315e-01 8.54116559e-01 5.59394598e-01 0.
      5.66907167e-01 5.88476658e-01 5.70331514e-01 9.03322935e-01
      9.56542373e-01 7.24261284e-01 5.08332551e-01 6.37730837e-01
      5.21345019e-01 2.43677080e-01 6.09926045e-01 6.72548473e-01
      7.50422180e-01 1. 7.90099680e-01 7.48256028e-01 4.20967758e-01
      4.42307860e-01 3.81748945e-01 6.86957240e-01 6.80117786e-01
      9.05250847e-01 9.13692653e-01 5.80754340e-01 5.23135364e-01 0.</_>
    <_>
      0. 3.83818984e-01 4.59584206e-01 4.92842048e-01 7.17710316e-01
      7.96232402e-01 8.88236642e-01 7.07962573e-01 7.18466580e-01
      7.26911545e-01 0. 7.60828853e-01 7.16828406e-01 8.50096047e-01
      8.30227792e-01 8.65893960e-01 3.68881404e-01 3.58952969e-01
      4.88642126e-01 4.28056300e-01 2.90502012e-01 5.14065683e-01
      5.67455232e-01 1. 7.45871425e-01 7.15484262e-01 7.05718875e-01
      4.40826088e-01 4.66540664e-01 6.64023101e-01 6.81777656e-01
      8.55573595e-01 8.45795035e-01 5.61222374e-01 0. 1.88721761e-01</_>
    <_>
      0. 4.41412359e-01 2.92256147e-01 4.90637422e-01 7.76852965e-01
      9.21929896e-01 9.68041718e-01 7.11566806e-01 6.73040867e-01
      7.48256147e-01 7.46910334e-01 7.23525167e-01 7.30880737e-01
      7.86291778e-01 8.25900316e-01 8.80126834e-01 8.31452310e-01
      4.02016819e-01 5.11971354e-01 4.51644450e-01 3.95935923e-01
      4.77968931e-01 6.20120108e-01 1. 8.05379212e-01 8.02611172e-01
      7.27277935e-01 5.05575716e-01 4.76173669e-01 7.51944721e-01
      7.43834734e-01 9.51983094e-01 9.47779834e-01 5.60072601e-01
      2.06573918e-01 2.64027655e-01</_>
    <_>
      0. 4.83438283e-01 9.64484751e-01 9.93234694e-01 1. 2.37913176e-01
      2.11956710e-01 1.90467298e-01 0. 0. 0. 7.44951844e-01
      7.71499932e-01 8.02570224e-01 7.97562718e-01 7.50863910e-01
      6.54941797e-01 1.87624365e-01 1.81132168e-01 0. 0. 7.31116056e-01
      8.15044343e-01 8.09570909e-01 6.30773365e-01 7.50701189e-01
      9.02109981e-01 8.12522769e-01 8.83918524e-01 0. 6.40038967e-01
      6.24819815e-01 0. 9.67140615e-01 9.82129276e-01 0.</_>
    <_>
      0. 8.12215447e-01 8.28141093e-01 0. 1. 9.63784754e-01
      7.37009704e-01 8.40401351e-01 8.21510792e-01 0. 8.04444730e-01
      7.65930116e-01 0. 7.71605670e-01 8.79047751e-01 7.93333054e-01
      7.56742835e-01 3.06179076e-01 2.97207385e-01 1.78005338e-01 0.
      7.82873869e-01 8.23741198e-01 5.31664550e-01 6.31435037e-01
      9.12506700e-01 8.99008989e-01 0. 0. 0. 8.39981556e-01
      8.26723397e-01 8.91839266e-01 8.70216906e-01 0. 0.</_>
    <_>
      0. 7.30093122e-01 8.68257105e-01 9.21446323e-01 9.31976974e-01
      8.94559979e-01 7.74232864e-01 7.54376352e-01 6.70699298e-01
      7.01913118e-01 6.94592118e-01 7.24773347e-01 7.14946628e-01
      7.80721843e-01 8.02818179e-01 7.61703968e-01 7.38788009e-01
      4.91699636e-01 4.84186620e-01 3.64483505e-01 0. 0. 8.40355515e-01
      8.05479705e-01 3.20784867e-01 9.12443161e-01 1. 9.73532856e-01
      8.59248817e-01 8.34009767e-01 6.53029084e-01 6.27723336e-01
      8.97119761e-01 9.34270680e-01 8.71855557e-01 0.</_>
    <_>
      0. 0. 8.23486984e-01 8.90956223e-01 9.79070544e-01 1.
      9.49403405e-01 9.15718794e-01 0. 2.21407712e-01 2.65646696e-01
      2.74981171e-01 3.45075011e-01 3.09562474e-01 9.11700606e-01
      8.56793821e-01 6.14038110e-01 5.63400924e-01 0. 0. 6.96197987e-01
      7.82495797e-01 7.66406596e-01 4.82574135e-01 6.13229513e-01
      8.86090219e-01 8.55104625e-01 8.14730108e-01 3.96817416e-01
      7.25375235e-01 7.20473051e-01 6.48463488e-01 6.57990158e-01
      7.88631141e-01 0. 0.</_>
    <_>
      0. 7.22033262e-01 8.73897672e-01 7.04553664e-01 9.84099567e-01
      9.71757412e-01 0. 0. 8.12232614e-01 7.95279026e-01 0.
      8.18074405e-01 8.45510006e-01 8.85758162e-01 8.96859527e-01
      9.00243044e-01 7.81860352e-01 3.15909147e-01 3.10514778e-01
      3.10942113e-01 0. 7.84742117e-01 8.52032125e-01 5.39792180e-01
      3.34398746e-01 9.46401894e-01 1. 9.68439341e-01 8.81368756e-01
      3.31690311e-01 5.51440239e-01 5.71685851e-01 8.87204349e-01
      9.28170443e-01 0. 0.</_>
    <_>
      0. 0. 8.65958929e-01 9.75275278e-01 1. 9.95987952e-01
      8.78434181e-01 8.77104580e-01 7.41649687e-01 8.59507263e-01 0.
      8.66352856e-01 8.60050261e-01 9.44124758e-01 9.64408040e-01
      9.70698893e-01 3.78487289e-01 3.61899614e-01 0. 0. 0.
      8.82817805e-01 8.68567586e-01 7.00181127e-01 7.40438223e-01
      9.82885957e-01 5.35054445e-01 4.36187088e-01 8.24035108e-01
      8.47304463e-01 7.71923423e-01 0. 0. 9.30697680e-01 0. 0.</_>
    <_>
      0. 0. 5.32655358e-01 9.70200777e-01 9.79747474e-01 9.66281235e-01
      9.25236106e-01 9.01088357e-01 8.69082928e-01 0. 8.25702846e-01
      7.89665699e-01 9.10964429e-01 9.55249667e-01 9.81533110e-01
      9.89408314e-01 8.94841969e-01 0. 0. 0. 0. 8.88518095e-01
      9.09607291e-01 5.50492585e-01 8.44643056e-01 1. 8.50281298e-01
      9.45640087e-01 8.50167871e-01 8.31795156e-01 7.76567340e-01
      7.84135640e-01 8.65639806e-01 9.12786961e-01 0. 0.</_>
    <_>
      0. 7.12208509e-01 7.85827994e-01 8.49366903e-01 8.55847299e-01
      8.42836738e-01 7.52245784e-01 7.66509116e-01 0. 0. 0. 0. 0.
      8.59497130e-01 8.55005562e-01 8.91358137e-01 8.62514794e-01
      5.57332337e-01 3.79332572e-01 0. 0. 0. 5.02574682e-01
      3.85959148e-01 6.70576215e-01 9.58342969e-01 1. 9.03756917e-01
      9.04708982e-01 8.42613757e-01 0. 0. 0. 8.84801865e-01 0. 0.</_>
    <_>
      0. 4.30266798e-01 7.44570017e-01 8.13227713e-01 8.19719553e-01
      7.79539526e-01 7.59959996e-01 7.13841915e-01 6.72600508e-01
      6.76175058e-01 6.03224516e-01 7.01740146e-01 6.44090056e-01
      7.48530686e-01 8.19466412e-01 8.47391665e-01 6.02237284e-01
      7.16917396e-01 6.31734014e-01 0. 0. 8.40463758e-01 8.98630202e-01
      4.00233179e-01 6.68308496e-01 9.77289200e-01 1. 9.57881272e-01
      8.46227705e-01 6.27925873e-01 6.55580580e-01 0. 8.50368023e-01 0.
      0. 0.</_>
    <_>
      0. 7.03197777e-01 8.55139077e-01 8.44494164e-01 8.19172263e-01
      7.82650709e-01 7.29302645e-01 6.08062208e-01 6.72451138e-01
      6.51639700e-01 0. 6.76085651e-01 7.02750146e-01 7.94551611e-01
      8.20080340e-01 8.75163317e-01 8.73148978e-01 8.42420757e-01
      6.72748089e-01 5.11346340e-01 4.44904000e-01 2.02546284e-01
      9.69235361e-01 7.84257233e-01 6.24963403e-01 1. 8.82407069e-01
      6.02694690e-01 9.62865293e-01 5.35484970e-01 6.86521530e-01
      9.54324603e-01 9.19717908e-01 9.50640023e-01 0. 5.49208164e-01</_>
    <_>
      0. 6.22687995e-01 6.74416006e-01 8.09698105e-01 8.55212867e-01
      8.20910335e-01 8.03956568e-01 7.77718127e-01 0. 6.92290604e-01
      7.40255415e-01 7.56635487e-01 7.79777706e-01 8.46525729e-01
      8.68655384e-01 8.74395311e-01 7.41345525e-01 7.27955818e-01 0. 0.
      0. 8.51427257e-01 8.87509465e-01 4.68693316e-01 7.21222103e-01 1.
      8.40515435e-01 8.72764707e-01 0. 0. 0. 6.32748008e-01
      7.34139025e-01 8.28364015e-01 0. 0.</_>
    <_>
      0. 0. 2.92494118e-01 6.72040403e-01 9.94088829e-01 9.86233294e-01
      9.79970515e-01 9.73041952e-01 0. 5.07368505e-01 5.06906867e-01
      1.02173612e-01 0. 8.18286240e-01 8.62237453e-01 9.14161742e-01
      6.19652808e-01 7.30446875e-01 0. 0. 7.32607067e-01 7.76448250e-01
      6.70820117e-01 6.03363156e-01 7.20296681e-01 7.49679983e-01
      7.05469608e-01 6.58865511e-01 6.17400765e-01 5.59359372e-01
      5.08336544e-01 1. 5.59829950e-01 9.99795139e-01 6.44677579e-01 0.</_>
    <_>
      0. 0. 1.90870479e-01 5.52055359e-01 8.35527122e-01 8.29237580e-01
      8.25608850e-01 8.21333468e-01 8.18070352e-01 0. 0. 0. 0.
      9.85151529e-01 1. 8.16671848e-01 6.04049444e-01 6.76553071e-01
      5.47091246e-01 0. 6.82720006e-01 7.23262131e-01 5.14175415e-01
      5.93164921e-01 6.71669543e-01 6.68257177e-01 6.15855932e-01
      5.74473262e-01 5.08407414e-01 4.85999703e-01 4.67554867e-01
      8.74319494e-01 8.90417755e-01 5.23822188e-01 5.50908387e-01 0.</_>
    <_>
      0. 0. 5.07958829e-01 6.09199584e-01 6.66425288e-01 8.77946496e-01
      8.63847733e-01 8.50970507e-01 1.94672689e-01 0. 0. 0. 0.
      6.85199320e-01 1. 8.07000995e-01 6.16649687e-01 7.19163239e-01
      5.44666767e-01 0. 6.97831392e-01 7.08560944e-01 6.28002167e-01
      5.05827904e-01 3.44851971e-01 6.93132699e-01 6.97831392e-01
      6.32481694e-01 5.66550076e-01 5.29363990e-01 5.10743678e-01
      5.15589714e-01 9.56939042e-01 5.83843589e-01 6.20881677e-01 0.</_>
    <_>
      0. 5.52453220e-01 7.26623595e-01 7.21041203e-01 9.75588918e-01
      9.49506283e-01 9.33974326e-01 9.06731546e-01 8.75992060e-01
      5.93246937e-01 0. 9.13717091e-01 9.38759685e-01 9.77775037e-01 1.
      8.20923626e-01 5.55445373e-01 7.18836546e-01 6.28392696e-01 0.
      1.42952830e-01 8.15389633e-01 7.91721165e-01 6.34163141e-01
      3.43964309e-01 9.06989753e-01 8.58641505e-01 8.01624060e-01
      7.23925114e-01 6.99772656e-01 6.94500446e-01 7.06769884e-01
      7.51882195e-01 7.61153400e-01 0. 0.</_>
    <_>
      0. 7.53024518e-01 7.16390967e-01 5.54218113e-01 0. 0. 0. 0. 0. 0.
      0. 0. 0. 0. 0. 0. 8.39008749e-01 8.06201696e-01 0. 4.97242689e-01
      4.06807780e-01 5.13985038e-01 4.74763125e-01 4.65063095e-01 0. 0.
      0. 0. 0. 0. 0. 0. 1. 9.70031321e-01 0. 0.</_>
    <_>
      0. 1.86455473e-01 0. 2.80375957e-01 2.63031691e-01 9.34485942e-02
      1.76091120e-01 1.55492932e-01 0. 0. 0. 0. 0. 6.22560203e-01 1.
      9.49743748e-01 5.32321513e-01 0. 0. 0. 0. 2.70540774e-01
      2.90914148e-01 2.86817729e-01 0. 0. 0. 0. 0. 0. 0. 7.14580655e-01
      6.85352206e-01 6.87227726e-01 6.35513842e-01 0.</_>
    <_>
      0. 0. 0. 0. 0. 0. 0. 0. 0. 0. 0. 0. 0. 0. 7.37956643e-01
      7.12200880e-01 2.62335777e-01 2.47138187e-01 0. 2.35501081e-01
      2.00338870e-01 2.13428214e-01 1.43240839e-01 0. 0. 0. 0. 0. 0. 0.
      0. 0. 0. 1. 0. 0.</_>
    <_>
      0. 5.26912808e-01 7.40470767e-01 6.51294351e-01 6.53336763e-01
      5.85669518e-01 0. 0. 0. 4.96172570e-02 0. 9.07652900e-02 0. 0.
      8.09596360e-01 7.86311448e-01 3.27399999e-01 3.79721761e-01
      3.26529115e-01 0. 8.00564349e-01 8.73988926e-01 9.54225481e-01 1.
      3.31382811e-01 2.81105548e-01 0. 0. 6.11822195e-02 0. 0.
      7.47942030e-02 7.21620858e-01 7.24462092e-01 6.41381562e-01 0.</_>
    <_>
      0. 0. 0. 0. 0. 9.65761006e-01 9.91909564e-01 9.65597391e-01 0. 1.
      9.99525845e-01 3.39454383e-01 2.42213055e-01 0. 0. 0. 0. 0. 0.
      7.26575255e-01 8.76572669e-01 8.47988963e-01 0. 9.42243934e-01
      9.09132421e-01 0. 7.78434992e-01 7.65128553e-01 7.11856961e-01
      3.02539408e-01 4.31656063e-01 0. 0. 0. 0. 0.</_>
    <_>
      0. 0. 8.01556766e-01 8.95237148e-01 8.01247418e-01 6.59682274e-01
      0. 0. 3.64513993e-01 4.01268452e-01 4.44049925e-01 4.65253592e-01
      4.80526626e-01 4.21732664e-01 0. 2.88034916e-01 1.02730170e-01
      3.29402804e-01 0. 3.18039954e-01 7.87249386e-01 8.46936226e-01 1.
      1.95826665e-01 0. 0. 0. 0. 0. 1.43731475e-01 0. 0. 1.26118049e-01
      0. 6.62495613e-01 7.04711378e-01</_>
    <_>
      0. 1. 5.29960573e-01 4.91378844e-01 2.00806692e-01 2.84774631e-01
      0. 0. 0. 0. 0. 8.23357940e-01 8.99593472e-01 9.77653205e-01
      4.84367549e-01 0. 0. 0. 0. 0. 0. 0. 7.77460277e-01 7.70743787e-01
      7.36149728e-01 9.66604769e-01 0. 0. 0. 0. 0. 0. 0. 0. 0. 0.</_>
    <_>
      0. 0. 0. 0. 0. 5.24131596e-01 5.68885803e-01 5.09761691e-01
      4.59378451e-01 0. 0. 0. 0. 0. 8.07130754e-01 8.74182880e-01 0.
      7.32133329e-01 6.60211205e-01 3.09459418e-01 2.75171459e-01 0.
      7.76864648e-01 1.79849520e-01 0. 0. 0. 0. 0. 0. 6.83739543e-01
      6.95858717e-01 9.67106283e-01 1. 0. 0.</_>
    <_>
      0. 0. 0. 6.05592370e-01 9.36645210e-01 9.25158143e-01 0. 0. 0. 0.
      0. 0. 9.74676609e-01 1. 5.38835108e-01 7.23273814e-01 0. 0. 0. 0.
      6.53931499e-01 5.11892200e-01 7.18515098e-01 7.69122958e-01
      7.46612549e-01 6.50139511e-01 0. 0. 0. 0. 0. 6.26166701e-01
      7.22803593e-01 0. 0. 6.75550580e-01</_>
    <_>
      0. 0. 0. 0. 0. 0. 7.44614482e-01 8.20198417e-01 0. 0.
      6.91082537e-01 7.08345234e-01 6.39239252e-01 4.07220513e-01 0.
      7.23961294e-01 7.02131689e-01 6.27173960e-01 4.91894513e-01
      5.74074209e-01 6.54291928e-01 5.34262836e-01 5.16235590e-01
      8.09042513e-01 0. 4.75749552e-01 5.97491443e-01 6.19563818e-01
      5.69743514e-01 0. 0. 0. 0. 0. 9.64109838e-01 1.</_>
    <_>
      0. 0. 0. 0. 0. 0. 8.29994023e-01 7.87229002e-01 7.59191096e-01 0.
      0. 6.81331038e-01 6.58253372e-01 1. 0. 0. 0. 0. 0. 0. 0.
      9.17397916e-01 9.04129922e-01 5.99549234e-01 6.63956881e-01
      6.92126989e-01 6.60197854e-01 0. 0. 0. 0. 7.46565938e-01
      7.72881508e-01 5.44550896e-01 4.78940696e-01 0.</_>
    <_>
      0. 0. 0. 3.89787525e-01 4.13810074e-01 9.32192862e-01
      9.67252195e-01 7.75066018e-01 7.38715351e-01 3.76102418e-01
      3.71502131e-01 0. 9.86552179e-01 9.53804016e-01 0. 0.
      6.05286360e-01 5.68738639e-01 0. 4.01455969e-01 3.64464790e-01 0.
      4.86419290e-01 8.39672029e-01 8.43272626e-01 4.49816316e-01
      4.34750348e-01 4.18630064e-01 4.18116301e-01 0. 0. 0. 1. 0. 0. 0.</_>
    <_>
      0. 4.47616667e-01 6.17111683e-01 6.75168335e-01 6.63047254e-01 0.
      0. 0. 0. 0. 0. 0. 0. 6.52388394e-01 8.99556816e-01 8.80034447e-01
      0. 0. 0. 0. 0. 0. 1. 0. 0. 0. 0. 5.89935541e-01 5.92236698e-01
      3.97210687e-01 1.87085241e-01 0. 0. 0. 0. 0.</_>
    <_>
      0. 5.74764788e-01 3.29811335e-01 6.07581794e-01 8.92043650e-01 1.
      8.47212434e-01 0. 0. 7.50106096e-01 7.19310999e-01 2.86333919e-01
      7.95675039e-01 8.42970490e-01 8.83554161e-01 8.86827767e-01
      7.38918185e-01 4.52448100e-01 0. 4.71046418e-01 4.83629346e-01
      4.63240057e-01 6.06635630e-01 9.07643855e-01 8.45863879e-01
      7.16231287e-01 7.24101901e-01 6.91714585e-01 6.59826159e-01
      4.51128304e-01 7.18876123e-01 7.61998534e-01 7.58310854e-01
      5.17674029e-01 6.20987713e-01 5.68627715e-01</_>
    <_>
      0. 0. 5.26069939e-01 5.78959942e-01 6.79312527e-01 6.97997928e-01
      7.03271925e-01 9.29349363e-01 0. 0. 0. 4.71265227e-01
      6.69731557e-01 1. 8.91114116e-01 5.95871091e-01 5.80519319e-01
      2.73616672e-01 5.13981760e-01 5.13839006e-01 5.01930237e-01
      5.36022186e-01 8.29210401e-01 7.75348365e-01 6.28654003e-01
      6.25036061e-01 5.84372103e-01 1.71411529e-01 5.25228977e-01
      5.69518149e-01 5.86633801e-01 8.63909841e-01 6.73012018e-01
      8.84359002e-01 5.64985514e-01 5.84534943e-01</_>
    <_>
      0. 4.39554185e-01 5.48268676e-01 5.68148613e-01 5.74586034e-01
      7.92808115e-01 7.78941691e-01 7.28172481e-01 4.89216477e-01 0.
      4.87391919e-01 4.64993507e-01 5.04759371e-01 8.08063388e-01
      9.08165216e-01 9.30078685e-01 3.77653778e-01 3.29093963e-01
      4.55725968e-01 4.26590383e-01 0. 2.82393426e-01 7.60942161e-01 1.
      9.83431160e-01 6.10663593e-01 6.16277456e-01 5.84661245e-01
      5.91305256e-01 3.93524855e-01 6.29821360e-01 6.66212678e-01
      6.81645155e-01 6.31650448e-01 5.63758790e-01 5.17370760e-01</_>
    <_>
      0. 6.11835599e-01 6.56604409e-01 6.55641079e-01 8.20593297e-01
      8.63599420e-01 5.90666831e-01 5.69165111e-01 5.75677574e-01 0. 0.
      6.10460579e-01 6.21387541e-01 6.63557708e-01 7.07094669e-01
      7.36324728e-01 8.11766565e-01 2.67270774e-01 4.84929234e-01
      4.51708823e-01 2.65518188e-01 5.58644056e-01 7.53335774e-01
      7.74649024e-01 6.19338274e-01 6.16105795e-01 5.32133043e-01
      5.42810798e-01 5.80560327e-01 5.53451240e-01 6.08291805e-01
      6.13219380e-01 1. 5.12733817e-01 2.67351329e-01 3.18613917e-01</_>
    <_>
      0. 0. 0. 5.85062325e-01 4.98724550e-01 7.80716002e-01
      4.94193822e-01 8.93062651e-01 6.25206649e-01 1.83550939e-01 0. 0.
      0. 1. 9.21328068e-01 0. 5.81205070e-01 0. 6.13585949e-01
      4.05156314e-01 1.01479001e-01 0. 3.76375377e-01 0. 5.23372352e-01
      2.44505763e-01 0. 6.38026953e-01 6.30223334e-01 5.38622022e-01 0.
      5.25944650e-01 5.91181695e-01 6.05467260e-01 0. 0.</_>
    <_>
      0. 0. 2.32956037e-01 8.34612370e-01 8.86693478e-01 9.41547811e-01
      8.74161482e-01 0. 0. 0. 0. 0. 7.52033710e-01 8.55940342e-01
      9.21239972e-01 8.61447215e-01 7.64505923e-01 0. 5.09674489e-01
      2.99555421e-01 0. 7.02875316e-01 2.39626661e-01 8.26547027e-01 0.
      0. 4.62876588e-01 0. 9.82007086e-01 1. 0. 0. 1.85388044e-01 0. 0.
      0.</_>
    <_>
      0. 3.25149894e-01 0. 5.52577555e-01 6.47962809e-01 7.75949478e-01
      9.23075080e-01 8.75890851e-01 0. 7.72640586e-01 8.73981059e-01
      7.83236802e-01 9.20900345e-01 1. 9.67386484e-01 5.69143780e-02
      7.55878806e-01 4.31966543e-01 3.22742820e-01 0. 7.29785800e-01
      7.65106797e-01 8.61270428e-01 0. 0. 0. 2.45052174e-01
      5.18893003e-01 6.10794485e-01 5.35376072e-01 8.56341422e-01
      8.65270555e-01 8.54387999e-01 0. 0. 0.</_>
    <_>
      0. 0. 0. 7.71905959e-01 8.66665900e-01 0. 0. 0. 7.22396553e-01
      5.33276260e-01 7.12850928e-01 5.39237499e-01 7.59380221e-01
      8.40992630e-01 6.99920893e-01 0. 0. 0. 0. 0. 0. 0. 0. 0. 0. 0.
      9.88517046e-01 8.00085485e-01 7.08352208e-01 1. 5.04677534e-01 0.
      0. 0. 0. 0.</_>
    <_>
      0. 4.92298305e-01 5.11882484e-01 5.46829462e-01 4.65501636e-01 0.
      0. 0. 9.21052814e-01 8.12205374e-01 0. 7.55433917e-01 1.
      9.65747833e-01 7.49453664e-01 6.33260787e-01 0. 0. 0. 0. 0. 0.
      6.72074676e-01 7.32130468e-01 7.39378989e-01 0. 0. 0. 0.
      5.12858331e-01 9.99499977e-01 9.72112060e-01 0. 0. 0. 0.</_>
    <_>
      0. 0. 5.52655160e-01 5.77008009e-01 6.83844566e-01 8.21203947e-01
      7.32235968e-01 1.26225561e-01 7.14766145e-01 7.71611571e-01
      6.40977859e-01 8.14192891e-01 7.78091669e-01 7.88871169e-01
      8.73138666e-01 8.33527684e-01 6.43972218e-01 6.85754955e-01
      5.32804966e-01 0. 0. 7.50478685e-01 7.83561409e-01 7.18310237e-01
      0. 0. 9.19081092e-01 8.82104099e-01 0. 1. 9.37915206e-01
      7.29893863e-01 8.08430791e-01 0. 0. 0.</_>
    <_>
      0. 0. 0. 3.53058994e-01 5.52398622e-01 7.18337476e-01
      7.75738835e-01 7.97017097e-01 6.03278518e-01 7.70310342e-01
      8.33434999e-01 8.74436796e-01 8.18639338e-01 1. 9.96058285e-01
      8.78625810e-01 0. 0. 0. 0. 5.94873011e-01 6.85149372e-01 0. 0.
      9.83951569e-01 8.21358085e-01 7.49953568e-01 6.64472938e-01
      8.36419225e-01 7.26505876e-01 1.40696317e-01 6.85264289e-01
      6.80733085e-01 6.03452444e-01 0. 0.</_>
    <_>
      0. 0. 0. 0. 9.60844994e-01 9.95169818e-01 1. 9.54336941e-01
      9.86415565e-01 0. 0. 0. 9.67674613e-01 9.70061779e-01
      8.65882397e-01 7.59766459e-01 5.80312967e-01 0. 0. 0.
      5.91769397e-01 6.36190176e-01 7.70472884e-01 8.41841698e-01
      8.64805758e-01 0. 6.96085155e-01 8.49930823e-01 8.51856232e-01
      6.61441386e-01 7.30141401e-01 4.40530688e-01 8.96110594e-01
      8.75842154e-01 8.23087335e-01 6.48096561e-01</_>
    <_>
      0. 0. 0. 7.00258374e-01 8.98061156e-01 9.62221801e-01
      9.66568351e-01 8.54811430e-01 9.51079965e-01 9.63725269e-01
      9.63896990e-01 1. 9.42940652e-01 8.95231605e-01 9.28306103e-01
      6.84485376e-01 0. 0. 0. 4.16325837e-01 4.28179801e-01
      6.27939701e-01 7.50499845e-01 7.41368055e-01 7.44189739e-01
      7.52206564e-01 1.82068989e-01 6.88362300e-01 6.43341660e-01
      7.16146111e-01 7.51766503e-01 4.57269758e-01 8.47179592e-01
      8.52048457e-01 7.20235646e-01 0.</_>
    <_>
      0. 0. 0. 7.19717622e-01 8.78313839e-01 9.09639001e-01
      9.66429174e-01 9.59742963e-01 8.36628199e-01 8.10029089e-01
      9.23450232e-01 8.95441651e-01 9.29956198e-01 1. 9.69422042e-01
      9.36090946e-01 8.18514764e-01 5.42468309e-01 0. 0. 0.
      8.18056107e-01 7.28204429e-01 9.69612956e-01 9.99173999e-01
      9.73583341e-01 8.81361842e-01 8.12163293e-01 8.66314471e-01
      8.35700572e-01 8.42438877e-01 9.12818134e-01 9.08951163e-01
      8.77715409e-01 7.19265521e-01 0.</_>
    <_>
      0. 0. 0. 0. 8.26032460e-01 9.54649091e-01 1. 9.94144976e-01
      9.71666574e-01 8.43891144e-01 8.46380889e-01 9.75063741e-01
      9.85192657e-01 9.34381068e-01 9.09011006e-01 8.07592869e-01 0. 0.
      0. 4.54348832e-01 5.06761372e-01 7.20400870e-01 7.79115736e-01
      8.48434627e-01 8.53092909e-01 8.35345745e-01 7.68566310e-01
      7.54102886e-01 7.48543799e-01 7.65038192e-01 8.28480422e-01
      8.31577718e-01 8.38096917e-01 8.12865078e-01 7.41013229e-01 0.</_>
    <_>
      0. 5.78761578e-01 6.22933090e-01 6.79484606e-01 6.95774198e-01
      9.26310718e-01 8.91376078e-01 8.56587768e-01 5.96736252e-01
      8.32117319e-01 1.44000083e-01 8.49792123e-01 9.11821544e-01
      9.50000823e-01 9.46980536e-01 9.50492680e-01 4.29880053e-01
      7.02212870e-01 5.77542067e-01 4.09124255e-01 7.04744399e-01
      7.57851958e-01 9.09724534e-01 9.05346990e-01 8.70746672e-01
      8.16396594e-01 5.73172212e-01 5.18029273e-01 7.49689519e-01
      7.80610859e-01 7.87348628e-01 7.99263895e-01 1. 7.72584617e-01
      6.83304548e-01 2.83932984e-01</_>
    <_>
      0. 5.69328129e-01 6.07681334e-01 6.78354502e-01 6.93540454e-01
      9.04767513e-01 8.85621667e-01 8.38659406e-01 8.48950148e-01 0. 0.
      3.70331943e-01 8.76904309e-01 9.24546242e-01 9.66719031e-01
      9.95206177e-01 7.40460217e-01 0. 6.55086219e-01 4.84478265e-01
      6.45864427e-01 7.84753025e-01 8.78850579e-01 8.74452472e-01
      8.59753132e-01 8.45644772e-01 5.70047140e-01 4.62021321e-01
      7.53140211e-01 4.69702601e-01 7.92516589e-01 9.78779912e-01 1.
      7.49859214e-01 5.16691983e-01 2.43408099e-01</_>
    <_>
      0. 5.24867713e-01 6.17449284e-01 6.98310077e-01 9.47192550e-01
      9.40702677e-01 9.22287941e-01 9.14095759e-01 8.73207629e-01 0. 0.
      8.88351023e-01 8.69086206e-01 9.59693432e-01 9.77681279e-01
      7.64835179e-01 4.72215384e-01 6.57872558e-01 5.44490695e-01
      2.20070332e-01 6.72353208e-01 7.13415921e-01 8.38644087e-01
      8.54781389e-01 8.19412529e-01 3.49937916e-01 7.54926145e-01
      4.46279317e-01 1.53574586e-01 7.43801773e-01 7.57929862e-01
      7.75698006e-01 1. 7.52704144e-01 6.35386884e-01 5.82460344e-01</_>
    <_>
      0. 5.52796245e-01 6.46846294e-01 6.84926152e-01 7.01094985e-01
      9.25884485e-01 9.28980410e-01 9.10396695e-01 8.77187967e-01 0. 0.
      9.01462853e-01 8.94119143e-01 9.31950569e-01 9.87554550e-01
      7.82656431e-01 4.37788606e-01 7.01980054e-01 5.78773081e-01
      2.20774636e-01 7.06190646e-01 7.17229545e-01 8.64622712e-01
      8.60595107e-01 8.41290295e-01 7.89982259e-01 5.40697932e-01
      3.94501716e-01 0. 7.27385938e-01 7.24657118e-01 7.60500669e-01 1.
      7.34334707e-01 6.34159923e-01 5.80444932e-01</_>
    <_>
      0. 0. 5.18073916e-01 6.45380139e-01 7.21697628e-01 9.67088103e-01
      9.59133089e-01 6.94699585e-01 0. 6.37412667e-01 0. 0.
      7.06319809e-01 1. 7.96738684e-01 7.99355328e-01 2.70568311e-01
      6.31921113e-01 0. 5.59575915e-01 6.29875064e-01 6.00536466e-01
      6.25520110e-01 8.33179057e-01 7.77365983e-01 7.38905489e-01
      4.64422137e-01 1.16292149e-01 6.58575654e-01 4.93574768e-01
      6.74434364e-01 6.94612205e-01 9.61197138e-01 6.92477226e-01
      6.02329195e-01 0.</_>
    <_>
      0. 2.97748089e-01 5.76261103e-01 6.55082405e-01 6.61048055e-01
      8.95241022e-01 8.75557244e-01 8.70602846e-01 5.96495628e-01 0. 0.
      0. 8.85071337e-01 9.24439967e-01 9.35748637e-01 9.40220058e-01
      4.73032683e-01 6.44275129e-01 4.85699743e-01 0. 6.43481433e-01
      7.08407998e-01 7.83354819e-01 1. 7.61381209e-01 7.28940368e-01
      4.77793097e-01 4.05777514e-01 1.55169830e-01 6.74162269e-01
      6.75006390e-01 9.17442322e-01 9.12271261e-01 6.77747905e-01
      6.11972928e-01 0.</_>
    <_>
      0. 4.60530967e-01 5.78607202e-01 6.44570291e-01 9.36074853e-01
      6.98207676e-01 9.33095872e-01 8.99190724e-01 8.96259725e-01 0. 0.
      0. 9.42340672e-01 9.66208994e-01 1. 8.20105970e-01 5.14818311e-01
      7.12946713e-01 5.25422513e-01 0. 7.04814494e-01 0. 8.67348909e-01
      8.61336231e-01 7.88672805e-01 7.70461261e-01 4.98896122e-01
      3.80014718e-01 0. 7.10530579e-01 7.11758792e-01 7.34184802e-01
      9.78485584e-01 6.84797585e-01 0. 0.</_>
    <_>
      0. 5.00443101e-01 7.04235494e-01 0. 8.58284414e-01 8.53556156e-01
      7.77199805e-01 7.31468320e-01 0. 0. 0. 7.06003368e-01
      7.08994925e-01 1. 9.95334983e-01 7.33645022e-01 6.05071247e-01
      4.40380335e-01 0. 0. 5.66878498e-01 6.71711028e-01 7.53639460e-01
      9.70023572e-01 9.55061853e-01 7.30006218e-01 6.83474123e-01
      4.82206523e-01 4.54071671e-01 3.97463262e-01 7.36617744e-01
      7.82823980e-01 8.24686170e-01 8.35034609e-01 5.31655550e-01
      7.02304840e-01</_>
    <_>
      0. 4.12917733e-01 4.55008835e-01 7.51422882e-01 7.41568506e-01
      9.16156709e-01 6.48910820e-01 7.22887516e-01 7.03344107e-01
      6.15943074e-01 6.20773852e-01 5.96806169e-01 6.72139108e-01
      6.62276387e-01 7.75716662e-01 8.08181524e-01 6.66018009e-01
      6.17010474e-01 5.72210073e-01 5.43817699e-01 3.99618834e-01
      3.03941607e-01 2.51570910e-01 7.96346366e-01 8.25111628e-01
      5.23778796e-01 7.23028839e-01 6.46485746e-01 5.82417667e-01
      5.11077940e-01 8.90090704e-01 9.85906780e-01 1. 2.01861650e-01
      5.75613678e-01 3.02107245e-01</_>
    <_>
      0. 0. 0. 4.92056936e-01 5.97010553e-01 7.00818598e-01
      7.66345799e-01 7.67791510e-01 7.97862768e-01 2.73834378e-01
      1.11131169e-01 0. 0. 9.01114762e-01 9.51648533e-01 9.33357954e-01
      8.10313761e-01 6.29343271e-01 0. 0. 0. 0. 7.45194674e-01
      8.21632087e-01 3.90992880e-01 6.84777319e-01 5.60316384e-01
      4.74294990e-01 4.67367500e-01 4.42084819e-01 7.54508317e-01
      9.92092967e-01 1. 2.08685398e-01 2.36119941e-01 5.70565701e-01</_>
    <_>
      0. 4.57315624e-01 2.61399865e-01 5.12895942e-01 7.72589028e-01
      6.93947136e-01 6.77369058e-01 6.64224625e-01 6.24268591e-01
      6.48315609e-01 0. 0. 6.95205271e-01 7.47356474e-01 7.64519155e-01
      7.68485904e-01 6.51312470e-01 5.71457326e-01 5.25690317e-01
      4.63853180e-01 3.00680935e-01 2.55332023e-01 0. 7.84473658e-01
      8.50555480e-01 5.40698469e-01 7.30736017e-01 6.46925807e-01
      6.15647495e-01 5.68465590e-01 8.29894841e-01 9.13216591e-01 1.
      3.99874628e-01 6.02427661e-01 2.61525065e-01</_>
    <_>
      0. 4.34373587e-01 5.12757778e-01 7.63925374e-01 7.36247063e-01
      8.37975860e-01 7.05992997e-01 6.78647101e-01 6.80427194e-01 0. 0.
      0. 0. 7.95824707e-01 8.77922297e-01 6.93948925e-01 6.88513517e-01
      6.52639389e-01 6.08387411e-01 5.46584010e-01 4.34904933e-01
      3.28382641e-01 0. 8.88711393e-01 9.70116198e-01 6.34343147e-01
      8.46834898e-01 7.50760972e-01 6.81288600e-01 6.32097185e-01
      8.88513446e-01 1. 8.30537379e-01 6.43550575e-01 2.67825305e-01
      3.17070246e-01</_>
    <_>
      0. 1.97055683e-01 3.30393195e-01 4.61809725e-01 7.58281350e-01
      8.99034739e-01 9.26927030e-01 7.72191584e-01 7.68200040e-01
      6.10685647e-01 1.49001881e-01 0. 6.66597724e-01 9.14411187e-01
      9.92768228e-01 7.84234226e-01 5.81425428e-01 6.92116737e-01
      5.78730643e-01 3.90966207e-01 0. 0. 8.30266118e-01 8.92978430e-01
      8.76165032e-01 7.47405052e-01 6.57128036e-01 5.68347752e-01
      5.02327681e-01 4.50814813e-01 8.53467464e-01 1. 7.78585196e-01
      6.11708760e-01 5.10077298e-01 0.</_>
    <_>
      0. 3.12992513e-01 4.19603795e-01 7.83827305e-01 5.51690221e-01
      7.52214015e-01 7.39408493e-01 7.19098926e-01 7.17792630e-01
      5.44818997e-01 5.74152231e-01 1.67996526e-01 6.51228547e-01
      8.27635229e-01 8.75177622e-01 7.55145133e-01 5.19114852e-01 0.
      6.03289068e-01 4.84227151e-01 2.59258568e-01 0. 0. 8.10595393e-01
      8.13801706e-01 6.89984262e-01 6.31281853e-01 5.48009872e-01
      4.84659761e-01 4.38119173e-01 8.22317839e-01 8.36941779e-01 1.
      5.50912976e-01 4.54636395e-01 0.</_>
    <_>
      0. 2.34505326e-01 4.06212389e-01 8.31201673e-01 5.62550724e-01
      7.98599064e-01 8.83112192e-01 8.50958526e-01 7.46999323e-01
      7.44860530e-01 6.16997004e-01 0. 6.83307230e-01 9.55771863e-01
      9.31957245e-01 8.03765118e-01 5.80698967e-01 6.46350980e-01
      5.75977027e-01 3.56022507e-01 0. 0. 7.83348203e-01 8.45604241e-01
      7.33291090e-01 6.75230682e-01 5.95815778e-01 5.04806638e-01
      4.39411223e-01 4.13313895e-01 8.56222332e-01 9.85235572e-01 1.
      2.56313115e-01 4.87857640e-01 0.</_>
    <_>
      0. 4.52181548e-01 4.88229692e-01 8.09255362e-01 7.82052755e-01
      9.82466817e-01 7.63352454e-01 7.47021556e-01 6.24927998e-01
      6.88151002e-01 6.57020032e-01 0. 7.54784226e-01 8.43920708e-01
      9.08637226e-01 8.49807441e-01 7.11839557e-01 4.82191414e-01
      6.27524495e-01 5.93427181e-01 4.47132707e-01 3.65765184e-01
      3.22672904e-01 8.50168467e-01 9.48644161e-01 9.07319546e-01
      8.13244998e-01 7.06757486e-01 6.39222085e-01 5.90083361e-01
      9.29153323e-01 1. 4.11174953e-01 6.40708148e-01 2.49112830e-01
      3.91726077e-01</_>
    <_>
      0. 3.82467479e-01 6.97420716e-01 3.90338153e-01 6.71131432e-01
      7.68627167e-01 7.31439292e-01 6.04551315e-01 5.68733037e-01 0.
      5.40993214e-01 3.50080073e-01 5.90394020e-01 6.05543852e-01
      4.72637266e-01 7.18120992e-01 5.81812203e-01 5.61904430e-01
      4.38341618e-01 5.49852252e-01 5.32126188e-01 4.40224946e-01 0.
      8.62319589e-01 9.26613629e-01 8.56665790e-01 7.36905158e-01
      6.75928414e-01 5.84360003e-01 8.35465372e-01 8.81138027e-01
      5.03462136e-01 1. 2.87623137e-01 3.12026024e-01 3.38553190e-01</_>
    <_>
      0. 4.54793960e-01 4.91399765e-01 5.18952072e-01 7.79333174e-01
      7.47928381e-01 7.34715939e-01 6.86986446e-01 6.75664902e-01
      6.43951535e-01 0. 6.70124054e-01 6.77526176e-01 7.61905789e-01
      7.78397739e-01 8.79098415e-01 8.55298340e-01 4.52243716e-01
      5.59975684e-01 5.27888715e-01 4.41788107e-01 3.42322171e-01 0.
      9.06372845e-01 9.61398244e-01 8.65301609e-01 7.59472668e-01
      6.93185985e-01 6.26073778e-01 9.54194784e-01 1. 7.51784325e-01
      6.04600966e-01 5.39649308e-01 3.15980345e-01 3.66086602e-01</_>
    <_>
      0. 5.25868893e-01 5.62529981e-01 6.00244582e-01 8.30856860e-01
      8.51102054e-01 7.85498857e-01 7.27386653e-01 7.09648132e-01 0. 0.
      7.02591062e-01 7.72706866e-01 7.96127975e-01 8.76095772e-01
      8.35124314e-01 6.04992509e-01 4.23085541e-01 5.31281948e-01
      4.33242530e-01 3.75837028e-01 2.94283837e-01 2.28103414e-01
      8.56787801e-01 9.38517332e-01 8.59881997e-01 7.53571808e-01
      6.91916585e-01 6.52376294e-01 5.81649840e-01 1. 6.36758566e-01
      4.47786748e-01 6.10107541e-01 3.18673015e-01 3.70493144e-01</_>
    <_>
      0. 3.99877280e-01 4.79494840e-01 2.47794494e-01 9.03373837e-01 1.
      8.01605701e-01 7.04297364e-01 7.22915173e-01 7.50663280e-01
      7.58276641e-01 7.11345494e-01 8.04823756e-01 8.47580731e-01
      8.86303902e-01 6.12863243e-01 3.70149672e-01 4.80779827e-01
      4.75954592e-01 3.23566407e-01 2.10773081e-01 6.08700871e-01
      6.49468243e-01 8.20712030e-01 8.40498030e-01 6.90277994e-01
      6.00732505e-01 0. 7.21338928e-01 6.44370914e-01 7.90743768e-01
      7.80848324e-01 7.22311556e-01 6.01493418e-01 0. 2.23128617e-01</_>
    <_>
      0. 2.93809742e-01 4.34769660e-01 8.28148961e-01 8.01791191e-01
      7.99453139e-01 7.67266691e-01 7.58706331e-01 7.31143892e-01
      1.07921116e-01 0. 7.37554014e-01 7.35036671e-01 7.85456598e-01
      8.43962431e-01 6.51593804e-01 5.94664931e-01 5.60728014e-01
      4.45638567e-01 2.90878683e-01 0. 4.99100983e-01 5.72360277e-01
      6.28390193e-01 7.34000266e-01 7.35261798e-01 7.08064437e-01
      6.61669433e-01 0. 4.34997946e-01 7.04001606e-01 1. 9.94364798e-01
      5.97705960e-01 5.40238380e-01 0.</_>
    <_>
      0. 0. 0. 3.91141802e-01 5.33575535e-01 8.70616376e-01
      8.45348418e-01 8.53270829e-01 4.74129677e-01 4.98851627e-01 0.
      5.07200897e-01 8.74339938e-01 9.08334076e-01 9.49166477e-01
      6.92299426e-01 5.95354319e-01 4.66940582e-01 0. 3.91484112e-01
      5.00339806e-01 4.12130803e-01 4.70271170e-01 1. 6.64499521e-01
      6.57130241e-01 5.81293046e-01 5.46027958e-01 4.83578801e-01
      5.71965039e-01 5.94915330e-01 9.29264784e-01 9.25773084e-01
      5.67030847e-01 5.19847095e-01 0.</_>
    <_>
      0. 0. 3.36548865e-01 5.06015062e-01 8.51501763e-01 8.47732365e-01
      8.40697527e-01 8.05867970e-01 5.69744825e-01 1.52170926e-01
      1.20563366e-01 0. 8.26859534e-01 8.62202287e-01 9.66945887e-01
      6.51554525e-01 4.25583273e-01 5.51004887e-01 4.04333234e-01 0.
      4.55844432e-01 5.06502509e-01 6.28166318e-01 6.89374387e-01
      7.24188089e-01 7.19150126e-01 5.29071391e-01 6.41512096e-01
      5.43913007e-01 6.37180626e-01 6.58944309e-01 6.83639109e-01 1.
      5.63006043e-01 0. 0.</_>
    <_>
      0. 4.74085927e-01 5.23919225e-01 7.39326656e-01 7.28707075e-01
      6.88884556e-01 6.55118883e-01 6.33332849e-01 6.01002872e-01 0. 0.
      6.22274160e-01 6.05176866e-01 6.86526895e-01 7.27145016e-01
      7.62937725e-01 5.48682392e-01 5.53739429e-01 2.04080358e-01
      4.98251468e-01 4.44744080e-01 4.68834817e-01 6.23672187e-01
      3.07923079e-01 8.42468560e-01 8.62771869e-01 6.09588206e-01
      5.03823280e-01 7.60744035e-01 0. 8.16669881e-01 8.05883050e-01 1.
      5.65164685e-01 2.91499794e-01 3.94536257e-01</_>
    <_>
      0. 4.52466339e-01 2.96332955e-01 4.77799296e-01 8.11268866e-01
      9.11769450e-01 9.15530562e-01 7.10166216e-01 6.86735809e-01
      6.56521738e-01 6.52768493e-01 6.77369535e-01 4.55301553e-01
      7.62615502e-01 7.53643513e-01 8.82930756e-01 6.21000469e-01
      4.28962588e-01 5.76541245e-01 4.86546367e-01 4.55153972e-01
      3.81484747e-01 7.02322066e-01 9.19310808e-01 1. 8.46260846e-01
      8.65068078e-01 8.50124598e-01 7.25253880e-01 8.97142828e-01
      8.45759392e-01 8.05302918e-01 5.79385579e-01 2.94658005e-01
      3.39074403e-01 0.</_>
    <_>
      0. 5.79772294e-01 6.29332364e-01 6.96425617e-01 9.54399765e-01 1.
      9.57263768e-01 9.10560608e-01 0. 0. 0. 8.74225259e-01
      8.77686322e-01 9.05290842e-01 9.45046842e-01 9.88398254e-01
      3.89633298e-01 5.13383508e-01 4.27074641e-01 3.55814964e-01
      2.89073914e-01 0. 6.96343482e-01 5.93975008e-01 9.45937037e-01
      9.58905697e-01 9.65686500e-01 9.17333603e-01 8.39852095e-01
      9.01790798e-01 9.60408688e-01 9.67119753e-01 8.75024021e-01
      7.76920259e-01 0. 3.01133364e-01</_>
    <_>
      0. 3.36464077e-01 4.86338675e-01 5.39920628e-01 9.48476076e-01
      9.89199162e-01 9.14428294e-01 9.09437716e-01 8.44767034e-01
      4.81334478e-01 0. 8.91631842e-02 8.62419605e-01 9.57155347e-01 1.
      7.03714609e-01 4.68779206e-01 5.76296628e-01 3.87351662e-01
      2.21340045e-01 5.12195230e-01 6.54517293e-01 7.32305706e-01
      8.56139719e-01 8.91358256e-01 8.54978740e-01 8.43390048e-01
      7.38664210e-01 7.35744655e-01 8.06391895e-01 8.00515234e-01
      7.63256907e-01 6.81432545e-01 5.92445433e-01 0. 0.</_>
    <_>
      0. 0. 0. 5.82020342e-01 6.71557426e-01 9.60383117e-01
      9.64428604e-01 7.33735919e-01 2.99370944e-01 0. 0. 0.
      7.18276203e-01 1. 9.95811582e-01 6.70699716e-01 6.39671981e-01
      4.03562009e-01 0. 5.03143787e-01 5.88515580e-01 6.10102475e-01
      6.78059101e-01 7.18043745e-01 7.04773426e-01 6.83176398e-01
      6.27494693e-01 0. 5.74708462e-01 6.01963699e-01 5.83913505e-01
      6.45291865e-01 9.11331534e-01 6.26301944e-01 6.04966640e-01
      5.32268524e-01</_>
    <_>
      0. 4.68122780e-01 5.25541127e-01 6.15240335e-01 9.22743678e-01
      9.45631146e-01 9.03526843e-01 8.75536501e-01 8.48659039e-01 0. 0.
      8.00884843e-01 8.86486232e-01 9.07605410e-01 9.62836027e-01 1.
      6.86717033e-01 6.10864222e-01 5.69585621e-01 4.56475258e-01
      2.92386264e-01 6.06390715e-01 7.22817600e-01 7.10147321e-01
      9.67364430e-01 9.96467233e-01 9.18577492e-01 8.77569795e-01
      8.78985941e-01 9.27907228e-01 9.25070822e-01 8.91349375e-01
      6.91345453e-01 5.44925094e-01 2.01447308e-01 2.23081261e-01</_>
    <_>
      0. 5.73980570e-01 6.36707425e-01 6.31638229e-01 9.06731129e-01
      8.97346616e-01 8.55115175e-01 7.93696702e-01 7.84508109e-01 0. 0.
      0. 8.13363016e-01 1. 9.67993140e-01 6.55772150e-01 6.78336680e-01
      6.14731133e-01 5.77325702e-01 5.39454043e-01 4.17161226e-01
      6.22323871e-01 7.29434550e-01 9.01606560e-01 9.64230359e-01
      7.67655611e-01 7.02315271e-01 2.78789580e-01 3.11126471e-01
      6.70288146e-01 9.11559582e-01 9.17194247e-01 8.77914429e-01
      7.19436586e-01 2.68638521e-01 3.81990045e-01</_>
    <_>
      0. 4.29025203e-01 4.62723464e-01 4.98818636e-01 7.27177262e-01
      7.16664374e-01 6.91344023e-01 6.76338792e-01 6.36487305e-01
      6.81795299e-01 0. 6.86229289e-01 6.60803616e-01 8.39781702e-01
      8.80883932e-01 7.58185923e-01 7.83523500e-01 4.59597886e-01
      4.54763204e-01 3.34965855e-01 2.52580345e-01 4.40963656e-01
      5.75682342e-01 1. 7.49842346e-01 7.47013271e-01 5.55162489e-01
      6.75741017e-01 0. 5.19112945e-01 7.09371030e-01 9.64776397e-01 0.
      5.48571467e-01 0. 2.55690634e-01</_>
    <_>
      0. 0. 4.43859905e-01 5.38039148e-01 9.12514329e-01 9.09461796e-01
      8.93778205e-01 8.35274339e-01 8.04800570e-01 0. 4.59734052e-01
      8.06788564e-01 7.87081957e-01 8.86754811e-01 9.14497137e-01
      6.34925902e-01 5.72550833e-01 4.41333503e-01 0. 0. 5.18489242e-01
      5.84366262e-01 4.50146496e-01 1. 9.44841325e-01 6.95611179e-01
      6.73737705e-01 5.84065139e-01 0. 4.43392575e-01 6.77132428e-01
      9.54222620e-01 9.51079428e-01 1.74888358e-01 5.36226332e-01 0.</_>
    <_>
      0. 4.30563986e-01 5.48141360e-01 5.71394384e-01 8.61024380e-01
      8.56956720e-01 8.19088399e-01 7.88248897e-01 0. 0. 7.35618234e-01
      7.11489081e-01 7.69431353e-01 7.76267529e-01 1. 5.81564903e-01 0.
      4.99337673e-01 3.89876455e-01 0. 0. 4.87989902e-01 5.56918144e-01
      7.12680697e-01 7.40140200e-01 7.28226721e-01 6.67898357e-01
      6.24529719e-01 6.25610828e-01 6.86808705e-01 7.20098555e-01
      7.29075134e-01 7.00382531e-01 5.82580805e-01 5.11184990e-01 0.</_>
    <_>
      0. 3.18569124e-01 4.97245699e-01 5.89381158e-01 6.52413666e-01
      9.25999880e-01 8.99280667e-01 8.93361151e-01 1.71587870e-01
      1.36572734e-01 0. 0. 9.11254287e-01 9.90915954e-01 1.
      6.61842763e-01 5.76071024e-01 5.37154913e-01 3.60371679e-01 0.
      5.09110391e-01 6.14969909e-01 0. 7.63328552e-01 7.80993760e-01
      7.76990831e-01 7.19516814e-01 6.68797970e-01 6.28683388e-01
      6.78934515e-01 7.30795264e-01 7.41160035e-01 7.32941151e-01
      6.20163858e-01 0. 0.</_>
    <_>
      0. 4.13158238e-01 4.94510382e-01 5.45056939e-01 5.97385764e-01
      9.66899931e-01 9.90632653e-01 8.43741715e-01 5.62191963e-01
      4.05036092e-01 0. 0. 5.90861857e-01 1. 7.15018332e-01
      7.27656484e-01 6.96245134e-01 6.74213529e-01 5.50127089e-01
      4.54378039e-01 2.17218295e-01 6.82941496e-01 7.90070653e-01
      8.92228782e-01 9.15939927e-01 6.74455106e-01 7.55874336e-01
      7.46412575e-01 7.48401642e-01 6.18373752e-01 7.94670939e-01
      7.93388605e-01 7.28826225e-01 6.42883360e-01 0. 1.05670288e-01</_>
    <_>
      0. 4.00722861e-01 4.52306271e-01 5.17241478e-01 5.22982240e-01
      9.07988012e-01 8.91643405e-01 7.77187467e-01 7.62030482e-01
      7.72023737e-01 0. 5.10379016e-01 8.35775077e-01 8.93243730e-01 1.
      9.59816754e-01 6.75224483e-01 4.58419383e-01 5.94325900e-01
      4.95855153e-01 3.78917396e-01 6.40160143e-01 6.82206690e-01
      8.58916104e-01 8.95618618e-01 6.70847178e-01 7.62239099e-01
      7.51961648e-01 7.51168013e-01 6.28842235e-01 7.94544220e-01
      7.64635265e-01 7.01112926e-01 5.49964368e-01 1.38134927e-01
      2.23072812e-01</_>
    <_>
      0. 0. 0. 0. 7.98895419e-01 8.93288136e-01 9.61724460e-01
      7.78452694e-01 7.44386435e-01 3.79648745e-01 3.46837997e-01
      3.99049312e-01 7.84678340e-01 1. 9.94031966e-01 8.23262513e-01
      7.59865403e-01 0. 5.24699867e-01 6.64241791e-01 7.08995521e-01
      5.83596051e-01 8.40920329e-01 8.62121642e-01 8.40708494e-01
      7.36724555e-01 6.94002509e-01 6.29991174e-01 5.90198159e-01
      6.48331344e-01 2.78684705e-01 7.59715974e-01 7.79287636e-01
      7.44099200e-01 7.37325788e-01 6.40695393e-01</_>
    <_>
      0. 4.93801504e-01 5.76754868e-01 6.24693990e-01 8.81527543e-01
      8.47424686e-01 8.08466196e-01 7.80164361e-01 7.58578181e-01 0. 0.
      7.72463620e-01 7.76052117e-01 9.38494682e-01 1. 8.73505473e-01
      3.26806694e-01 4.89108980e-01 4.16438401e-01 3.50797892e-01 0.
      5.47181189e-01 6.71065331e-01 7.54312038e-01 8.34754348e-01
      8.25739622e-01 6.15595162e-01 7.57811308e-01 6.82870448e-01
      7.34348357e-01 8.00988853e-01 8.04493666e-01 7.61069000e-01
      7.18382120e-01 5.27597189e-01 0.</_>
    <_>
      0. 4.58581716e-01 5.46846092e-01 6.01873279e-01 9.72051680e-01
      9.67575133e-01 9.05657589e-01 8.80965114e-01 8.60877633e-01 0. 0.
      8.81650627e-01 9.31672871e-01 9.33741629e-01 1. 7.15337574e-01
      4.59206194e-01 5.92197835e-01 4.37518388e-01 1.95112005e-01 0.
      6.85244024e-01 5.61237752e-01 8.75401497e-01 8.80346835e-01
      8.49020600e-01 7.99681544e-01 2.20193565e-01 0. 6.33135796e-01
      8.27982724e-01 8.33223879e-01 7.92810619e-01 6.33120716e-01
      5.20939410e-01 0.</_>
    <_>
      0. 3.93863499e-01 4.41733301e-01 4.79090184e-01 7.70946443e-01
      8.51575971e-01 8.60272884e-01 7.03673542e-01 6.89908624e-01
      6.97230339e-01 0. 0. 7.39391506e-01 7.67899275e-01 8.39785874e-01
      8.33611548e-01 4.20497715e-01 5.08747339e-01 4.67309237e-01
      2.84878969e-01 1.43604413e-01 5.62373757e-01 4.81557846e-01 1.
      7.45706320e-01 7.41640747e-01 6.78263247e-01 6.32920444e-01
      6.35446668e-01 5.25927603e-01 6.97176695e-01 6.99328840e-01
      6.38855577e-01 5.78311384e-01 0. 1.89706400e-01</_>
    <_>
      0. 3.95173281e-01 4.70296115e-01 3.46948087e-01 5.46739876e-01
      8.45480144e-01 1. 7.91473508e-01 3.26660693e-01 0. 0.
      7.40838408e-01 8.69943440e-01 8.05816531e-01 8.26364994e-01
      8.53205502e-01 4.75933373e-01 4.41832453e-01 3.33866775e-01
      2.75367916e-01 0. 0. 5.33115685e-01 6.32783115e-01 6.67029560e-01
      6.63019061e-01 5.12138486e-01 5.61736882e-01 6.26460314e-01
      6.46357358e-01 6.65642262e-01 7.00730860e-01 6.74290955e-01
      5.24861395e-01 4.45697337e-01 0.</_>
    <_>
      0. 4.32962477e-01 4.78140414e-01 5.13302565e-01 8.76639426e-01 1.
      8.06215227e-01 7.91988969e-01 4.65727180e-01 0. 0. 0.
      8.32606912e-01 8.80859792e-01 9.29992676e-01 5.77967584e-01
      5.25186062e-01 3.44933301e-01 4.60071713e-01 2.97390133e-01
      2.08749741e-01 5.56007683e-01 5.72001338e-01 7.36682653e-01
      7.66039968e-01 7.26797640e-01 6.32615447e-01 6.80064201e-01
      5.91112196e-01 6.02912784e-01 7.31294453e-01 7.16187000e-01
      6.50546670e-01 4.97602254e-01 0. 2.12578550e-01</_>
    <_>
      0. 4.10940945e-01 4.92584974e-01 5.27906179e-01 8.68552268e-01
      9.96370673e-01 1. 8.62802386e-01 7.75803089e-01 0. 0. 0.
      8.66456866e-01 8.85899305e-01 9.56391573e-01 9.14494753e-01
      3.80531609e-01 3.00084919e-01 4.55106199e-01 3.21855038e-01
      2.00485706e-01 0. 6.48059368e-01 7.34721959e-01 7.73214877e-01
      7.68998682e-01 6.10058665e-01 6.84060574e-01 7.25308836e-01
      7.47328103e-01 7.38803267e-01 7.15804517e-01 4.13891315e-01
      5.72247207e-01 1.74114347e-01 2.54345536e-01</_>
    <_>
      0. 3.18837225e-01 4.35668677e-01 4.88265425e-01 9.09501314e-01
      9.75694716e-01 1. 8.47447038e-01 3.80108207e-01 4.86163974e-01 0.
      0. 8.89963806e-01 9.34428096e-01 9.71935213e-01 6.59930646e-01
      5.75097620e-01 5.34604907e-01 4.49981809e-01 2.54571915e-01 0.
      6.22129798e-01 4.90692228e-01 7.82816291e-01 7.62579083e-01
      4.76318300e-01 6.16396725e-01 6.60078406e-01 6.66333854e-01
      7.09371388e-01 6.90051138e-01 6.91238403e-01 0. 5.17080963e-01 0.
      0.</_>
    <_>
      0. 4.12793696e-01 4.46762919e-01 2.59268165e-01 5.20547450e-01 1.
      8.22069824e-01 8.13977301e-01 7.48818636e-01 7.72878051e-01 0.
      7.92810500e-01 8.44821930e-01 9.49997723e-01 9.41180468e-01
      6.09490037e-01 3.71831596e-01 4.83380020e-01 4.78994101e-01
      3.28204483e-01 2.18962073e-01 5.45656741e-01 6.53635681e-01
      7.36458898e-01 7.64842331e-01 7.42556810e-01 6.39411569e-01
      6.80228174e-01 6.82442844e-01 7.09714949e-01 7.28732526e-01
      7.27930546e-01 6.45499885e-01 5.46535373e-01 0. 2.11498931e-01</_>
    <_>
      0. 4.72422987e-01 5.13845444e-01 5.43588936e-01 8.17624331e-01
      9.94041800e-01 7.49561727e-01 7.16625690e-01 0. 6.68900609e-01
      6.98629141e-01 7.10687637e-01 7.37105787e-01 7.69896686e-01
      8.42563570e-01 6.20756567e-01 6.16635740e-01 5.43708742e-01
      4.65123832e-01 3.40660930e-01 1.02722898e-01 5.80134571e-01
      6.50287509e-01 7.41723537e-01 7.76638210e-01 7.71305561e-01 0.
      6.76844299e-01 5.33064902e-01 7.26373851e-01 7.47577190e-01
      7.48904884e-01 1. 5.48796713e-01 4.93218750e-01 1.75095811e-01</_>
    <_>
      0. 0. 0. 6.21567309e-01 9.75839376e-01 9.72298563e-01
      9.77764547e-01 6.68891013e-01 6.97978854e-01 0. 0. 7.15604365e-01
      7.23068893e-01 9.77844357e-01 7.52667964e-01 6.37463391e-01
      5.79661667e-01 0. 0. 4.22595561e-01 5.73248267e-01 6.24687970e-01
      7.01201677e-01 7.14997530e-01 6.80481970e-01 6.32400095e-01
      5.09778500e-01 5.31101108e-01 5.95940471e-01 4.28570241e-01
      6.74214602e-01 6.80408478e-01 1. 6.76102102e-01 0. 5.73126078e-01</_>
    <_>
      0. 0. 4.20741856e-01 5.55047750e-01 6.20355904e-01 9.29635882e-01
      9.18180645e-01 9.06965673e-01 4.84650761e-01 0. 0. 0.
      6.72609687e-01 9.66829062e-01 9.63052511e-01 7.17141032e-01
      5.98860800e-01 5.06330609e-01 0. 0. 5.77523053e-01 6.99563742e-01
      7.50193119e-01 7.85862029e-01 7.70914435e-01 7.31768727e-01 0. 0.
      6.57127738e-01 5.18012166e-01 7.11601973e-01 7.17122018e-01 1. 0.
      5.56393564e-01 0.</_>
    <_>
      0. 9.31811854e-02 0. 5.53139687e-01 6.09704316e-01 1.
      7.42377579e-01 7.41992176e-01 5.25220096e-01 5.48480809e-01 0.
      5.68466544e-01 7.76298583e-01 7.89337814e-01 8.04167211e-01 0.
      6.80817068e-01 0. 2.05997393e-01 5.71727812e-01 6.06391311e-01
      3.97375703e-01 7.26335585e-01 7.39131272e-01 6.36499822e-01
      4.80120361e-01 4.98492599e-01 5.37067771e-01 5.69848597e-01
      5.95131040e-01 6.01727068e-01 9.16220784e-01 9.32482123e-01
      5.82500696e-01 5.24753153e-01 4.75592464e-01</_>
    <_>
      0. 3.59761536e-01 5.42001784e-01 6.35404050e-01 6.72849417e-01
      9.32317555e-01 9.00094807e-01 8.91362906e-01 0. 0. 0.
      6.20117247e-01 9.07807589e-01 9.40179288e-01 1. 6.95986032e-01
      5.87078452e-01 5.76590180e-01 1.75714299e-01 0. 5.41350842e-01
      6.60304248e-01 7.47805297e-01 7.67901659e-01 7.70246148e-01
      7.38075912e-01 6.08421624e-01 6.29486740e-01 6.99620783e-01
      7.29013860e-01 7.35677898e-01 7.38466620e-01 7.18266368e-01
      6.99804008e-01 5.99438310e-01 0.</_>
    <_>
      0. 0. 4.80138570e-01 5.75199366e-01 6.60368085e-01 9.68781233e-01
      9.49740469e-01 9.11197722e-01 6.55418813e-01 4.75835204e-01
      5.07626355e-01 5.27912378e-01 6.89406574e-01 9.85294223e-01 1.
      7.11717904e-01 6.25600636e-01 4.88653898e-01 0. 0. 5.56643307e-01
      6.51242256e-01 7.33106077e-01 7.47779131e-01 7.34894812e-01
      7.11511970e-01 5.75990140e-01 5.98193228e-01 6.28921807e-01
      6.58679307e-01 6.79495811e-01 6.85762703e-01 9.89703894e-01
      6.37694597e-01 5.87041974e-01 0.</_>
    <_>
      0. 3.09899747e-01 4.88139927e-01 5.39476871e-01 6.00693107e-01
      9.40650582e-01 9.01981235e-01 5.32490253e-01 8.49893272e-01
      5.30905664e-01 0. 5.60353756e-01 8.97370577e-01 1. 8.95714104e-01
      9.04163241e-01 3.45293164e-01 5.43504953e-01 4.32653964e-01
      1.22662015e-01 0. 5.82389653e-01 4.27273840e-01 7.27190614e-01
      7.31595397e-01 6.20287895e-01 5.83693802e-01 6.04573071e-01
      6.65723443e-01 6.96924806e-01 7.02892303e-01 7.05442250e-01
      6.66693330e-01 5.47007501e-01 4.89454478e-01 0.</_>
    <_>
      0. 0. 4.10567254e-01 4.59461987e-01 5.60474575e-01 9.59837198e-01
      9.69064116e-01 8.88411224e-01 5.83674431e-01 0. 0. 0.
      6.58873677e-01 9.85041201e-01 1. 7.26331055e-01 6.07183695e-01
      5.97456694e-01 3.93810570e-01 1.48667127e-01 5.40883183e-01
      6.85421944e-01 7.16465175e-01 7.86514461e-01 7.69914508e-01
      5.81001699e-01 6.20410919e-01 6.38578594e-01 6.63258433e-01
      6.87095702e-01 6.88605964e-01 6.69494152e-01 6.41202867e-01
      5.19352019e-01 3.78774047e-01 0.</_>
    <_>
      0. 2.89276779e-01 4.60166097e-01 5.10142148e-01 9.37273204e-01
      9.75640655e-01 1. 8.96682262e-01 3.95531982e-01 4.19023067e-01 0.
      0. 4.48512226e-01 9.88399446e-01 9.40567434e-01 6.82648718e-01
      5.78476250e-01 5.39412141e-01 3.61966759e-01 0. 4.14304852e-01
      6.03751898e-01 5.07153273e-01 7.66743064e-01 7.51411140e-01
      6.84680700e-01 6.17785573e-01 6.36839390e-01 6.62222743e-01
      6.99152052e-01 7.06350803e-01 7.09756613e-01 6.72123432e-01
      5.54271579e-01 0. 0.</_>
    <_>
      0. 5.46226382e-01 5.95895588e-01 4.90980893e-01 6.74915969e-01
      6.69848561e-01 9.39443290e-01 9.65980947e-01 4.23108339e-01 0.
      4.10791308e-01 8.70936096e-01 9.40241814e-01 9.79716182e-01 1.
      6.07125998e-01 0. 5.06388545e-01 4.13666219e-01 2.34766319e-01 0.
      1.06324568e-01 6.32336855e-01 7.24200487e-01 7.96261013e-01
      7.94075131e-01 4.46614027e-01 6.85125768e-01 7.57331192e-01
      6.40360653e-01 8.20788682e-01 8.27881277e-01 7.89535046e-01
      7.21084535e-01 5.36226690e-01 2.28066131e-01</_>
    <_>
      0. 4.16629255e-01 4.58321214e-01 4.77874726e-01 8.00523221e-01
      7.77985275e-01 7.60462999e-01 7.46171117e-01 6.66839421e-01 0.
      6.62793159e-01 6.38449967e-01 6.81681216e-01 8.68643165e-01
      7.80593455e-01 5.13392806e-01 3.22217941e-01 4.25708175e-01
      4.20030355e-01 2.97517329e-01 2.14455739e-01 1.30268514e-01
      5.63273132e-01 1. 9.62652743e-01 6.79987907e-01 5.65653145e-01
      6.12633228e-01 6.41937435e-01 0. 6.91753924e-01 9.78882849e-01
      4.53829676e-01 5.19162953e-01 0. 2.68721998e-01</_>
    <_>
      0. 2.35649720e-01 4.33666110e-01 4.83062088e-01 5.79020441e-01
      9.22050655e-01 9.26604033e-01 8.55475664e-01 5.41639507e-01 0. 0.
      0. 0. 9.19779181e-01 1. 6.36216581e-01 5.40264368e-01
      4.89867955e-01 0. 0. 0. 6.00192428e-01 6.67735338e-01
      7.07890451e-01 6.94306552e-01 6.45958066e-01 5.74504673e-01
      5.97258389e-01 6.28243864e-01 0. 6.67907059e-01 6.66983247e-01
      6.29967690e-01 5.49576998e-01 0. 0.</_>
    <_>
      0. 5.19514680e-01 5.39542317e-01 5.54418564e-01 6.40521705e-01
      6.34571016e-01 9.05589402e-01 1. 4.85406011e-01 9.05128300e-01
      9.04472649e-01 0. 7.73767233e-01 7.94696271e-01 0. 3.75801474e-01
      4.72685724e-01 4.59278762e-01 0. 2.25592524e-01 4.52935934e-01
      4.58720267e-01 4.21423674e-01 7.51915276e-01 7.34940767e-01
      3.02774251e-01 6.32351100e-01 5.81347644e-01 5.35891950e-01
      5.55382073e-01 5.69870651e-01 4.63248283e-01 4.61696297e-01
      4.94553953e-01 0. 0.</_>
    <_>
      0. 1.58417419e-01 0. 5.52652955e-01 6.17849648e-01 8.50344896e-01
      8.36827219e-01 5.98642409e-01 0. 4.38172549e-01 0. 5.75807750e-01
      6.04302645e-01 8.04426193e-01 8.19670618e-01 8.56603205e-01
      8.51655781e-01 4.08704400e-01 1.75006747e-01 4.18756127e-01
      4.67005968e-01 0. 5.48397303e-01 9.91884291e-01 1. 7.54901230e-01
      7.20478117e-01 0. 0. 8.20508540e-01 8.31253707e-01 7.67394602e-01
      7.44399965e-01 5.84577203e-01 5.80866635e-01 5.17973840e-01</_>
    <_>
      0. 5.38229823e-01 5.44937074e-01 5.02412677e-01 6.24334693e-01
      5.87242663e-01 0. 9.39855576e-01 8.97229731e-01 9.35767829e-01
      9.28914905e-01 9.07967031e-01 1. 9.83174682e-01 7.89808273e-01 0.
      4.33103621e-01 4.45812881e-01 4.34658945e-01 4.85406995e-01
      3.97638798e-01 5.19939482e-01 5.50364017e-01 5.46068847e-01
      5.22006452e-01 7.36392260e-01 7.18730271e-01 6.83906376e-01
      7.32541263e-01 7.51847565e-01 9.98390555e-01 9.56332147e-01
      5.84497929e-01 6.33330703e-01 0. 0.</_>
    <_>
      0. 3.22371751e-01 0. 0. 0. 0. 0. 0. 0. 0. 8.43879342e-01
      9.11886573e-01 1. 9.08958912e-01 6.22051656e-01 7.43246078e-01
      6.89350426e-01 0. 0. 0. 0. 0. 0. 6.81701124e-01 6.48299634e-01
      6.11971855e-01 0. 0. 5.59786737e-01 4.70359296e-01 0.
      6.30729020e-01 6.60386920e-01 6.36010110e-01 6.32246315e-01
      6.13705933e-01</_>
    <_>
      0. 0. 3.37033898e-01 4.61467624e-01 8.17352116e-01 8.32181573e-01
      7.50675380e-01 7.25195467e-01 5.12781978e-01 0. 0. 5.18806756e-01
      7.34186053e-01 7.72278607e-01 8.08674753e-01 8.12801659e-01
      3.64854723e-01 4.88669902e-01 3.53788257e-01 3.53714913e-01
      4.88537163e-01 3.64641398e-01 6.01899624e-01 5.99167883e-01
      8.03108990e-01 7.85025835e-01 7.12629139e-01 0. 2.92319302e-02
      7.82560587e-01 8.17350209e-01 6.84946954e-01 1. 5.24001956e-01
      5.00728667e-01 4.38379973e-01</_>
    <_>
      0. 2.72975773e-01 2.37192482e-01 3.00766408e-01 3.19758713e-01
      2.25710809e-01 0. 0. 0. 0. 1.66844666e-01 2.12528363e-01
      6.02992177e-01 6.23342931e-01 4.94562656e-01 4.12533313e-01 0.
      2.14691937e-01 2.49998927e-01 2.12528363e-01 0. 0. 5.97789213e-02
      0. 0. 0. 0. 7.51881823e-02 0. 0. 1. 1.35509372e-01 0.
      1.90754324e-01 2.06461683e-01 2.44390085e-01</_>
    <_>
      0. 3.61525059e-01 4.79606032e-01 5.17931104e-01 8.23605597e-01 1.
      7.26012230e-01 6.65689468e-01 6.84646785e-01 0. 0. 6.73020244e-01
      7.12668657e-01 9.71983910e-01 9.69121337e-01 8.05175006e-01
      3.55364233e-01 4.80834424e-01 4.45022941e-01 2.86902666e-01 0.
      5.27327478e-01 3.72280538e-01 6.54055059e-01 8.52287710e-01
      8.63794863e-01 4.72416937e-01 0. 4.56505567e-01 7.74449587e-01
      8.41530740e-01 7.90148377e-01 6.18783236e-01 0. 5.10739028e-01 0.</_>
    <_>
      0. 0. 6.52505755e-01 9.71837401e-01 1. 0. 0. 0. 0. 0. 0. 0. 0.
      2.86177605e-01 3.22996318e-01 3.31868291e-01 2.54171193e-01 0. 0.
      0. 8.97008717e-01 9.64300692e-01 9.92268622e-01 0. 0. 0. 0. 0. 0.
      0. 0. 0. 0. 4.10659283e-01 4.59420234e-01 0.</_>
    <_>
      0. 0. 3.38955581e-01 3.53641272e-01 4.00629848e-01 5.01728058e-01
      0. 0. 0. 0. 0. 0. 8.85729194e-01 9.10711586e-01 0. 0. 0. 0. 0. 0.
      0. 0. 0. 0. 5.04749238e-01 4.79609519e-01 5.05475879e-01
      3.75779569e-01 0. 0. 1. 0. 0. 0. 0. 0.</_>
    <_>
      0. 3.55259955e-01 5.18036842e-01 5.76032519e-01 9.72979784e-01
      9.39681292e-01 8.76594067e-01 8.69319558e-01 0. 0. 0.
      8.34486663e-01 8.40771019e-01 8.74407113e-01 9.19874310e-01
      9.59711373e-01 4.55885798e-01 5.61165631e-01 5.10874391e-01 0.
      5.32106519e-01 5.91359198e-01 5.05257189e-01 7.55200148e-01
      9.75189030e-01 1. 0. 8.51023614e-01 8.23592961e-01 9.42623138e-01
      9.97615457e-01 8.90840232e-01 6.97078347e-01 6.76454663e-01
      5.82921147e-01 0.</_>
    <_>
      0. 0. 0. 8.23381484e-01 8.70359302e-01 0. 0. 0. 0. 0. 0. 0.
      5.96076906e-01 6.42137170e-01 3.11750054e-01 4.45059955e-01
      3.58740330e-01 0. 0. 0. 1.88922897e-01 2.06775025e-01
      2.32150197e-01 1.99086905e-01 9.85154927e-01 1. 0. 0. 0. 0. 0. 0.
      0. 0. 5.31955838e-01 0.</_>
    <_>
      0. 4.15920645e-01 4.29747105e-01 3.88738930e-01 0. 5.57089858e-02
      0. 0. 0. 0. 0. 1. 6.92539513e-01 9.29268837e-01 0. 0. 0. 0. 0. 0.
      0. 6.19571805e-01 6.96105659e-01 7.42852509e-01 6.95710301e-01 0.
      0. 0. 0. 0. 0. 6.54972434e-01 6.89054728e-01 0. 0. 0.</_>
    <_>
      0. 4.30575907e-01 4.40625370e-01 3.66116971e-01 6.63105309e-01
      6.94184601e-01 0. 9.71850514e-01 1. 0. 9.46816564e-01
      4.83572990e-01 6.33370817e-01 5.78696609e-01 5.05270243e-01
      2.65465796e-01 0. 6.11267149e-01 7.01301634e-01 0. 7.20889091e-01
      7.05973744e-01 6.40677214e-01 5.86035132e-01 0. 7.35149026e-01
      6.99943304e-01 4.72570449e-01 4.24912810e-01 4.31659520e-01
      9.18920755e-01 9.00663376e-01 4.98061687e-01 5.07763803e-01 0. 0.</_>
    <_>
      0. 0. 0. 0. 0. 0. 0. 0. 0. 0. 0. 0. 9.02986467e-01 9.39066648e-01
      0. 4.33234692e-01 0. 0. 0. 0. 0. 0. 0. 0. 0. 0. 8.39413702e-01
      8.29086661e-01 0. 0. 0. 0. 0. 0. 0. 1.</_>
    <_>
      0. 0. 0. 0. 0. 0. 8.90972793e-01 6.60374820e-01 8.10424805e-01 0.
      0. 9.49961066e-01 1. 8.87028754e-01 6.30576253e-01 2.26956978e-01
      6.55655324e-01 0. 5.76289535e-01 5.13017297e-01 5.25080085e-01
      4.85115618e-01 4.08307284e-01 2.70273775e-01 5.50324917e-01
      6.59312129e-01 0. 0. 7.81861484e-01 8.57454538e-01 9.20667529e-01
      9.27767217e-01 0. 5.55398583e-01 0. 0.</_>
    <_>
      0. 0. 0. 0. 3.78358185e-01 4.77961332e-01 0. 0. 0. 0. 0.
      4.09801304e-01 8.76637220e-01 9.26571608e-01 8.79342318e-01
      7.14095056e-01 2.11294904e-01 1.93435729e-01 0. 0. 0. 0. 0. 0. 0.
      0. 0. 0. 0. 0. 1. 0. 0. 0. 0. 0.</_>
    <_>
      0. 0. 0. 0. 0. 1. 9.82008517e-01 8.79651964e-01 0. 0. 0. 0. 0. 0.
      2.83014476e-01 3.15097719e-01 4.20806676e-01 4.42891359e-01
      2.55188286e-01 4.22759116e-01 3.90742630e-01 0. 3.47580791e-01
      6.29813075e-01 5.78525424e-01 2.41777793e-01 4.38982427e-01
      3.91672790e-01 2.26819769e-01 1.86303943e-01 0. 6.26581609e-01 0.
      0. 0. 0.</_>
    <_>
      0. 0. 0. 0. 0. 0. 0. 0. 0. 0. 0. 0. 8.06829333e-01 8.55708241e-01
      7.99713612e-01 7.81912506e-01 7.56045520e-01 0. 4.08561230e-01
      4.08481270e-01 3.65522891e-01 0. 0. 0. 0. 0. 0. 0. 0. 0. 1.
      9.55982625e-01 0. 7.65832067e-01 7.60439277e-01 7.23731756e-01</_>
    <_>
      0. 7.32510269e-01 0. 0. 0. 0. 0. 3.93598139e-01 4.75469142e-01
      4.68633026e-01 5.16338229e-01 5.27348518e-01 3.55234176e-01 0. 1.
      8.30787659e-01 0. 0. 0. 0. 0. 0. 0. 0. 0. 7.16431439e-01
      7.83895135e-01 7.75516689e-01 0. 0. 0. 0. 0. 0. 0. 7.52857864e-01</_>
    <_>
      0. 2.30083793e-01 3.05244952e-01 4.52956259e-01 0. 1.
      5.90258956e-01 6.34761035e-01 6.67453468e-01 0. 0. 1.81368321e-01
      4.91712064e-01 7.63780415e-01 6.28370225e-01 7.50107944e-01
      7.32895136e-01 6.77775800e-01 6.18748248e-01 8.54188025e-01
      8.03700805e-01 8.00014377e-01 5.17582417e-01 5.07156730e-01
      5.71651220e-01 6.02905512e-01 0. 5.61283231e-01 4.89452600e-01
      6.48173928e-01 5.58290899e-01 0. 9.03623104e-01 8.59375477e-01
      5.78766167e-01 5.85986853e-01</_>
    <_>
      0. 4.42589700e-01 4.85009372e-01 4.74266350e-01 4.47012842e-01
      3.50308686e-01 3.55221897e-01 0. 3.03138942e-01 3.51776540e-01 0.
      0. 0. 0. 1.25775650e-01 1.49591431e-01 8.05810153e-01
      8.89847040e-01 4.26418334e-01 4.24767375e-01 0. 0. 0. 0. 0. 0. 1.
      9.44644749e-01 0. 0. 0. 0. 0. 0. 5.18885791e-01 0.</_>
    <_>
      0. 5.36038578e-01 6.90793157e-01 7.12831497e-01 7.95988262e-01
      7.73618579e-01 8.02960515e-01 8.20111930e-01 7.60590017e-01
      6.54734075e-01 7.20847189e-01 7.26243734e-01 8.37944686e-01
      8.26001644e-01 9.51311827e-01 8.29556644e-01 7.21596062e-01
      1.47607893e-01 4.49294925e-01 6.73793197e-01 6.95489466e-01
      5.11443973e-01 8.03500950e-01 9.65279877e-01 9.88622010e-01
      7.98523188e-01 6.30309522e-01 7.63616741e-01 7.35789180e-01
      7.40682364e-01 6.86113536e-01 9.82540607e-01 1. 7.62423277e-01
      7.88885236e-01 6.40528858e-01</_>
    <_>
      0. 5.52799940e-01 6.67644203e-01 7.26302087e-01 8.28288078e-01
      9.76907670e-01 1. 8.65678549e-01 7.84851134e-01 7.69495368e-01 0.
      7.83602715e-01 5.95407248e-01 8.91733348e-01 9.28444326e-01
      7.09784985e-01 6.53009534e-01 3.45565647e-01 6.62575662e-01
      6.94331586e-01 6.62703514e-01 7.62968361e-01 8.55104983e-01
      9.73369300e-01 8.27847242e-01 7.73446739e-01 3.90272319e-01
      6.53212130e-01 7.16013372e-01 7.29718864e-01 6.13090575e-01
      8.63793612e-01 8.70926380e-01 4.24478114e-01 3.91558409e-01
      4.33874547e-01</_>
    <_>
      0. 5.70984900e-01 6.62739217e-01 6.99187875e-01 8.00604224e-01
      8.84023309e-01 7.12454081e-01 8.95237446e-01 8.02934051e-01
      7.83123910e-01 7.86146700e-01 6.97973192e-01 8.52287591e-01 1.
      8.83356392e-01 7.36981452e-01 6.85583413e-01 3.18236709e-01
      6.88255608e-01 7.52869785e-01 6.23121619e-01 8.39395761e-01
      8.45498681e-01 9.53967094e-01 9.58118320e-01 8.54607642e-01
      7.74893880e-01 2.84476697e-01 7.57835329e-01 7.83300757e-01
      6.46171808e-01 9.21206534e-01 9.10467744e-01 7.64689744e-01
      4.62827176e-01 5.09845555e-01</_>
    <_>
      8.24041843e-01 0. 0. 0. 0. 0. 0. 6.45326197e-01 0. 0. 0. 0.
      6.22308552e-01 0. 0. 1. 0. 0. 8.75544965e-01 0. 0. 0. 1. 0. 0.
      6.22308552e-01 0. 0. 0. 0. 0. 0. 0. 0. 0. 0.</_>
    <_>
      0. 6.39333308e-01 6.81685805e-01 7.51947045e-01 8.11093152e-01 1.
      7.26336300e-01 7.01747298e-01 7.59385288e-01 7.48456240e-01
      7.58672357e-01 7.50001967e-01 8.27022672e-01 9.10830200e-01
      7.97084391e-01 4.10156697e-01 4.35902625e-01 5.89850664e-01
      5.24333179e-01 5.79656720e-01 5.49922407e-01 5.96662641e-01
      7.38428116e-01 7.96040893e-01 7.99999595e-01 6.74749434e-01
      6.03098214e-01 4.62704867e-01 4.90948051e-01 5.50739467e-01
      6.86454892e-01 7.68577754e-01 9.15882349e-01 8.42182279e-01
      7.25207150e-01 6.15503490e-01</_>
    <_>
      0. 4.32350069e-01 7.50281215e-01 7.94737339e-01 7.84034193e-01 1.
      9.93684709e-01 9.11031604e-01 8.44313025e-01 2.29561388e-01
      1.94336116e-01 8.73370051e-01 9.26696897e-01 8.40283334e-01
      8.84438097e-01 5.60133219e-01 7.83563375e-01 7.61333585e-01
      4.66924280e-01 4.29767162e-01 0. 4.89546627e-01 9.00135100e-01
      9.61863518e-01 9.54899788e-01 8.88668418e-01 4.94022727e-01 0.
      3.02123070e-01 5.56029201e-01 8.14055502e-01 9.53833163e-01
      9.60407197e-01 8.98578763e-01 0. 3.68476689e-01</_>
    <_>
      0. 5.52421272e-01 0. 0. 8.27306628e-01 7.40452886e-01
      7.21357763e-01 6.77018642e-01 6.01180553e-01 6.26694143e-01
      5.90103507e-01 6.21263683e-01 6.15068614e-01 6.45192325e-01
      6.66012645e-01 6.52444720e-01 7.04607368e-01 4.69092786e-01
      4.46768433e-01 0. 6.93218648e-01 7.27429986e-01 6.33462191e-01
      8.82345676e-01 8.71284366e-01 3.07130069e-01 3.24341804e-01 0. 0.
      2.21619070e-01 3.55327100e-01 6.75231516e-01 1. 6.45013869e-01
      6.42521203e-01 0.</_>
    <_>
      0. 0. 0. 6.61390573e-02 7.82846153e-01 1. 7.15683699e-01
      6.30042970e-01 6.47304296e-01 0. 6.15314424e-01 2.73375183e-01
      6.52131379e-01 7.06581175e-01 7.25218177e-01 6.15743279e-01
      7.06521392e-01 2.96464860e-01 2.33975157e-01 2.03358337e-01
      6.78393304e-01 6.18472576e-01 8.37680340e-01 7.93277800e-01
      7.74642408e-01 0. 3.68397206e-01 3.33651721e-01 0. 3.41240317e-01
      3.34852219e-01 3.82584959e-01 7.36344576e-01 7.40933716e-01
      7.42279232e-01 6.61584139e-01</_>
    <_>
      0. 0. 0. 8.28165650e-01 9.11408782e-01 9.69335675e-01
      6.60384834e-01 6.42891884e-01 0. 0. 0. 6.92286193e-01
      6.89748406e-01 8.69975865e-01 8.65445554e-01 7.47449696e-01
      5.89893103e-01 6.38654351e-01 3.06774259e-01 3.07512105e-01
      2.88632363e-01 6.77682519e-01 7.56191313e-01 7.05114841e-01
      6.26666009e-01 6.19312406e-01 4.06097502e-01 5.38060069e-01
      5.10935843e-01 4.99855429e-01 4.81378585e-01 6.89671636e-01 1.
      9.39584792e-01 0. 0.</_>
    <_>
      0. 1. 9.70259130e-01 7.06898868e-01 0. 1.38496205e-01 0.
      1.49388224e-01 1.82962626e-01 2.46232584e-01 3.17248583e-01
      3.28254253e-01 0. 0. 0. 5.79310283e-02 6.36174619e-01
      6.23652101e-01 4.09252077e-01 4.08188224e-01 2.41612732e-01
      4.15769607e-01 4.23258632e-01 4.45300400e-01 4.79893774e-01
      4.76936668e-01 4.63587940e-01 4.00524348e-01 3.69025439e-01
      3.33657563e-01 2.40112528e-01 2.26082429e-01 1.72344774e-01 0. 0.
      0.</_>
    <_>
      0. 2.86075383e-01 2.69579738e-01 2.35745698e-01 2.07287848e-01 0.
      0. 0. 2.46072769e-01 2.57004559e-01 0. 2.88743854e-01 0. 0. 0. 0.
      6.98717654e-01 0. 0. 0. 0. 0. 0. 1. 0. 0. 0. 0. 0. 7.85431683e-01
      0. 0. 0. 0. 0. 0.</_>
    <_>
      0. 0. 7.14187384e-01 7.53982604e-01 0. 9.97044146e-01 1.
      4.34219718e-01 4.42625999e-01 4.30659175e-01 4.27395016e-01
      8.14832389e-01 8.19223464e-01 9.43645120e-01 6.82009757e-01
      4.42455918e-01 3.38753104e-01 6.68169141e-01 6.32761180e-01
      6.61100268e-01 5.57478607e-01 4.52609003e-01 4.39562112e-01
      9.72796142e-01 8.25855196e-01 7.41882622e-01 5.94674885e-01
      3.45846713e-01 3.46488357e-01 6.87260985e-01 6.97250783e-01
      7.29463160e-01 9.82127964e-01 6.22292757e-01 5.21088243e-01
      7.28461266e-01</_>
    <_>
      0. 7.22271562e-01 5.41536689e-01 4.56947207e-01 5.30805349e-01 1.
      7.00137973e-01 7.39941835e-01 7.56004155e-01 0. 0. 0.
      6.65803611e-01 6.98274791e-01 7.07797289e-01 7.49079645e-01
      6.12822831e-01 6.70785248e-01 2.70233154e-01 2.69025266e-01 0. 0.
      7.88615882e-01 6.70839250e-01 7.48693109e-01 8.79593372e-01
      4.87299800e-01 0. 0. 4.91735309e-01 8.32936347e-01 5.11148036e-01
      8.54552448e-01 9.23544765e-01 0. 3.20693493e-01</_>
    <_>
      0. 5.88206828e-01 4.76526141e-01 3.71388614e-01 7.41888225e-01
      8.41308773e-01 8.60875070e-01 5.26662588e-01 5.28827369e-01
      7.26115704e-01 6.72164738e-01 7.36605823e-01 7.74554610e-01 0.
      7.92044938e-01 6.48315549e-01 6.75272048e-01 3.70508671e-01
      7.25549459e-01 3.95310760e-01 7.30538189e-01 8.08082163e-01
      9.03332889e-01 1. 9.04750824e-01 7.86541104e-01 3.18403542e-01
      5.18379986e-01 4.95337218e-01 7.60579407e-01 8.04106593e-01
      8.20974708e-01 8.85711789e-01 7.19549477e-01 6.35704577e-01
      5.86630762e-01</_>
    <_>
      0. 4.17806029e-01 6.54088199e-01 1. 8.39774787e-01 6.40213907e-01
      3.92305851e-01 3.50575387e-01 2.28881374e-01 5.22073805e-01
      5.23882866e-01 6.84017360e-01 7.06932187e-01 4.69748318e-01
      5.97204745e-01 4.48030263e-01 0. 3.57695252e-01 4.48388934e-01
      2.61949092e-01 3.72340888e-01 3.83377224e-01 4.28067923e-01
      5.30243933e-01 7.62973070e-01 8.00531268e-01 4.48737055e-01
      4.64013368e-01 6.73454762e-01 5.07260621e-01 4.58957762e-01 0.
      3.12890440e-01 0. 0. 0.</_>
    <_>
      0. 0. 0. 0. 0. 0. 3.50964099e-01 4.35638100e-01 4.71817285e-01
      1.97273895e-01 1.99232027e-01 1.73171282e-01 0. 6.01537585e-01 0.
      0. 3.79948229e-01 2.03137144e-01 1.66698739e-01 1.67086422e-01
      1.46071509e-01 1.55808061e-01 0. 1.66310176e-01 1.86582759e-01
      7.64133751e-01 0. 2.30224401e-01 2.54952222e-01 2.89866596e-01
      2.83384860e-01 2.73627698e-01 1. 0. 0. 0.</_>
    <_>
      0. 5.25635183e-01 5.02881289e-01 0. 2.26168185e-01 2.22537071e-01
      2.03684345e-01 2.11006507e-01 1.90339446e-01 1.57791093e-01 0.
      1.61043048e-01 1.44307911e-01 0. 0. 2.18591779e-01 2.28043303e-01
      4.12241697e-01 7.07883835e-01 0. 0. 0. 0. 1. 0. 0. 0. 0. 0.
      7.47895062e-01 7.83488810e-01 0. 0. 0. 0. 0.</_>
    <_>
      0. 6.81322694e-01 5.90200126e-01 0. 0. 8.60679030e-01
      8.16882133e-01 7.88366556e-01 7.57754445e-01 7.94617593e-01
      7.59126961e-01 8.29593480e-01 8.10567915e-01 9.82405841e-01 1.
      8.31115425e-01 4.97313738e-01 7.24360943e-01 6.94278598e-01
      5.05633235e-01 5.18260658e-01 7.84803152e-01 7.58010983e-01
      9.10378873e-01 9.34011221e-01 7.75760293e-01 7.64994919e-01
      7.21843004e-01 5.37248492e-01 7.51573980e-01 5.76103508e-01
      9.06736493e-01 9.42113876e-01 8.05665910e-01 7.20368505e-01
      6.80715978e-01</_>
    <_>
      0. 6.43577874e-01 6.79297745e-01 6.88388467e-01 7.45371759e-01
      3.76072899e-02 0. 3.09817433e-01 4.29183453e-01 4.38099056e-01 0.
      0. 5.14192343e-01 4.95926321e-01 6.31930292e-01 4.90199029e-01
      5.25660634e-01 4.27217215e-01 4.90099311e-01 4.08063173e-01
      4.69337076e-01 2.73509562e-01 2.39291802e-01 0. 8.83145928e-01
      9.00650918e-01 6.79487228e-01 1.79099649e-01 2.02923849e-01 0.
      2.17212558e-01 1. 0. 0. 3.65691811e-01 4.16085333e-01</_>
    <_>
      0. 0. 0. 0. 2.01025590e-01 2.70172298e-01 1.77971959e-01
      2.69132167e-01 8.10709417e-01 8.96053672e-01 1. 0. 0. 0. 0. 0. 0.
      0. 6.49622023e-01 6.17932081e-01 5.69466352e-01 5.60386896e-01 0.
      0. 5.84241927e-01 6.72630847e-01 6.13143981e-01 0. 6.00072682e-01
      6.19046569e-01 4.71039861e-01 5.42341769e-01 5.87074757e-01
      7.04080224e-01 0. 0.</_>
    <_>
      0. 1.53350800e-01 4.75308865e-01 5.13849497e-01 4.55774605e-01
      9.64142621e-01 1. 8.82844090e-01 2.78634727e-01 8.13383222e-01
      7.10023940e-01 6.18744671e-01 5.20621598e-01 7.29176581e-01
      7.50232577e-01 3.96148086e-01 2.84828335e-01 7.04664707e-01
      5.54050863e-01 5.57290852e-01 7.01829016e-01 7.73041248e-01
      6.85982645e-01 4.56681222e-01 9.77477670e-01 9.00500000e-01
      7.12026298e-01 7.98278272e-01 7.31876135e-01 6.66984916e-01
      7.53339708e-01 6.29202724e-01 6.95499301e-01 6.74984813e-01
      2.09192440e-01 0.</_>
    <_>
      0. 1.11936778e-01 1. 9.63012397e-01 0. 1.07216038e-01 0.
      5.23950219e-01 0. 0. 0. 0. 0. 4.94586378e-01 5.39544344e-01
      5.84208786e-01 5.99386036e-01 6.24037266e-01 2.14722931e-01
      2.53119797e-01 1.45864829e-01 2.72216290e-01 3.37932944e-01 0.
      5.49361944e-01 0. 0. 0. 0. 0. 0. 0. 0. 0. 0. 0.</_>
    <_>
      0. 5.32440484e-01 5.66346347e-01 0. 0. 0. 7.07010150e-01
      7.25632608e-01 2.87321419e-01 2.53775716e-01 7.88215697e-01
      7.97230303e-01 3.99800628e-01 1. 6.62268043e-01 7.31836200e-01
      8.14790308e-01 7.64954388e-01 3.30763042e-01 7.40187883e-01
      7.07034290e-01 8.01402390e-01 9.35770273e-01 4.91445899e-01
      5.13790965e-01 5.54867864e-01 5.44417620e-01 0. 0. 6.54983521e-01
      0. 8.45454156e-01 7.58638144e-01 6.77259266e-01 6.09481514e-01
      5.87917805e-01</_>
    <_>
      0. 7.31787756e-02 0. 5.72225094e-01 5.61082482e-01 6.70154810e-01
      6.13635480e-01 6.05305612e-01 6.08194806e-02 5.54214776e-01
      5.90195179e-01 6.24215245e-01 3.72659534e-01 8.34775805e-01 0. 1.
      5.73996723e-01 6.01220429e-01 5.65527558e-01 5.37234783e-01 0.
      6.22614205e-01 9.80631530e-01 0. 1.12340502e-01 0. 0.
      7.03208983e-01 5.50963521e-01 7.21202731e-01 7.11282849e-01
      8.38725388e-01 6.88264310e-01 0. 0. 0.</_></support_vectors>
  <decision_functions>
    <_>
      <sv_count>24</sv_count>
      <rho>-9.1799398456217995e-01</rho>
      <alpha>
        1.4540610389249361e-05 1.4463279822618551e-05
        1.1482682471540560e-05 5.3697228095272755e-07
        4.1918971205807102e-05 2.5187255431898406e-05
        2.0706088334329625e-05 9.3169242685101841e-06
        3.8682083177839074e-05 8.6269138022834539e-06
        2.5297241404922858e-05 4.3953750906055920e-05
        4.0528250469006784e-05 -2.1761244167755503e-05
        -2.7198688131996839e-05 -3.0399248973978503e-05
        -8.8602054991530962e-06 -1.8583387968515304e-05
        -5.5679174980039788e-06 -1.2079179215808662e-05
        -2.1079430956703475e-05 -3.5498301298529913e-05
        -9.2756367597627120e-05 -2.1457052656942223e-05</alpha>
      <index>
        2 4 5 7 8 9 10 11 12 14 15 16 17 20 21 22 23 25 26 28 30 31 32
        33</index></_>
    <_>
      <sv_count>21</sv_count>
      <rho>9.8667096084135741e-01</rho>
      <alpha>
        2.4115081809250321e-06 1.4998662436404266e-04
        4.2215487702814353e-05 4.4115240242907470e-05
        8.3700734744885012e-05 1.2742412860786734e-05
        3.6265856179883625e-06 9.2097662802281906e-06
        6.1916009607391591e-05 7.2630059256648959e-05
        8.2643098757197869e-05 2.8107433410934655e-05
        -1.3945584732441926e-05 -4.4617402501093493e-05
        -2.6756765011126488e-05 -5.8175542972574730e-05
        -7.4377545427918660e-05 -4.5239991985976033e-05
        -4.8014353505451946e-05 -1.8078536403818278e-04
        -1.0139241085198487e-04</alpha>
      <index>
        0 2 3 4 5 6 8 10 11 16 17 18 38 39 42 45 46 48 49 50 51</index></_>
    <_>
      <sv_count>27</sv_count>
      <rho>-2.4802051643394110e-01</rho>
      <alpha>
        5.4881578074220469e-05 3.3034842468663674e-05
        7.3823509838119789e-05 1.0675622278309788e-04
        2.3039870399515633e-05 2.1194472394403619e-04
        9.1126700753096048e-05 1.9177276068351982e-05
        5.3675945336962705e-05 9.1881210424604522e-05
        3.1237542393211466e-04 2.0172058027670306e-04
        -1.9246862469823834e-04 -2.1123384056552264e-05
        -1.9806917576882131e-05 -4.5433006303580010e-05
        -3.0926640153815402e-05 -2.5814300101412752e-05
        -1.3574045276008241e-04 -5.0057810879025613e-05
        -1.0785127341712176e-04 -5.0246556847281190e-05
        -4.3927516037072470e-05 -1.3605113869561355e-04
        -2.7297483838460717e-04 -6.5893835139186621e-05
        -7.5121589249014709e-05</alpha>
      <index>
        1 2 6 7 11 12 13 14 15 16 17 18 52 53 55 56 57 58 61 62 63 64 66
        67 68 69 70</index></_>
    <_>
      <sv_count>18</sv_count>
      <rho>-6.6475427907713480e-01</rho>
      <alpha>
        2.5002472608347333e-05 7.7333540048364941e-05
        4.5539539624900488e-05 3.0613568853639478e-06
        8.9541749721514758e-06 4.1154337717777801e-05
        1.2499489989728599e-04 3.4432160825824654e-05
        2.2537423807945892e-05 7.0804323693714446e-05
        -4.2288051938338300e-05 -1.5248659636548529e-05
        -1.7734975555900874e-04 -2.0336680876161628e-05
        -3.7746015936901247e-06 -1.2863435253107069e-04
        -8.8102078573687602e-07 -6.5301107161122143e-05</alpha>
      <index>
        4 5 6 10 11 12 15 16 18 19 72 73 75 76 78 79 80 81</index></_>
    <_>
      <sv_count>27</sv_count>
      <rho>-7.6705189719177680e-01</rho>
      <alpha>
        1.4977082995655874e-04 4.4238233824658929e-06
        1.1388461574092309e-04 1.3117138846464334e-04
        1.5138280635291891e-04 1.3195452023545616e-04
        2.1442113071530784e-04 1.7823321950883930e-04
        5.3282925243535730e-04 1.3899891725062725e-04
        1.8963716148312376e-04 7.7839197740675484e-04
        2.5321862120087003e-04 -2.5229539105822691e-04
        -4.2874849793793232e-04 -2.6501971768742334e-04
        -3.0399380652911651e-04 -1.1005006744910158e-04
        -2.3230822477137043e-04 -2.7614210111213787e-05
        -2.4382562662886702e-04 -5.1748653306837170e-06
        -3.6871165756589376e-05 -2.8083238551585308e-04
        -1.3460316435711628e-04 -1.3505075378922817e-04
        -5.1193038721112445e-04</alpha>
      <index>
        2 3 4 6 10 11 12 14 15 16 17 18 19 82 83 84 87 90 92 93 95 96 97
        98 99 101 102</index></_>
    <_>
      <sv_count>20</sv_count>
      <rho>4.9505119479957405e-01</rho>
      <alpha>
        1.2053123019629067e-04 2.8196801176178062e-05
        3.4717796008475084e-05 1.6889021160422177e-04
        1.2904440922386511e-04 3.7471601745790208e-05
        3.7393712686592439e-05 1.4095744908012577e-04
        2.1962747964776383e-04 1.1399732482337442e-04
        -3.0944769152114965e-05 -8.0908214782584179e-05
        -1.3726779679737146e-04 -2.6540818229953891e-05
        -5.8678450493402771e-05 -1.6560689332306632e-04
        -1.8581674537659643e-04 -9.9303629006370787e-05
        -7.0695291569676985e-05 -1.7506540746153949e-04</alpha>
      <index>
        2 5 10 11 12 13 15 16 17 18 103 104 108 111 112 113 114 115 116
        118</index></_>
    <_>
      <sv_count>19</sv_count>
      <rho>1.4135471169163385e+00</rho>
      <alpha>
        1.4048424653886277e-05 2.1344083775540620e-05
        5.5674447086685371e-05 1.0202022464305724e-04
        6.1219506597944717e-05 1.9976962314146866e-05
        4.2877272410498506e-05 3.2849966622139702e-05
        4.8270927149737542e-05 8.7853987352311483e-05
        5.4773303428555067e-05 -1.2955669817514621e-04
        -8.0329746942001587e-05 -1.8365058071357806e-05
        -6.9225707208069018e-05 -7.9323022394136986e-05
        -6.4217069571211258e-05 -2.1261354073146642e-05
        -7.8630449599433920e-05</alpha>
      <index>
        1 2 3 5 6 10 11 12 16 17 18 120 121 122 124 126 129 132 136</index></_>
    <_>
      <sv_count>27</sv_count>
      <rho>1.0579203139297522e+00</rho>
      <alpha>
        2.0141824617446557e-05 2.1129312738349927e-05
        7.8541671768418188e-05 7.6513165462751903e-05
        8.9488121764958747e-05 1.0341251062601142e-04
        1.3794248474522342e-05 1.0416026486580593e-05
        2.4810853772759059e-05 1.6445282403848091e-04
        1.8897861333534957e-04 9.3093587421967227e-05
        4.2634235143302974e-05 -3.5545491164482654e-05
        -6.6911218207658590e-05 -1.6563660073092565e-04
        -5.6866679808576586e-05 -1.4820557707038008e-04
        -2.6760941728598384e-05 -7.2994042497719075e-05
        -8.5176813457799505e-05 -7.0954558119227670e-06
        -5.5613858753845938e-05 -8.6436475993941864e-05
        -7.7196523729607325e-07 -2.8309335076184352e-06
        -1.1656094168013393e-04</alpha>
      <index>
        0 1 2 3 4 5 10 11 13 14 17 18 19 140 141 142 146 147 148 149 153
        154 156 157 159 160 161</index></_>
    <_>
      <sv_count>17</sv_count>
      <rho>1.3096201947887725e+00</rho>
      <alpha>
        4.2776488145633871e-05 2.9351019414211738e-05
        7.8838781878432160e-07 2.4889723870468211e-06
        4.2177477093061689e-09 5.6336562043610138e-06
        1.4972459809352393e-06 3.4032713566280684e-05
        1.6339802830575164e-06 2.3276564926317997e-05
        6.7806287187412544e-05 -1.4774065284042667e-05
        -6.3034860996758327e-06 -1.8342000519804247e-05
        -4.2110691918107955e-05 -2.7164369919145672e-05
        -1.0059491992097466e-04</alpha>
      <index>
        20 21 24 25 26 27 28 29 30 32 33 38 42 48 49 50 51</index></_>
    <_>
      <sv_count>21</sv_count>
      <rho>1.0498870729322931e+00</rho>
      <alpha>
        2.1395510252790945e-05 1.4563001247560273e-05
        2.0441928464908048e-05 2.0322127786813076e-05
        2.8788846995588002e-05 1.6379759821111814e-05
        1.4793007945121129e-05 1.3928680664386099e-04
        7.3160991204592989e-06 -7.8276637561061868e-05
        -1.0762037007891077e-05 -2.4657157100973148e-06
        -1.5433124538717449e-05 -2.4156367027369751e-06
        -4.7635404583321456e-05 -4.3669518295867614e-05
        -3.5422670885530757e-06 -1.0284627123856647e-06
        -3.9587697019976051e-05 -1.8001763875713378e-05
        -2.0468823181891780e-05</alpha>
      <index>
        20 21 22 25 26 29 30 32 33 52 53 55 57 58 61 64 65 67 68 69 70</index></_>
    <_>
      <sv_count>13</sv_count>
      <rho>4.9399082827037721e-01</rho>
      <alpha>
        9.6056585430682948e-06 1.3061083058413211e-05
        1.1079561406763348e-05 2.0444138139288181e-07
        1.6531743439456631e-05 3.5234680774407369e-05
        1.0444491695742415e-04 -4.5074585167087662e-06
        -4.9685170699801126e-05 -4.5723920868587577e-05
        -3.8003418125501963e-05 -5.4556226181049283e-06
        -4.6786494732221562e-05</alpha>
      <index>
        20 21 22 25 27 29 32 71 72 74 75 79 81</index></_>
    <_>
      <sv_count>21</sv_count>
      <rho>1.2166172720989377e+00</rho>
      <alpha>
        2.6268435390065194e-05 2.1274496387276833e-05
        2.0955679415924191e-05 1.0363449894117044e-05
        1.5137700722201854e-05 2.7352972137506154e-05
        5.9618485305051500e-05 3.3104515858340640e-06
        1.3757956846633293e-04 6.2767489631728288e-06
        -3.3511472443957916e-05 -6.1141851524169647e-05
        -9.0441724664416009e-05 -3.0468982238712556e-05
        -3.2558309801453279e-05 -8.2958431284942514e-06
        -1.2543579629128106e-05 -1.1450555802645616e-05
        -3.3833244160125189e-05 -5.1441053498342184e-06
        -8.7483195245457364e-06</alpha>
      <index>
        20 21 23 25 26 28 29 30 32 34 83 85 86 87 89 91 93 95 97 99 100</index></_>
    <_>
      <sv_count>20</sv_count>
      <rho>9.0628069196327965e-01</rho>
      <alpha>
        8.1128984172910146e-06 1.7065108967816558e-05
        1.3437897662622962e-05 3.9569420616181845e-05
        1.9348646630233999e-05 1.0858072342359755e-05
        4.8208625631582111e-06 7.4692678569544376e-06
        1.2517349722526775e-05 2.2365356167491340e-05
        1.3867297779244172e-04 5.4683479859310570e-05
        1.2332292671740272e-05 -7.2893856510997718e-06
        -2.2104522408311187e-05 -9.2998094101754986e-05
        -1.7754201132127504e-05 -3.0973280909760842e-05
        -1.0019319831119409e-04 -8.9940948755881065e-05</alpha>
      <index>
        20 21 23 25 26 27 28 29 30 31 32 33 34 109 112 113 114 115 116
        119</index></_>
    <_>
      <sv_count>15</sv_count>
      <rho>1.1858730068371661e+00</rho>
      <alpha>
        2.4297150858742563e-05 1.9741497211699445e-05
        9.1108059349644417e-06 1.3841237322154070e-05
        2.6134241574820165e-06 7.1018513417828754e-06
        2.0605382174874599e-06 4.2833147048591824e-05
        3.7435106272338460e-05 -2.4708398550732975e-05
        -4.0313425450249051e-05 -1.5689970986982836e-05
        -2.0821917783109354e-05 -3.5438668318121590e-05
        -2.2062377276047324e-05</alpha>
      <index>
        20 21 23 25 27 28 29 32 33 120 124 126 127 129 132</index></_>
    <_>
      <sv_count>16</sv_count>
      <rho>1.3674340265728946e+00</rho>
      <alpha>
        1.2392115068933907e-05 2.1134589255550690e-05
        4.3772176053518554e-06 2.1747241408905741e-05
        4.9156590552044530e-05 2.4209798052369290e-05
        5.9661842599217243e-05 4.5298472356169633e-05
        -1.4073270587189154e-05 -3.8757995836421586e-05
        -1.9291419202041639e-07 -5.5300639938300456e-06
        -7.1228068999581903e-05 -4.8883837760623744e-05
        -2.8626577944966783e-05 -3.0685137583909294e-05</alpha>
      <index>
        20 21 23 25 29 30 32 33 141 142 143 146 149 153 159 161</index></_>
    <_>
      <sv_count>23</sv_count>
      <rho>-9.7592306541668628e-01</rho>
      <alpha>
        6.2119174941446454e-05 2.4370305049208697e-05
        8.4438036737866239e-06 1.8254602595415148e-05
        3.3092755890695700e-05 3.3703772546110944e-05
        4.3522673747812370e-05 5.0390846795977899e-05
        8.1481912904722141e-05 6.5325077606277445e-05
        2.0921193823308584e-04 3.2490178336500294e-05
        2.0554534811552380e-04 -2.2809776009750327e-04
        -9.2963608774096344e-05 -2.3718241556381995e-06
        -1.1789917692607580e-04 -6.7578779702441957e-05
        -1.0204088523121033e-05 -8.1813905731168828e-05
        -3.5565720047748689e-05 -8.3899602558556657e-05
        -1.4755792392021251e-04</alpha>
      <index>
        36 37 39 41 42 43 45 46 47 48 49 50 51 52 53 54 55 56 57 64 66
        67 70</index></_>
    <_>
      <sv_count>12</sv_count>
      <rho>-1.1653045623224949e+00</rho>
      <alpha>
        1.5978964337116100e-06 7.9843338100773633e-06
        3.1577138797573654e-05 2.6121272755556337e-05
        1.0405101276210566e-04 8.8135068711929791e-05
        -6.9111903850498633e-05 -5.1385333123935024e-06
        -3.0492152233908431e-05 -1.5826350555989030e-05
        -6.5556280414874217e-05 -7.3341502903290614e-05</alpha>
      <index>
        39 42 46 48 50 51 72 75 76 77 79 81</index></_>
    <_>
      <sv_count>13</sv_count>
      <rho>-1.4138873177373901e+00</rho>
      <alpha>
        3.5149186578008697e-05 4.5615356363459856e-05
        9.1821277589944385e-05 1.8212897702139899e-04
        1.2178533537281229e-04 1.3449502131570950e-04
        -1.5575951559023684e-04 -1.4459840818676823e-04
        -1.0309638255638580e-04 -1.3625631930610710e-04
        -2.8578161859513897e-06 -6.0310447716806056e-05
        -8.1162646990781638e-06</alpha>
      <index>
        45 46 48 49 50 51 86 90 93 95 97 99 102</index></_>
    <_>
      <sv_count>16</sv_count>
      <rho>-1.1894406032431146e+00</rho>
      <alpha>
        1.0321493822536453e-05 1.1209378684532541e-05
        1.9943672339754050e-05 8.5899473369687522e-05
        4.2796955913543411e-05 9.1805280961949391e-05
        1.1985780204589509e-04 1.4224927753831132e-04
        -1.1407445356722472e-04 -5.0054459452080052e-05
        -5.5727544411537081e-05 -2.6375802742142955e-05
        -2.1629400038033338e-05 -1.0051649405758404e-04
        -8.4504309813899147e-05 -7.1200870593708489e-05</alpha>
      <index>
        39 42 45 46 48 49 50 51 103 104 108 109 110 111 118 119</index></_>
    <_>
      <sv_count>28</sv_count>
      <rho>1.3815340446745771e-02</rho>
      <alpha>
        1.3800495554248880e-04 1.9260192403029929e-05
        2.9742930000690899e-03 8.6032249876892282e-05
        2.5424195569779336e-04 3.0007650942445312e-04
        1.3296845057511923e-04 3.6386117972920556e-05
        1.2959154396764437e-04 9.1820782912414205e-05
        3.1874341163119909e-04 4.1982696301442224e-05
        6.4561301341225784e-05 6.1742116300822738e-05
        1.1515281476013461e-05 -1.3524256887009056e-04
        -8.8676585887960830e-05 -1.0647069008025368e-04
        -1.6828850958002278e-03 -4.7995185213476873e-04
        -1.0908367776279561e-04 -4.4532175871837273e-04
        -5.3379166429668248e-04 -2.9580941714813865e-07
        -3.9332109221355550e-04 -4.4076363033220750e-06
        -4.6174211719398532e-04 -2.2003001681338659e-04</alpha>
      <index>
        35 36 37 39 40 41 43 44 45 46 47 48 49 50 51 120 123 124 125 127
        128 130 131 132 133 134 136 138</index></_>
    <_>
      <sv_count>32</sv_count>
      <rho>1.3086280336970393e-01</rho>
      <alpha>
        2.6233054936530739e-04 3.8335752785618249e-05
        3.4311834281946373e-03 5.3695931587883061e-05
        1.5534072397621122e-04 1.1069272182974890e-04
        1.0872812154975819e-04 5.2981547237336297e-05
        7.7533091634641137e-05 1.1721144574987997e-04
        1.9856374611547641e-04 2.3333854249942332e-04
        6.2488891381567722e-05 1.1267825644129231e-04
        6.8020026489186484e-05 3.7945272699329137e-04
        -4.7460219938983045e-05 -2.3800816849432264e-04
        -8.1566725825724432e-05 -6.6953260601307914e-06
        -3.7352795394380960e-04 -2.0328712717520420e-04
        -2.3775088602757301e-04 -1.0932643327158048e-04
        -1.8584523642147814e-03 -1.2011944357231531e-04
        -1.3792654736286214e-04 -1.1760650043046029e-03
        -2.5744431029734875e-04 -6.2633115686209644e-05
        -5.1431529314163119e-04 -3.7996584514181204e-05</alpha>
      <index>
        35 36 37 39 40 41 42 43 44 45 46 47 48 49 50 51 139 140 141 142
        144 148 149 150 151 153 155 156 157 159 162 163</index></_>
    <_>
      <sv_count>14</sv_count>
      <rho>-7.3718846120553216e-01</rho>
      <alpha>
        6.7026711730322646e-05 1.9085868242773997e-05
        1.3346753009895060e-05 1.2566558076741793e-05
        2.9650816908664987e-05 4.1810049746089105e-05
        2.0958256331879254e-05 4.8309008902418070e-05
        1.1681706763182422e-05 -6.6718485405624272e-05
        -5.0502183834122592e-05 -5.2841373761436891e-05
        -3.1642162343606758e-05 -6.2731524367176815e-05</alpha>
      <index>
        52 55 56 57 61 64 67 69 70 72 75 76 79 81</index></_>
    <_>
      <sv_count>28</sv_count>
      <rho>-2.8692374407236665e-01</rho>
      <alpha>
        2.3620997502835279e-04 7.6927854123196910e-05
        1.2999927206000764e-05 2.3015652731853318e-05
        1.3386015238154377e-05 5.3609660524700942e-05
        4.2064054946621955e-05 2.7685059767455948e-05
        1.1096691915334810e-04 4.4400326544699472e-05
        1.3538286377379614e-04 5.5577199591281470e-05
        2.0364313585298093e-04 1.5735378511574306e-04
        1.4560728585940458e-04 -1.0840993942538842e-04
        -1.5935331217563636e-05 -1.4562432350097090e-04
        -2.9500676300509211e-04 -1.0064026048599006e-04
        -1.9259234942771463e-04 -1.7762771316006399e-06
        -8.7476873415524218e-05 -4.7773258357303384e-05
        -1.1915663098844016e-04 -3.7102280809290397e-05
        -1.0029865050955569e-04 -8.7036777183156316e-05</alpha>
      <index>
        52 53 54 55 56 57 58 59 61 62 64 66 67 69 70 82 83 84 85 86 90
        92 93 94 95 98 99 100</index></_>
    <_>
      <sv_count>29</sv_count>
      <rho>-7.8876353287094936e-01</rho>
      <alpha>
        2.7744363601912907e-04 5.4970011284737017e-05
        8.4514132099264074e-05 6.3670128417887793e-05
        1.2511239326376314e-05 5.9717179281421832e-05
        4.5786740251708664e-05 1.6914040360953940e-04
        5.6189814687128340e-05 1.0575847973418100e-04
        5.0469847908974310e-05 1.8787290799169686e-04
        3.7438473173894241e-05 5.6986408990478528e-05
        1.2334803634833481e-04 -2.4361288472469371e-05
        -1.8326459856686588e-05 -2.5667082521164164e-05
        -1.6172978220418949e-04 -1.3802003347175768e-04
        -1.6662269810962723e-05 -1.7755022476494982e-04
        -5.9120246543755670e-05 -3.6289716871566616e-04
        -2.1700415157462983e-04 -1.0438336473341809e-04
        -1.8563977078545732e-05 -6.0351750667556746e-05
        -1.1796387090005061e-06</alpha>
      <index>
        52 53 54 57 58 59 60 61 63 64 66 67 68 69 70 104 105 106 108 109
        110 111 112 113 114 115 116 118 119</index></_>
    <_>
      <sv_count>28</sv_count>
      <rho>1.0298019982195652e+00</rho>
      <alpha>
        1.7719146137410317e-04 4.1311321933741443e-05
