<?xml version="1.0"?>
<opencv_storage>
<opencv_ml_svm>
  <format>3</format>
  <svmType>C_SVC</svmType>
  <kernel>
    <type>POLY</type>
    <degree>3.</degree>
    <gamma>3.</gamma>
    <coef0>0.</coef0></kernel>
  <C>1.</C>
  <term_criteria><epsilon>1.1920928955078125e-07</epsilon>
    <iterations>1000</iterations></term_criteria>
  <var_count>72</var_count>
  <class_count>9</class_count>
  <class_labels type_id="opencv-matrix">
    <rows>9</rows>
    <cols>1</cols>
    <dt>i</dt>
    <data>
      1 2 3 4 5 6 7 8 9</data></class_labels>
  <sv_total>149</sv_total>
  <support_vectors>
    <_>
      0. 0. 0. 5.14110386e-01 5.96172273e-01 7.53619432e-01
      8.03447843e-01 8.90071392e-01 9.31106448e-01 9.71831918e-01 1.
      9.83239949e-01 6.91548884e-01 8.20160568e-01 7.87605643e-01 0.
      3.59135687e-01 3.14898878e-01 0. 7.26096153e-01 8.04630995e-01
      8.26270461e-01 8.48705113e-01 8.27564657e-01 8.59825850e-01
      8.65648091e-01 8.56492400e-01 8.22332501e-01 7.70818412e-01
      5.89564264e-01 7.03354359e-01 6.32282734e-01 5.64716935e-01 0. 0.
      0. 0. 0. 4.05612081e-01 3.31789047e-01 5.42443991e-01
      6.05107129e-01 6.72393799e-01 6.07928276e-01 6.28835738e-01
      8.05858850e-01 6.75031602e-01 8.16333473e-01 7.95082927e-01
      8.07385027e-01 8.07087719e-01 4.95762616e-01 7.59101748e-01
      6.71128333e-01 4.01974499e-01 4.38790321e-01 4.41387355e-01
      4.83948410e-01 0. 4.32507128e-01 8.51590633e-01 8.70862722e-01
      8.82759929e-01 9.02318120e-01 9.04219806e-01 8.87611151e-01
      8.46444666e-01 8.60619426e-01 8.28336000e-01 7.54819453e-01
      7.08709836e-01 0.</_>
    <_>
      0. 4.68994230e-01 0. 5.81392765e-01 6.29992962e-01 6.70846343e-01
      7.25393891e-01 7.14935839e-01 7.33035386e-01 7.47478664e-01
      9.75329101e-01 1. 5.78830183e-01 5.18940330e-01 4.20750618e-01
      5.82323372e-01 6.04146600e-01 5.24187803e-01 0. 4.25659090e-01
      3.95867199e-01 5.95215619e-01 5.48850060e-01 6.01353526e-01
      4.86125559e-01 6.44958019e-01 6.54248297e-01 6.71081066e-01
      6.71154439e-01 6.29273713e-01 6.35826111e-01 5.15036464e-01
      5.01339853e-01 4.79210883e-01 5.40827096e-01 4.96525168e-01
      2.67232448e-01 3.63750964e-01 0. 0. 2.10241318e-01 0.
      4.49507773e-01 5.98662615e-01 7.07321525e-01 7.27589190e-01
      8.16206574e-01 5.69243014e-01 8.42652202e-01 5.97444415e-01
      6.13268614e-01 4.29573059e-01 6.07931674e-01 7.34269917e-01
      2.14735568e-01 0. 5.41136563e-01 5.15857756e-01 5.24037540e-01
      7.77409852e-01 7.02040493e-01 7.05104947e-01 9.00923848e-01
      8.70580137e-01 8.25298905e-01 0. 7.48794615e-01 6.72795415e-01
      6.16311133e-01 0. 0. 3.45226675e-01</_>
    <_>
      0. 3.07803601e-01 4.27263737e-01 5.56199789e-01 5.18810451e-01
      7.17040718e-01 8.38178217e-01 1.81338683e-01 5.91017306e-01
      9.98209476e-01 1. 5.95540226e-01 6.06974125e-01 5.88357389e-01
      6.07358396e-01 5.93810856e-01 6.19920611e-01 7.97761202e-01
      7.17811644e-01 7.16890037e-01 7.98194408e-01 7.71671712e-01
      8.03326130e-01 7.81663716e-01 8.15577209e-01 8.23013604e-01
      8.14829826e-01 7.84846902e-01 7.83005893e-01 4.86052513e-01
      6.36008322e-01 6.51148379e-01 5.48462689e-01 5.34546256e-01 0.
      1.96678713e-01 0. 2.73475319e-01 3.54747266e-01 4.38010424e-01
      4.85037953e-01 5.47248065e-01 6.15345180e-01 7.08907545e-01
      7.62784481e-01 8.35519075e-01 6.44129515e-01 8.43010247e-01
      8.20436954e-01 8.12828183e-01 8.14378977e-01 5.43564081e-01
      7.77423382e-01 6.85366750e-01 4.43100780e-01 4.83136714e-01
      4.87579167e-01 4.57466215e-01 4.68580782e-01 4.32200789e-01
      8.63219380e-01 8.50099921e-01 8.71707320e-01 8.88566434e-01
      8.86823773e-01 8.90999436e-01 8.56021285e-01 8.18670690e-01
      4.92902786e-01 7.37344623e-01 0. 0.</_>
    <_>
      0. 5.08238971e-01 4.77889806e-01 4.90430802e-01 4.68458116e-01
      4.80688661e-01 7.47926593e-01 7.96294272e-01 8.33637536e-01
      8.71269703e-01 8.47733259e-01 8.97828043e-01 6.71299994e-01
      5.91489673e-01 6.51164532e-01 6.26003087e-01 5.34912884e-01
      6.98662996e-01 0. 0. 6.96233511e-01 6.68654382e-01 6.94223821e-01
      6.74816787e-01 7.02931464e-01 7.08030164e-01 7.46832788e-01
      9.08341110e-01 1. 8.46873760e-01 8.84291410e-01 8.96730542e-01
      8.54069889e-01 5.79128802e-01 4.01342362e-01 0. 0. 3.90930057e-01
      5.62264740e-01 5.67671239e-01 5.20933807e-01 4.89718050e-01
      4.72486258e-01 4.13787603e-01 6.38084888e-01 7.53859997e-01 0.
      9.53685999e-01 9.73255515e-01 9.86268282e-01 9.87691402e-01
      9.52609956e-01 9.02163267e-01 6.14409626e-01 6.74591005e-01
      6.42217875e-01 2.45120332e-01 9.38652098e-01 9.26483095e-01
      9.20188844e-01 9.04405296e-01 8.79568100e-01 8.43893468e-01
      7.66500950e-01 3.18838298e-01 1.78341568e-01 3.71783078e-01
      4.13392276e-01 1.90335721e-01 2.52851129e-01 4.54217434e-01
      4.76207316e-01</_>
    <_>
      0. 2.64148146e-01 0. 3.71679544e-01 0. 5.38828075e-01
      4.49254304e-01 6.30725324e-01 1. 7.58387446e-01 7.34861195e-01
      7.18219340e-01 9.19288039e-01 9.30450857e-01 4.42142546e-01
      4.62545961e-01 5.19056499e-01 6.78243399e-01 6.09767139e-01
      6.09864593e-01 6.82485044e-01 5.51904738e-01 2.22215816e-01
      7.08090484e-01 7.38448381e-01 7.27431059e-01 7.65642405e-01
      7.82826781e-01 5.95165789e-01 7.70096004e-01 7.97375381e-01
      5.98781765e-01 6.58110857e-01 6.95715547e-01 6.14028335e-01
      4.33544755e-01 2.98995227e-01 0. 3.35971862e-01 4.79164541e-01
      5.51708817e-01 6.90876544e-01 7.20654309e-01 7.82875121e-01
      8.60670090e-01 8.57573748e-01 7.65697122e-01 8.63567531e-01
      5.96309304e-01 3.58499110e-01 6.26991689e-01 7.20121443e-01
      4.93292302e-01 4.87650931e-01 4.84210044e-01 4.51076925e-01
      4.21918541e-01 6.36990547e-01 7.09625542e-01 7.30825484e-01
      6.98265791e-01 7.88326025e-01 7.69704461e-01 7.39640892e-01
      6.94097161e-01 0. 6.34270728e-01 5.71301520e-01 4.67510581e-01 0.
      0. 0.</_>
    <_>
      0. 3.08069974e-01 3.44245583e-01 3.49384159e-01 4.66653496e-01
      5.22871196e-01 5.83852887e-01 6.48255467e-01 8.80671799e-01
      9.02624130e-01 9.51398253e-01 9.08164859e-01 8.79187703e-01
      8.62234473e-01 5.69363773e-01 6.52938306e-01 4.59148586e-01
      6.23613298e-01 0. 1.72295883e-01 6.24030530e-01 0. 5.12705743e-01
      6.79235995e-01 6.63427293e-01 6.98455751e-01 6.90002561e-01
      7.56682754e-01 7.82281816e-01 6.14725351e-01 7.94475257e-01 0.
      4.49496746e-01 5.13795018e-01 6.70569241e-01 6.64345086e-01
      5.54005325e-01 4.16587591e-01 3.82275522e-01 0. 5.13737440e-01
      6.80080295e-01 7.41089404e-01 8.23058784e-01 3.94116372e-01
      9.75384772e-01 1. 9.86061454e-01 2.01722980e-01 6.47796810e-01
      7.42483020e-01 8.39208782e-01 5.68375945e-01 4.14787352e-01
      5.16516626e-01 4.83170927e-01 8.03602099e-01 7.01987267e-01
      6.52775228e-01 8.49836946e-01 8.46190214e-01 7.91730404e-01
      7.84124851e-01 7.05297589e-01 7.05209553e-01 5.90940475e-01
      5.42941749e-01 1.52293593e-01 1.83679551e-01 0. 0. 0.</_>
    <_>
      0. 4.22533542e-01 4.25587505e-01 4.58195418e-01 2.93527156e-01
      4.81774509e-01 4.79843467e-01 4.70111668e-01 6.89988971e-01
      7.61052966e-01 8.20567727e-01 7.47544765e-01 7.14957774e-01
      6.72064841e-01 7.00538576e-01 6.64188027e-01 6.74721777e-01
      5.99624634e-01 0. 3.72291952e-01 6.00156069e-01 0. 0. 0.
      6.49770677e-01 6.39824986e-01 8.13154519e-01 7.86522150e-01
      7.86461294e-01 8.13036859e-01 8.04494977e-01 7.75919259e-01
      4.97788817e-01 5.13570130e-01 0. 4.87238377e-01 4.56359684e-01 0.
      4.02235031e-01 3.51711035e-01 2.96982229e-01 2.79736131e-01 0.
      5.49475849e-01 0. 9.59385335e-01 1. 7.45580554e-01 7.59985805e-01
      7.57014036e-01 7.49136925e-01 7.39900768e-01 6.96960926e-01
      4.24950361e-01 4.78349090e-01 4.78015780e-01 4.80352521e-01
      6.68169796e-01 7.02906489e-01 7.20657170e-01 7.16674209e-01
      7.18257070e-01 7.02543616e-01 6.76614821e-01 6.55777395e-01
      5.78638434e-01 4.42867488e-01 2.23861650e-01 2.37787515e-01
      2.91565686e-01 0. 3.40688050e-01</_>
    <_>
      0. 0. 5.19791663e-01 5.26062787e-01 5.64565957e-01 5.84695339e-01
      5.68339646e-01 8.53577554e-01 9.24659193e-01 8.72503102e-01
      8.50291312e-01 8.33514035e-01 8.76218498e-01 7.74764717e-01
      7.77215242e-01 7.95791507e-01 0. 0. 0. 0. 0. 0. 0. 0.
      8.40175211e-01 8.33458781e-01 9.40178275e-01 1. 8.87079000e-01
      6.68253183e-01 0. 6.86116278e-01 6.85772181e-01 4.62516934e-01
      4.14888740e-01 6.33152127e-01 5.95890701e-01 5.63783586e-01
      4.42783475e-01 3.80425394e-01 3.57103199e-01 0. 6.50035143e-01
      7.10076809e-01 0. 0. 8.76977980e-01 9.07446802e-01 9.42255676e-01
      7.25856185e-01 7.27374673e-01 7.66044557e-01 8.19294333e-01
      5.52402973e-01 5.77406883e-01 5.76864898e-01 5.49564600e-01
      8.15084159e-01 6.79351211e-01 6.61363482e-01 8.86674404e-01
      8.61374021e-01 8.44846427e-01 8.16185236e-01 0. 6.86384678e-01
      6.23464763e-01 2.20852882e-01 0. 2.38143787e-01 2.99194813e-01
      3.56199384e-01</_>
    <_>
      0. 3.78433615e-01 4.12379086e-01 4.85858142e-01 5.33858120e-01 0.
      2.85157055e-01 6.03930652e-01 8.66267800e-01 9.08517957e-01 1.
      9.58483934e-01 8.12360525e-01 8.07480693e-01 8.08938205e-01
      8.27074766e-01 0. 0. 0. 0. 0. 0. 0. 0. 0. 9.00533736e-01
      9.01132524e-01 9.39371407e-01 9.41375673e-01 9.65788603e-01
      7.29579329e-01 7.25557387e-01 4.96899039e-01 4.44057733e-01
      6.60996616e-01 6.23519063e-01 5.50660253e-01 4.87089217e-01
      4.26081657e-01 0. 0. 5.61579883e-01 7.04219520e-01 0. 0.
      6.32438838e-01 8.83379936e-01 9.07703280e-01 9.29619312e-01
      7.11275339e-01 6.97158754e-01 8.24928939e-01 5.14099836e-01
      5.08705080e-01 5.37233531e-01 5.04519761e-01 5.07179260e-01
      8.13714623e-01 8.40916753e-01 8.22512567e-01 8.20505083e-01
      8.08006763e-01 7.90240705e-01 7.85136521e-01 7.59701133e-01
      6.75455153e-01 6.12067997e-01 5.06970823e-01 0. 1.94212794e-01 0.
      2.19422892e-01</_>
    <_>
      0. 4.29702163e-01 4.91300344e-01 5.29905438e-01 5.73199511e-01
      5.82765281e-01 5.79731464e-01 5.83862782e-01 5.95010042e-01
      7.76897609e-01 8.39940012e-01 8.44146430e-01 7.39354193e-01
      7.64441848e-01 4.68761861e-01 4.86644119e-01 0. 0. 0. 0. 0.
      4.74377483e-01 4.52771515e-01 0. 7.67721295e-01 7.97780216e-01
      8.25720012e-01 8.62462699e-01 8.63411009e-01 9.06939089e-01
      8.37635994e-01 5.47075629e-01 2.88963228e-01 5.15866816e-01
      4.80311066e-01 4.69309002e-01 4.07528520e-01 3.50664794e-01 0.
      2.68622726e-01 0. 0. 5.31004071e-01 5.45505881e-01 0.
      9.59395468e-01 1. 7.38487840e-01 5.67763507e-01 7.60997593e-01
      7.60048628e-01 5.72540641e-01 7.11243987e-01 3.76413673e-01
      4.30369228e-01 4.58741009e-01 4.61248636e-01 4.43567932e-01
      6.98248684e-01 7.57246494e-01 7.57689059e-01 7.63607919e-01
      7.57051110e-01 7.50457108e-01 7.30937958e-01 1.39348462e-01
      6.43850505e-01 5.89642048e-01 1.50936455e-01 0. 2.90380925e-01 0.</_>
    <_>
      0. 0. 0. 3.46071661e-01 4.13359821e-01 5.03219068e-01
      5.44058084e-01 0. 6.26867115e-01 8.83747995e-01 9.72160459e-01 1.
      9.63740706e-01 8.85267973e-01 6.26010895e-01 0. 6.19354904e-01
      4.27639216e-01 4.55084801e-01 0. 0. 0. 6.45049393e-01
      6.27699971e-01 0. 9.66209352e-01 6.77473128e-01 9.75015163e-01
      9.73585248e-01 7.40462542e-01 4.83379394e-01 0. 0. 6.20983481e-01
      5.73441923e-01 3.74288142e-01 0. 0. 4.06391919e-01 5.02415538e-01
      5.85736811e-01 6.24975204e-01 0. 4.47288245e-01 7.28914380e-01
      7.64794469e-01 7.64940202e-01 7.48220503e-01 7.37521589e-01
      7.19420433e-01 7.06799984e-01 6.55971646e-01 0. 3.79132807e-01
      4.04450446e-01 3.74864668e-01 3.78434002e-01 6.07545614e-01
      6.54557824e-01 6.76958859e-01 6.77195489e-01 6.67038858e-01
      9.17948604e-01 9.13307965e-01 6.74959719e-01 6.58102632e-01 0.
      5.76700330e-01 5.35931230e-01 4.84688967e-01 0. 0.</_>
    <_>
      0. 2.62047827e-01 3.24571609e-01 4.24293280e-01 4.98890847e-01
      5.48860908e-01 6.02097511e-01 6.73944175e-01 9.60800350e-01 1. 0.
      4.98619735e-01 7.22287178e-01 7.19235420e-01 6.94617867e-01
      6.45973861e-01 5.94468832e-01 6.53214633e-01 6.73743486e-01
      5.84955633e-01 6.80285215e-01 6.55848861e-01 6.12811208e-01
      6.88958049e-01 6.85628474e-01 7.46600926e-01 7.58959889e-01
      7.76881099e-01 5.87000251e-01 5.89564800e-01 6.29255056e-01
      5.88556826e-01 5.34833908e-01 5.69370627e-01 5.54936945e-01
      4.90936875e-01 2.46654138e-01 0. 1.27373978e-01 4.08615232e-01
      5.77770054e-01 5.49707234e-01 4.13191915e-01 6.43138170e-01
      6.11098588e-01 5.42744100e-01 7.76154518e-01 8.45282674e-01
      8.35165501e-01 8.30311418e-01 8.03588033e-01 7.70476580e-01
      3.77757311e-01 4.03348058e-01 4.61419016e-01 4.61917907e-01
      1.93938226e-01 4.09998745e-01 6.71569765e-01 7.70427227e-01
      7.71082461e-01 7.60964572e-01 6.03807688e-01 7.44287968e-01
      7.22842813e-01 4.92466688e-01 6.15288794e-01 5.74505925e-01
      4.41901028e-01 0. 0. 0.</_>
    <_>
      0. 4.75195259e-01 5.41973591e-01 6.22207761e-01 6.71335042e-01
      7.24370956e-01 7.22913265e-01 7.28675663e-01 7.41489708e-01
      7.38532603e-01 7.16562629e-01 6.75413549e-01 6.82986736e-01
      6.63647473e-01 4.76352870e-01 0. 0. 0. 0. 0. 0. 0. 0. 0. 0. 1.
      9.73374009e-01 7.54917026e-01 7.78579235e-01 8.03510070e-01
      7.91246951e-01 4.96277869e-01 0. 6.82266295e-01 6.42886698e-01
      5.99042773e-01 4.64112341e-01 3.66887540e-01 0. 2.41580859e-01 0.
      7.25086749e-01 4.93669987e-01 7.70950079e-01 0. 0. 6.13949299e-01
      6.19197190e-01 2.77955234e-01 8.12904477e-01 5.39381504e-01
      6.60970926e-01 6.75486445e-01 6.65083408e-01 6.29905283e-01
      6.28811419e-01 6.02309227e-01 7.48384595e-01 6.95178986e-01
      7.05901325e-01 6.73255086e-01 6.61093652e-01 6.97096825e-01
      7.12588549e-01 7.34911561e-01 7.38116384e-01 7.25717187e-01
      6.19689405e-01 0. 0. 0. 3.16348076e-01</_>
    <_>
      0. 0. 5.36827207e-01 6.92350566e-01 7.70908594e-01 0. 0.
      6.31012678e-01 7.01522946e-01 1. 9.75856066e-01 9.52806950e-01
      9.38685060e-01 8.98236156e-01 6.76372409e-01 8.46648455e-01
      8.71997714e-01 0. 0. 0. 0. 8.77059758e-01 8.52726936e-01 0.
      9.07226801e-01 9.30097818e-01 9.43175495e-01 9.38648164e-01
      9.37824965e-01 0. 0. 2.11426660e-01 7.58554518e-01 6.98368788e-01
      0. 0. 0. 0. 0. 0. 7.30331063e-01 4.82446253e-01 7.87596643e-01
      7.44348109e-01 4.55630511e-01 5.01060545e-01 5.76807201e-01
      5.79330087e-01 8.06951225e-01 8.38211775e-01 8.05900514e-01
      7.78897762e-01 6.72166467e-01 0. 6.63326800e-01 0. 6.28807366e-01
      6.04760885e-01 7.72238433e-01 7.17431009e-01 7.32065320e-01
      7.04376578e-01 7.24641979e-01 7.41399467e-01 7.66258717e-01
      7.98463225e-01 8.67783189e-01 0. 0. 0. 0. 0.</_>
    <_>
      0. 4.03878719e-01 4.90738362e-01 6.69489026e-01 7.32011735e-01
      7.85088420e-01 8.73539746e-01 8.57247412e-01 9.02728975e-01
      9.21557665e-01 9.21040714e-01 9.01408970e-01 8.55300665e-01
      8.71082723e-01 0. 0. 7.87240088e-01 8.21410537e-01 0. 0. 0. 0. 0.
      8.68826866e-01 0. 0. 9.50403988e-01 9.69492614e-01 1.
      9.73574996e-01 6.23963356e-01 4.31433678e-01 4.14851129e-01
      8.09558570e-01 6.94910884e-01 5.16563952e-01 3.05254102e-01 0. 0.
      0. 8.08172822e-01 8.77479017e-01 8.94977331e-01 8.41752231e-01
      8.29597175e-01 0. 6.70003891e-01 7.97082603e-01 3.22978288e-01
      9.72807288e-01 6.94727719e-01 3.24715227e-01 7.48221457e-01
      6.91475570e-01 6.86918199e-01 8.54133368e-01 7.76094079e-01
      7.83177257e-01 7.63969243e-01 7.39156246e-01 7.55815923e-01
      7.24144995e-01 7.48122692e-01 7.41695940e-01 8.01454186e-01
      8.33640695e-01 8.19569051e-01 0. 0. 0. 0. 0.</_>
    <_>
      0. 2.99755871e-01 5.56576908e-01 6.45985007e-01 7.60211229e-01
      8.29940140e-01 8.85156214e-01 9.24066007e-01 9.34578657e-01
      9.54079211e-01 9.53977168e-01 9.26938593e-01 9.10499454e-01
      8.47310483e-01 8.67420852e-01 0. 0. 8.44061136e-01 0. 0. 0.
      8.53757501e-01 0. 0. 0. 9.36192811e-01 9.74564493e-01
      9.98935938e-01 1. 9.54453468e-01 5.39009035e-01 0. 8.52258623e-01
      7.83221483e-01 7.19595551e-01 5.39633691e-01 1.99458480e-01 0. 0.
      0. 8.31357121e-01 8.46447706e-01 8.63279104e-01 8.30731928e-01 0.
      6.65561974e-01 6.65635169e-01 6.70882940e-01 7.96403050e-01
      9.75218117e-01 7.00613320e-01 4.76830274e-01 7.57660210e-01
      7.50106573e-01 7.00254023e-01 8.67256999e-01 8.29313815e-01
      8.01949084e-01 7.84712613e-01 7.60963678e-01 7.41130114e-01
      7.61171639e-01 7.72651017e-01 7.94913530e-01 8.27088952e-01 0.
      8.45224082e-01 8.23838770e-01 0. 0. 0. 0.</_>
    <_>
      0. 0. 0. 6.07362688e-01 7.97193170e-01 8.64579439e-01 0.
      9.63738859e-01 9.55270529e-01 9.80738521e-01 7.79273331e-01
      9.80827570e-01 9.63920176e-01 9.00418937e-01 9.18384969e-01 0.
      3.14272285e-01 8.79242957e-01 0. 0. 8.78331602e-01 2.33761951e-01
      3.22504759e-01 0. 9.32546139e-01 9.59422946e-01 9.82770503e-01 1.
      9.74676728e-01 5.45468867e-01 0. 8.38500917e-01 7.67125845e-01
      7.00135410e-01 4.33155209e-01 0. 0. 0. 0. 3.91704261e-01
      7.86601305e-01 8.16646934e-01 7.98434258e-01 7.50157773e-01 0.
      5.93563795e-01 0. 5.96256316e-01 7.83745170e-01 9.24185812e-01
      9.43367124e-01 6.58462644e-01 7.15360880e-01 6.68732405e-01
      8.65437925e-01 7.85471261e-01 7.49808311e-01 7.56517291e-01
      7.37550735e-01 7.29351103e-01 7.11728275e-01 6.98344469e-01
      7.21542716e-01 7.42293715e-01 7.73101032e-01 7.79852390e-01
      8.25196862e-01 8.05425346e-01 8.23872328e-01 0. 0. 0.</_>
    <_>
      0. 6.41366899e-01 0. 7.79248357e-01 8.39155436e-01 5.23495913e-01
      9.00785327e-01 9.06472683e-01 9.20950413e-01 9.16356504e-01
      8.87654901e-01 8.35476041e-01 8.43937099e-01 7.81881094e-01
      8.01078081e-01 0. 6.65287137e-01 0. 0. 6.55041218e-01
      7.46009946e-01 7.93084443e-01 8.13651264e-01 7.89063811e-01
      8.21633339e-01 8.05367887e-01 8.72514486e-01 8.93452823e-01
      9.22720313e-01 9.03292418e-01 6.23669147e-01 5.48660278e-01 0.
      7.58674562e-01 7.09320128e-01 6.14528418e-01 4.87083644e-01 0.
      3.27324182e-01 0. 0. 7.54798949e-01 8.08251977e-01 8.67426157e-01
      8.57311368e-01 3.36400121e-01 7.06168473e-01 6.85244083e-01
      7.85653651e-01 3.51531416e-01 1. 7.80276954e-01 8.19149315e-01
      7.97495008e-01 7.54073501e-01 7.13442743e-01 9.21032548e-01
      8.56138170e-01 8.40061486e-01 8.16978097e-01 8.33434105e-01
      8.02494764e-01 8.25144947e-01 8.43704522e-01 8.71199787e-01
      8.82926822e-01 8.38896990e-01 8.18960190e-01 0. 2.46887311e-01 0.
      2.78765351e-01</_>
    <_>
      0. 0. 2.32340723e-01 4.60391372e-01 5.39831400e-01 6.92614794e-01
      7.41007149e-01 0. 8.15440774e-01 8.31677854e-01 8.57901573e-01
      8.42133224e-01 8.02612662e-01 8.16715956e-01 7.86033750e-01
      8.06992710e-01 0. 0. 0. 0. 0. 0. 0. 0. 0. 9.09531057e-01
      9.45157647e-01 9.67053473e-01 9.68003154e-01 1. 6.74922943e-01 0.
      0. 8.27039361e-01 7.01985896e-01 4.65977728e-01 0. 0. 0.
      4.38018024e-01 8.27462435e-01 5.76096714e-01 8.83088827e-01 0.
      6.66508257e-01 6.61226630e-01 6.59911454e-01 0. 8.91397715e-01 0.
      7.11281955e-01 0. 6.76047206e-01 6.25645518e-01 3.28446299e-01
      7.63391852e-01 7.01130629e-01 6.72919750e-01 6.82304919e-01
      6.59309745e-01 6.55549824e-01 6.61807716e-01 6.54399931e-01
      6.77806139e-01 7.02880144e-01 7.07188487e-01 6.95500910e-01
      6.77211046e-01 0. 0. 0. 0.</_>
    <_>
      0. 2.46072635e-01 3.98078889e-01 5.58342159e-01 6.85773790e-01
      7.60647118e-01 8.10146153e-01 8.64740670e-01 8.77358615e-01
      8.97532344e-01 9.00381684e-01 8.76894593e-01 8.84627223e-01
      8.42416883e-01 0. 7.90975034e-01 8.18337679e-01 6.17242694e-01 0.
      0. 0. 0. 0. 0. 8.88852060e-01 6.94807649e-01 9.54097390e-01
      9.97567236e-01 1. 9.83066678e-01 9.92692947e-01 9.20288205e-01
      8.71008933e-01 7.96434045e-01 7.04605222e-01 4.27733600e-01
      2.38852933e-01 0. 0. 0. 8.78118813e-01 5.87155282e-01
      9.35893178e-01 8.38161349e-01 7.96155989e-01 6.80820882e-01
      6.80970192e-01 3.42959881e-01 5.39391577e-01 9.54486251e-01
      7.74695337e-01 7.62277961e-01 7.42423296e-01 6.92754626e-01
      6.51878715e-01 8.37804258e-01 7.67434359e-01 7.44053841e-01
      7.29452670e-01 7.08535314e-01 7.24162221e-01 7.28385270e-01
      7.41959631e-01 7.38450646e-01 7.66412079e-01 8.02053750e-01
      7.81138361e-01 0. 0. 0. 0. 0.</_>
    <_>
      0. 0. 0. 0. 5.28400958e-01 7.02782691e-01 7.66737342e-01
      8.72939706e-01 8.65517616e-01 8.88368309e-01 9.10726964e-01
      9.16602552e-01 9.03349221e-01 8.80614281e-01 0. 8.61380875e-01 0.
      0. 0. 0. 6.73848614e-02 0. 0. 1.11889370e-01 9.35948849e-01
      9.22392130e-01 9.82820153e-01 1. 9.98297155e-01 9.78482723e-01 0.
      8.60497117e-01 7.96853244e-01 6.56457663e-01 0. 0. 0. 0. 0.
      7.88196146e-01 7.97489583e-01 8.34182262e-01 7.84584641e-01
      2.69514531e-01 6.01518691e-01 5.97039640e-01 6.47967458e-01
      3.69870692e-01 4.79406476e-01 8.81981254e-01 8.33117485e-01
      6.58691406e-01 6.37742698e-01 5.88684440e-01 7.65147209e-01
      6.92260861e-01 6.94702744e-01 6.69736803e-01 6.53860688e-01
      6.32868946e-01 6.47743165e-01 6.32764637e-01 6.42891824e-01
      6.62781835e-01 6.64064050e-01 6.98449969e-01 7.28266478e-01
      7.22881377e-01 0. 0. 0. 0.</_>
    <_>
      0. 2.95127511e-01 5.33521354e-01 6.16469979e-01 7.21866369e-01
      8.37272108e-01 0. 8.92434061e-01 9.04316247e-01 9.24170136e-01
      8.96864533e-01 9.01029527e-01 8.86597216e-01 8.28366041e-01
      8.47114742e-01 0. 0. 2.00055644e-01 0. 8.18979323e-01
      1.60528868e-01 8.43225241e-01 8.16621184e-01 2.54304647e-01
      1.84277013e-01 9.13774490e-01 9.49048817e-01 9.71015155e-01 1.
      9.81281996e-01 6.58414483e-01 6.38503075e-01 8.48143756e-01
      7.85654247e-01 6.90413952e-01 5.23518026e-01 2.46340021e-01 0. 0.
      0. 8.31183612e-01 8.44329357e-01 8.92699897e-01 8.45607400e-01 0.
      6.62779927e-01 6.63898051e-01 3.37011039e-01 0. 9.87436593e-01
      5.03598750e-01 7.95725286e-01 7.86522329e-01 7.35223532e-01
      8.84285212e-01 8.09293151e-01 7.74870753e-01 7.80889273e-01
      7.61297345e-01 7.51207173e-01 7.51001775e-01 7.38484919e-01
      7.60689199e-01 7.79900849e-01 8.07957709e-01 0. 8.21778476e-01 0.
      0. 0. 0. 0.</_>
    <_>
      0. 0. 0. 5.42578697e-01 7.55581379e-01 8.17671001e-01
      8.83466005e-01 9.60180581e-01 9.75425601e-01 7.58444130e-01
      9.72997189e-01 9.55240130e-01 9.44715559e-01 0. 8.76090109e-01
      8.97685409e-01 0. 0. 0. 0. 0. 0. 0. 9.26756203e-01 9.09101188e-01
      9.66222703e-01 9.79628086e-01 1. 9.73600149e-01 6.29609764e-01 0.
      8.01397502e-01 7.35874355e-01 6.03052497e-01 0. 0. 0. 0. 0.
      7.38945782e-01 7.95943856e-01 8.22653651e-01 7.19972491e-01
      7.89264560e-01 6.93997383e-01 2.57065088e-01 5.78518450e-01 0.
      7.51903236e-01 8.81571412e-01 4.76829767e-01 6.90442741e-01
      6.81024313e-01 6.73591554e-01 6.27260506e-01 5.89431584e-01
      7.80541539e-01 7.17314184e-01 7.00930357e-01 6.79001629e-01
      6.94486082e-01 6.98256493e-01 7.12079406e-01 7.08826840e-01
      7.38051832e-01 7.67318785e-01 8.06848347e-01 8.02049458e-01 0. 0.
      0. 0.</_>
    <_>
      0. 0. 0. 0. 0. 5.64198673e-01 6.26353681e-01 6.91517115e-01
      9.73383129e-01 9.69787002e-01 9.68633235e-01 9.25193548e-01
      9.51992154e-01 9.81967807e-01 7.05334485e-01 0. 2.79672474e-01
      2.39663094e-01 6.52119160e-01 6.85956180e-01 0. 0. 0. 0.
      7.86347389e-01 7.74557650e-01 0. 8.57006133e-01 9.03645992e-01
      9.60442245e-01 7.19647467e-01 6.82709098e-01 0. 0. 6.73772991e-01
      7.75361419e-01 0. 0. 4.59150106e-01 7.83557057e-01 0.
      8.39170814e-01 0. 6.27665877e-01 6.19937718e-01 6.15980864e-01 0.
      7.71123886e-01 7.80222297e-01 7.76078463e-01 4.85124737e-01
      7.24426389e-01 4.97897804e-01 6.67122602e-01 6.25001550e-01
      5.89982688e-01 5.58428228e-01 5.63391864e-01 5.13751686e-01
      4.94300455e-01 5.09317040e-01 9.93952692e-01 4.89074051e-01
      9.74935591e-01 1. 5.90561867e-01 0. 6.13242149e-01 5.98345041e-01
      6.17390215e-01 0. 0.</_>
    <_>
      0. 0. 0. 0. 0. 4.89571363e-01 5.41232049e-01 0. 8.31697226e-01
      8.28057289e-01 8.05870175e-01 8.16528618e-01 8.08750749e-01
      8.19540858e-01 8.35763097e-01 5.77674448e-01 0. 8.30833912e-02 0.
      0. 0. 0. 5.58355339e-02 0. 0. 5.12815714e-01 1. 6.87728763e-01
      7.69161940e-01 7.94870913e-01 6.15501404e-01 5.85071683e-01 0.
      2.62549162e-01 6.42355502e-01 0. 0. 0. 3.99534583e-01
      6.44568801e-01 5.32294869e-01 6.81050658e-01 2.12252930e-01
      5.00308692e-01 4.69880402e-01 4.88651812e-01 5.28985918e-01
      6.18186891e-01 4.16418880e-01 6.35890543e-01 6.36547387e-01
      5.88584185e-01 5.72352707e-01 5.32921076e-01 4.98853326e-01
      4.71313953e-01 4.46024835e-01 3.31815034e-01 4.58749712e-01
      4.51631963e-01 0. 4.29602176e-01 0. 8.55699897e-01 8.56422246e-01
      4.88786072e-01 5.20789087e-01 5.32389879e-01 5.20101368e-01
      5.36453724e-01 0. 0.</_>
    <_>
      0. 0. 0. 0. 0. 6.12962663e-01 6.70895636e-01 0. 7.40944028e-01
      7.57309377e-01 9.89276528e-01 9.72647786e-01 9.71722841e-01 1.
      6.92930460e-01 5.35917521e-01 0. 0. 0. 0. 0. 0. 0. 0. 0.
      6.02227628e-01 8.03178072e-01 7.98230767e-01 8.91570449e-01
      9.22999263e-01 6.50391459e-01 6.33636177e-01 0. 7.77614772e-01
      6.02624476e-01 0. 0. 0. 3.58092099e-01 7.36645341e-01
      7.55141795e-01 7.35903263e-01 6.89736187e-01 2.22136080e-01
      5.21732211e-01 5.38967431e-01 5.40148914e-01 0. 7.00072527e-01
      7.13089585e-01 7.16449857e-01 6.95684791e-01 6.55620992e-01
      6.42927706e-01 6.04058325e-01 5.71941435e-01 5.42566955e-01
      5.47766209e-01 5.32615006e-01 5.13596058e-01 5.27266443e-01
      5.32016218e-01 5.25341451e-01 5.22691309e-01 5.70267081e-01
      5.75314879e-01 6.11996174e-01 6.40444160e-01 6.54821813e-01
      6.60929799e-01 0. 0.</_>
    <_>
      0. 5.42477429e-01 6.53129339e-01 7.01228499e-01 7.54075706e-01
      7.66007066e-01 7.63154447e-01 7.67989397e-01 1. 9.70346272e-01
      9.71408904e-01 9.49024081e-01 8.96271408e-01 9.08576787e-01
      9.40238595e-01 6.12483919e-01 0. 0. 0. 0. 0. 0. 0. 9.46570098e-01
      9.16313410e-01 9.33776975e-01 9.43495989e-01 9.59268093e-01
      9.82027769e-01 7.92795479e-01 8.00215125e-01 7.93297648e-01 0.
      7.25859880e-01 6.75231040e-01 5.27883708e-01 3.50993514e-01 0.
      1.81464925e-01 0. 0. 7.88204551e-01 8.16914976e-01 7.73765624e-01
      7.36098886e-01 6.31257534e-01 6.32303238e-01 6.37051642e-01
      7.69084573e-01 9.02440012e-01 5.19118667e-01 6.69091225e-01
      3.11136544e-01 8.23579192e-01 6.10337555e-01 7.47953951e-01
      7.19485462e-01 6.98318541e-01 6.74278677e-01 6.97501600e-01
      6.96228862e-01 6.84257925e-01 7.03367710e-01 7.41659701e-01
      7.66998887e-01 0. 7.79104054e-01 6.95916831e-01 0. 0. 0. 0.</_>
    <_>
      0. 0. 4.33022112e-01 5.95993519e-01 7.25403905e-01 0.
      5.31157792e-01 8.22292626e-01 7.82569289e-01 8.06359112e-01
      7.51100004e-01 7.55711317e-01 6.91768646e-01 7.06910968e-01
      6.90948486e-01 7.12129056e-01 6.82498097e-01 6.39168441e-01 0. 0.
      6.78235054e-01 6.93425417e-01 6.57003582e-01 5.62016845e-01
      7.12376475e-01 7.18423128e-01 6.34881318e-01 9.45398211e-01 1.
      8.68769825e-01 5.08847058e-01 4.90966856e-01 4.40741718e-01
      7.36949027e-01 6.44475818e-01 0. 7.04558432e-01 1.00697532e-01
      3.67316186e-01 4.47768748e-01 7.30956793e-01 9.37742829e-01
      9.53871191e-01 9.89659607e-01 9.68022346e-01 7.17101336e-01
      6.90490663e-01 5.87607682e-01 5.76355577e-01 6.76657856e-01
      6.61427379e-01 8.73389915e-02 0. 2.35926196e-01 0. 5.36552727e-01
      6.18181050e-01 3.95478457e-01 6.44153237e-01 6.21944249e-01
      3.50621551e-01 5.89622378e-01 6.33103371e-01 7.88825333e-01
      7.89042890e-01 7.92858422e-01 7.79100716e-01 1.83871254e-01
      5.05426168e-01 6.83110118e-01 0. 0.</_>
    <_>
      0. 0. 6.38815165e-01 7.23788500e-01 8.57510448e-01 0.
      7.17375994e-01 9.67557013e-01 9.23456550e-01 8.86001170e-01
      8.29298675e-01 8.34453464e-01 7.88489699e-01 7.83135414e-01
      7.50798047e-01 6.99926615e-01 6.77523971e-01 7.08505929e-01
      6.99904978e-01 7.00178504e-01 5.86041987e-01 5.15699804e-01
      7.26983905e-01 6.64555669e-01 6.96961403e-01 6.81956947e-01
      9.48495805e-01 1. 9.43136215e-01 7.84986317e-01 7.41247296e-01
      7.03696012e-01 0. 6.73368633e-01 5.65778136e-01 6.38270736e-01 0.
      0. 7.64676571e-01 7.72432804e-01 7.44117320e-01 4.69279140e-01
      5.38106680e-01 9.18987691e-01 9.42179441e-01 9.06166375e-01
      5.13643801e-01 6.59631550e-01 6.69631660e-01 6.49353385e-01
      6.66577101e-01 6.75177157e-01 5.78609049e-01 0. 0. 0. 0.
      6.25036240e-01 6.36032581e-01 6.86251283e-01 7.35295594e-01
      4.91372496e-01 7.12081373e-01 8.45598876e-01 8.76549721e-01
      9.15020287e-01 8.92873287e-01 9.06110764e-01 1.27263144e-01
      6.14573061e-01 8.06291163e-01 0.</_>
    <_>
      0. 0. 0. 6.32966518e-01 8.10528278e-01 7.76737332e-01
      7.40242898e-01 8.86977255e-01 7.09717155e-01 8.59101474e-01
      8.33523631e-01 8.12393248e-01 7.98830926e-01 7.61565983e-01
      7.15647399e-01 1.69225216e-01 0. 0. 2.35266387e-01 5.23436546e-01
      4.90849435e-01 0. 6.97921634e-01 6.89480245e-01 7.04786539e-01
      6.79443359e-01 9.52992916e-01 1. 9.98985469e-01 5.94869494e-01
      6.31693482e-01 6.44287407e-01 6.93510115e-01 0. 0. 0. 0.
      2.43416533e-01 3.54625940e-01 4.31785583e-01 4.40561354e-01
      4.98842835e-01 9.32760358e-01 9.39206839e-01 9.30504501e-01
      6.41107857e-01 6.66729808e-01 4.39822823e-01 6.07787192e-01
      6.70336545e-01 6.39729917e-01 5.47314703e-01 0. 0. 0. 0.
      5.61720729e-01 6.11209869e-01 0. 4.05912369e-01 6.78805053e-01
      6.97117090e-01 7.09122479e-01 7.80683756e-01 8.06334555e-01
      8.37059021e-01 8.44415426e-01 8.19338202e-01 2.41356671e-01
      6.95916831e-01 7.45369971e-01 0.</_>
    <_>
      0. 3.03477645e-01 4.94083047e-01 6.54867768e-01 7.10374713e-01
      7.71037340e-01 7.51820862e-01 7.87224412e-01 7.97504842e-01
      7.89025486e-01 7.62593091e-01 7.19826639e-01 5.63564897e-01 0.
      6.45039618e-01 6.65699720e-01 6.80462658e-01 0. 6.64386213e-01
      6.26664758e-01 6.29897356e-01 5.98409832e-01 2.24955752e-01
      4.75661576e-01 6.77148819e-01 2.59192377e-01 6.57181442e-01
      9.18769300e-01 1. 9.75513756e-01 9.18638587e-01 4.62533146e-01
      5.99813282e-01 6.23467922e-01 6.95822716e-01 7.97956526e-01 0.
      7.87557244e-01 0. 0. 7.38515496e-01 4.90801334e-01 9.26803946e-01
      9.63553071e-01 9.44022119e-01 6.70863032e-01 6.44209683e-01
      7.29305863e-01 6.66060567e-01 6.47961676e-01 6.31576657e-01 0. 0.
      0. 0. 2.37562761e-01 5.80496669e-01 6.31507576e-01 6.77535832e-01
      6.53682888e-01 0. 7.40169644e-01 7.31995881e-01 7.80636072e-01
      8.07749033e-01 8.12493563e-01 8.00088465e-01 5.62012732e-01
      5.29335082e-01 7.18171299e-01 0. 0.</_>
    <_>
      0. 0. 3.88242483e-01 5.51383615e-01 6.45311534e-01 6.93679214e-01
      7.23991871e-01 7.81044304e-01 7.96232641e-01 7.93297410e-01
      6.33894682e-01 7.75223851e-01 7.53448308e-01 6.11911058e-01
      6.80495679e-01 6.18180633e-01 6.80577457e-01 5.80640472e-02
      2.46694803e-01 0. 6.70773685e-01 6.40983939e-01 0. 5.22119224e-01
      6.91011310e-01 6.94401026e-01 6.84691787e-01 9.18147027e-01 1.
      9.75396991e-01 4.77923006e-01 6.62415504e-01 0. 0. 0. 0. 0.
      2.58886069e-01 7.60753930e-01 8.05062413e-01 8.71868193e-01
      8.00757706e-01 9.31818724e-01 9.05834258e-01 8.74840677e-01
      6.22691214e-01 6.49547994e-01 6.53129637e-01 6.40549660e-01
      6.21698916e-01 1.82618871e-01 0. 0. 2.09101915e-01 0.
      5.48448145e-01 4.78166521e-01 5.96551299e-01 6.05250716e-01
      5.09909749e-01 1.87648341e-01 0. 6.68029606e-01 7.11512685e-01
      7.12898254e-01 7.41669714e-01 7.27527082e-01 7.23040700e-01
      1.31790325e-01 4.77827698e-01 6.70003772e-01 0.</_>
    <_>
      0. 0. 4.86063004e-01 7.38262534e-01 6.62750900e-01 7.03315079e-01
      7.55375504e-01 8.68198633e-01 8.59743297e-01 8.54777694e-01
      8.26409757e-01 6.90400064e-01 7.95798719e-01 7.76699841e-01
      6.56120837e-01 6.79419339e-01 2.23364383e-01 0. 2.56447971e-01 0.
      6.54705644e-01 5.77734411e-01 6.83062494e-01 6.96646452e-01 0.
      4.87144858e-01 5.32859325e-01 9.18246269e-01 1. 9.78474438e-01
      9.32012141e-01 4.34725702e-01 8.21895599e-01 8.45820725e-01
      7.49484897e-01 6.13943279e-01 6.89346254e-01 8.06307733e-01
      8.17240000e-01 8.24557126e-01 3.50819170e-01 9.22038794e-01
      9.55935001e-01 9.61869657e-01 9.51982498e-01 6.65837944e-01
      6.94375694e-01 7.00479150e-01 6.78037941e-01 6.90937340e-01
      6.56327188e-01 5.92270315e-01 1.36694312e-01 2.13916421e-01 0.
      1.73917592e-01 5.71214795e-01 5.78774929e-01 5.88831782e-01
      5.28741062e-01 5.10887206e-01 7.25769162e-01 6.31860971e-01
      7.96950936e-01 8.22852910e-01 8.88091087e-01 7.79142559e-01
      7.53341734e-01 7.37100244e-01 5.86528242e-01 0. 0.</_>
    <_>
      0. 3.08675051e-01 4.75932837e-01 6.91914856e-01 7.52849400e-01
      8.19479704e-01 8.35945070e-01 8.60443294e-01 7.61297822e-01
      8.45251918e-01 8.15246999e-01 7.62138844e-01 7.71145761e-01 0. 0.
      0. 0. 1.91240668e-01 0. 2.31794879e-01 6.47961259e-01
      6.55611873e-01 5.36499619e-01 6.55090511e-01 6.72681034e-01
      6.92243993e-01 6.46476388e-01 9.29783344e-01 9.01811719e-01
      1.78853542e-01 9.84518111e-01 9.63657498e-01 9.09279823e-01 0.
      8.50859106e-01 8.04103136e-01 8.40386868e-01 8.37807834e-01 0.
      3.99540424e-01 3.20753664e-01 9.20901835e-01 3.89900953e-01 1.
      9.89696085e-01 8.93879116e-01 7.20269620e-01 6.94297612e-01
      7.03565955e-01 6.98534489e-01 5.90372264e-01 2.27172866e-01 0.
      2.19831362e-01 0. 2.60716766e-01 5.96030414e-01 4.35808957e-01
      4.47247982e-01 2.79532850e-01 7.18151510e-01 7.04430521e-01
      7.27835119e-01 3.44209015e-01 7.19354928e-01 6.96462750e-01
      6.15560412e-01 7.20852494e-01 7.23892629e-01 7.10237503e-01 0. 0.</_>
    <_>
      0. 2.81232178e-01 4.73370463e-01 6.35503888e-01 6.91673398e-01
      7.53183663e-01 8.03188205e-01 7.90865004e-01 8.12407136e-01
      8.02271903e-01 7.21662045e-01 6.77267492e-01 6.88063502e-01
      6.69255555e-01 6.86468601e-01 6.95250750e-01 6.85059547e-01
      1.35399088e-01 0. 0. 5.54146528e-01 5.67383707e-01 4.57945973e-01
      6.74400747e-01 6.72544777e-01 6.59719765e-01 6.81280553e-01
      9.67724860e-01 9.94146466e-01 1. 6.92097306e-01 7.57676780e-01
      4.36345637e-01 8.17892194e-01 7.98198700e-01 0. 7.03978002e-01
      6.66029572e-01 3.29735845e-01 4.11416113e-01 8.64455223e-01
      9.42062974e-01 4.50761288e-01 9.95074451e-01 9.52053189e-01
      6.70109868e-01 6.71936810e-01 7.01042116e-01 6.88182354e-01
      6.51432991e-01 5.51188827e-01 0. 0. 2.07354695e-01 0.
      5.47021270e-01 6.29147768e-01 2.49760419e-01 6.55310690e-01
      6.68105185e-01 6.14527822e-01 6.84589088e-01 5.60846984e-01
      7.18778312e-01 7.74091661e-01 8.10036600e-01 7.88624763e-01
      7.49709666e-01 7.66646504e-01 7.26661086e-01 0. 0.</_>
    <_>
      0. 0. 0. 1.02422014e-01 7.19620407e-01 6.85617387e-01 0.
      5.57015419e-01 6.57732844e-01 9.06542420e-01 8.79577577e-01
      8.37411642e-01 7.96537817e-01 8.09334755e-01 6.15576684e-01 0. 0.
      7.12417603e-01 6.73954308e-01 7.09608197e-01 5.70645988e-01
      5.41518867e-01 5.61614096e-01 7.56289244e-01 7.51699865e-01
      7.25553095e-01 1. 9.68771100e-01 8.41271102e-01 5.12176394e-01 0.
      7.29525745e-01 0. 0. 5.66401601e-01 8.14831138e-01 3.34814608e-01
      4.06637967e-01 4.45384383e-01 4.94117528e-01 5.04289448e-01
      7.92215049e-01 9.03485477e-01 9.07857597e-01 8.68697584e-01
      6.04426742e-01 6.29617095e-01 6.09363973e-01 5.88091016e-01
      5.99426806e-01 5.33974409e-01 0. 0. 0. 1.58710852e-01 0.
      5.24058223e-01 5.37677646e-01 5.02771020e-01 1.70834020e-01
      5.74812710e-01 6.09124482e-01 5.99124432e-01 6.44415081e-01
      6.69592679e-01 5.95061004e-01 8.13082755e-01 6.77870810e-01
      6.62486196e-01 6.82678223e-01 6.26676142e-01 5.36303282e-01</_>
    <_>
      0. 0. 2.30793163e-01 4.76837307e-01 2.71194279e-01 6.60562217e-01
      5.69636166e-01 7.08934009e-01 7.20181882e-01 7.39075422e-01
      7.39677548e-01 7.22650409e-01 5.80709934e-01 5.75081289e-01
      6.54716730e-01 6.11461341e-01 6.34323239e-01 1.41257182e-01 0. 0.
      0. 3.86457741e-02 0. 0. 7.05942273e-01 6.76667631e-01
      7.13977695e-01 7.04835415e-01 9.95183945e-01 1. 8.94153535e-01
      9.35573578e-01 8.29573274e-01 4.07087922e-01 0. 0. 6.53822958e-01
      3.49982202e-01 4.54943299e-01 5.34761965e-01 5.44130147e-01
      1.58818036e-01 5.83261847e-01 9.84060943e-01 9.00680780e-01
      5.56715906e-01 6.99725807e-01 7.02370405e-01 6.70630753e-01
      6.07749760e-01 2.14373246e-01 1.39076412e-01 2.04587042e-01
      4.05681670e-01 5.40718257e-01 5.73386014e-01 4.74735379e-01
      4.46844965e-01 5.94774842e-01 5.09466469e-01 4.63194102e-01
      5.56178510e-01 6.90211833e-01 7.09978342e-01 6.38343692e-01
      7.15850651e-01 5.83062410e-01 6.26841247e-01 6.44600630e-01
      6.33091152e-01 0. 0.</_>
    <_>
      0. 0. 0. 5.46034098e-01 7.16265082e-01 7.76848912e-01
      5.66940069e-01 8.46071839e-01 8.58907580e-01 8.54527175e-01
      6.48876667e-01 8.31477582e-01 7.67133892e-01 7.30044901e-01
      7.46168852e-01 0. 2.51431048e-01 6.12987518e-01 0. 2.44680375e-01
      0. 6.95790052e-01 6.70183122e-01 5.47636986e-01 7.09100842e-01
      7.11765647e-01 9.26648498e-01 9.99225974e-01 1. 9.52524304e-01
      4.96935993e-01 4.28155094e-01 0. 0. 0. 6.66113317e-01
      8.07999313e-01 8.07571292e-01 7.39708841e-01 4.18097854e-01
      5.06132662e-01 8.73700380e-01 8.39828432e-01 9.38402712e-01
      8.39033604e-01 6.28094375e-01 5.51923573e-01 4.77264792e-01
      6.45770073e-01 5.46926677e-01 5.96249521e-01 5.03266513e-01 0.
      1.17553316e-01 1.89516887e-01 0. 5.17543077e-01 5.65755367e-01
      4.61059958e-01 5.19636929e-01 4.54071492e-01 0. 4.61335540e-01
      7.38609016e-01 7.90957928e-01 7.17245460e-01 8.05362880e-01
      7.51390278e-01 7.69245625e-01 6.30102575e-01 7.25721061e-01 0.</_>
    <_>
      0. 5.06285787e-01 5.44791579e-01 0. 2.57433563e-01 5.91599286e-01
      5.76953053e-01 8.01560342e-01 7.93512881e-01 7.63318360e-01
      5.78753471e-01 7.67511010e-01 7.56317735e-01 7.52101660e-01
      7.54979610e-01 7.64871418e-01 7.88287818e-01 5.12470901e-01 0. 0.
      3.13814670e-01 5.19033253e-01 4.95963156e-01 0. 8.55277836e-01
      8.57877851e-01 8.66663516e-01 9.03061867e-01 9.27760780e-01
      9.58477259e-01 2.86370635e-01 8.26825321e-01 8.42276394e-01 0. 0.
      0. 0. 5.08131146e-01 5.10289252e-01 2.83334166e-01 2.90887415e-01
      0. 3.15765887e-01 6.86116397e-01 1. 9.96785760e-01 9.72860277e-01
      0. 4.77995813e-01 7.83753276e-01 7.87800014e-01 6.01079583e-01
      6.23785615e-01 7.45758116e-01 6.08012021e-01 5.40765345e-01 0. 0.
      0. 7.56643713e-01 7.69109905e-01 7.75919676e-01 1.40887558e-01
      7.63181508e-01 7.40376651e-01 7.43181884e-01 6.84622705e-01
      6.06663585e-01 5.49237311e-01 2.58001029e-01 3.52352291e-01
      4.10978675e-01</_>
    <_>
      0. 3.06061059e-01 4.06751633e-01 4.13251698e-01 4.52206522e-01 0.
      0. 7.48986363e-01 7.85947263e-01 5.34350991e-01 5.56662858e-01
      7.44893730e-01 7.80548751e-01 8.20769072e-01 7.82654822e-01
      5.42013586e-01 0. 3.25879395e-01 3.53850007e-01 5.13183236e-01
      5.48085570e-01 0. 0. 3.78870606e-01 6.03708148e-01 0.
      6.24631703e-01 9.96479630e-01 9.96820450e-01 1. 8.90924156e-01
      3.65461439e-01 0. 6.02668583e-01 6.33189917e-01 0. 0.
      3.28010440e-01 6.18325472e-01 6.23710811e-01 5.69447160e-01
      5.19173026e-01 0. 0. 9.93534207e-01 4.51493382e-01 0.
      7.74528146e-01 7.82899559e-01 6.23089075e-01 7.22596586e-01 0.
      4.12967116e-01 6.00758016e-01 6.29271448e-01 6.59849167e-01
      6.64898276e-01 6.38511240e-01 6.62391663e-01 6.43727720e-01
      9.40342724e-01 9.29447889e-01 6.66912436e-01 6.38511300e-01
      5.72307646e-01 5.77239811e-01 3.30799818e-01 5.26386678e-01
      4.70425069e-01 1.88632473e-01 0. 0.</_>
    <_>
      0. 4.10797626e-01 4.73348349e-01 5.13886988e-01 5.59459209e-01
      5.97679436e-01 6.35062039e-01 6.40700340e-01 4.43350464e-01
      8.19637120e-01 8.20079744e-01 8.03847075e-01 8.02283347e-01
      8.28070283e-01 5.49009621e-01 5.67188859e-01 0. 0. 0. 0. 0.
      5.49585998e-01 3.83689880e-01 1.67483822e-01 5.67458510e-01
      5.70441008e-01 8.85103941e-01 9.39989030e-01 1. 9.21748340e-01
      7.37023413e-01 3.82733703e-01 3.30232799e-01 2.26028323e-01
      2.54780293e-01 0. 1.27464697e-01 0. 0. 1.29979625e-01
      2.61056095e-01 2.33079553e-01 3.78922462e-01 3.93575907e-01
      7.86393642e-01 9.94420648e-01 9.75834012e-01 7.23814905e-01
      5.63615084e-01 4.00208682e-01 5.87086022e-01 5.92844665e-01
      6.05931580e-01 5.70964575e-01 4.74616736e-01 4.73596245e-01
      4.46261644e-01 3.92163336e-01 3.42532247e-01 6.19861901e-01
      6.06612206e-01 6.37293220e-01 9.46547449e-01 9.00587261e-01
      6.87523186e-01 6.89930201e-01 6.77573442e-01 1.90983921e-01
      4.06348318e-01 5.85247159e-01 5.41099250e-01 0.</_>
    <_>
      0. 0. 0. 0. 6.39801860e-01 0. 0. 2.36621216e-01 3.48780751e-01 0.
      6.89798653e-01 9.80048895e-01 1. 0. 0. 0. 0. 0. 0. 0. 0.
      6.20124340e-01 8.96572351e-01 8.20242405e-01 7.79191315e-01
      2.37196207e-01 8.66595805e-01 6.30147994e-01 0. 0. 6.40227497e-01
      0. 0. 1.28396094e-01 0. 0. 0. 0. 0. 5.39037883e-01 0.
      4.87832546e-01 0. 0. 0. 6.27765596e-01 8.01256180e-01 0.
      6.37882769e-01 0. 5.61563849e-01 3.81962448e-01 6.16820514e-01
      3.64442199e-01 5.25473535e-01 5.25473535e-01 4.44895089e-01
      6.16820514e-01 3.81962448e-01 0. 6.67722583e-01 7.05806196e-01
      7.50698566e-01 0. 5.13410270e-01 7.51061380e-01 7.06384897e-01 0.
      4.87832546e-01 4.60541695e-01 0. 0.</_>
    <_>
      0. 0. 1.89506233e-01 0. 3.82551879e-01 4.97113258e-01 0.
      7.36474276e-01 4.68231052e-01 8.42027307e-01 6.53264284e-01
      8.44019711e-01 9.86258745e-01 7.43284464e-01 7.04239666e-01
      6.74577892e-01 5.68365455e-01 0. 0. 0. 0. 0. 0. 6.14922702e-01
      3.38280439e-01 9.74954247e-01 9.55113113e-01 8.88753355e-01 0. 0.
      4.00253177e-01 0. 0. 6.42178893e-01 1.68885767e-01 0. 0. 0. 0.
      6.25752985e-01 4.55871820e-01 3.73330474e-01 6.89111531e-01
      4.16196465e-01 6.63532197e-01 8.46751571e-01 7.85687149e-01
      9.78007317e-01 1. 0. 7.23822355e-01 0. 3.33278418e-01
      8.57836604e-01 0. 8.54354203e-01 0. 0. 8.97638500e-01
      5.34636617e-01 9.66649711e-01 8.14653933e-01 7.42775917e-01 0.
      8.61889780e-01 6.80033565e-01 8.74944866e-01 0. 0. 0. 0. 0.</_>
    <_>
      0. 0. 0. 0. 6.21091723e-01 2.91205287e-01 3.99522960e-01 0. 0. 0.
      4.99335736e-01 9.62737858e-01 9.83726442e-01 7.64523029e-01
      6.57126606e-01 0. 0. 0. 0. 0. 0. 0. 6.38579547e-01 0.
      6.70222402e-01 1. 0. 0. 2.93534160e-01 4.69401926e-01
      3.57178658e-01 6.06672704e-01 0. 0. 0. 0. 0. 0. 3.00545812e-01
      5.53145885e-01 4.75000113e-01 0. 6.09899104e-01 6.51494920e-01
      7.08234310e-02 7.53866196e-01 0. 0. 5.36457479e-01 7.85097003e-01
      5.69907963e-01 7.21506536e-01 0. 4.49971974e-01 0. 3.66804779e-01
      0. 4.58786726e-01 7.12850213e-01 3.04254353e-01 0. 0.
      8.55458140e-01 8.46042275e-01 5.62836170e-01 0. 0. 4.74156141e-01
      0. 4.45319295e-01 0. 0.</_>
    <_>
      0. 0. 2.72816062e-01 0. 6.24073744e-01 0. 0. 6.90838933e-01
      7.35323548e-01 6.71796024e-01 8.40642273e-01 5.58231711e-01
      8.02163124e-01 8.71225297e-01 7.27901876e-01 0. 5.25643170e-01 0.
      0. 0. 5.16650081e-01 6.88352466e-01 7.85677135e-01 7.36643672e-01
      6.63406014e-01 8.82695973e-01 8.62323403e-01 0. 7.42670953e-01 0.
      5.30298114e-01 0. 3.13923687e-01 0. 0. 2.15193480e-01 0. 0. 0. 0.
      0. 0. 0. 2.50537336e-01 4.75639373e-01 7.57529318e-01 0.
      7.66007721e-01 9.44324076e-01 0. 3.21657389e-01 7.28608310e-01
      7.09209681e-01 3.77416670e-01 6.18184626e-01 3.74985814e-01
      2.14395255e-01 0. 9.00008976e-01 9.27530408e-01 7.09451318e-01 1.
      9.78448868e-01 6.27544343e-01 7.99665511e-01 0. 0. 0. 0. 0. 0. 0.</_>
    <_>
      0. 0. 0. 0. 0. 4.31139857e-01 7.01775193e-01 6.36202157e-01
      6.78788960e-01 5.13403654e-01 7.79139102e-01 1. 8.50172758e-01
      8.78120065e-01 0. 8.21984947e-01 6.55886412e-01 0. 0. 0. 0. 0.
      6.69965804e-01 0. 7.98806429e-01 8.36058140e-01 8.78252864e-01 0.
      0. 6.58017576e-01 6.13991737e-01 0. 0. 0. 1.41342938e-01 0. 0. 0.
      4.42886531e-01 5.30173302e-01 3.84509295e-01 0. 2.45653033e-01
      6.22483850e-01 6.67698085e-01 0. 7.72522390e-01 4.52528477e-01
      6.80848360e-01 8.12563241e-01 5.43001592e-01 2.06425980e-01 0.
      6.53391480e-01 0. 4.23770517e-01 0. 6.70835972e-01 0.
      6.93244755e-01 4.86808747e-01 8.63111138e-01 0. 7.90289938e-01
      8.43974829e-01 5.82195640e-01 0. 0. 5.06540418e-01 0. 0. 0.</_>
    <_>
      0. 0. 0. 0. 0. 0. 5.34080744e-01 7.78949976e-01 7.30223775e-01
      8.90181899e-01 8.91571224e-01 9.37002361e-01 9.49545205e-01
      8.08982372e-01 9.95658457e-01 3.32747847e-01 0. 0. 0. 0. 0. 0.
      7.11999416e-01 1. 9.74333346e-01 9.23107028e-01 6.09882653e-01
      9.39175546e-01 0. 7.38650322e-01 7.87640989e-01 5.43271720e-01 0.
      0. 0. 0. 0. 0. 4.82590109e-01 2.46820495e-01 6.95288479e-01
      6.39259040e-01 7.41846859e-01 8.03428352e-01 5.41862726e-01
      7.93030083e-01 7.07485676e-01 7.98793197e-01 8.14766645e-01
      8.66180062e-01 0. 0. 7.21194386e-01 7.00452745e-01 7.56906331e-01
      0. 5.81151366e-01 7.76422203e-01 6.61095440e-01 6.23576999e-01
      8.61164212e-01 8.09432149e-01 5.78640282e-01 0. 5.73585153e-01
      7.94909954e-01 0. 6.52839005e-01 7.06919432e-01 5.54020762e-01 0.
      0.</_>
    <_>
      0. 0. 0. 0. 0. 6.05889738e-01 7.57085919e-01 7.07852602e-01 0.
      6.05488718e-01 9.64806914e-01 9.69876885e-01 9.50713098e-01
      9.22422588e-01 1. 3.72716993e-01 2.49720722e-01 4.17415679e-01 0.
      3.02160650e-01 4.20315683e-01 3.09361309e-01 9.68529642e-01
      9.34491813e-01 9.32898104e-01 9.15101290e-01 9.48266387e-01
      8.61232340e-01 6.21330857e-01 7.09416807e-01 6.30717397e-01 0. 0.
      0. 0. 1.81225911e-01 2.37440437e-01 4.63964313e-01 4.07699287e-01
      5.94607770e-01 1.29060954e-01 6.32568419e-01 6.58028007e-01
      5.61943710e-01 4.37277377e-01 7.54876554e-01 5.13132453e-01
      6.79662764e-01 7.73180127e-01 7.45077550e-01 7.72236884e-01
      7.52620399e-01 7.91693449e-01 7.17609823e-01 7.73847580e-01
      5.46963811e-01 7.77664304e-01 7.31856525e-01 8.17360938e-01
      7.86169767e-01 3.56432438e-01 7.62103379e-01 7.80568123e-01
      8.17713857e-01 8.18326294e-01 8.61267567e-01 6.69284582e-01
      6.39301598e-01 4.12659645e-01 6.98024333e-01 6.28498673e-01 0.</_>
    <_>
      0. 0. 0. 4.42288727e-01 6.81110203e-01 7.50457764e-01 0.
      7.01844752e-01 7.32367396e-01 9.54399109e-01 9.54432964e-01
      9.28116977e-01 8.97720098e-01 9.17240918e-01 9.42628622e-01
      9.04880285e-01 9.43187535e-01 6.55783474e-01 0. 0. 8.18201542e-01
      9.45283592e-01 9.07610059e-01 9.25563872e-01 9.21546042e-01
      9.02666748e-01 9.33432639e-01 9.24412787e-01 9.21721160e-01
      7.39761293e-01 7.09556758e-01 4.39703375e-01 7.08434165e-01
      5.18107951e-01 0. 0. 0. 0. 0. 2.82071948e-01 5.20593166e-01
      7.11464167e-01 0. 0. 7.77599514e-01 8.13071787e-01 9.66437995e-01
      8.20210338e-01 9.84499097e-01 8.81055295e-01 0. 9.83930767e-01
      7.29173422e-01 7.18654096e-01 8.18280399e-01 8.73970807e-01
      8.78732800e-01 8.98079515e-01 9.80909109e-01 1. 9.24249828e-01
      9.79460657e-01 9.66872036e-01 9.20880497e-01 9.59793329e-01
      6.61222577e-01 7.06122637e-01 7.74814308e-01 6.32506847e-01 0. 0.
      0.</_>
    <_>
      0. 0. 0. 0. 0. 0. 6.35655046e-01 7.94410527e-01 7.54518092e-01
      9.17424917e-01 6.76676810e-01 9.64628518e-01 9.37119722e-01
      9.53582585e-01 1. 7.21531034e-01 7.08136559e-01 8.36222529e-01
      8.81914437e-01 8.84372413e-01 8.89602184e-01 7.07156181e-01
      2.12328747e-01 9.98512447e-01 7.76859164e-01 8.94463897e-01
      9.53226268e-01 9.16194677e-01 8.45677853e-01 7.51227379e-01
      6.15552604e-01 4.14507836e-01 0. 0. 2.29512434e-02 0.
      3.63042265e-01 0. 4.62371588e-01 6.22444332e-01 6.35209441e-01
      6.06322229e-01 0. 5.01612306e-01 0. 8.05313230e-01 7.01978803e-01
      7.78091311e-01 8.17837894e-01 8.33418727e-01 8.34759533e-01
      8.03183317e-01 7.91422844e-01 7.34456420e-01 6.76342010e-01
      6.76488459e-01 6.31775320e-01 6.97609186e-01 8.19008410e-01
      7.73218155e-01 7.47208893e-01 7.93590307e-01 8.10412765e-01
      7.73352385e-01 8.08383763e-01 7.77345061e-01 7.88399994e-01
      8.66108015e-02 6.55162454e-01 7.00734138e-01 5.79084933e-01 0.</_>
    <_>
      0. 0. 0. 0. 0. 5.68907917e-01 7.64006972e-01 7.21974730e-01
      6.01763189e-01 9.40437138e-01 9.06621695e-01 7.37402976e-01
      9.61814404e-01 9.55954015e-01 9.16907609e-01 8.54690135e-01
      9.80812311e-01 0. 8.56930614e-01 8.56199145e-01 0. 8.80424201e-01
      1. 8.80575240e-01 9.23550546e-01 9.74326015e-01 9.63608861e-01
      9.57700014e-01 4.08046603e-01 6.19791090e-01 7.41536319e-01
      4.58687603e-01 5.45292258e-01 0. 0. 0. 0. 3.99869233e-01
      5.00868678e-01 0. 6.75964355e-01 4.31386262e-01 0. 5.43862939e-01
      5.72765768e-01 8.78416657e-01 8.43600988e-01 8.16335380e-01
      8.95306349e-01 8.45354497e-01 7.41331518e-01 8.79496634e-01
      8.66733193e-01 6.56964540e-01 6.99049354e-01 6.97472453e-01
      7.49912024e-01 7.56992340e-01 8.87297690e-01 8.58745396e-01
      9.00317848e-01 8.42384875e-01 6.96001112e-01 6.58263683e-01
      8.28958750e-01 8.65812778e-01 0. 5.40396154e-01 7.16669858e-01
      5.47134340e-01 0. 0.</_>
    <_>
      0. 0. 0. 0. 5.15178680e-01 6.53230131e-01 8.09462011e-01
      1.60182357e-01 5.77013850e-01 9.91374433e-01 3.24618846e-01 1.
      9.87490535e-01 9.82714474e-01 8.61752391e-01 9.71737206e-01
      9.85875010e-01 8.07147801e-01 0. 7.98511684e-01 8.02570343e-01
      9.78372455e-01 9.50091124e-01 9.52621639e-01 9.51737642e-01
      9.04456735e-01 8.63557816e-01 9.14325655e-01 8.57641876e-01
      7.49260306e-01 7.13019490e-01 5.71533144e-01 0. 0. 0. 0. 0. 0. 0.
      4.68732536e-01 4.79326993e-01 5.44534326e-01 7.03199506e-01
      6.90218747e-01 4.85078365e-01 8.44020605e-01 8.18072021e-01
      8.55733693e-01 8.66763413e-01 8.63270521e-01 8.46819997e-01
      8.93514574e-01 8.73921275e-01 9.05440807e-01 6.19581759e-01
      8.56750011e-01 8.21103513e-01 9.19120789e-01 8.91204238e-01
      9.16497827e-01 9.30622697e-01 9.38138783e-01 7.32747495e-01
      7.57421911e-01 9.52015281e-01 7.06315279e-01 6.29019976e-01
      6.42743647e-01 7.84744918e-01 6.83058619e-01 0. 0.</_>
    <_>
      0. 6.20034873e-01 6.60474420e-01 7.06717968e-01 6.93669736e-01
      6.74610674e-01 6.88727677e-01 6.92065358e-01 9.26828980e-01
      8.90822589e-01 8.67126226e-01 8.49524260e-01 8.38400781e-01
      8.19054008e-01 5.16659498e-01 8.03794563e-01 7.88538218e-01
      8.16484213e-01 0. 0. 0. 8.31374228e-01 8.17457497e-01
      7.97307909e-01 8.40034723e-01 8.27382624e-01 8.78818870e-01
      9.00921226e-01 9.00362611e-01 9.30324256e-01 7.49683380e-01
      7.45657206e-01 7.49282837e-01 3.42276961e-01 7.19315410e-01
      6.73286378e-01 6.32973075e-01 5.98405540e-01 4.68459427e-01
      4.09020454e-01 3.11992377e-01 7.33567655e-01 8.24002206e-01
      4.80869681e-01 0. 1. 9.78726089e-01 9.63654280e-01 9.54355896e-01
      9.51000214e-01 7.27581322e-01 7.06224144e-01 6.64870083e-01
      5.80832183e-01 5.10895133e-01 2.73789972e-01 3.10584784e-01
      3.17176640e-01 6.47972763e-01 9.17440295e-01 9.01398301e-01
      9.09017444e-01 0. 8.94630790e-01 8.72136533e-01 4.90724027e-01
      7.70531118e-01 7.07062364e-01 3.43885094e-01 3.63990158e-01
      4.62111682e-01 5.22593141e-01</_>
    <_>
      0. 5.96370637e-01 6.37434304e-01 0. 7.04266667e-01 6.85163081e-01
      6.99250102e-01 7.02404201e-01 6.93240762e-01 9.25972819e-01
      9.00029540e-01 8.79853547e-01 8.46996009e-01 8.42021227e-01
      8.43836010e-01 8.84737432e-01 1.03738122e-01 0. 0. 0. 0.
      6.93920702e-02 8.93267989e-01 8.54996204e-01 8.69503498e-01
      8.72555673e-01 9.23787773e-01 9.43818927e-01 9.69363749e-01 1. 0.
      7.55549550e-01 7.10965037e-01 7.30691612e-01 7.04297304e-01
      6.65090382e-01 6.58134758e-01 5.22909880e-01 0. 3.58948261e-01
      2.59893924e-01 6.66830897e-01 8.14902544e-01 0. 9.04828250e-01
      9.21237469e-01 6.81069374e-01 9.23395872e-01 9.01196957e-01
      9.30596113e-01 4.45458502e-01 0. 6.27198875e-01 5.81058800e-01
      2.70949453e-01 2.71315008e-01 0. 8.26979995e-01 8.51911306e-01
      8.56964409e-01 8.57874095e-01 8.65430236e-01 5.94025016e-01
      8.53679836e-01 8.27917337e-01 8.08447182e-01 7.67746866e-01
      5.63102365e-01 2.76100814e-01 0. 3.64700258e-01 0.</_>
    <_>
      0. 3.30811560e-01 5.25889874e-01 6.00378513e-01 6.48508012e-01 0.
      6.99454188e-01 7.05550492e-01 9.44716752e-01 9.40680325e-01
      9.16288197e-01 9.20972824e-01 9.17035639e-01 9.27108884e-01
      6.45418406e-01 0. 1.83913976e-01 0. 0. 0. 0. 0. 4.52963740e-01 0.
      9.56171274e-01 9.34908032e-01 9.46407437e-01 9.62937891e-01
      4.94274318e-01 7.24873483e-01 7.59512961e-01 0. 0. 0.
      6.62957609e-01 5.27191103e-01 3.32126915e-01 2.05768332e-01 0.
      6.68232083e-01 6.37793303e-01 0. 0. 5.44243634e-01 5.61931193e-01
      8.46794605e-01 8.01776707e-01 7.87800968e-01 7.79963434e-01
      7.92380512e-01 5.54737389e-01 5.14100373e-01 4.65673774e-01
      4.59188074e-01 0. 0. 1.38005421e-01 0. 7.42714345e-01
      7.23930299e-01 7.36282349e-01 7.43133545e-01 7.36592472e-01
      7.56512582e-01 1. 7.37268627e-01 3.59562099e-01 3.99094939e-01
      6.26663685e-01 5.86002767e-01 0. 0.</_>
    <_>
      0. 5.43812990e-01 5.80045164e-01 6.24305069e-01 0. 6.66664243e-01
      6.51570618e-01 6.67698383e-01 9.08100307e-01 9.04316127e-01
      9.03940916e-01 8.86826694e-01 8.75602186e-01 8.70495439e-01
      8.59124303e-01 8.78933728e-01 0. 3.42561126e-01 3.72477621e-01 0.
      0. 0. 0. 9.16519940e-01 9.01292086e-01 9.05278802e-01
      9.35229480e-01 9.75453436e-01 1. 7.52284169e-01 7.79316604e-01
      5.07279396e-01 8.17136824e-01 0. 7.56734848e-01 0. 6.45913601e-01
      4.14430737e-01 0. 2.87493199e-01 7.54511237e-01 7.96898901e-01 0.
      0. 9.65893924e-01 9.40759778e-01 9.38808501e-01 9.20226514e-01
      9.16984975e-01 3.97623748e-01 6.22411251e-01 5.80384851e-01
      4.98785317e-01 0. 2.21891031e-01 2.21632615e-01 0. 6.01856470e-01
      8.19154203e-01 7.98654497e-01 8.08972120e-01 8.13907325e-01
      8.25420916e-01 7.96657324e-01 7.73867786e-01 3.81939411e-01 0.
      6.58154845e-01 5.25060833e-01 0. 2.84084350e-01 0.</_>
    <_>
      0. 0. 0. 0. 5.37320614e-01 5.89334130e-01 6.30501688e-01
      7.02320755e-01 7.30784297e-01 7.48802900e-01 9.89539742e-01
      9.50904071e-01 1. 7.35230923e-01 5.41289449e-01 7.04892993e-01 0.
      0. 4.91474777e-01 5.22718310e-01 0. 0. 0. 0. 0. 7.82326043e-01
      6.09716237e-01 8.65338087e-01 8.89305532e-01 0. 5.90196609e-01 0.
      0. 5.67138910e-01 6.87265158e-01 0. 0. 4.86037463e-01
      6.77425861e-01 0. 0. 6.01739287e-01 6.15314364e-01 6.63077295e-01
      8.74187768e-01 8.50681365e-01 8.05727661e-01 8.13913405e-01
      3.06506574e-01 5.39446175e-01 4.42393988e-01 4.31068212e-01
      9.88424718e-02 0. 0. 0. 4.43073690e-01 6.74321592e-01
      6.52977467e-01 6.74158156e-01 6.72805130e-01 6.78544879e-01
      6.71752214e-01 6.88718975e-01 6.89014316e-01 6.72962546e-01 0. 0.
      2.46785298e-01 5.69048822e-01 0. 0.</_>
    <_>
      0. 1.93324983e-01 4.31174248e-01 5.42443752e-01 6.25208020e-01
      6.80207968e-01 0. 7.25632429e-01 7.34772563e-01 9.60931361e-01
      9.64067400e-01 9.42997634e-01 9.30177212e-01 9.23131168e-01
      9.52059329e-01 0. 0. 0. 0. 0. 0. 0. 0. 0. 9.70959008e-01
      9.63667035e-01 9.75658894e-01 9.91877496e-01 9.92925704e-01
      9.96174932e-01 7.70506561e-01 0. 0. 6.66839361e-01 5.77997565e-01
      5.07242918e-01 1.04951091e-01 0. 0. 6.21744573e-01 6.72920346e-01
      7.28034317e-01 0. 8.08511078e-01 8.27644467e-01 8.41470420e-01
      8.20318043e-01 8.05436313e-01 7.68789351e-01 7.80981421e-01
      5.60943604e-01 5.18411815e-01 4.68186736e-01 4.61911678e-01
      1.25435933e-01 0. 1.60821959e-01 0. 7.14641750e-01 7.17279613e-01
      7.17870772e-01 7.07184613e-01 7.26046443e-01 1. 7.41705298e-01
      7.26428032e-01 0. 6.58145368e-01 6.14009857e-01 0. 0. 0.</_>
    <_>
      0. 2.25914121e-01 3.24186862e-01 4.92519051e-01 5.40317714e-01
      5.92863142e-01 0. 6.53862774e-01 8.95452082e-01 8.91201735e-01
      8.92120898e-01 8.77973437e-01 8.69465470e-01 8.66763234e-01
      8.99640560e-01 6.07074440e-01 0. 0. 4.25613523e-01 0. 0. 0. 0. 0.
      9.65807140e-01 9.45757687e-01 9.64323997e-01 1. 7.97642648e-01
      8.27704728e-01 8.35759103e-01 5.45444667e-01 3.14951353e-02 0.
      7.13000000e-01 6.44497871e-01 3.16818058e-01 0. 0. 7.15021133e-01
      6.49214163e-02 0. 0. 6.11279488e-01 8.98019433e-01 8.73404562e-01
      8.48630786e-01 8.12964916e-01 3.34667087e-01 7.73787677e-01
      5.04327178e-01 4.22738582e-01 1.51479766e-01 0. 0. 0.
      6.97774947e-01 6.71644270e-01 6.86846137e-01 5.06113946e-01
      7.04598844e-01 7.08904028e-01 7.20281601e-01 9.44754541e-01
      9.42866802e-01 2.88941860e-01 5.98168671e-01 5.54504633e-01 0. 0.
      0. 0.</_>
    <_>
      0. 0. 0. 6.20439947e-01 5.64361393e-01 0. 0. 0. 5.79446971e-01
      8.02741110e-01 7.80847728e-01 7.45773375e-01 7.36043990e-01 0.
      6.95859551e-01 0. 0. 0. 0. 0. 0. 0. 6.82467580e-01 6.64920449e-01
      7.01300621e-01 6.90375626e-01 7.22196817e-01 1. 7.34688282e-01 0.
      1.82156280e-01 6.36264086e-01 5.84464073e-01 3.79204959e-01 0. 0.
      0. 0. 5.09002447e-01 5.49143493e-01 5.93693972e-01 6.30894303e-01
      0. 7.11427629e-01 4.37629938e-01 9.24792647e-01 9.06266510e-01
      6.83572769e-01 6.74303234e-01 4.90001649e-01 6.09791815e-01
      6.28006518e-01 1.97643951e-01 4.31583643e-01 3.97362113e-01
      3.68741244e-01 3.13939810e-01 8.02074224e-02 0. 6.51425481e-01
      6.37027562e-01 6.80021524e-01 6.90112531e-01 7.06059575e-01
      7.27477670e-01 7.53900588e-01 5.10821521e-01 4.55760241e-01 0.
      3.55796725e-01 6.10258758e-01 0.</_>
    <_>
      0. 4.26061630e-01 4.61708456e-01 5.05960703e-01 0. 5.25515437e-01
      8.34325969e-01 8.23457897e-01 7.88766444e-01 7.84243107e-01
      7.59308577e-01 6.94573224e-01 7.01968253e-01 6.81414247e-01
      5.20574987e-01 6.44976556e-01 6.67791188e-01 6.50982678e-01
      6.81638062e-01 0. 0. 7.01603830e-01 6.78676426e-01 5.66831887e-01
      7.44632185e-01 7.33548284e-01 6.06449246e-01 8.13117862e-01
      8.36358726e-01 8.93954158e-01 0. 7.21974492e-01 7.22518027e-01
      4.17413265e-01 6.81358278e-01 2.02828720e-01 6.31341815e-01
      5.66788316e-01 5.05055428e-01 4.47006196e-01 3.83408546e-01
      3.63749981e-01 0. 2.75660783e-01 0. 2.68705130e-01 8.06867421e-01
      9.10344660e-01 9.01502669e-01 6.03341639e-01 5.59298515e-01
      5.34945190e-01 7.97710896e-01 7.45860159e-01 7.06688046e-01
      6.40372753e-01 6.42732859e-01 5.55685341e-01 5.64229906e-01
      9.42121029e-01 1. 9.71383095e-01 9.06076849e-01 3.79870236e-01 0.
      0. 6.54436469e-01 5.93021929e-01 0. 2.72015601e-01 3.35788459e-01
      3.95157725e-01</_>
    <_>
      0. 4.13829654e-01 0. 0. 0. 0. 4.72603351e-01 5.29704273e-01
      5.89027584e-01 6.67940438e-01 6.69161201e-01 6.97195292e-01
      7.56319463e-01 7.41462827e-01 7.98249364e-01 6.15993261e-01 0.
      3.23589951e-01 2.90086210e-01 0. 1.08449399e-01 0. 0. 0. 0.
      6.83380902e-01 9.08622861e-01 9.16685164e-01 9.17427540e-01 0. 0.
      7.46430874e-01 5.59883773e-01 4.92693871e-01 0. 0. 0. 0. 0. 0. 0.
      0. 6.63487494e-01 6.78362489e-01 7.47184038e-01 7.43638337e-01 1.
      9.60263133e-01 2.34008119e-01 5.97248018e-01 5.31911075e-01
      4.93157119e-01 4.47386503e-01 4.41592574e-01 0. 4.06291157e-01
      3.78966361e-01 3.84186238e-01 3.62798333e-01 3.45398128e-01 0.
      7.43001223e-01 9.29366648e-01 9.42725599e-01 7.50273526e-01
      1.75304621e-01 0. 1.59331396e-01 1.86683059e-01 0. 2.36095056e-01
      5.39363861e-01</_>
    <_>
      0. 4.32876617e-01 4.71618950e-01 5.09606361e-01 0. 2.63138980e-01
      3.78847867e-01 8.79319251e-01 8.52887213e-01 8.21874321e-01
      7.97636211e-01 7.81982064e-01 7.72809386e-01 7.70349860e-01
      7.74667263e-01 8.05055559e-01 4.09510046e-01 0. 0. 0. 0. 0. 0.
      4.41514879e-01 6.44272983e-01 8.93664479e-01 8.97768080e-01
      8.70853662e-01 9.19315338e-01 5.55221677e-01 7.69432724e-01
      7.62956679e-01 7.20918000e-01 6.58826709e-01 6.19426847e-01
      6.07712626e-01 5.38071156e-01 4.73540187e-01 3.79529655e-01 0.
      2.91165382e-01 0. 0. 0. 0. 8.50814879e-01 9.21897173e-01
      9.26359117e-01 9.14777696e-01 9.08824146e-01 8.65916610e-01
      7.91964412e-01 7.52396941e-01 7.07490921e-01 6.99676991e-01
      6.65453970e-01 6.37633264e-01 6.17081344e-01 5.94284594e-01
      9.05251265e-01 6.15782320e-01 1. 9.47182894e-01 3.65653932e-01
      3.65101725e-01 3.70246112e-01 0. 4.24864560e-01 6.55834138e-01
      5.28947890e-01 2.12325230e-01 3.07448417e-01</_>
    <_>
      0. 4.08160985e-01 4.77891803e-01 4.84282881e-01 5.22869587e-01
      5.85223496e-01 5.98830879e-01 8.40933204e-01 8.23377669e-01
      7.94121206e-01 6.36357009e-01 8.02448392e-01 7.94023871e-01
      7.63531208e-01 7.95903683e-01 5.85670888e-01 0. 0. 0. 0. 0. 0. 0.
      0. 0. 8.67055655e-01 8.68861496e-01 9.07733381e-01 9.08277273e-01
      7.33275533e-01 7.21509755e-01 7.44601846e-01 4.07897860e-01
      6.57922924e-01 6.88383877e-01 6.07799172e-01 5.39482892e-01
      4.76217479e-01 4.15315568e-01 3.27213854e-01 0. 0. 0. 0.
      1.23560287e-01 8.36991906e-01 9.29115117e-01 0. 9.40479994e-01
      5.21586776e-01 8.75096142e-01 8.11711669e-01 7.56229937e-01
      4.28456217e-01 7.08282888e-01 6.76516533e-01 6.50881886e-01
      3.71847749e-01 5.80515742e-01 8.73042583e-01 7.03025043e-01 0. 1.
      3.88265014e-01 4.10521358e-01 0. 6.97382867e-01 6.38862371e-01
      2.01736256e-01 0. 2.22873122e-01 2.85002351e-01</_>
    <_>
      0. 6.23593368e-02 0. 2.58868307e-01 3.97059202e-01 4.78257328e-01
      5.33961177e-01 0. 8.54014158e-01 8.24382305e-01 8.24876666e-01
      8.11267912e-01 7.93556631e-01 6.61869109e-01 8.58908236e-01
      6.57652974e-01 4.89929348e-01 6.64593637e-01 0. 0. 0. 0. 0.
      7.07672179e-01 0. 7.68100202e-01 9.86878455e-01 1. 6.01366401e-01
      7.85715222e-01 7.75993705e-01 0. 7.17532218e-01 6.55531526e-01
      6.09363735e-01 4.74911302e-01 2.51005650e-01 0. 0. 0. 0. 0. 0. 0.
      7.56091475e-01 8.39110136e-01 8.40116680e-01 8.24021578e-01 0.
      7.39221513e-01 3.75047177e-01 6.60105467e-01 6.04381204e-01
      5.67744017e-01 5.29476523e-01 4.98164177e-01 4.70021516e-01
      4.75183934e-01 4.61781412e-01 8.23155344e-01 7.94810474e-01
      8.82897139e-01 8.48606586e-01 8.18882763e-01 7.94238567e-01
      3.10538948e-01 0. 6.28209710e-01 5.86435735e-01 0. 0. 0.</_>
    <_>
      0. 0. 2.57576525e-01 3.98492277e-01 4.38753068e-01 4.91940200e-01
      8.14635992e-01 8.02641928e-01 5.75990915e-01 5.96821368e-01
      7.80916393e-01 7.60917485e-01 6.11242235e-01 7.86113203e-01
      7.85728931e-01 7.50748694e-01 7.73440480e-01 7.92361975e-01
      8.17472756e-01 0. 0. 0. 0. 8.69614124e-01 8.64749968e-01
      8.83031070e-01 9.33550894e-01 9.30527210e-01 1. 6.07036412e-01 0.
      8.11496258e-01 4.74037856e-01 0. 7.46519923e-01 0. 5.98734677e-01
      5.32455742e-01 0. 0. 0. 0. 0. 0. 7.78957307e-01 8.91969681e-01
      9.15489078e-01 8.96757603e-01 8.83756161e-01 4.93722528e-01
      4.65801567e-01 7.35294163e-01 6.84979439e-01 6.39165938e-01
      5.66104770e-01 5.32507241e-01 5.35129726e-01 5.14362514e-01
      4.92070377e-01 8.70318830e-01 8.84221911e-01 8.49128962e-01
      8.22405159e-01 0. 3.48412663e-01 6.55561447e-01 5.72277606e-01
      5.11150479e-01 9.98201892e-02 0. 0. 0.</_>
    <_>
      0. 3.15950125e-01 3.85744214e-01 0. 5.06041110e-01 5.60698211e-01
      8.87408316e-01 8.75142515e-01 6.18824899e-01 6.40242815e-01
      8.50940645e-01 8.32879245e-01 8.39779317e-01 8.16102982e-01
      8.48561704e-01 6.47780895e-01 0. 4.25023198e-01 6.55095398e-01 0.
      0. 0. 0. 0. 0. 7.58718669e-01 1. 9.95373666e-01 8.54100347e-01
      8.59035313e-01 5.62807620e-01 5.46469271e-01 0. 0. 0. 0.
      6.82703912e-01 6.15897238e-01 4.84764069e-01 3.58113080e-01 0. 0.
      0. 0. 0. 9.12738562e-01 9.13681746e-01 8.96284997e-01
      6.17415190e-01 0. 7.75760293e-01 7.08950698e-01 6.59103751e-01
      6.14229620e-01 5.75492620e-01 5.42216003e-01 5.15361547e-01
      4.89343911e-01 4.66624856e-01 9.23708260e-01 9.69177544e-01
      8.83995950e-01 8.75421226e-01 3.71462077e-01 3.71984422e-01
      3.97767514e-01 6.18140578e-01 5.54851234e-01 1.23450793e-01 0. 0.
      0.</_>
    <_>
      0. 1.33543909e-01 0. 2.95352191e-01 4.01269346e-01 4.12393063e-01
      8.24979603e-01 8.14576447e-01 5.60644269e-01 7.96872199e-01
      7.74201453e-01 7.81380177e-01 7.55956531e-01 7.27109849e-01
      7.42463648e-01 7.79550850e-01 4.50932086e-01 0. 5.92783689e-01
      6.23738289e-01 1.94480091e-01 0. 1.70521319e-01 0. 7.04184651e-01
      6.92520201e-01 7.63340294e-01 7.81086504e-01 8.04324090e-01
      8.08260858e-01 5.59415102e-01 5.44378161e-01 0. 0. 0.
      6.38523459e-01 5.13306737e-01 2.97545314e-01 0. 0. 0. 0. 0. 0.
      7.97080159e-01 8.55981529e-01 8.12696457e-01 5.14968038e-01
      7.36395240e-01 6.61219120e-01 5.80945313e-01 5.41678548e-01
      5.25189221e-01 4.89171296e-01 4.52033311e-01 4.20989692e-01
      4.22862917e-01 3.96700472e-01 3.73768389e-01 7.66174018e-01
      8.20719302e-01 8.24701428e-01 9.82769489e-01 9.59256649e-01 1.
      2.42393017e-01 0. 0. 4.73923057e-01 0. 0. 0.</_>
    <_>
      0. 4.30039614e-01 4.32825178e-01 4.68521327e-01 1.87393367e-01
      5.06431818e-01 7.57696748e-01 7.51496136e-01 8.38643014e-01
      9.17527318e-01 8.96788955e-01 7.44899869e-01 7.60443509e-01
      7.57545888e-01 5.92804909e-01 6.12239182e-01 4.37568277e-01
      6.19006991e-01 0. 0. 0. 0. 0. 0. 6.94980145e-01 6.82971060e-01
      7.55013525e-01 7.51809418e-01 9.72158432e-01 8.51804435e-01
      7.04729021e-01 7.02366114e-01 6.89411342e-01 7.06937075e-01
      4.90909338e-01 6.74526274e-01 6.35428727e-01 6.01930439e-01
      5.13042748e-01 4.57177579e-01 0. 3.76307726e-01 3.32935423e-01 0.
      0. 0. 8.76038074e-01 9.49142694e-01 9.39058244e-01 8.91820371e-01
      8.11782658e-01 7.71655679e-01 7.15100765e-01 7.03371286e-01
      6.65870488e-01 6.33878827e-01 6.08266413e-01 5.82800150e-01
      5.68742692e-01 9.15944278e-01 5.77187061e-01 1. 8.95857692e-01
      4.21457440e-01 4.20231253e-01 6.23722374e-01 5.61455607e-01 0.
      2.91658640e-01 0. 3.43089432e-01 4.00153220e-01</_>
    <_>
      0. 2.50822604e-01 3.12499553e-01 3.82321894e-01 3.90981615e-01
      4.29181904e-01 7.34541595e-01 7.24672854e-01 8.00380528e-01
      5.21653593e-01 9.19372857e-01 7.99587846e-01 7.73731887e-01
      6.78294659e-01 7.08531618e-01 5.38793981e-01 4.01642948e-01
      5.19083977e-01 5.45424879e-01 0. 9.91932377e-02 0. 0. 0. 0. 0.
      6.77118301e-01 9.01823342e-01 9.02377665e-01 7.62057126e-01
      7.78773546e-01 5.50885379e-01 4.99285400e-01 4.60873008e-01
      6.89280391e-01 5.85867822e-01 5.23837209e-01 3.74362707e-01 0.
      2.89079636e-01 0. 0. 0. 0. 0. 7.84877717e-01 8.25963914e-01
      8.30540180e-01 7.61357725e-01 4.65761304e-01 6.78465664e-01
      6.17868185e-01 5.66471756e-01 5.32216609e-01 4.97256458e-01
      4.97132540e-01 4.72788274e-01 4.49230790e-01 4.28514391e-01
      8.36725831e-01 8.49239230e-01 8.50952864e-01 1. 2.76417494e-01
      2.97761589e-01 8.84154141e-02 5.58567524e-01 4.86537755e-01
      4.06788796e-01 0. 1.04182251e-01 0.</_>
    <_>
      0. 0. 3.31859827e-01 3.38301271e-01 3.75490785e-01 4.25200105e-01
      7.32481301e-01 7.93023825e-01 7.68483639e-01 9.27009344e-01
      9.08057928e-01 7.68353879e-01 8.01825345e-01 6.38760209e-01
      6.52579546e-01 6.49992585e-01 6.36278927e-01 6.61059320e-01
      6.87548995e-01 3.86132807e-01 0. 5.49250364e-01 0. 0. 0.
      6.29584610e-01 8.72454047e-01 8.68502736e-01 9.09023523e-01
      7.71745861e-01 7.96335697e-01 0. 5.50567746e-01 5.40052354e-01 0.
      6.02700531e-01 6.62252128e-01 5.10286272e-01 3.62242758e-01
      3.36711049e-01 0. 0. 0. 0. 8.10984194e-01 8.92154634e-01
      8.70295465e-01 8.53128314e-01 7.99355507e-01 6.98596358e-01
      6.58884048e-01 4.09700662e-01 5.90400517e-01 5.48454165e-01
      5.11830628e-01 4.81745303e-01 4.54726070e-01 4.59484339e-01
      8.24389815e-01 7.40102172e-01 8.84207606e-01 2.83188432e-01 1.
      9.96281266e-01 0. 5.32348752e-01 4.30971831e-01 0. 0.
      1.21990979e-01 1.80336535e-01 0.</_>
    <_>
      0. 4.84929383e-01 2.98719674e-01 3.36370319e-01 8.37114036e-01
      8.69314969e-01 7.40973771e-01 8.27838600e-01 7.22645819e-01
      9.41103339e-01 9.61641073e-01 6.54987276e-01 4.34551507e-01
      6.17022932e-01 0. 7.23025799e-01 6.05475605e-01 0. 6.54723167e-01
      6.85537994e-01 6.90553367e-01 0. 6.78125381e-01 6.97752297e-01
      7.08528459e-01 7.14633226e-01 8.85965288e-01 8.82675052e-01
      8.14775407e-01 7.52791405e-01 6.27739310e-01 6.24518931e-01
      6.40576422e-01 4.28853273e-01 4.11577076e-01 4.06388134e-01
      3.71966004e-01 5.93515217e-01 0. 5.09726226e-01 4.56584722e-01
      4.08863932e-01 0. 3.24893236e-01 3.17609578e-01 0. 9.01071966e-01
      1. 9.73762453e-01 9.57926869e-01 8.73685420e-01 8.01999331e-01
      7.63337076e-01 7.50813067e-01 7.11889029e-01 6.78161383e-01
      6.50439203e-01 5.98598063e-01 9.07168448e-01 6.97708666e-01
      9.79311049e-01 0. 4.65822786e-01 2.84091800e-01 6.20675802e-01
      2.87239999e-01 3.40309292e-01 0. 3.83832723e-01 0. 0.
      4.54973191e-01</_>
    <_>
      0. 4.67135221e-01 4.70183045e-01 5.06265044e-01 3.22168440e-01
      3.74023825e-01 5.57082891e-01 7.89007008e-01 8.25779855e-01
      7.52925754e-01 8.19069624e-01 8.01730096e-01 7.46706605e-01
      7.42516696e-01 7.04234064e-01 4.94500071e-01 2.87331939e-01 0.
      3.14256400e-01 0. 0. 0. 0. 0. 7.34370470e-01 7.80472219e-01
      7.90576279e-01 8.06736112e-01 8.75740707e-01 9.05848384e-01
      8.53527665e-01 4.42758858e-01 0. 4.04491305e-01 3.95955950e-01
      2.60557055e-01 5.43405652e-01 5.12173653e-01 4.52721238e-01
      3.96899790e-01 3.66402030e-01 3.46468836e-01 2.88826913e-01 0.
      2.77780175e-01 0. 8.54196370e-01 9.32662427e-01 0. 0.
      8.24062586e-01 7.52964616e-01 7.14671731e-01 7.02860296e-01
      6.65102065e-01 6.32966995e-01 6.03592396e-01 5.81817389e-01
      9.27045941e-01 7.48677075e-01 1. 4.09175813e-01 4.26510692e-01
      4.21177417e-01 2.42425501e-01 6.01626277e-01 2.49398887e-01 0.
      3.05222034e-01 3.53539646e-01 0. 4.08360600e-01</_>
    <_>
      0. 5.24404228e-01 5.58631837e-01 3.75452310e-01 4.21851546e-01 0.
      6.12279832e-01 8.54822576e-01 8.72537911e-01 8.39843214e-01
      8.18117380e-01 7.34018445e-01 8.08450937e-01 7.59386659e-01 0. 0.
      4.93488491e-01 5.17361462e-01 0. 0. 0. 5.25418043e-01
      5.04313946e-01 0. 7.63194084e-01 7.52652287e-01 7.87814736e-01
      8.44821155e-01 8.45575809e-01 8.05012345e-01 5.95137954e-01 0.
      3.71135175e-01 3.60759914e-01 2.25220725e-01 5.01334131e-01
      4.68545407e-01 4.68625993e-01 4.09189880e-01 3.53339463e-01 0.
      3.03063631e-01 2.46349633e-01 0. 2.36069694e-01 0. 0.
      9.01304066e-01 9.09154832e-01 9.03641820e-01 8.10623467e-01
      7.71026671e-01 7.53098428e-01 7.04540074e-01 6.66909933e-01
      6.36512160e-01 6.38578236e-01 6.16750956e-01 6.02136016e-01
      9.16732550e-01 7.88777113e-01 1. 0. 4.47154254e-01 4.47871119e-01
      0. 6.32932603e-01 3.08616787e-01 0. 3.54065061e-01 4.06283408e-01
      0.</_>
    <_>
      0. 5.02460122e-01 3.21754575e-01 3.26954156e-01 3.63794148e-01
      5.36338925e-01 7.51593828e-01 7.83450067e-01 7.52121985e-01
      7.25772023e-01 7.04958618e-01 6.85123384e-01 6.72640562e-01
      6.66828930e-01 6.40059829e-01 0. 0. 0. 0. 0. 0. 0. 0.
      6.27477348e-01 6.65561914e-01 6.54616237e-01 6.88608646e-01
      7.03188956e-01 7.23831117e-01 7.56259739e-01 7.39298284e-01
      7.75679171e-01 7.48404145e-01 3.61244112e-01 3.24362338e-01
      5.03176391e-01 4.69647527e-01 4.68317419e-01 1.96459129e-01 0.
      3.93012643e-01 3.46538365e-01 2.92277545e-01 0. 2.83373833e-01 0.
      0. 7.99567878e-01 8.97458792e-01 8.91565382e-01 1.86768115e-01
      7.89173007e-01 7.28822589e-01 6.93890631e-01 6.57165408e-01
      6.25629902e-01 6.30136490e-01 6.10830188e-01 9.43201542e-01
      7.44317770e-01 1. 9.34204698e-01 4.37582582e-01 4.33128923e-01 0.
      6.06863976e-01 3.10240865e-01 3.21509629e-01 3.48965555e-01
      3.95561099e-01 4.47575986e-01 4.43132073e-01</_>
    <_>
      0. 4.02822137e-01 4.06565338e-01 4.42306131e-01 4.88189131e-01 0.
      0. 8.69976699e-01 9.59794998e-01 1. 9.34511423e-01 8.11871111e-01
      8.01860154e-01 0. 5.38545072e-01 7.09951937e-01 7.30641007e-01
      5.57319820e-01 0. 0. 0. 7.21551895e-01 5.43549716e-01 0.
      7.66509712e-01 7.71467686e-01 7.82376289e-01 7.98991740e-01
      8.20967495e-01 6.28555417e-01 6.16735399e-01 3.39236945e-01 0. 0.
      5.29929698e-01 4.88534987e-01 4.23151881e-01 3.63047063e-01
      3.02172959e-01 2.76448637e-01 0. 5.27767241e-01 6.91344500e-01
      2.82355309e-01 0. 8.36598277e-01 8.14737439e-01 8.43322039e-01
      8.75221133e-01 6.91573560e-01 6.64461613e-01 6.13245130e-01
      5.28606653e-01 4.57771957e-01 5.15984476e-01 5.46973228e-01
      6.14474714e-01 6.49902999e-01 6.35262668e-01 6.27748668e-01
      8.32250476e-01 7.95462787e-01 7.63024271e-01 7.35510707e-01 0.
      6.11981452e-01 5.52070379e-01 0. 0. 0. 2.55182028e-01
      2.80486017e-01</_>
    <_>
      0. 0. 3.74595612e-01 4.10086215e-01 4.55924064e-01 0.
      8.05626273e-01 7.94984877e-01 7.61950791e-01 7.54042923e-01
      7.33066380e-01 7.36499012e-01 7.25227177e-01 7.20192313e-01
      7.21525013e-01 7.38837183e-01 0. 0. 1.19634219e-01 0. 0. 0.
      7.34890699e-01 7.16976464e-01 7.29022503e-01 7.18681633e-01
      7.53186524e-01 7.88355172e-01 8.10409606e-01 8.13652813e-01
      6.08102739e-01 6.18397236e-01 0. 0. 5.53003013e-01 5.17350852e-01
      4.80127782e-01 4.18626219e-01 3.59405041e-01 0. 0. 4.17526066e-01
      5.52472889e-01 2.14796275e-01 0. 0. 7.05303371e-01 7.56135643e-01
      7.63710976e-01 7.58823931e-01 7.59981573e-01 5.46546340e-01
      5.00574410e-01 7.08860040e-01 0. 6.69113040e-01 0. 0. 0.
      4.93943006e-01 7.23429739e-01 7.28289425e-01 1. 9.70793664e-01
      9.92067814e-01 0. 5.94875097e-01 4.95165557e-01 4.40464646e-01 0.
      1.31311178e-01 0.</_>
    <_>
      0. 2.53861338e-01 3.20123762e-01 3.88135523e-01 4.65525806e-01
      5.17341256e-01 5.73328853e-01 5.88728368e-01 8.71399105e-01
      8.41687977e-01 8.40145826e-01 8.29526246e-01 8.22030425e-01
      8.49712253e-01 6.07175827e-01 0. 0. 5.86845338e-01 0. 0. 0.
      5.97455919e-01 5.74458659e-01 0. 8.50737870e-01 8.39591146e-01
      8.49479795e-01 1. 8.88193905e-01 9.12437320e-01 6.77997708e-01
      4.04929698e-01 0. 5.98658562e-01 5.59519172e-01 5.15804648e-01
      3.83246541e-01 2.56649852e-01 0. 0. 4.40806121e-01 5.23648977e-01
      5.65896749e-01 0. 0. 4.88723129e-01 7.59704292e-01 7.88270533e-01
      8.05165470e-01 8.02778363e-01 6.05578005e-01 5.64505577e-01
      5.15240788e-01 7.28278339e-01 6.90793693e-01 6.27090991e-01
      6.33417726e-01 6.70180678e-01 7.24785328e-01 7.46736825e-01
      7.45053113e-01 7.50152469e-01 5.58038652e-01 7.37325311e-01
      7.12322772e-01 6.93754375e-01 6.55677378e-01 5.35478354e-01
      4.79951710e-01 0. 0. 0.</_>
    <_>
      0. 5.86636603e-01 2.11353123e-01 0. 6.18215144e-01 5.98242342e-01
      8.87574136e-01 8.62482786e-01 8.26434612e-01 8.21633041e-01
      7.95563638e-01 7.55353332e-01 7.16776609e-01 7.29108810e-01
      4.38662469e-01 6.65044010e-01 6.90287709e-01 0. 0. 0.
      4.40853029e-01 6.95870578e-01 6.72117591e-01 0. 7.24840045e-01
      7.11998284e-01 7.70568013e-01 7.66175866e-01 8.14806163e-01
      8.46480310e-01 8.54893386e-01 6.04098022e-01 5.89884281e-01 0.
      2.42439896e-01 2.02351674e-01 0. 5.44471383e-01 0. 4.87220109e-01
      4.31192845e-01 3.99153084e-01 4.28824842e-01 5.22846520e-01
      7.07123637e-01 0. 0. 9.34810877e-01 9.72999096e-01 1.
      7.24969327e-01 7.31419504e-01 6.79184139e-01 5.98139644e-01
      3.51839006e-01 0. 0. 0. 3.66597265e-01 9.89193320e-01
      9.58249271e-01 0. 9.40107346e-01 9.07341540e-01 7.84586191e-01
      7.14110851e-01 0. 3.90358299e-01 4.07615483e-01 4.39744413e-01
      4.96057063e-01 7.34461248e-02</_>
    <_>
      0. 3.72341692e-01 4.07127529e-01 1.53844625e-01 2.22296447e-01
      2.32756242e-01 4.57514673e-01 7.43307292e-01 7.10386395e-01
      7.74455249e-01 9.28553939e-01 9.31847095e-01 8.40919316e-01
      7.12175131e-01 7.13271797e-01 6.82212710e-01 0. 4.09770519e-01
      4.37983841e-01 6.58384264e-01 0. 0. 6.95114672e-01 0.
      7.45562553e-01 7.07295954e-01 8.12509418e-01 8.26948762e-01
      8.02535236e-01 8.58413935e-01 9.10255253e-01 8.77282739e-01
      6.65184677e-01 4.32540357e-01 4.24681753e-01 6.06332779e-01
      6.04033470e-01 2.57547557e-01 0. 4.87396955e-01 4.34222549e-01
      3.45273525e-01 6.54036522e-01 7.56562054e-01 0. 6.73229516e-01
      9.64382589e-01 9.93155897e-01 1. 8.20959389e-01 7.64896750e-01
      7.00599194e-01 3.55467230e-01 0. 6.63142383e-01 6.96877241e-01
      7.04799056e-01 6.80128753e-01 6.87800109e-01 8.76355290e-01
      8.01582634e-01 7.32692659e-01 6.71498775e-01 0. 1.98508218e-01 0.
      2.49740064e-01 0. 2.64038891e-01 2.93497592e-01 0. 0.</_>
    <_>
      0. 5.07309914e-01 5.48098564e-01 5.87518990e-01 3.92909080e-01
      6.17000043e-01 6.14988089e-01 6.03236854e-01 8.37068200e-01
      9.00413454e-01 8.75076115e-01 8.34792674e-01 8.24015737e-01
      7.90213943e-01 8.05312037e-01 5.13976753e-01 3.34692657e-01 0. 0.
      0. 0. 5.12631953e-01 6.92653239e-01 7.77661264e-01 7.87808001e-01
      7.92963743e-01 8.11860263e-01 8.26487064e-01 8.71757627e-01
      9.07053351e-01 8.52196753e-01 9.27212656e-01 0. 3.45997512e-01
      3.05558145e-01 5.43037474e-01 5.02181470e-01 4.68038827e-01
      4.69870448e-01 4.07876670e-01 3.51061404e-01 3.19304109e-01
      3.02358091e-01 0. 6.96442246e-01 0. 0. 9.19857085e-01
      9.57282186e-01 9.83672500e-01 1. 4.64767665e-01 7.66229510e-01
      7.21263230e-01 9.18470323e-01 8.48978281e-01 8.93153429e-01
      9.31942284e-01 7.85040081e-01 9.76778448e-01 7.46730149e-01
      9.31605518e-01 8.95823717e-01 0. 7.22246826e-01 6.53098762e-01 0.
      3.36981654e-01 0. 3.88057768e-01 4.12922651e-01 4.46000695e-01</_>
    <_>
      0. 0. 3.03075463e-01 4.43173587e-01 4.92779583e-01 5.34874201e-01
      6.06493413e-01 6.23015463e-01 9.60952103e-01 1. 9.55461204e-01
      9.39704597e-01 9.47395384e-01 9.40659583e-01 8.96185458e-01
      6.53641045e-01 0. 0. 0. 0. 0. 0. 0. 0. 9.18661535e-01
      9.67382431e-01 9.51330006e-01 9.92761552e-01 9.43914115e-01
      6.75228238e-01 6.84391677e-01 6.52396321e-01 0. 5.83504915e-01 0.
      4.56123769e-01 3.87360156e-01 2.87831247e-01 0. 0. 5.83960593e-01
      6.38873518e-01 6.97153926e-01 0. 5.77918589e-01 8.29967439e-01
      8.76762688e-01 7.23412931e-01 8.78459394e-01 9.06694770e-01
      6.72849178e-01 6.19613886e-01 8.01785827e-01 6.94131732e-01
      6.90582871e-01 7.21899509e-01 7.60827899e-01 8.12110841e-01
      7.89615273e-01 8.11582863e-01 8.08796465e-01 7.85096288e-01
      7.51150906e-01 7.23045051e-01 0. 6.34515285e-01 5.23528695e-01
      4.16429758e-01 7.95919150e-02 0. 0. 0.</_>
    <_>
      0. 0. 0. 0. 3.86693060e-01 5.33093154e-01 5.87154031e-01
      6.43810868e-01 6.77764237e-01 7.12901413e-01 9.92306054e-01 1.
      7.45930314e-01 7.39290714e-01 7.26873100e-01 2.94168919e-01
      2.56619543e-01 0. 0. 0. 0. 0. 0. 7.37720072e-01 7.23566949e-01
      7.53295302e-01 7.62010276e-01 4.97252017e-01 7.53784776e-01
      6.93976641e-01 7.00214922e-01 6.52493119e-01 5.98335147e-01
      4.79946405e-01 0. 0. 0. 4.23510820e-01 4.86452311e-01
      5.63007534e-01 0. 6.20858908e-01 6.46307945e-01 6.34590209e-01
      7.04684317e-01 7.22830176e-01 5.10068893e-01 7.27453649e-01
      7.16479897e-01 7.11813927e-01 4.27249312e-01 6.55019701e-01
      6.17894351e-01 0. 0. 0. 0. 6.18557334e-01 5.97821176e-01 0.
      4.01216805e-01 6.60180390e-01 6.68208659e-01 9.60542679e-01
      6.61011755e-01 6.45527422e-01 6.11097693e-01 6.21914327e-01
      5.95423639e-01 5.45353651e-01 0. 0.</_>
    <_>
      0. 5.08526862e-01 5.50741196e-01 5.57366729e-01 6.00744665e-01 0.
      0. 9.67305779e-01 9.59534585e-01 9.54399049e-01 9.26365912e-01
      9.04594898e-01 8.69548500e-01 8.64361763e-01 8.66596639e-01
      8.87391388e-01 0. 5.56148767e-01 5.88026464e-01 0. 0. 0.
      6.22606575e-01 9.23156738e-01 9.06951487e-01 9.12318468e-01
      9.24635530e-01 9.43630576e-01 9.95525897e-01 1. 7.27942646e-01
      4.81429935e-01 4.65527534e-01 0. 6.15272760e-01 6.09277248e-01
      5.69609940e-01 4.24714357e-01 0. 2.86769152e-01 0. 6.62783265e-01
      7.26862371e-01 0. 0. 5.95220983e-01 9.51355398e-01 9.61631656e-01
      9.70711887e-01 9.64725852e-01 9.18313742e-01 9.38842535e-01
      5.42870104e-01 8.59047532e-01 0. 0. 8.20105016e-01 8.61142278e-01
      6.59497917e-01 9.23205554e-01 9.22096193e-01 6.50481880e-01
      8.90285492e-01 8.58488142e-01 7.58955181e-01 7.08431005e-01
      6.14906490e-01 0. 2.40933925e-01 0. 2.64007449e-01 3.69657695e-01</_>
    <_>
      0. 5.96847832e-01 0. 2.76918828e-01 3.17743033e-01 6.39828026e-01
      6.37425005e-01 9.06953871e-01 8.98563147e-01 8.67266655e-01
      8.20875406e-01 7.80153453e-01 7.88294792e-01 7.68411756e-01
      7.42314458e-01 7.62220681e-01 7.84363091e-01 0. 0. 0. 0. 0.
      7.90052235e-01 7.80503273e-01 7.93245435e-01 8.00007522e-01
      7.92856216e-01 8.34610045e-01 8.58347535e-01 8.83403122e-01
      6.15506649e-01 6.27079189e-01 6.28910184e-01 3.06650788e-01
      2.97316819e-01 5.88103056e-01 5.52428782e-01 5.51942647e-01
      5.22056758e-01 4.62586164e-01 4.07635272e-01 3.45961452e-01
      3.30254048e-01 5.83589613e-01 7.40092993e-01 0. 0. 9.57024276e-01
      9.93824542e-01 7.70487607e-01 7.85742283e-01 5.12394488e-01
      7.41759658e-01 6.25378788e-01 3.24707180e-01 3.56408328e-01 0. 0.
      7.23370075e-01 7.47258365e-01 7.47234404e-01 1. 9.37431693e-01
      9.07077193e-01 0. 7.69714952e-01 0. 3.40578467e-01 3.56910080e-01
      4.18809146e-01 4.74088222e-01 5.33719122e-01</_>
    <_>
      0. 5.06611347e-01 5.46954632e-01 0. 1.33616939e-01 2.10662305e-01
      5.97243369e-01 8.49736512e-01 8.40763986e-01 8.08121502e-01
      7.84357011e-01 7.62464464e-01 7.69765794e-01 7.15898871e-01
      7.31900394e-01 7.29279399e-01 7.20796824e-01 7.82128990e-01 0. 0.
      0. 7.86602676e-01 7.47546911e-01 7.28166282e-01 7.58358419e-01
      9.37426925e-01 1. 8.24346900e-01 8.50002944e-01 8.81726623e-01
      9.00714576e-01 9.14000630e-01 3.56755316e-01 2.67126411e-01
      1.91129550e-01 8.25656205e-02 5.33757389e-01 4.63253200e-01
      3.97761285e-01 3.29455256e-01 3.04239273e-01 0. 5.33845782e-01
      6.48025751e-01 6.96260512e-01 0. 8.60031307e-01 8.92202020e-01
      9.11675513e-01 9.09655750e-01 7.08960891e-01 8.92011642e-01
      8.82742286e-01 1.28580287e-01 2.66702294e-01 3.01811188e-01 0.
      5.57663143e-01 6.09917760e-01 8.72931600e-01 8.67522597e-01
      8.69000196e-01 8.49303424e-01 8.17302287e-01 7.42672920e-01
      6.48418605e-01 5.30868948e-01 2.16186985e-01 0. 3.46262693e-01 0.
      4.06928122e-01</_>
    <_>
      0. 3.47588956e-01 4.09819931e-01 4.50599402e-01 4.59042519e-01
      4.96954262e-01 5.20730555e-01 5.09031892e-01 7.97826052e-01
      7.69663334e-01 7.67785847e-01 7.51525342e-01 7.40892589e-01
      7.49435425e-01 5.38499355e-01 0. 0. 0. 0. 0. 0. 0. 0. 0.
      5.72538972e-01 8.01771104e-01 7.64118254e-01 7.83347249e-01
      8.04297328e-01 8.31659496e-01 6.07908189e-01 0. 0. 5.35124958e-01
      4.98921096e-01 4.92959738e-01 3.67604226e-01 3.07325721e-01 0. 0.
      4.43724245e-01 5.30168831e-01 5.69527984e-01 1.84295043e-01
      4.33160275e-01 7.25004077e-01 1. 9.66882527e-01 7.43378162e-01
      7.26718485e-01 5.27411699e-01 4.77596134e-01 6.77395940e-01 0. 0.
      0. 0. 4.34602857e-01 4.42985207e-01 6.91319168e-01 6.77776337e-01
      9.38135862e-01 9.13652718e-01 9.42540646e-01 6.07999086e-01
      5.89321375e-01 5.13826489e-01 4.58440572e-01 3.79024953e-01 0.
      1.71783879e-01 0.</_>
    <_>
      0. 4.82568771e-01 5.21454453e-01 5.69876015e-01 0. 0.
      6.20440245e-01 6.26330256e-01 9.22301590e-01 8.91090214e-01
      8.65963817e-01 8.26434851e-01 7.87441611e-01 8.00622046e-01
      8.02593768e-01 0. 7.94793785e-01 8.18363011e-01 0. 0. 0.
      8.27505171e-01 8.09532106e-01 0. 8.27646255e-01 8.49979222e-01
      8.63325894e-01 8.59452844e-01 9.10173178e-01 9.71118391e-01 1.
      4.54116791e-01 3.92503470e-01 3.14019591e-01 0. 6.21990323e-01
      5.42086363e-01 4.72723067e-01 4.06849444e-01 0. 2.34903321e-01 0.
      7.06240118e-01 0. 0. 6.06872618e-01 9.33382034e-01 9.60280955e-01
      9.74677503e-01 9.67923105e-01 7.31088698e-01 6.72208488e-01
      8.59215140e-01 8.18671942e-01 0. 8.47280025e-01 5.70669115e-01
      6.54384613e-01 4.40979302e-01 9.11134422e-01 9.08145845e-01
      9.11998689e-01 8.73256385e-01 8.13875854e-01 0. 6.66869819e-01
      4.97406989e-01 0. 2.56365120e-01 0. 3.46966684e-01 3.76826406e-01</_>
    <_>
      0. 0. 5.35910308e-01 5.73162615e-01 0. 0. 6.25198066e-01
      8.77903998e-01 8.51698935e-01 8.20971549e-01 8.18590045e-01
      7.81312466e-01 7.44863153e-01 7.55916059e-01 7.55984843e-01 0.
      7.38123357e-01 7.64247537e-01 0. 0. 7.64231086e-01 7.45043874e-01
      7.22505987e-01 7.43578017e-01 7.55861461e-01 9.04903173e-01
      8.96836042e-01 1. 8.20886433e-01 8.51608396e-01 5.84315658e-01
      3.09434444e-01 0. 5.28373659e-01 0. 4.72469777e-01 4.33576077e-01
      3.69301081e-01 0. 2.45081976e-01 0. 0. 5.23083150e-01
      6.44442439e-01 0. 7.47630954e-01 7.48935461e-01 8.04422557e-01
      8.30809832e-01 8.24524581e-01 8.24461460e-01 8.20643663e-01
      7.97738194e-01 7.60802329e-01 7.54007399e-01 2.39512652e-01 0. 0.
      7.90050864e-01 8.24507117e-01 8.24578941e-01 8.30872476e-01
      8.23470473e-01 7.94322968e-01 7.49163032e-01 7.08326757e-01
      6.44534230e-01 4.94849414e-01 0. 0. 3.46062809e-01 4.03904140e-01</_>
    <_>
      0. 3.30310583e-01 3.95665526e-01 4.68981981e-01 5.17288387e-01
      5.57723939e-01 0. 6.15440488e-01 6.26856208e-01 9.35828805e-01
      9.11478043e-01 8.77642393e-01 8.68736684e-01 8.93455386e-01
      4.31741327e-01 5.78624010e-01 6.00424290e-01 0. 0. 0. 0. 0. 0.
      6.40959203e-01 6.26790702e-01 0. 9.89483893e-01 1. 7.34229028e-01
      7.62823701e-01 7.53400087e-01 7.64830887e-01 4.28587615e-01
      6.65018916e-01 6.95269525e-01 5.49639523e-01 4.85026300e-01
      3.90838057e-01 2.68837601e-01 0. 5.13009608e-01 6.63897693e-01
      7.46910512e-01 0. 0. 8.85137916e-01 9.05595660e-01 9.14005399e-01
      7.05190837e-01 6.75424278e-01 6.33691132e-01 5.70486844e-01
      2.35475108e-01 0. 0. 0. 5.49852371e-01 5.92659295e-01
      6.00923121e-01 5.93005478e-01 8.16244841e-01 5.93306482e-01
      7.83703744e-01 7.53430009e-01 7.28650868e-01 0. 6.28363729e-01
      5.25167346e-01 0. 1.48169622e-01 0. 0.</_>
    <_>
      0. 5.81777215e-01 5.85394681e-01 6.24537706e-01 3.91726106e-01
      6.63039088e-01 6.61522210e-01 9.43326831e-01 9.35037851e-01
      9.03099000e-01 8.76671493e-01 8.56265783e-01 8.42319489e-01
      8.18956852e-01 8.21594000e-01 8.41708779e-01 0. 0. 0. 0. 0. 0.
      5.18103063e-01 8.53933871e-01 9.12213743e-01 9.18889642e-01
      9.31802154e-01 9.27676201e-01 9.98656034e-01 9.30366695e-01
      6.50928676e-01 6.47161186e-01 4.04334486e-01 3.93185586e-01
      3.51386696e-01 5.86904943e-01 5.49237728e-01 0. 4.82556373e-01
      4.20919120e-01 0. 3.64908487e-01 2.71052659e-01 5.82373500e-01
      7.46360540e-01 0. 8.89304161e-01 9.49057281e-01 9.87467289e-01 1.
      7.90166318e-01 7.69138575e-01 7.27466881e-01 6.80652618e-01
      6.05451107e-01 0. 3.32796931e-01 6.93936765e-01 7.46055245e-01
      7.70615339e-01 9.99270737e-01 9.76312637e-01 9.48179066e-01
      9.10985708e-01 0. 7.93232977e-01 6.56831801e-01 0. 3.00329834e-01
      3.95699441e-01 4.52828497e-01 5.14977992e-01</_>
    <_>
      0. 4.93536294e-01 0. 8.32357109e-02 0. 0. 0. 6.40752196e-01
      7.48385906e-01 8.55440676e-01 9.02566850e-01 9.32282269e-01
      9.66293156e-01 7.48597145e-01 7.48567760e-01 4.54490781e-01 0. 0.
      0. 0. 0. 0. 0. 0. 7.74674237e-01 7.62711108e-01 1. 9.87405837e-01
      3.59948397e-01 0. 7.88278282e-01 7.44975805e-01 2.20146090e-01
      1.79761663e-01 4.02893722e-01 5.23657024e-01 5.84916830e-01 0.
      6.83980286e-01 0. 4.48425084e-01 5.00835598e-01 5.42905629e-01
      8.18880618e-01 7.92765319e-01 8.06426585e-01 7.82374978e-01
      7.66836166e-01 7.30757594e-01 7.41628289e-01 7.00048864e-01
      6.38909400e-01 6.00229561e-01 5.88591158e-01 5.53668499e-01 0. 0.
      0. 6.19402885e-01 4.30938154e-01 6.57451212e-01 6.45343602e-01
      6.99405253e-01 7.16732204e-01 4.93004680e-01 7.19953477e-01
      7.07628250e-01 7.02275693e-01 4.33402330e-01 6.52389765e-01
      5.98104835e-01 5.61779976e-01</_>
    <_>
      0. 4.95621234e-01 2.26186171e-01 2.91381717e-01 3.28540087e-01
      3.38844270e-01 5.53621233e-01 3.66087019e-01 5.33197641e-01
      8.48232985e-01 8.03242087e-01 7.86092281e-01 7.57974863e-01 0.
      6.89612567e-01 7.07675040e-01 4.13270235e-01 0. 0. 0. 0.
      6.85871124e-01 4.14903164e-01 3.95444989e-01 7.16767907e-01
      8.70061815e-01 8.19998205e-01 1. 8.08040619e-01 8.39739084e-01
      8.05990517e-01 4.65177476e-01 2.49722451e-01 2.39376828e-01
      1.73357278e-01 4.11920279e-01 3.80052418e-01 3.80565792e-01
      3.23826969e-01 2.94112682e-01 2.71995753e-01 0. 1.87745616e-01 0.
      4.56187874e-01 5.61286151e-01 3.69161844e-01 6.97389066e-01
      7.21984744e-01 7.42109179e-01 7.43335068e-01 6.93479121e-01
      5.44880033e-01 5.99378586e-01 0. 7.16001868e-01 5.08928061e-01
      5.50105512e-01 5.87027073e-01 0. 8.20887387e-01 7.94781983e-01
      8.02258909e-01 0. 0. 6.25303328e-01 5.65295994e-01 0.
      2.76655793e-01 2.94713050e-01 3.82402956e-01 4.36893791e-01</_>
    <_>
      0. 2.16242120e-01 3.81420761e-01 4.19115692e-01 4.27608788e-01
      4.68126744e-01 0. 0. 9.02552426e-01 8.78194451e-01 8.76461685e-01
      8.39275122e-01 8.29478085e-01 8.25760484e-01 8.57865691e-01
      5.33941209e-01 0. 0. 0. 0. 0. 0. 0. 0. 9.19211566e-01
      9.52391744e-01 9.82589304e-01 1. 9.55312014e-01 6.44940019e-01
      4.22921002e-01 3.35521579e-01 0. 5.42440474e-01 5.02933145e-01
      4.27289337e-01 2.62711376e-01 0. 0. 0. 0. 5.63963652e-01
      6.20225072e-01 0. 5.03828287e-01 7.50142753e-01 7.52166510e-01
      7.31931686e-01 7.38512218e-01 4.02869731e-01 5.77283978e-01 0.
      6.20672584e-01 6.41699791e-01 6.37786806e-01 6.70129299e-01 0. 0.
      6.94575727e-01 6.96545362e-01 6.96649909e-01 6.86030686e-01
      9.92227793e-01 9.87694561e-01 6.04128599e-01 5.62266290e-01
      4.53990370e-01 0. 0. 0. 0. 0.</_>
    <_>
      0. 4.78499413e-01 5.19743383e-01 5.26419997e-01 5.78956962e-01
      5.59070528e-01 5.73762000e-01 5.79039693e-01 9.26279306e-01
      8.89020741e-01 8.64736021e-01 1. 8.35946858e-01 9.25953448e-01
      8.03290486e-01 8.12794328e-01 8.37126613e-01 0. 0. 0. 0. 0.
      8.61683547e-01 8.41612637e-01 8.39566648e-01 9.51445699e-01
      9.54507232e-01 9.76679921e-01 9.99185264e-01 9.59812701e-01
      5.92550039e-01 0. 3.86965454e-01 3.74623626e-01 3.31443340e-01
      4.96936679e-01 4.94762808e-01 4.60312426e-01 3.94311488e-01 0.
      3.33388954e-01 2.34788120e-01 0. 6.44988954e-01 7.14179695e-01
      4.38611120e-01 8.57995212e-01 6.13101304e-01 8.80383730e-01
      8.77140045e-01 8.16440582e-01 6.71609819e-01 7.05120087e-01
      7.59118259e-01 7.86670208e-01 8.20677876e-01 6.88008487e-01
      7.01100051e-01 8.63488615e-01 8.55657995e-01 8.54845822e-01
      8.12935829e-01 7.76556909e-01 0. 6.48581326e-01 5.76693594e-01 0.
      2.66407907e-01 0. 2.84630507e-01 3.51205587e-01 0.</_>
    <_>
      0. 2.14372531e-01 2.79515564e-01 3.46185893e-01 3.54405582e-01
      4.05760318e-01 4.47022855e-01 0. 5.14636099e-01 8.83815050e-01
      9.72311795e-01 1. 8.34421456e-01 8.70018005e-01 5.53207874e-01
      3.75827193e-01 3.67039979e-01 0. 3.56914997e-01 3.86679232e-01 0.
      0. 0. 0. 0. 0. 9.66049194e-01 9.74180043e-01 9.74730551e-01
      6.97331071e-01 6.79284394e-01 0. 0. 5.93670905e-01 4.41825926e-01
      4.72265691e-01 3.42629492e-01 0. 0. 0. 5.93306959e-01
      6.04432940e-01 3.12794298e-01 1.90249413e-01 4.74387020e-01
      7.55747855e-01 7.54993618e-01 6.93408847e-01 4.16704416e-01 0.
      5.82649112e-01 5.92109561e-01 5.84682584e-01 6.09302759e-01
      6.32725954e-01 0. 0. 6.50721431e-01 6.38670504e-01 6.21155381e-01
      6.33958995e-01 4.14144605e-01 9.31554377e-01 9.51239645e-01 0.
      4.95076776e-01 4.34763789e-01 0. 0. 0. 0. 0.</_>
    <_>
      0. 4.31250423e-01 4.69469875e-01 5.07237017e-01 0. 2.90130496e-01
      5.63980103e-01 5.52720487e-01 9.13512647e-01 8.84636641e-01 1.
      8.88098180e-01 8.57343316e-01 8.68211091e-01 4.93918091e-01 0.
      4.40909043e-02 0. 3.01405013e-01 3.34195316e-01 0. 0.
      7.79611245e-02 3.65916073e-01 0. 8.90108824e-01 9.65119183e-01
      9.59340274e-01 9.82100904e-01 5.98502576e-01 6.06023014e-01
      6.01728439e-01 5.75758696e-01 5.34411013e-01 5.17249227e-01
      5.11522532e-01 4.41487044e-01 3.77374709e-01 0. 2.85004884e-01
      1.90729275e-01 0. 5.78521073e-01 6.39422417e-01 0. 0.
      8.08771968e-01 8.38190496e-01 8.27990294e-01 8.24023426e-01
      7.66926050e-01 6.61682904e-01 0. 7.10451066e-01 7.34817266e-01
      7.66401947e-01 0. 0. 8.01108479e-01 7.92596042e-01 7.90622771e-01
      7.68283606e-01 7.41758287e-01 0. 6.18581951e-01 5.52226543e-01 0.
      1.93102762e-01 0. 0. 3.06704909e-01 0.</_>
    <_>
      0. 0. 3.38146627e-01 3.71826082e-01 4.15544540e-01 4.26074326e-01
      4.64053005e-01 5.06727755e-01 5.00585318e-01 5.18981814e-01
      8.43866289e-01 8.47033858e-01 8.35391343e-01 8.00996780e-01
      3.39324117e-01 3.56501400e-01 0. 4.86775815e-01 0. 0. 0. 0. 0. 0.
      5.54277718e-01 5.44522524e-01 8.87984812e-01 1. 9.21475351e-01
      6.20924950e-01 6.04269981e-01 4.06459749e-01 0. 5.18148005e-01
      4.83154237e-01 4.77361590e-01 3.56200397e-01 2.97907799e-01 0.
      1.85861051e-01 0. 4.75215256e-01 6.02420092e-01 0. 4.99546409e-01
      7.41126239e-01 5.79766631e-01 7.45014489e-01 7.33726621e-01
      6.63815379e-01 5.35416424e-01 5.78893006e-01 5.98159850e-01
      6.14314973e-01 6.36565745e-01 6.37055218e-01 6.72169805e-01
      6.49079680e-01 6.72020137e-01 6.66631877e-01 5.12221098e-01
      6.42701983e-01 6.10966742e-01 6.06224895e-01 2.59120822e-01
      5.05131125e-01 3.67382526e-01 0. 0. 1.09024808e-01 0. 0.</_>
    <_>
      0. 3.99643123e-01 4.02745336e-01 4.37023044e-01 4.52512562e-01
      4.90502864e-01 5.14715135e-01 5.19628882e-01 5.13621867e-01
      8.70625973e-01 8.47065449e-01 8.30841124e-01 8.03478718e-01
      7.99672067e-01 8.28795850e-01 0. 4.54053760e-01 4.77617443e-01 0.
      0. 0. 0. 0. 0. 8.67619395e-01 8.46352756e-01 1. 8.91390204e-01
      8.91039550e-01 6.22954428e-01 4.15575325e-01 3.59026194e-01
      3.45500439e-01 0. 0. 4.98777449e-01 4.32748824e-01 3.72576714e-01
      2.85396248e-01 0. 2.32622430e-01 0. 5.60312510e-01 6.16016924e-01
      0. 0. 7.69341588e-01 7.95339286e-01 7.84720898e-01 7.53696203e-01
      0. 6.18243158e-01 6.46881700e-01 6.89032614e-01 5.07118940e-01
      5.38212359e-01 3.61061364e-01 0. 5.69519281e-01 5.52826345e-01
      7.64322639e-01 7.41780758e-01 7.09980369e-01 6.83158636e-01
      6.00417316e-01 5.58617592e-01 4.81273443e-01 0. 0. 2.00835109e-01
      0. 2.52459615e-01</_>
    <_>
      0. 5.51954687e-01 5.55358052e-01 5.96698701e-01 0. 6.25286639e-01
      6.21423125e-01 9.69578624e-01 9.39732909e-01 9.00870621e-01
      9.00476933e-01 8.57647896e-01 8.16223681e-01 8.28561783e-01
      8.14691901e-01 0. 7.73663342e-01 8.03182364e-01 7.94775605e-01
      8.31469715e-01 0. 8.48932564e-01 8.31991613e-01 8.09372962e-01
      8.37413311e-01 8.78332496e-01 8.70615125e-01 9.17007029e-01
      9.67775464e-01 1. 4.14932907e-01 7.38391757e-01 7.39144027e-01
      7.14085340e-01 6.60283387e-01 6.17698252e-01 5.73245347e-01
      5.72247267e-01 4.33816314e-01 0. 2.22861618e-01 0. 7.40682125e-01
      8.09157193e-01 0. 9.44474816e-01 9.44850206e-01 9.83120918e-01
      9.73697066e-01 9.22634900e-01 8.74636590e-01 0. 8.18069816e-01
      8.46878827e-01 8.72352123e-01 6.55948341e-01 9.20803010e-01
      9.27487016e-01 7.60929108e-01 9.47043598e-01 9.45443809e-01
      9.20515478e-01 8.90707493e-01 0. 4.43410099e-01 6.81327522e-01
      6.10535920e-01 2.50756264e-01 0. 2.71570623e-01 3.77248675e-01
      4.07817572e-01</_>
    <_>
      0. 0. 0. 0. 3.60118836e-01 5.07431448e-01 5.47991216e-01 0.
      9.10789311e-01 9.07362819e-01 9.09376144e-01 9.32949603e-01
      6.67773068e-01 4.75050658e-01 6.26033962e-01 6.43135369e-01
      6.47928417e-01 0. 0. 0. 0. 0. 0. 6.90158665e-01 6.75173163e-01
      7.04422653e-01 7.31250048e-01 7.48053253e-01 7.50572026e-01
      7.31318533e-01 7.37674296e-01 6.89441383e-01 6.22294426e-01
      5.43527007e-01 2.15813398e-01 0. 0. 0. 3.97234738e-01
      5.58945656e-01 6.04859352e-01 6.82985306e-01 0. 0. 7.86588848e-01
      4.53630745e-01 7.56048441e-01 7.39878595e-01 0. 6.72173262e-01
      5.35945475e-01 5.53627551e-01 5.66941619e-01 5.87923050e-01
      5.85806310e-01 6.15788698e-01 4.07559514e-01 4.43333447e-01 0.
      6.76313221e-01 6.62383199e-01 6.77210927e-01 9.84384716e-01 1.
      6.56166852e-01 0. 0. 0. 5.39757252e-01 4.89027262e-01 0. 0.</_>
    <_>
      0. 2.79966354e-01 4.57891077e-01 5.31846285e-01 5.82574785e-01 0.
      0. 6.55408084e-01 9.84566987e-01 9.58161414e-01 9.58065391e-01
