<?xml version="1.0"?>
<opencv_storage>
<opencv_ml_svm>
  <format>3</format>
  <svmType>C_SVC</svmType>
  <kernel>
    <type>POLY</type>
    <degree>3.</degree>
    <gamma>3.</gamma>
    <coef0>0.</coef0></kernel>
  <C>1.</C>
  <term_criteria><epsilon>1.1920928955078125e-07</epsilon>
    <iterations>1000</iterations></term_criteria>
  <var_count>72</var_count>
  <class_count>9</class_count>
  <class_labels type_id="opencv-matrix">
    <rows>9</rows>
    <cols>1</cols>
    <dt>i</dt>
    <data>
      1 2 3 4 5 6 7 8 9</data></class_labels>
  <sv_total>173</sv_total>
  <support_vectors>
    <_>
      0. 0. 0. 0. 3.16827387e-01 5.01122475e-01 6.29956722e-01
      6.86610401e-01 7.57880569e-01 7.53941178e-01 9.61023629e-01 1.
      9.76145744e-01 7.63746917e-01 4.30627823e-01 1.93030596e-01
      2.73842275e-01 4.78959888e-01 4.76342350e-01 4.77320969e-01
      3.53392363e-01 3.19067985e-01 3.70208055e-01 0. 4.03679222e-01
      3.11166644e-01 3.91931355e-01 8.87009263e-01 8.87547135e-01
      8.08632731e-01 5.78214586e-01 7.06043839e-01 2.60523885e-01 0. 0.
      0. 0. 4.46825117e-01 1.57686457e-01 4.58254039e-01 0. 0.
      5.93913674e-01 6.35832369e-01 6.85249805e-01 9.75050330e-01
      9.76342678e-01 9.22929585e-01 7.94806242e-01 8.30730140e-01
      8.31685722e-01 4.62532520e-01 4.50224102e-01 0. 0. 1.86956182e-01
      0. 2.33759254e-01 2.84959137e-01 2.46125370e-01 8.56860697e-01
      8.61756146e-01 8.18253219e-01 7.83340335e-01 6.95721984e-01
      7.90852606e-01 6.51657581e-01 7.22752035e-01 5.55678248e-01
      4.48019326e-01 0. 0.</_>
    <_>
      0. 0. 0. 0. 0. 0. 4.99505192e-01 6.67354703e-01 7.47557580e-01
      7.69356251e-01 9.15479302e-01 9.54356134e-01 1. 9.79690373e-01
      9.43019927e-01 4.74912673e-01 4.24346238e-01 4.55928475e-01
      4.92215663e-01 4.91625965e-01 4.94386703e-01 4.60602552e-01
      4.31851417e-01 4.46233541e-01 4.09195513e-01 3.37610513e-01 0.
      3.28838944e-01 4.71801668e-01 5.65617204e-01 5.42995274e-01 0.
      5.04571676e-01 0. 0. 0. 0. 0. 0. 1.79523855e-01 6.15235507e-01
      6.67321205e-01 7.55602777e-01 6.29539430e-01 9.67383027e-01
      9.55641091e-01 9.54917014e-01 8.43109250e-01 7.14408815e-01
      6.02963984e-01 0. 0. 4.53081161e-01 4.06075567e-01 4.02709931e-01
      3.62900496e-01 0. 2.88735986e-01 7.12720394e-01 7.38549173e-01
      6.81252122e-01 0. 0. 8.21963847e-01 8.21502268e-01 7.42946923e-01
      7.53473699e-01 7.13377535e-01 0. 5.38953364e-01 0. 0.</_>
    <_>
      0. 0. 1.85572833e-01 0. 0. 1.61547884e-01 0. 6.94856524e-01
      7.65469790e-01 8.08438957e-01 6.82258666e-01 1. 9.79830384e-01
      6.68968916e-01 7.01352715e-01 6.74902737e-01 0. 0. 0. 0. 0. 0. 0.
      0. 6.01304591e-01 6.18865430e-01 6.80158734e-01 6.52617514e-01
      6.00139260e-01 4.79859114e-01 3.80365282e-01 4.90461290e-01
      3.79243374e-01 3.33554566e-01 3.24395180e-01 2.83434838e-01 0.
      2.10327819e-01 0. 0. 0. 0. 4.78207141e-01 5.14981270e-01
      5.64762115e-01 0. 8.11632752e-01 8.66901219e-01 8.74625981e-01
      8.67111802e-01 7.40160525e-01 7.61043370e-01 7.41023600e-01
      5.10111868e-01 4.70960110e-01 2.19671056e-01 0. 2.23244399e-01
      1.53430969e-01 0. 0. 0. 0. 2.59438872e-01 2.85787463e-01
      3.14001709e-01 6.31715715e-01 6.93892181e-01 6.63211465e-01
      4.57918942e-01 4.47634071e-01 4.03347723e-02</_>
    <_>
      0. 0. 0. 0. 0. 0. 0. 0. 6.51250005e-01 7.57989585e-01
      6.76239729e-01 9.35401976e-01 1. 7.28631735e-01 6.41708732e-01
      6.65577948e-01 8.47363055e-01 8.40792298e-01 0. 0. 0.
      1.65814281e-01 1.27664685e-01 9.06211883e-02 1.78751439e-01 0.
      2.53975779e-01 1.12560660e-01 3.08527619e-01 3.39406997e-01
      3.17633450e-01 2.63983071e-01 0. 0. 1.99316651e-01 3.15833241e-01
      3.52296084e-01 5.11242032e-01 5.54527283e-01 5.61217010e-01 0.
      5.96671522e-01 6.13124013e-01 8.81834924e-01 9.26213503e-01
      6.37331903e-01 8.33672464e-01 8.15823674e-01 7.73021579e-01
      7.88884580e-01 7.56963134e-01 6.56481922e-01 0. 0. 0. 0.
      3.92652690e-01 3.98808897e-01 4.08694178e-01 3.34174275e-01 0.
      2.27947176e-01 0. 3.06674033e-01 2.77947485e-01 0. 0.
      2.65158623e-01 6.01516724e-01 6.24764681e-01 6.13715589e-01 0.</_>
    <_>
      0. 2.76173353e-01 3.50367993e-01 0. 4.79382843e-01 5.38861811e-01
      6.03170514e-01 7.50726223e-01 7.41171598e-01 6.57213449e-01
      5.03943920e-01 6.65774345e-01 5.66016614e-01 6.27150357e-01
      6.61005259e-01 6.82978988e-01 6.29915059e-01 5.87924719e-01
      5.80455542e-01 5.44145048e-01 2.96554685e-01 1.91007033e-01
      2.69938648e-01 2.36036435e-01 0. 0. 0. 0. 8.25637937e-01
      8.52959931e-01 0. 0. 4.32323009e-01 0. 4.55944210e-01
      4.43575323e-01 4.79315400e-01 4.78455842e-01 4.11070794e-01 0.
      6.21565163e-01 7.14653373e-01 7.45834231e-01 6.83461010e-01
      5.65444946e-01 9.68055129e-01 9.93451059e-01 1. 0. 0. 0.
      6.33624375e-01 6.23779833e-01 6.09976292e-01 5.70378959e-01 0.
      3.93739045e-01 4.00851160e-01 2.18223557e-01 4.23923612e-01
      8.57580364e-01 8.15259397e-01 7.56799817e-01 7.51427054e-01
      5.99047065e-01 5.26078463e-01 0. 0. 0. 0. 1.71131074e-01 0.</_>
    <_>
      0. 3.56036156e-01 3.59777957e-01 0. 2.67034203e-01 2.34650269e-01
      2.80739009e-01 7.70118415e-01 7.62842417e-01 6.34983659e-01 0.
      6.40209973e-01 6.30043268e-01 5.82580566e-01 5.97677588e-01
      5.71961343e-01 5.53821683e-01 5.13468623e-01 4.03439194e-01 0. 0.
      0. 0. 0. 0. 0. 0. 0. 8.31396207e-02 0. 1.59324989e-01
      6.86079681e-01 6.71659529e-01 6.47465706e-01 6.30043387e-01
      5.89703083e-01 3.74824435e-01 3.74472022e-01 3.77332181e-01 0.
      3.15854192e-01 0. 3.00247148e-02 0. 7.45645344e-01 8.14763904e-01
      7.92759478e-01 1. 7.88130164e-01 7.85597205e-01 8.67948413e-01
      7.13606477e-01 2.97948927e-01 3.66221219e-01 3.96665424e-01
      4.30578262e-01 4.32617724e-01 3.69230419e-01 3.78047973e-01 0. 0.
      4.20920163e-01 7.31832087e-01 7.54138649e-01 6.78875387e-01 0. 0.
      0. 0. 0. 0. 0.</_>
    <_>
      0. 3.28331888e-01 3.32215190e-01 0. 3.40602666e-01 0.
      2.81790048e-01 9.22291100e-01 1. 6.29595041e-01 6.87253237e-01
      6.62480712e-01 0. 8.60544741e-01 8.26376915e-01 0. 2.15952009e-01
      0. 2.48869255e-01 0. 0. 0. 0. 8.30716610e-01 8.65690827e-01
      8.31534207e-01 8.34758818e-01 8.87093067e-01 8.61516833e-01
      6.95642471e-01 6.81043804e-01 7.48390734e-01 1.51984453e-01 0. 0.
      1.04291737e-01 0. 0. 0. 0. 0. 0. 0. 0. 8.20337236e-01 0.
      9.80967581e-01 9.85708714e-01 3.51513088e-01 5.96042812e-01
      6.67501867e-01 6.53197587e-01 5.54820776e-01 1.46004096e-01 0.
      3.40298563e-01 3.82980943e-01 3.90394211e-01 4.01520878e-01
      3.64695549e-01 7.49952495e-01 7.36901522e-01 0. 2.50617087e-01 0.
      0. 7.12074041e-01 7.26402283e-01 6.56989574e-01 5.55274844e-01 0.
      0.</_>
    <_>
      0. 0. 0. 5.41721284e-01 6.39085650e-01 7.91275442e-01
      8.60890448e-01 8.80079150e-01 5.80678642e-01 8.54490399e-01
      9.93808329e-01 1. 6.21707737e-01 9.15067077e-01 8.28538001e-01
      6.41003773e-02 0. 1.78761691e-01 0. 0. 2.17523068e-01 0. 0. 0.
      7.76154757e-01 7.95373559e-01 8.60999942e-01 8.26801658e-01
      8.00599158e-01 7.51730442e-01 7.29171991e-01 0. 0. 0.
      2.60318279e-01 2.53996938e-01 0. 0. 1.76106155e-01 2.97009975e-01
      5.52188098e-01 5.65467894e-01 7.38322794e-01 7.58314312e-01
      8.26374173e-01 8.51396859e-01 8.51064801e-01 8.56198132e-01
      9.63378191e-01 6.84062004e-01 7.01272190e-01 6.61332846e-01
      8.50095272e-01 1.72865659e-01 0. 0. 0. 0. 4.26701844e-01
      4.76471692e-01 4.57296759e-01 3.90250862e-01 0. 0. 8.50483239e-01
      8.87011826e-01 7.78730631e-01 8.23975921e-01 4.06339616e-01
      3.91516566e-01 0. 0.</_>
    <_>
      0. 0. 0. 6.15780592e-01 6.26819432e-01 6.76305771e-01
      5.85601270e-01 5.18206358e-01 4.54106718e-01 8.34255397e-01
      8.90391290e-01 8.10199857e-01 8.81201625e-01 8.41521442e-01
      7.71957219e-01 0. 2.78524131e-01 7.45244026e-01 7.80277014e-01
      7.40184605e-01 7.85436690e-01 7.15232849e-01 0. 0. 0.
      8.34650993e-01 8.24875891e-01 8.44378173e-01 8.43703151e-01
      7.67618060e-01 6.16038024e-01 5.97274065e-01 4.93777484e-01 0. 0.
      0. 0. 0. 0. 0. 0. 5.28301179e-01 7.00874686e-01 7.74627507e-01
      7.34887660e-01 5.95651567e-01 2.09465310e-01 4.03095305e-01
      9.50929284e-01 1. 9.83008921e-01 8.17042112e-01 6.35730386e-01
      6.66500449e-01 5.81296384e-01 3.86744916e-01 3.89970183e-01
      4.34890658e-01 4.44598883e-01 4.21534806e-01 4.38478023e-01
      4.04658049e-01 9.46713090e-01 9.71606433e-01 9.41529632e-01
      7.31723011e-01 6.23630524e-01 7.76151180e-01 6.53752446e-01 0. 0.
      0.</_>
    <_>
      0. 0. 0. 0. 1.31489649e-01 6.19039118e-01 6.90036297e-01
      8.43270838e-01 8.35013688e-01 9.15691674e-01 9.17055786e-01
      8.65192354e-01 7.28331864e-01 8.66895616e-01 8.85128558e-01
      1.63829297e-01 2.42573202e-01 0. 8.44946384e-01 0. 8.52885544e-01
      8.59331131e-01 0. 0. 0. 0. 0. 0. 7.65944064e-01 8.27036798e-01
      8.12251687e-01 7.35845029e-01 3.39224666e-01 2.88320631e-01 0. 0.
      0. 0. 0. 4.87736791e-01 6.74435496e-01 7.40543067e-01
      8.11358631e-01 7.95551062e-01 7.18834996e-01 6.57640159e-01
      7.45819926e-01 7.52883494e-01 1. 7.43839502e-01 9.26124454e-01
      8.59514058e-01 5.82359612e-01 5.35587668e-01 4.10389036e-01
      5.30225933e-01 4.97251630e-01 4.57469732e-01 4.27975297e-01
      3.51510435e-01 2.77565807e-01 3.32460999e-01 0. 0. 0. 0.
      5.68531096e-01 6.39623344e-01 6.22491241e-01 0. 0. 0.</_>
    <_>
      0. 0. 2.02249050e-01 1.25589237e-01 2.11100712e-01 8.18635941e-01
      8.87970865e-01 9.06885564e-01 1.06813103e-01 7.66658962e-01
      7.94230640e-01 8.89885426e-01 9.21996593e-01 8.81181598e-01
      7.94117332e-01 0. 0. 0. 0. 0. 7.74955988e-01 8.19706798e-01
      8.00062060e-01 0. 0. 8.29237103e-01 8.51497114e-01 8.41274500e-01
      8.13435555e-01 0. 0. 0. 1.63963750e-01 2.37223029e-01
      1.52398393e-01 2.29381636e-01 0. 2.28004679e-01 0. 0.
      4.04228568e-01 5.92065275e-01 3.48230004e-01 6.28265262e-01 0.
      6.37058675e-01 8.87083828e-01 9.47487533e-01 0. 8.95529449e-01 1.
      3.41248721e-01 9.34620380e-01 8.80389988e-01 5.18345773e-01
      5.17317772e-01 4.80452269e-01 4.93811965e-01 2.58749723e-01
      3.09107333e-01 4.47854906e-01 3.79844546e-01 3.47389340e-01 0. 0.
      4.00651604e-01 4.64697897e-01 4.80264992e-01 4.64907557e-01 0. 0.
      0.</_>
    <_>
      0. 4.73623186e-01 3.59249026e-01 0. 7.47325540e-01 7.60748863e-01
      0. 7.11110473e-01 7.33562291e-01 7.82386601e-01 7.80456007e-01
      8.19810390e-01 8.51974666e-01 8.11174095e-01 0. 2.53780156e-01
      3.28540832e-01 5.58297634e-01 6.31686091e-01 5.53103447e-01
      5.56861937e-01 5.25105178e-01 6.70497119e-01 6.84819937e-01
      6.13738537e-01 7.59675562e-01 7.27620304e-01 8.28449488e-01 0.
      8.65909219e-01 0. 7.83556402e-01 1.20529123e-01 0. 0. 0.
      1.12125866e-01 0. 0. 0. 0. 5.51989019e-01 5.69274187e-01
      5.88644564e-01 5.23593187e-01 4.89353418e-01 9.32645142e-01 1.
      9.77856636e-01 3.94616932e-01 4.13439184e-01 0. 6.29146457e-01
      7.78678715e-01 6.20027125e-01 6.97195292e-01 5.47382116e-01
      5.54659843e-01 4.90233481e-01 0. 9.75942075e-01 9.62217152e-01
      3.89117151e-01 4.14276123e-01 3.86258215e-01 3.60297322e-01 0. 0.
      8.97013322e-02 1.26754433e-01 0. 0.</_>
    <_>
      0. 0. 0. 4.20170307e-01 3.16567153e-01 4.43851262e-01
      3.78832608e-01 0. 6.71132207e-01 7.70581424e-01 8.22653711e-01
      8.55380297e-01 7.33844757e-01 8.73764634e-01 8.25963974e-01
      7.99464703e-01 8.06146383e-01 8.00034344e-01 0. 3.59233111e-01
      3.63665611e-01 2.92829365e-01 3.71565819e-01 8.65691006e-01
      8.97391021e-01 8.34448576e-01 8.88109446e-01 9.35884297e-01
      9.35608745e-01 7.91826367e-01 7.71117508e-01 6.35654747e-01
      6.20251238e-01 5.60508311e-01 4.71373945e-01 3.52716237e-01 0.
      9.85598862e-02 0. 5.42981267e-01 6.30847454e-01 6.08449161e-01
      3.95954490e-01 0. 4.34055895e-01 4.29051042e-01 4.30085599e-01
      9.78035748e-01 4.37116742e-01 1. 7.89837062e-01 7.63923109e-01 0.
      0. 5.08461654e-01 5.43950260e-01 4.78750318e-01 4.43240076e-01
      7.70330489e-01 7.83353865e-01 7.65187383e-01 8.18323195e-01
      8.09038162e-01 8.77459526e-01 8.76268446e-01 7.02397525e-01
      7.60331094e-01 6.23253345e-01 6.07228160e-01 0. 0. 3.00905794e-01</_>
    <_>
      0. 2.81599909e-01 4.97641593e-01 4.29203659e-01 5.14321029e-01
      3.83887321e-01 5.24513721e-01 5.42654157e-01 8.06532204e-01
      8.51827323e-01 8.01727057e-01 7.60195673e-01 8.27977777e-01
      7.80380726e-01 7.80127585e-01 7.10642338e-01 6.93112969e-01
      7.16925502e-01 7.14262962e-01 0. 2.97075599e-01 6.66136026e-01
      6.75952911e-01 7.46356308e-01 7.61530697e-01 7.66107321e-01
      7.57269502e-01 7.49059141e-01 7.73647249e-01 7.53746927e-01
      7.12444961e-01 6.75816059e-01 6.44657314e-01 6.19794250e-01
      2.46801421e-01 0. 2.76705593e-01 0. 0. 2.81245887e-01
      6.96282759e-02 4.57888991e-01 7.07131445e-01 7.42360234e-01
      5.80647290e-01 9.22484815e-01 9.49209988e-01 8.56045961e-01 1.
      9.96551752e-01 9.67067778e-01 2.36908153e-01 2.70489484e-01
      5.79405129e-01 5.76403797e-01 5.75498760e-01 5.10944426e-01
      4.49086010e-01 7.89070129e-01 8.13509524e-01 3.75761062e-01
      1.42304331e-01 9.29791808e-01 9.03287768e-01 8.76741409e-01
      7.58539319e-01 7.17364490e-01 5.55737495e-01 1.51366711e-01 0. 0.
      1.42940477e-01</_>
    <_>
      0. 3.90674442e-01 0. 4.62949276e-01 5.08589268e-01 5.58476686e-01
      5.44922709e-01 8.15666318e-01 8.66952419e-01 8.39868903e-01
      8.19068789e-01 7.99751341e-01 7.87433505e-01 8.19280028e-01
      7.28385746e-01 7.45985270e-01 0. 7.11928070e-01 7.38402784e-01 0.
      0. 0. 7.64140248e-01 0. 8.04193795e-01 8.75576138e-01
      8.85329843e-01 9.19883132e-01 8.56278956e-01 6.54422641e-01
      6.37665868e-01 6.47685349e-01 1.27004266e-01 4.37758237e-01
      4.29194927e-01 5.69680691e-01 5.34629524e-01 4.74711061e-01
      4.16850805e-01 3.32818389e-01 0. 0. 6.16626263e-01 6.48468137e-01
      6.89979315e-01 7.85361767e-01 8.30551386e-01 6.68550909e-01
      8.42054605e-01 8.35687459e-01 6.78316653e-01 6.96950078e-01
      7.46521115e-01 2.49761581e-01 5.17361224e-01 5.16645551e-01
      4.90769863e-01 7.41048992e-01 7.55508423e-01 7.74303615e-01
      7.83353150e-01 7.87137926e-01 7.78914332e-01 1. 0. 6.28180325e-01
      5.69942534e-01 5.13761222e-01 1.66707084e-01 0. 1.85675070e-01
      2.73746550e-01</_>
    <_>
      0. 3.47176641e-01 4.12253261e-01 4.55041140e-01 4.93604481e-01
      5.44273615e-01 3.62781763e-01 5.86728275e-01 5.96391976e-01
      9.00193691e-01 8.11841965e-01 9.73600030e-01 8.24741185e-01
      8.17674935e-01 8.03793013e-01 8.10984194e-01 4.09053922e-01 0. 0.
      0. 0. 0. 0. 4.37137276e-01 8.68202627e-01 8.72046292e-01
      9.00236309e-01 9.16696310e-01 9.40192282e-01 7.01599658e-01
      7.08586633e-01 0. 6.63465798e-01 4.56067979e-01 6.35436475e-01
      5.93055427e-01 4.94028032e-01 4.31295335e-01 3.71001065e-01 0. 0.
      5.70690095e-01 6.40269339e-01 6.82812929e-01 2.68378198e-01
      8.15906107e-01 8.39389563e-01 8.67825568e-01 8.57732296e-01
      8.53206992e-01 8.02419364e-01 7.23574460e-01 4.81940180e-01
      5.08056521e-01 0. 5.04752874e-01 4.78265911e-01 7.09565878e-01
      7.55777478e-01 7.76324928e-01 7.73256958e-01 7.76431859e-01
      7.61098444e-01 1. 7.13006556e-01 6.92735672e-01 6.11406922e-01
      4.93795246e-01 0. 0. 1.94611505e-01 0.</_>
    <_>
      0. 3.65516961e-01 4.89328355e-01 5.29941916e-01 5.66444755e-01
      3.04000199e-01 6.24406993e-01 6.14387989e-01 6.31173790e-01
      8.33313704e-01 8.97261977e-01 9.05163944e-01 8.13379288e-01
      7.70448625e-01 7.85298526e-01 0. 0. 0. 0. 0. 0. 0. 0.
      7.90884495e-01 7.76681483e-01 8.46144617e-01 8.54183853e-01
      8.85214150e-01 9.30144846e-01 8.74732196e-01 3.86418015e-01
      3.29939216e-01 0. 4.85876322e-01 4.78929728e-01 4.44288701e-01
      3.20006967e-01 2.61205375e-01 0. 0. 0. 4.82661486e-01
      4.95774984e-01 5.51213443e-01 2.21451432e-01 1. 9.79152381e-01
      7.33666599e-01 7.40879536e-01 7.35772908e-01 7.36681581e-01
      5.55136859e-01 6.91703498e-01 6.56860113e-01 4.09570545e-01
      4.40392852e-01 4.14508611e-01 4.20387000e-01 6.54391587e-01
      6.92607641e-01 5.95952332e-01 7.58467495e-01 7.66967595e-01
      6.12996578e-01 7.58369923e-01 7.40975201e-01 6.71976924e-01
      6.16556883e-01 5.63569307e-01 0. 0. 0.</_>
    <_>
      0. 0. 2.75936067e-01 4.07370329e-01 4.16190624e-01 4.66966659e-01
      5.07421136e-01 0. 5.71833611e-01 8.24759483e-01 8.91535640e-01
      8.78006816e-01 8.85792315e-01 8.54116559e-01 8.00849020e-01
      5.59394598e-01 4.17766958e-01 0. 0. 0. 5.66907167e-01 0.
      5.88476658e-01 5.70331514e-01 0. 9.03322935e-01 8.96750391e-01
      9.53524470e-01 9.56542373e-01 7.24261284e-01 7.14826405e-01
      5.08332551e-01 4.95601147e-01 6.37730837e-01 0. 5.21345019e-01
      3.34356666e-01 2.43677080e-01 0. 0. 6.09926045e-01 6.32283270e-01
      6.72548473e-01 5.14337182e-01 7.50422180e-01 9.99018252e-01 1.
      7.90099680e-01 7.79574275e-01 7.33944952e-01 7.48256028e-01
      3.70833904e-01 4.20967758e-01 4.15433645e-01 4.42307860e-01
      3.81748945e-01 0. 6.41238868e-01 6.86957240e-01 6.80117786e-01
      6.80004299e-01 9.05250847e-01 8.98555100e-01 9.13692653e-01
      6.35423362e-01 0. 5.80754340e-01 5.23135364e-01 4.28177685e-01 0.
      0. 0.</_>
    <_>
      0. 3.80905867e-01 3.83818984e-01 4.17118728e-01 4.59584206e-01
      2.86921799e-01 4.92842048e-01 4.97893602e-01 7.17710316e-01
      6.95701182e-01 7.96232402e-01 8.88236642e-01 7.27318883e-01
      7.07962573e-01 6.95293009e-01 7.18466580e-01 7.04011679e-01
      7.26911545e-01 0. 0. 0. 0. 7.60828853e-01 7.06701934e-01
      7.16828406e-01 8.50096047e-01 8.36248875e-01 8.09571266e-01
      8.30227792e-01 8.54285121e-01 8.65893960e-01 0. 3.68881404e-01
      3.58952969e-01 3.23125541e-01 4.88642126e-01 0. 4.28056300e-01
      3.71822298e-01 2.90502012e-01 0. 0. 5.14065683e-01 5.67455232e-01
      0. 1. 9.39886570e-01 7.45871425e-01 7.39143729e-01 5.96089482e-01
      7.15484262e-01 7.05718875e-01 3.60437036e-01 4.40826088e-01
      4.38306123e-01 4.66540664e-01 4.13560361e-01 6.28796279e-01
      6.64023101e-01 6.81777656e-01 6.77705944e-01 6.79765284e-01
      8.55573595e-01 8.45795035e-01 0. 5.61222374e-01 4.63088781e-01 0.
      0. 1.88721761e-01 0. 2.66806096e-01</_>
    <_>
      0. 4.04850036e-01 4.41412359e-01 2.92256147e-01 0. 3.41108441e-01
      4.90637422e-01 7.41498232e-01 7.76852965e-01 4.91136879e-01
      9.21929896e-01 9.68041718e-01 7.17559814e-01 7.11566806e-01
      7.00536668e-01 0. 6.73040867e-01 7.48256147e-01 0. 7.46910334e-01
      7.19385564e-01 6.99099004e-01 7.23525167e-01 6.66165233e-01
      7.30880737e-01 7.76147664e-01 7.86291778e-01 8.02123010e-01
      8.25900316e-01 8.55236948e-01 8.80126834e-01 8.31452310e-01
      5.58204889e-01 4.02016819e-01 0. 3.30064863e-01 5.11971354e-01 0.
      4.51644450e-01 3.95935923e-01 0. 2.87511349e-01 4.77968931e-01
      6.20120108e-01 1.80586860e-01 9.98444974e-01 1. 6.36993170e-01
      8.05379212e-01 8.02611172e-01 7.66239166e-01 7.27277935e-01
      4.51834768e-01 4.81836855e-01 5.05575716e-01 4.76173669e-01
      2.94210643e-01 7.43526518e-01 7.51944721e-01 7.43834734e-01
      7.28305995e-01 7.30187774e-01 9.51983094e-01 9.47779834e-01
      6.22794509e-01 5.60072601e-01 1.94015980e-01 0. 2.06573918e-01
      2.64027655e-01 0. 3.16774756e-01</_>
    <_>
      0. 4.80955899e-01 4.83438283e-01 6.11142457e-01 9.64484751e-01
      9.93234694e-01 9.92816508e-01 1. 9.90772128e-01 2.37913176e-01 0.
      2.11956710e-01 0. 1.90467298e-01 0. 0. 0. 0. 0. 0. 0.
      7.34416485e-01 7.44951844e-01 7.71499932e-01 7.52326548e-01
      7.90208399e-01 8.02570224e-01 7.97562718e-01 7.44065940e-01
      7.50863910e-01 7.28773355e-01 6.54941797e-01 6.20307326e-01
      1.87624365e-01 0. 1.03562020e-01 1.81132168e-01 0. 0. 0. 0. 0.
      7.31116056e-01 7.49952376e-01 8.15044343e-01 8.09570909e-01
      7.25851119e-01 6.20937109e-01 6.30773365e-01 6.45170987e-01
      7.50701189e-01 0. 9.02109981e-01 8.12522769e-01 8.08514118e-01
      8.83918524e-01 0. 0. 0. 6.23606622e-01 6.40038967e-01
      6.24819815e-01 5.28624177e-01 0. 0. 0. 9.67140615e-01
      9.82129276e-01 0. 0. 0. 2.10220769e-01</_>
    <_>
      0. 0. 0. 3.39147270e-01 6.95949852e-01 8.76031637e-01
      8.36157203e-01 9.89740670e-01 9.56562698e-01 9.44812179e-01
      9.44108844e-01 8.32722247e-01 7.94886649e-01 0. 8.29602718e-01
      7.62329340e-01 6.61098897e-01 6.45110667e-01 6.40817404e-01 0. 0.
      0. 1.17271893e-01 8.23799372e-01 8.77694428e-01 8.64587605e-01
      9.11927521e-01 9.33890164e-01 9.62124467e-01 1.91204578e-01
      9.77546990e-01 6.23320401e-01 8.77838433e-01 8.10056567e-01
      6.98096573e-01 3.58496994e-01 4.39244449e-01 4.38205808e-01
      4.40901101e-01 0. 1.62334234e-01 8.85281444e-01 9.03116524e-01
      9.64879513e-01 9.87932980e-01 8.92036557e-01 0. 4.64486837e-01
      4.41613913e-01 4.21400607e-01 0. 5.96408546e-01 9.60558653e-01
      9.87650275e-01 9.03038442e-01 8.60866606e-01 9.89470184e-01
      8.76068473e-01 9.45881903e-01 8.99519026e-01 8.62803996e-01
      6.29776537e-01 5.62514365e-01 0. 0. 1. 9.43613589e-01
      9.35299277e-01 0. 0. 0. 0.</_>
    <_>
      0. 0. 8.12215447e-01 8.28141093e-01 7.90320218e-01 0. 0.
      9.34677362e-01 1. 9.63784754e-01 0. 0. 7.37009704e-01
      8.40401351e-01 7.21796989e-01 8.21510792e-01 7.74000406e-01 0. 0.
      7.94910014e-01 8.04444730e-01 7.65930116e-01 0. 0. 0. 0.
      7.71605670e-01 6.57501340e-01 8.79047751e-01 5.53746402e-01
      7.93333054e-01 7.56742835e-01 4.43038195e-01 3.06179076e-01 0.
      2.97207385e-01 2.93220490e-01 0. 1.78005338e-01 0. 0. 0.
      7.82873869e-01 8.23741198e-01 7.91557729e-01 5.04407763e-01
      5.31664550e-01 5.35215616e-01 6.31435037e-01 0. 9.12506700e-01
      8.99008989e-01 7.91437566e-01 0. 0. 0. 0. 0. 0. 0. 8.39981556e-01
      8.26723397e-01 7.31098115e-01 8.63946259e-01 8.91839266e-01
      8.70216906e-01 8.24246168e-01 8.87795329e-01 0. 0. 0. 0.</_>
    <_>
      0. 0. 0. 0. 8.23486984e-01 8.90956223e-01 7.97816694e-01
      9.66450870e-01 9.79070544e-01 1. 9.70695078e-01 9.49403405e-01
      9.36671495e-01 9.15718794e-01 0. 0. 0. 0. 2.21407712e-01 0.
      2.65646696e-01 1.84915617e-01 2.74981171e-01 3.27540457e-01
      3.45075011e-01 3.09562474e-01 2.75599092e-01 8.82563651e-01
      9.11700606e-01 8.56793821e-01 6.92236602e-01 6.14038110e-01
      5.77858865e-01 5.63400924e-01 3.82298321e-01 0. 0. 0. 0. 0.
      6.96197987e-01 7.64814258e-01 7.82495797e-01 7.66406596e-01 0.
      2.21151456e-01 4.82574135e-01 5.13429940e-01 6.13229513e-01
      7.75800526e-01 8.86090219e-01 8.55104625e-01 8.31111848e-01
      8.14730108e-01 0. 3.94668221e-01 3.96817416e-01 6.61856711e-01
      7.25375235e-01 7.02683449e-01 7.20473051e-01 6.48463488e-01
      4.88384724e-01 0. 6.57990158e-01 5.16238451e-01 7.88631141e-01
      8.38194072e-01 0. 0. 0. 0.</_>
    <_>
      0. 0. 7.22033262e-01 8.21960628e-01 8.73897672e-01 6.30594611e-01
      7.04553664e-01 9.73645031e-01 9.84099567e-01 9.71757412e-01
      9.10816193e-01 0. 0. 0. 0. 7.83246994e-01 8.12232614e-01
      7.95279026e-01 0. 0. 0. 8.07398260e-01 8.18074405e-01
      8.45510006e-01 8.42477381e-01 8.85758162e-01 8.75065327e-01
      8.96859527e-01 7.75834382e-01 9.00243044e-01 8.02398026e-01
      7.81860352e-01 2.86669433e-01 2.32716769e-01 3.15909147e-01 0.
      3.10514778e-01 3.10942113e-01 2.68406212e-01 0. 0. 0.
      7.84742117e-01 8.28010380e-01 8.52032125e-01 4.18112010e-01
      5.39792180e-01 0. 3.34398746e-01 0. 9.46401894e-01 1.
      8.55121911e-01 9.68439341e-01 8.79886985e-01 8.81368756e-01
      7.96326220e-01 3.31690311e-01 0. 5.33847153e-01 5.51440239e-01
      5.71685851e-01 4.99754220e-01 8.54977369e-01 8.87204349e-01
      9.28170443e-01 7.86391675e-01 0. 0. 0. 0. 0.</_>
    <_>
      0. 0. 0. 7.47605562e-01 8.65958929e-01 9.21079159e-01
      9.75275278e-01 9.83068645e-01 1. 9.95987952e-01 9.66639519e-01
      8.78434181e-01 0. 7.99079001e-01 8.77104580e-01 0. 7.41649687e-01
      8.59507263e-01 0. 0. 0. 8.66352856e-01 7.65007436e-01
      8.60050261e-01 2.80702114e-01 8.96521270e-01 9.44124758e-01
      9.64408040e-01 9.62712288e-01 9.70698893e-01 7.07451820e-01
      3.78487289e-01 3.21937263e-01 3.61899614e-01 0. 0. 0. 0. 0. 0. 0.
      8.44013453e-01 8.82817805e-01 8.68567586e-01 7.98427105e-01
      6.39213324e-01 7.00181127e-01 7.40438223e-01 6.80887818e-01
      9.61816609e-01 9.82885957e-01 5.06258965e-01 5.35054445e-01
      4.36187088e-01 0. 7.77878344e-01 8.24035108e-01 8.47304463e-01
      8.18481982e-01 7.14799225e-01 7.71923423e-01 0. 0. 0. 0.
      8.95519257e-01 9.30697680e-01 9.23279285e-01 0. 0. 0. 0.</_>
    <_>
      0. 0. 0. 0. 5.32655358e-01 7.39706576e-01 9.70200777e-01
      9.55785453e-01 9.79747474e-01 9.66281235e-01 1.78533778e-01
      9.14427459e-01 9.25236106e-01 8.23944330e-01 9.01088357e-01
      8.69082928e-01 0. 0. 0. 8.21762264e-01 8.25702846e-01
      7.89665699e-01 0. 8.54012191e-01 9.10964429e-01 9.38042104e-01
      9.55249667e-01 9.51631188e-01 9.81533110e-01 9.89408314e-01
      7.62198746e-01 8.94841969e-01 0. 0. 0. 0. 0. 0. 0. 0. 0.
      8.51245046e-01 8.88518095e-01 9.09607291e-01 2.79340327e-01 0.
      5.50492585e-01 6.43970609e-01 8.44643056e-01 9.94848728e-01 1.
      8.50281298e-01 3.90978307e-01 9.45640087e-01 9.35285449e-01
      8.50167871e-01 8.15199196e-01 8.31795156e-01 8.02374423e-01
      7.76567340e-01 0. 5.10528803e-01 7.84135640e-01 8.65639806e-01
      5.62907279e-01 8.77515078e-01 9.12786961e-01 0. 0. 0. 0. 0.</_>
    <_>
      0. 5.89991927e-01 7.12208509e-01 7.64443934e-01 7.85827994e-01
      8.49366903e-01 8.48242044e-01 8.55847299e-01 7.09080935e-01
      8.42836738e-01 7.87041962e-01 0. 7.52245784e-01 7.66509116e-01
      7.33643055e-01 0. 0. 0. 0. 0. 0. 0. 0. 0. 0. 8.14331472e-01
      8.59497130e-01 8.54529440e-01 8.55005562e-01 8.91358137e-01
      8.81398797e-01 8.62514794e-01 7.78363049e-01 5.57332337e-01
      4.24764842e-01 3.79332572e-01 3.75100225e-01 0. 0. 0. 0. 0. 0.
      5.02574682e-01 3.87052566e-01 3.58282447e-01 3.85959148e-01
      6.62285507e-01 6.70576215e-01 9.58342969e-01 8.56285989e-01 1.
      9.59257185e-01 8.71074021e-01 9.03756917e-01 9.04708982e-01
      8.74033868e-01 8.42613757e-01 0. 0. 0. 0. 0. 0. 0. 8.21031213e-01
      8.84801865e-01 0. 0. 0. 0. 0.</_>
    <_>
      0. 0. 4.30266798e-01 6.56882644e-01 7.44570017e-01 6.19732618e-01
      8.13227713e-01 8.19719553e-01 8.11496019e-01 7.79539526e-01 0.
      7.59959996e-01 6.99191630e-01 7.13841915e-01 6.98488653e-01
      6.72600508e-01 6.53753519e-01 6.42567396e-01 6.76175058e-01
      6.03224516e-01 0. 6.57551229e-01 7.01740146e-01 6.44090056e-01 0.
      7.08038867e-01 7.48530686e-01 7.93583393e-01 8.19466412e-01
      8.47391665e-01 8.34023595e-01 2.12632313e-01 6.02237284e-01
      5.42544603e-01 7.16917396e-01 6.31734014e-01 0. 0. 0. 0. 0. 0.
      8.40463758e-01 8.58763039e-01 8.98630202e-01 3.99867058e-01
      4.00233179e-01 0. 6.68308496e-01 7.92937100e-01 9.77289200e-01 1.
      9.10477817e-01 8.95255268e-01 9.57881272e-01 8.46227705e-01
      7.79778242e-01 0. 6.27925873e-01 6.40879333e-01 6.55580580e-01 0.
      0. 7.71421671e-01 8.50368023e-01 8.55619729e-01 0. 0. 0. 0. 0. 0.</_>
    <_>
      0. 0. 0. 8.52924287e-01 9.16900814e-01 7.21556962e-01
      9.83477116e-01 9.90212262e-01 7.96300530e-01 9.73322868e-01
      9.70713913e-01 9.24045861e-01 0. 8.94734263e-01 8.76435459e-01
      8.31851006e-01 8.61458361e-01 7.58021533e-01 8.41477156e-01 0.
      8.08146298e-01 0. 8.26490343e-01 8.52711916e-01 1.92997366e-01
      9.25913811e-01 9.37281132e-01 9.57722545e-01 9.58682299e-01
      9.64637399e-01 9.16064620e-01 9.29878235e-01 8.35828245e-01
      5.80824673e-01 5.29339492e-01 0. 0. 0. 0. 0. 0. 7.97349811e-01
      9.46909785e-01 8.93394053e-01 4.86516714e-01 5.41132510e-01
      5.11889040e-01 5.17762244e-01 7.74514616e-01 9.79203284e-01 1.
      9.58202541e-01 9.06876922e-01 0. 8.81192088e-01 0. 8.86991978e-01
      8.20092857e-01 7.91192174e-01 4.46897924e-01 0. 8.65154505e-01
      9.15364623e-01 9.11015928e-01 9.41286445e-01 9.13856387e-01
      9.09975290e-01 0. 0. 0. 0. 0.</_>
    <_>
      0. 6.59256101e-01 7.03197777e-01 8.05413544e-01 8.55139077e-01
      8.44494164e-01 8.43382835e-01 6.84243739e-01 8.19172263e-01
      7.82650709e-01 7.55154192e-01 7.29302645e-01 0. 0. 6.08062208e-01
      6.72451138e-01 6.23761654e-01 6.16354764e-01 6.51639700e-01 0. 0.
      5.87750733e-01 6.76085651e-01 7.02750146e-01 6.47288740e-01
      7.22944260e-01 7.94551611e-01 7.91568339e-01 8.20080340e-01
      8.54381502e-01 8.75163317e-01 8.55245173e-01 8.73148978e-01
      8.42420757e-01 6.91483438e-01 6.36732638e-01 6.72748089e-01
      5.11346340e-01 3.10781717e-01 3.96566153e-01 4.44904000e-01
      2.02546284e-01 7.58133158e-02 9.46595848e-01 9.69235361e-01
      7.29078531e-01 7.84257233e-01 6.16590321e-01 6.24963403e-01
      6.73853457e-01 1. 8.82407069e-01 5.68907022e-01 6.02694690e-01 0.
      9.62865293e-01 9.25875127e-01 5.35484970e-01 0. 0. 6.86521530e-01
      8.74450922e-01 9.54324603e-01 0. 9.19717908e-01 9.50640023e-01 0.
      0. 0. 2.65915841e-01 5.49208164e-01 6.22013152e-01</_>
    <_>
      0. 0. 6.22687995e-01 6.74416006e-01 5.32105207e-01 7.11041510e-01
      8.09698105e-01 8.45146656e-01 8.55212867e-01 8.20664346e-01
      8.20910335e-01 8.03956568e-01 7.63262451e-01 7.77718127e-01
      1.46710902e-01 0. 0. 0. 6.92290604e-01 7.29310453e-01
      7.40255415e-01 7.11388469e-01 7.56635487e-01 7.79777706e-01
      7.75797486e-01 7.80683339e-01 8.46525729e-01 8.68655384e-01
      6.85124695e-01 8.74395311e-01 0. 6.06721997e-01 7.41345525e-01
      7.27955818e-01 0. 0. 0. 0. 0. 0. 0. 7.52279401e-01 8.51427257e-01
      8.87509465e-01 6.30617201e-01 4.68693316e-01 4.68477875e-01
      4.74118233e-01 7.21222103e-01 1. 9.70757425e-01 8.40515435e-01
      3.59664828e-01 8.72764707e-01 8.32618296e-01 0. 0. 0. 0. 0. 0. 0.
      6.32748008e-01 7.33787537e-01 7.34139025e-01 7.97724009e-01
      8.28364015e-01 0. 0. 0. 0. 0.</_>
    <_>
      0. 0. 0. 0. 2.92494118e-01 5.19868851e-01 6.72040403e-01 0.
      9.94088829e-01 7.45946705e-01 9.86233294e-01 9.66245532e-01
      9.79970515e-01 9.73041952e-01 0. 0. 0. 4.77329373e-01
      5.07368505e-01 5.06906867e-01 4.76347476e-01 0. 1.02173612e-01 0.
      0. 0. 8.18286240e-01 8.14077020e-01 8.62237453e-01 9.14161742e-01
      6.36923373e-01 6.19652808e-01 2.54280835e-01 2.10594222e-01
      7.30446875e-01 0. 0. 0. 0. 7.32607067e-01 6.33902192e-01
      7.76448250e-01 6.84098542e-01 6.70820117e-01 5.58458805e-01
      5.54789245e-01 6.03363156e-01 6.07645094e-01 7.20296681e-01
      7.49679983e-01 7.49430060e-01 4.99193311e-01 7.05469608e-01
      6.58865511e-01 4.48229074e-01 6.17400765e-01 5.87717712e-01
      5.59359372e-01 5.43739438e-01 4.93058980e-01 5.08336544e-01
      9.87680256e-01 1. 5.11813223e-01 5.59829950e-01 9.99795139e-01
      6.00826025e-01 6.44677579e-01 6.30801618e-01 6.50632799e-01 0. 0.</_>
    <_>
      0. 0. 0. 0. 1.90870479e-01 4.18970644e-01 5.52055359e-01
      5.83959103e-01 8.35527122e-01 5.97108781e-01 8.29237580e-01
      8.12302470e-01 8.25608850e-01 8.20739388e-01 8.21333468e-01
      8.18070352e-01 0. 0. 0. 0. 0. 0. 0. 0. 0. 0. 9.85151529e-01 1.
      7.65670717e-01 8.16671848e-01 6.49567604e-01 6.04049444e-01
      5.91144443e-01 0. 6.76553071e-01 5.47091246e-01 0. 0. 0.
      3.99072677e-01 6.82720006e-01 7.23262131e-01 0. 2.81258672e-01
      5.14175415e-01 5.08796990e-01 5.93164921e-01 6.63668573e-01
      6.71669543e-01 6.68257177e-01 5.10098338e-01 4.71805781e-01
      6.15855932e-01 5.74473262e-01 5.38286865e-01 5.08407414e-01
      4.81320173e-01 4.85999703e-01 4.72128719e-01 4.54848558e-01
      4.67554867e-01 4.56053227e-01 8.74319494e-01 8.90229464e-01
      8.90417755e-01 5.15004694e-01 5.23822188e-01 5.49814522e-01
      5.50908387e-01 0. 0. 0.</_>
    <_>
      0. 0. 0. 3.75920087e-01 5.07958829e-01 5.96303403e-01
      6.09199584e-01 6.54657364e-01 6.66425288e-01 8.75891387e-01
      8.77946496e-01 8.63847733e-01 8.54802012e-01 8.50970507e-01
      5.84665239e-01 1.94672689e-01 1.57562822e-01 0. 0. 0. 0. 0. 0. 0.
      0. 0. 6.85199320e-01 1. 7.45187461e-01 7.91791379e-01
      8.07000995e-01 6.16649687e-01 5.22303820e-01 7.19163239e-01
      6.09280288e-01 5.44666767e-01 0. 0. 0. 3.66700560e-01
      6.97831392e-01 7.08560944e-01 6.66121066e-01 6.28002167e-01
      2.52921790e-01 5.05827904e-01 5.05827904e-01 2.29093298e-01
      3.44851971e-01 6.93132699e-01 6.80838346e-01 6.97831392e-01 0.
      6.32481694e-01 5.97130895e-01 5.66550076e-01 5.44666767e-01
      5.21429121e-01 5.29363990e-01 5.10743678e-01 5.08763790e-01
      4.98481840e-01 5.15589714e-01 9.56939042e-01 5.53939641e-01
      5.59206545e-01 5.83843589e-01 6.19603395e-01 6.20881677e-01 0. 0.
      0.</_>
    <_>
      0. 5.14930427e-01 5.52453220e-01 6.73554718e-01 7.26623595e-01
      7.06968546e-01 7.21041203e-01 7.23614573e-01 9.75588918e-01
      9.49284375e-01 9.49506283e-01 9.33974326e-01 8.77476692e-01
      8.90900612e-01 9.06731546e-01 0. 8.75992060e-01 5.93246937e-01 0.
      0. 0. 0. 9.13717091e-01 8.94174099e-01 9.38759685e-01
      9.63710308e-01 9.77775037e-01 9.74181712e-01 1. 8.12213719e-01
      8.20923626e-01 5.55445373e-01 4.93403405e-01 7.18836546e-01
      7.09724963e-01 6.28392696e-01 4.49402869e-01 0. 0. 1.42952830e-01
      0. 7.85963714e-01 8.15389633e-01 7.91721165e-01 7.63585567e-01
      6.34163141e-01 6.33941531e-01 3.43964309e-01 3.24390918e-01
      8.91321003e-01 9.06989753e-01 8.58641505e-01 8.16336513e-01
      8.01624060e-01 7.55999625e-01 0. 7.23925114e-01 6.99772656e-01
      5.42127132e-01 6.94500446e-01 6.90117955e-01 6.94257617e-01
      7.06769884e-01 7.03376472e-01 7.51882195e-01 7.61153400e-01
      7.23044991e-01 0. 0. 0. 0. 0.</_>
    <_>
      0. 7.45007038e-01 7.53024518e-01 7.16390967e-01 6.40345335e-01
      5.54218113e-01 0. 0. 0. 0. 0. 0. 0. 0. 0. 0. 0. 0. 0. 0. 0. 0. 0.
      0. 0. 0. 0. 0. 0. 0. 0. 7.97358274e-01 8.39008749e-01
      8.06201696e-01 6.93294764e-01 0. 0. 4.01256502e-01 4.97242689e-01
      4.06807780e-01 3.73618215e-01 4.75220054e-01 5.13985038e-01
      4.74763125e-01 4.00534570e-01 4.65063095e-01 0. 0. 0. 0. 0. 0. 0.
      0. 0. 0. 0. 0. 0. 0. 0. 0. 0. 9.67043281e-01 1. 9.70031321e-01 0.
      0. 0. 0. 0. 0.</_>
    <_>
      0. 0. 1.86455473e-01 0. 0. 2.80375957e-01 1.24750435e-01
      2.63031691e-01 0. 9.34485942e-02 0. 1.76091120e-01 1.22398481e-01
      1.55492932e-01 0. 0. 0. 0. 0. 0. 0. 0. 0. 0. 0. 0. 6.22560203e-01
      9.44878638e-01 1. 9.49743748e-01 5.51683307e-01 5.32321513e-01 0.
      0. 0. 0. 0. 0. 0. 0. 0. 2.54364848e-01 2.70540774e-01 0.
      2.90914148e-01 0. 2.86817729e-01 0. 0. 0. 0. 0. 0. 0. 0. 0. 0. 0.
      0. 0. 0. 0. 7.14580655e-01 6.85352206e-01 6.58046186e-01
      6.87227726e-01 6.20405674e-01 6.35513842e-01 5.33665299e-01 0. 0.
      0.</_>
    <_>
      0. 0. 0. 0. 0. 0. 0. 0. 0. 0. 0. 0. 0. 0. 0. 0. 0. 0. 0. 0. 0. 0.
      0. 0. 0. 0. 0. 6.78477764e-01 7.37956643e-01 7.12200880e-01
      5.75039625e-01 2.62335777e-01 0. 2.47138187e-01 1.58149168e-01 0.
      0. 2.35501081e-01 0. 2.00338870e-01 0. 2.13428214e-01 0. 0.
      1.43240839e-01 0. 0. 0. 0. 0. 0. 0. 0. 0. 0. 0. 0. 0. 0. 0. 0. 0.
      0. 0. 0. 1. 9.77296293e-01 0. 0. 0. 0. 0.</_>
    <_>
      0. 0. 5.26912808e-01 7.20845342e-01 7.40470767e-01 6.51294351e-01
      6.34911418e-01 6.53336763e-01 6.43297374e-01 5.85669518e-01 0. 0.
      0. 0. 0. 0. 0. 4.96172570e-02 0. 0. 0. 0. 9.07652900e-02 0. 0. 0.
      0. 5.22260070e-01 8.09596360e-01 7.86311448e-01 0. 3.27399999e-01
      3.11253220e-01 3.79721761e-01 3.34011674e-01 3.26529115e-01
      2.86445379e-01 0. 0. 0. 8.00564349e-01 8.25851202e-01
      8.73988926e-01 8.10851514e-01 9.54225481e-01 1. 3.23808104e-01
      1.69050232e-01 3.31382811e-01 2.81105548e-01 1.83141634e-01 0. 0.
      0. 0. 0. 6.11822195e-02 0. 0. 0. 0. 0. 7.47942030e-02 0.
      7.21620858e-01 7.24462092e-01 6.90715373e-01 5.90786994e-01
      6.41381562e-01 8.37732106e-02 0. 0.</_>
    <_>
      0. 0. 0. 0. 0. 0. 0. 0. 0. 9.29582953e-01 9.65761006e-01
      8.23027730e-01 9.91909564e-01 9.65597391e-01 0. 0. 0.
      9.52749193e-01 1. 9.99525845e-01 3.28093797e-01 2.26016417e-01
      3.39454383e-01 2.42213055e-01 0. 0. 0. 0. 0. 0. 0. 0. 0. 0. 0. 0.
      0. 0. 7.26575255e-01 7.85707712e-01 8.76572669e-01 8.47988963e-01
      8.01041722e-01 0. 0. 8.66602659e-01 9.42243934e-01 9.09132421e-01
      0. 0. 0. 0. 7.78434992e-01 6.67411685e-01 7.65128553e-01
      7.11856961e-01 5.07681549e-01 3.02539408e-01 0. 4.31656063e-01
      3.37587565e-01 0. 0. 0. 0. 0. 0. 0. 0. 8.19565117e-01 0. 0.</_>
    <_>
      0. 0. 0. 0. 8.01556766e-01 8.76186848e-01 8.95237148e-01
      8.01247418e-01 4.41810459e-01 6.59682274e-01 6.27295136e-01 0. 0.
      0. 0. 3.21143746e-01 3.64513993e-01 4.01268452e-01 0.
      4.44049925e-01 0. 2.69502431e-01 4.65253592e-01 4.80526626e-01 0.
      4.21732664e-01 2.23752603e-01 0. 0. 2.88034916e-01 1.63316533e-01
      0. 1.02730170e-01 3.29402804e-01 0. 0. 0. 3.18039954e-01 0.
      7.87249386e-01 7.00461149e-01 2.46766567e-01 8.46936226e-01
      9.74451900e-01 1. 1.95826665e-01 0. 0. 0. 0. 0. 0. 0. 0. 0. 0. 0.
      0. 1.43731475e-01 0. 0. 0. 0. 1.26118049e-01 0. 0. 0. 0.
      6.62495613e-01 7.04711378e-01 6.81090713e-01 4.90275919e-01</_>
    <_>
      0. 9.94305551e-01 1. 5.29960573e-01 0. 4.91378844e-01 0. 0.
      2.00806692e-01 2.84774631e-01 0. 0. 0. 0. 0. 0. 0. 0. 0. 0. 0. 0.
      8.23357940e-01 8.99593472e-01 0. 9.77653205e-01 9.60285068e-01
      4.84367549e-01 0. 0. 0. 0. 0. 0. 0. 0. 0. 0. 0. 0. 0. 0. 0. 0.
      7.77460277e-01 7.70743787e-01 7.28677213e-01 7.36149728e-01 0.
      9.38450933e-01 9.66604769e-01 0. 0. 0. 0. 0. 0. 0. 0. 0. 0. 0. 0.
      0. 0. 0. 0. 0. 0. 0. 0. 0.</_>
    <_>
      0. 0. 0. 0. 0. 0. 0. 0. 0. 0. 5.24131596e-01 5.57705939e-01
      5.68885803e-01 5.09761691e-01 3.36509585e-01 4.59378451e-01
      4.49669987e-01 0. 0. 0. 0. 0. 0. 0. 0. 0. 0. 0. 8.07130754e-01
      8.74182880e-01 8.48777413e-01 0. 0. 7.32133329e-01 5.42018592e-01
      6.60211205e-01 3.07950974e-01 0. 3.09459418e-01 0. 2.75171459e-01
      0. 0. 7.76864648e-01 7.66288579e-01 1.79849520e-01 0. 0. 0. 0. 0.
      0. 0. 0. 0. 0. 0. 0. 0. 0. 6.83739543e-01 6.10330939e-01
      6.95858717e-01 6.62256837e-01 9.67106283e-01 1. 9.96245444e-01 0.
      0. 0. 0. 0.</_>
    <_>
      0. 0. 0. 0. 0. 6.05592370e-01 5.59378564e-01 8.80590260e-01
      9.36645210e-01 9.25158143e-01 0. 0. 0. 0. 0. 0. 0. 0. 0. 0. 0. 0.
      0. 0. 9.74676609e-01 1. 9.43942010e-01 5.38835108e-01
      5.02385378e-01 7.23273814e-01 0. 0. 0. 0. 0. 0. 0. 0. 0.
      6.39112532e-01 6.53931499e-01 5.11892200e-01 0. 7.18515098e-01
      7.04133749e-01 7.68922031e-01 7.69122958e-01 7.35897243e-01
      7.46612549e-01 6.50139511e-01 0. 0. 0. 0. 0. 0. 0. 0. 0. 0. 0.
      6.26166701e-01 5.44653952e-01 7.22803593e-01 6.87117517e-01 0. 0.
      0. 0. 0. 6.75550580e-01 7.15411365e-01</_>
    <_>
      0. 0. 0. 0. 0. 0. 0. 0. 0. 0. 0. 0. 7.44614482e-01 8.20198417e-01
      8.01162362e-01 0. 0. 0. 0. 6.43309474e-01 6.91082537e-01
      7.08345234e-01 6.66695356e-01 6.39239252e-01 2.88345277e-01
      4.07220513e-01 3.11591148e-01 0. 0. 6.52133644e-01 7.23961294e-01
      7.02131689e-01 0. 0. 6.27173960e-01 4.91894513e-01 0. 0.
      5.74074209e-01 0. 6.54291928e-01 5.34262836e-01 0. 5.16235590e-01
      0. 8.09042513e-01 7.15463817e-01 0. 0. 0. 4.75749552e-01
      5.97491443e-01 5.85704684e-01 6.19563818e-01 6.14313960e-01
      5.69743514e-01 0. 0. 0. 0. 0. 0. 0. 0. 0. 0. 0. 0. 9.64109838e-01
      9.90101218e-01 1. 0.</_>
    <_>
      0. 0. 0. 0. 0. 0. 0. 0. 0. 0. 0. 8.21405590e-01 8.29994023e-01
      7.67401397e-01 7.87229002e-01 7.59191096e-01 0. 0. 0. 0. 0.
      6.19279683e-01 6.81331038e-01 6.58253372e-01 4.02035981e-01
      9.76446688e-01 1. 0. 0. 0. 0. 0. 0. 0. 0. 0. 0. 0. 0. 0. 0. 0.
      9.17397916e-01 9.04129922e-01 4.86457139e-01 5.97495198e-01
      5.99549234e-01 6.63956881e-01 5.28880000e-01 6.92126989e-01
      5.31241775e-01 6.60197854e-01 5.97482681e-01 0. 0. 0. 0. 0. 0. 0.
      0. 0. 7.46565938e-01 7.72881508e-01 7.13659346e-01 5.44550896e-01
      3.73341709e-01 4.78940696e-01 4.24651206e-01 7.84749389e-01 0. 0.</_>
    <_>
      0. 0. 0. 0. 0. 3.70038956e-01 3.89787525e-01 4.13810074e-01
      3.76265615e-01 0. 9.32192862e-01 9.67252195e-01 8.45878303e-01
      7.75066018e-01 6.52235270e-01 7.38715351e-01 3.30532312e-01
      3.76102418e-01 3.70923042e-01 3.71502131e-01 2.79123634e-01 0. 0.
      0. 9.86552179e-01 9.53804016e-01 0. 0. 0. 0. 0. 6.05286360e-01 0.
      5.68738639e-01 4.09258515e-01 0. 0. 0. 4.01455969e-01
      3.64464790e-01 0. 0. 0. 4.86419290e-01 0. 0. 8.39672029e-01
      8.43272626e-01 3.24784338e-01 3.65334332e-01 4.49816316e-01
      4.34750348e-01 2.88323045e-01 0. 4.18630064e-01 4.18116301e-01 0.
      0. 0. 0. 0. 0. 0. 0. 1. 0. 0. 0. 0. 0. 0. 0.</_>
    <_>
      0. 0. 4.47616667e-01 5.29644072e-01 6.17111683e-01 6.75168335e-01
      6.74643040e-01 6.63047254e-01 6.33848965e-01 0. 0. 0. 0. 0. 0. 0.
      0. 0. 0. 0. 0. 0. 0. 0. 0. 6.10688806e-01 6.52388394e-01
      6.25033021e-01 8.99556816e-01 8.80034447e-01 0. 0. 0. 0. 0. 0. 0.
      0. 0. 0. 0. 0. 0. 1. 9.91353154e-01 0. 0. 0. 0. 0. 0. 0. 0. 0.
      5.89935541e-01 5.90021431e-01 5.92236698e-01 3.87455612e-01
      3.97210687e-01 0. 1.87085241e-01 3.63584757e-01 0. 0. 0. 0. 0. 0.
      0. 0. 0. 0.</_>
    <_>
      0. 5.36809981e-01 5.74764788e-01 2.61193454e-01 3.29811335e-01
      6.07581794e-01 4.64697570e-01 8.18874002e-01 8.92043650e-01
      9.75880265e-01 1. 8.47212434e-01 7.91101694e-01 0. 0. 0. 0. 0.
      7.50106096e-01 7.19310999e-01 3.12711060e-01 2.86333919e-01 0.
      5.03207505e-01 7.95675039e-01 8.30836713e-01 8.42970490e-01
      8.60653996e-01 8.83554161e-01 8.86827767e-01 7.43538797e-01
      7.38918185e-01 4.03488845e-01 4.52448100e-01 4.14318740e-01 0. 0.
      4.67785627e-01 4.71046418e-01 1.87582865e-01 4.83629346e-01
      4.63240057e-01 2.08022386e-01 6.06635630e-01 3.99786443e-01
      8.86052549e-01 9.07643855e-01 8.45863879e-01 3.65265459e-01
      7.00759232e-01 7.16231287e-01 7.24101901e-01 5.78817964e-01
      6.00091517e-01 6.91714585e-01 6.59826159e-01 5.38554609e-01
      4.51128304e-01 0. 7.18876123e-01 7.03761995e-01 7.50765026e-01
      7.61998534e-01 7.58186221e-01 7.58310854e-01 5.17674029e-01 0.
      4.66446817e-01 6.20987713e-01 5.68627715e-01 3.53941649e-01
      3.80791843e-01</_>
    <_>
      0. 0. 0. 3.47697258e-01 5.26069939e-01 5.78959942e-01 0. 0.
      6.79312527e-01 6.97997928e-01 4.76727277e-01 7.03271925e-01
      6.92778051e-01 9.29349363e-01 8.92587721e-01 0. 0. 0. 0. 0. 0.
      4.71265227e-01 4.49008673e-01 6.58833027e-01 6.69731557e-01 1.
      6.50767744e-01 6.45715714e-01 8.91114116e-01 0. 5.95871091e-01
      5.80519319e-01 0. 2.73616672e-01 2.04323590e-01 0. 5.13981760e-01
      5.13839006e-01 4.84211802e-01 4.25957561e-01 5.01930237e-01
      5.23004949e-01 5.36022186e-01 0. 8.29210401e-01 7.75348365e-01 0.
      6.22060299e-01 6.28654003e-01 6.22866035e-01 6.25036061e-01
      5.84372103e-01 0. 0. 1.71411529e-01 4.87166882e-01 5.25228977e-01
      5.62100887e-01 5.69518149e-01 2.90532827e-01 5.86633801e-01
      8.29310775e-01 8.63909841e-01 6.51206195e-01 6.73012018e-01
      8.84359002e-01 8.48931134e-01 1.67338446e-01 5.64985514e-01
      5.84534943e-01 5.69263995e-01 5.32887816e-01</_>
    <_>
      0. 4.08542603e-01 4.39554185e-01 5.05714595e-01 5.48268676e-01
      5.68148613e-01 5.67741334e-01 5.58210194e-01 5.74586034e-01
      7.70860016e-01 7.92808115e-01 7.78941691e-01 7.62089670e-01
      7.28172481e-01 7.15923905e-01 0. 4.89216477e-01 0. 0.
      3.37524563e-01 4.87391919e-01 4.64993507e-01 8.12094659e-02 0.
      5.04759371e-01 7.96251357e-01 8.08063388e-01 8.86418879e-01
      9.08165216e-01 9.30078685e-01 7.01836467e-01 3.77653778e-01
      3.66073310e-01 3.29093963e-01 0. 2.86818326e-01 4.55725968e-01
      4.26590383e-01 0. 0. 0. 0. 2.82393426e-01 3.99809748e-01
      7.60942161e-01 9.99602914e-01 1. 9.83431160e-01 5.87215066e-01
      4.30136919e-01 6.10663593e-01 6.16277456e-01 4.81787682e-01
      5.04425466e-01 5.84661245e-01 5.55430472e-01 5.91305256e-01
      3.93524855e-01 3.37812036e-01 6.29821360e-01 6.27923250e-01
      6.17120206e-01 6.66212678e-01 6.81645155e-01 6.62020206e-01
      6.25220597e-01 6.31650448e-01 3.94604594e-01 5.63758790e-01
      5.17370760e-01 4.81763959e-01 2.66793907e-01</_>
    <_>
      0. 4.08048987e-01 6.11835599e-01 6.56604409e-01 4.56281066e-01
      6.55641079e-01 6.54533625e-01 3.31539720e-01 8.20593297e-01
      8.63599420e-01 8.15923393e-01 5.90666831e-01 5.72198391e-01
      5.69165111e-01 0. 5.75677574e-01 5.66432714e-01 0. 0. 0. 0.
      6.01153314e-01 6.10460579e-01 6.21387541e-01 0. 0. 6.63557708e-01
      7.07094669e-01 6.83405399e-01 7.36324728e-01 6.98005736e-01
      8.11766565e-01 7.82775223e-01 2.67270774e-01 0. 4.21725869e-01
      4.84929234e-01 4.51708823e-01 3.22735339e-01 0. 2.65518188e-01
      2.03459024e-01 5.58644056e-01 5.02403438e-01 7.53335774e-01
      7.74649024e-01 7.49703884e-01 6.12692118e-01 6.19338274e-01
      6.13289654e-01 6.16105795e-01 5.32133043e-01 2.83418179e-01
      2.13081017e-01 5.42810798e-01 5.75515330e-01 5.80560327e-01
      5.53451240e-01 4.34493691e-01 4.46478844e-01 6.08291805e-01
      6.13219380e-01 4.67016697e-01 1. 9.99827623e-01 5.12733817e-01
      4.47555393e-01 0. 2.67351329e-01 2.86743909e-01 3.18613917e-01
      7.09467649e-01</_>
    <_>
      0. 0. 0. 0. 0. 0. 5.85062325e-01 4.98724550e-01 0. 0.
      7.80716002e-01 4.94193822e-01 0. 8.93062651e-01 8.51283073e-01
      6.25206649e-01 0. 0. 1.83550939e-01 0. 0. 0. 0. 0. 0. 0. 1.
      9.21328068e-01 0. 0. 0. 5.81205070e-01 0. 0. 0. 6.13585949e-01 0.
      4.05156314e-01 0. 1.01479001e-01 0. 0. 0. 0. 3.76375377e-01 0. 0.
      5.23372352e-01 0. 0. 2.44505763e-01 0. 0. 6.38026953e-01 0.
      6.30223334e-01 0. 5.38622022e-01 0. 0. 0. 0. 5.25944650e-01
      5.91181695e-01 0. 3.79944205e-01 6.05467260e-01 0. 0. 0. 0. 0.</_>
    <_>
      0. 0. 0. 0. 2.32956037e-01 0. 8.34612370e-01 8.86693478e-01
      6.55893922e-01 8.68054628e-01 9.41547811e-01 8.74161482e-01
      8.14541161e-01 0. 0. 0. 0. 0. 0. 0. 0. 0. 0. 7.52033710e-01
      6.57693863e-01 7.98910379e-01 8.55940342e-01 9.21239972e-01
      8.45984340e-01 6.31405115e-01 8.61447215e-01 3.42516154e-01
      7.64505923e-01 0. 0. 5.09674489e-01 0. 0. 2.99555421e-01 0. 0. 0.
      7.02875316e-01 0. 2.39626661e-01 8.26547027e-01 6.06089950e-01 0.
      0. 0. 0. 0. 4.62876588e-01 0. 0. 8.70773971e-01 9.82007086e-01 1.
      7.98416913e-01 0. 0. 0. 0. 1.85388044e-01 0. 0. 0. 0. 0. 0. 0. 0.</_>
    <_>
      0. 0. 3.25149894e-01 0. 0. 5.52577555e-01 0. 5.95090628e-01
      6.47962809e-01 5.78768492e-01 7.75949478e-01 8.47712636e-01
      9.23075080e-01 8.75890851e-01 0. 0. 0. 0. 7.72640586e-01
      7.72496402e-01 8.73981059e-01 7.83236802e-01 0. 9.20900345e-01
      6.69107258e-01 1. 3.86220753e-01 0. 9.67386484e-01 5.69143780e-02
      0. 2.61756748e-01 7.55878806e-01 4.31966543e-01 0. 3.22742820e-01
      0. 0. 0. 6.15155995e-01 7.29785800e-01 0. 7.65106797e-01 0.
      8.61270428e-01 0. 0. 0. 0. 0. 0. 0. 2.45052174e-01 0.
      5.18893003e-01 6.10794485e-01 0. 0. 5.35376072e-01 8.56341422e-01
      6.89441979e-01 0. 8.65270555e-01 8.54387999e-01 7.91442811e-01
      6.61741436e-01 0. 0. 0. 0. 0. 0.</_>
    <_>
      0. 0. 0. 0. 0. 0. 7.71905959e-01 0. 8.66665900e-01 0. 0. 0. 0. 0.
      0. 0. 7.22396553e-01 5.33276260e-01 0. 7.05121398e-01
      7.12850928e-01 5.39237499e-01 0. 7.59380221e-01 0. 8.40992630e-01
      6.45616412e-01 6.99920893e-01 0. 0. 0. 0. 0. 0. 0. 0. 0. 0. 0. 0.
      0. 0. 0. 0. 0. 0. 0. 0. 0. 0. 0. 0. 9.88517046e-01 8.00085485e-01
      7.05121398e-01 0. 7.08352208e-01 1. 0. 3.86272579e-01
      5.04677534e-01 0. 0. 0. 0. 0. 0. 0. 0. 0. 0. 0.</_>
    <_>
      0. 0. 4.92298305e-01 3.08267742e-01 5.11882484e-01 0.
      5.46829462e-01 4.65501636e-01 3.89478952e-01 0. 0. 0. 0. 0. 0. 0.
      9.21052814e-01 8.12205374e-01 7.11113572e-01 0. 0. 0.
      7.55433917e-01 0. 1. 9.65747833e-01 8.89760315e-01 0.
      7.49453664e-01 4.26645339e-01 6.33260787e-01 0. 0. 0. 0. 0. 0. 0.
      0. 0. 0. 0. 0. 0. 6.72074676e-01 7.32130468e-01 5.35745203e-01
      7.39378989e-01 6.09387875e-01 0. 0. 0. 0. 0. 0. 0. 0.
      5.12858331e-01 4.22720999e-01 5.41623533e-01 9.99499977e-01
      3.76865417e-01 9.72112060e-01 0. 0. 0. 0. 0. 0. 0. 0. 0.</_>
    <_>
      0. 0. 0. 4.71017480e-01 5.52655160e-01 5.77008009e-01
      3.70470434e-01 6.07572496e-01 6.83844566e-01 8.21203947e-01
      6.82041764e-01 7.32235968e-01 0. 1.26225561e-01 0. 1.86407492e-01
      7.14766145e-01 5.74669421e-01 7.71611571e-01 5.71278274e-01
      6.40977859e-01 0. 8.14192891e-01 6.90981150e-01 7.78091669e-01 0.
      7.88871169e-01 8.73138666e-01 7.33023763e-01 8.33527684e-01
      7.95283258e-01 0. 6.43972218e-01 1.42275214e-01 6.85754955e-01 0.
      5.32804966e-01 0. 0. 0. 0. 7.21916735e-01 7.50478685e-01
      7.83561409e-01 7.68338442e-01 7.18310237e-01 0. 0. 0. 0. 0.
      9.19081092e-01 9.02116239e-01 0. 8.82104099e-01 0. 0.
      9.65069115e-01 1. 9.37915206e-01 7.55588114e-01 7.29893863e-01
      6.75209701e-01 8.08430791e-01 0. 6.70176327e-01 0. 0. 0. 0. 0. 0.</_>
    <_>
      0. 0. 0. 0. 0. 0. 3.53058994e-01 4.34452772e-01 5.52398622e-01
      6.75783575e-01 7.18337476e-01 7.26902843e-01 7.75738835e-01
      7.97017097e-01 6.94275558e-01 0. 6.03278518e-01 7.70310342e-01 0.
      8.27846348e-01 8.33434999e-01 0. 8.74436796e-01 8.18639338e-01 0.
      9.28408086e-01 1. 9.96058285e-01 9.54840541e-01 8.78625810e-01 0.
      0. 0. 0. 0. 0. 0. 0. 0. 5.94873011e-01 0. 6.85149372e-01
      6.54931545e-01 0. 0. 0. 0. 9.68693435e-01 9.83951569e-01
      8.21358085e-01 6.37931943e-01 7.49953568e-01 7.34226346e-01
      6.64472938e-01 0. 8.36419225e-01 7.84914374e-01 7.26505876e-01 0.
      0. 1.40696317e-01 3.54245573e-01 6.85264289e-01 5.56183994e-01
      6.80733085e-01 6.03452444e-01 4.38299328e-01 0. 0. 0. 0. 0.</_>
    <_>
      0. 0. 0. 0. 0. 0. 0. 8.66438746e-01 9.60844994e-01 9.56723869e-01
      9.95169818e-01 1. 9.06269908e-01 8.79465759e-01 9.54336941e-01
      9.86415565e-01 0. 0. 0. 0. 0. 0. 0. 9.67674613e-01 8.22306395e-01
      9.70061779e-01 9.11465585e-01 8.65882397e-01 6.75759375e-01
      7.59766459e-01 6.54410362e-01 5.80312967e-01 0. 0. 0. 0. 0. 0. 0.
      0. 5.91769397e-01 6.11997664e-01 6.36190176e-01 5.89376032e-01
      7.70472884e-01 8.04494619e-01 8.41841698e-01 8.49968612e-01
      8.64805758e-01 0. 0. 0. 6.96085155e-01 8.02695751e-01
      8.49930823e-01 7.39757419e-01 8.51856232e-01 3.71713728e-01
      6.61441386e-01 7.30141401e-01 4.59867984e-01 1.70520365e-01
      4.40530688e-01 0. 8.96110594e-01 8.62313390e-01 8.75842154e-01
      8.23087335e-01 7.51219809e-01 5.43199658e-01 6.48096561e-01
      6.38257146e-01</_>
    <_>
      0. 0. 0. 0. 0. 0. 7.00258374e-01 7.70033300e-01 8.98061156e-01
      8.91032279e-01 9.62221801e-01 9.66568351e-01 3.94280046e-01 0.
      8.54811430e-01 9.51079965e-01 9.23182249e-01 9.63725269e-01 0. 0.
      9.63896990e-01 8.62998962e-01 1. 8.74916017e-01 9.42940652e-01
      7.21115768e-01 8.95231605e-01 9.28306103e-01 8.54295075e-01
      5.30917645e-01 6.84485376e-01 0. 0. 0. 0. 0. 0. 4.10555989e-01
      4.16325837e-01 3.16006154e-01 4.28179801e-01 3.31467390e-01
      6.27939701e-01 6.79328918e-01 7.50499845e-01 7.41368055e-01
      7.04733729e-01 7.44189739e-01 6.42419398e-01 7.05808997e-01
      7.52206564e-01 1.82068989e-01 0. 5.86332381e-01 6.88362300e-01
      5.86238325e-01 6.43341660e-01 6.53400958e-01 7.16146111e-01
      7.51766503e-01 7.29045868e-01 4.57269758e-01 3.44081610e-01
      2.32137114e-01 8.47179592e-01 8.52048457e-01 6.51202500e-01 0.
      7.20235646e-01 0. 0. 0.</_>
    <_>
      0. 0. 0. 0. 0. 0. 7.19717622e-01 8.17487180e-01 8.78313839e-01
      8.73103023e-01 9.09639001e-01 9.54237640e-01 9.66429174e-01
      9.59742963e-01 8.69634926e-01 8.36628199e-01 0. 7.06229746e-01
      8.10029089e-01 8.60752225e-01 9.23450232e-01 8.20779502e-01
      8.95441651e-01 9.29956198e-01 9.28809464e-01 1. 9.00939763e-01
      9.69422042e-01 9.32320416e-01 9.36090946e-01 7.28719592e-01
      8.18514764e-01 5.62153518e-01 5.42468309e-01 0. 0. 0. 0. 0. 0. 0.
      3.77516925e-01 8.18056107e-01 7.28204429e-01 3.82323831e-01
      9.69612956e-01 9.68725085e-01 2.33300999e-01 9.99173999e-01
      9.73583341e-01 8.61524880e-01 8.44651222e-01 8.81361842e-01
      8.12163293e-01 8.07783723e-01 8.58820140e-01 8.66314471e-01
      8.23633432e-01 8.35700572e-01 3.07874501e-01 8.42438877e-01
      8.93623829e-01 9.12818134e-01 9.08951163e-01 8.72443795e-01
      8.77715409e-01 8.16966712e-01 7.19265521e-01 6.27988577e-01 0. 0.
      0.</_>
    <_>
      0. 0. 0. 0. 0. 0. 0. 7.50443578e-01 8.26032460e-01 9.25431907e-01
      9.54649091e-01 9.90533769e-01 1. 9.93340909e-01 9.94144976e-01
      9.65926468e-01 9.71666574e-01 8.43891144e-01 2.56051570e-01 0.
      8.46380889e-01 9.75063741e-01 9.47320759e-01 9.85192657e-01
      9.82579648e-01 9.34381068e-01 8.91933203e-01 8.82105470e-01
      9.09011006e-01 8.07592869e-01 7.31309950e-01 0. 0. 0. 0. 0. 0.
      3.74419838e-01 4.54348832e-01 5.06761372e-01 3.47781301e-01
      7.03973055e-01 7.20400870e-01 7.79115736e-01 7.70796537e-01
      8.20758104e-01 8.48434627e-01 8.53092909e-01 8.39850664e-01
      8.35345745e-01 8.18799198e-01 7.41653442e-01 7.68566310e-01
      7.54102886e-01 0. 7.48543799e-01 6.37367010e-01 7.65038192e-01
      7.48786807e-01 8.12534153e-01 8.28480422e-01 8.31577718e-01
      8.13244581e-01 8.38096917e-01 8.09324801e-01 8.12865078e-01
      7.98213482e-01 7.41013229e-01 6.89737976e-01 6.61712170e-01 0. 0.</_>
    <_>
      0. 5.42652369e-01 5.78761578e-01 6.22933090e-01 0. 0.
      6.79484606e-01 6.83770180e-01 6.95774198e-01 9.26310718e-01
      9.01314795e-01 8.84310126e-01 8.91376078e-01 6.04204535e-01
      8.56587768e-01 5.96736252e-01 0. 8.02142322e-01 8.32117319e-01 0.
      1.44000083e-01 8.49792123e-01 0. 0. 9.11821544e-01 9.00120497e-01
      9.50000823e-01 6.69364214e-01 9.46980536e-01 9.50492680e-01
      7.83352017e-01 4.29880053e-01 3.41807514e-01 7.02212870e-01
      6.93192363e-01 5.77542067e-01 5.41425884e-01 4.09124255e-01
      3.14935654e-01 0. 7.04744399e-01 7.57851958e-01 0. 0.
      9.09724534e-01 5.58452845e-01 9.05346990e-01 8.70746672e-01
      6.61516964e-01 8.01629722e-01 8.16396594e-01 5.73172212e-01
      5.24160922e-01 5.18029273e-01 1.84914932e-01 2.17644215e-01
      7.49689519e-01 4.60777879e-01 7.80610859e-01 7.60992885e-01
      7.87348628e-01 7.89943933e-01 7.99263895e-01 1. 7.90734172e-01
      7.72584617e-01 0. 6.83304548e-01 6.25534356e-01 0. 2.83932984e-01
      0.</_>
    <_>
      0. 4.96647060e-01 5.69328129e-01 6.07681334e-01 0. 6.78354502e-01
      6.62121296e-01 6.93540454e-01 6.77365780e-01 9.04767513e-01
      8.82233202e-01 8.85621667e-01 8.37039888e-01 8.34659219e-01
      8.38659406e-01 8.48950148e-01 0. 0. 0. 0. 0. 3.70331943e-01 0.
      8.76904309e-01 8.73467863e-01 8.76130283e-01 9.24546242e-01
      9.45469618e-01 9.66719031e-01 9.95206177e-01 7.47095704e-01
      7.40460217e-01 4.19276595e-01 0. 0. 6.55086219e-01 5.83360970e-01
      4.84478265e-01 2.90388614e-01 2.64190614e-01 6.45864427e-01
      7.84753025e-01 0. 8.65737319e-01 8.78850579e-01 6.66790843e-01
      8.74452472e-01 8.59753132e-01 8.49593222e-01 8.45644772e-01
      4.23302680e-01 4.12241757e-01 5.70047140e-01 4.62021321e-01
      4.58939821e-01 7.53140211e-01 7.22984612e-01 4.69702601e-01
      3.43451172e-01 7.92516589e-01 7.77763307e-01 7.93617189e-01
      9.78779912e-01 1. 7.67272651e-01 7.49859214e-01 7.11820602e-01
      5.16691983e-01 0. 2.43408099e-01 0. 3.01460445e-01</_>
    <_>
      0. 4.57451284e-01 5.24867713e-01 5.99750996e-01 6.17449284e-01
      6.58532262e-01 6.98310077e-01 7.03829527e-01 9.47192550e-01
      9.40702677e-01 9.18893218e-01 9.22287941e-01 9.18217897e-01
      9.14095759e-01 6.29119396e-01 8.73207629e-01 0. 0. 0. 0. 0. 0.
      8.88351023e-01 8.69086206e-01 6.64580703e-01 9.55944896e-01
      9.59693432e-01 9.77681279e-01 7.52364039e-01 7.57264495e-01
      7.64835179e-01 4.72215384e-01 0. 0. 6.57872558e-01 5.44490695e-01
      4.77181524e-01 0. 2.20070332e-01 6.23212099e-01 6.72353208e-01
      7.13415921e-01 3.21817160e-01 6.14452958e-01 8.38644087e-01
      8.54781389e-01 8.33561599e-01 8.19412529e-01 8.11395526e-01
      3.49937916e-01 3.37001115e-01 7.32783616e-01 7.54926145e-01
      4.46279317e-01 0. 1.53574586e-01 0. 7.43801773e-01 5.33440709e-01
      7.47244656e-01 7.57929862e-01 7.63495684e-01 7.75698006e-01
      9.99146640e-01 1. 7.52704144e-01 3.48672479e-01 3.76249760e-01
      6.35386884e-01 5.82460344e-01 0. 0.</_>
    <_>
      0. 4.18619603e-01 5.52796245e-01 5.97411394e-01 6.46846294e-01 0.
      6.84926152e-01 6.89371169e-01 7.01094985e-01 9.25884485e-01
      6.75656617e-01 9.28980410e-01 9.16960657e-01 9.10396695e-01
      8.54547501e-01 8.73078585e-01 8.77187967e-01 0. 0. 0. 0. 0.
      9.01462853e-01 8.94119143e-01 8.78153026e-01 9.23676193e-01
      9.31950569e-01 9.87554550e-01 9.86645639e-01 7.66550481e-01
      7.82656431e-01 4.37788606e-01 0. 7.01980054e-01 6.53871536e-01
      5.78773081e-01 3.49297941e-01 2.20774636e-01 0. 5.25475383e-01
      7.06190646e-01 7.17229545e-01 0. 5.76947033e-01 8.64622712e-01
      6.35979652e-01 8.60595107e-01 8.41290295e-01 8.09770167e-01
      7.89982259e-01 6.04672670e-01 5.40697932e-01 4.63032722e-01
      3.94501716e-01 0. 0. 0. 7.27385938e-01 7.04435050e-01
      7.24657118e-01 5.93251586e-01 7.51781285e-01 7.60500669e-01 1.
      7.51929224e-01 7.34334707e-01 3.51377577e-01 3.62459034e-01
      6.34159923e-01 5.80444932e-01 0. 6.69925362e-02</_>
    <_>
      0. 0. 0. 2.92262226e-01 5.18073916e-01 6.05748534e-01
      6.45380139e-01 0. 7.21697628e-01 9.67088103e-01 9.66734707e-01
      9.59133089e-01 9.51247096e-01 6.94699585e-01 5.21230161e-01 0. 0.
      6.37412667e-01 0. 0. 0. 0. 0. 0. 7.06319809e-01 5.76051235e-01 1.
      7.96366930e-01 7.96738684e-01 7.99355328e-01 5.53860962e-01 0.
      2.70568311e-01 5.74044168e-01 6.31921113e-01 0. 0. 0.
      5.59575915e-01 6.29875064e-01 2.01611370e-01 0. 6.00536466e-01
      6.15793824e-01 6.25520110e-01 8.33179057e-01 7.91748166e-01
      7.77365983e-01 7.27440536e-01 7.38905489e-01 5.12666643e-01
      4.64422137e-01 3.91886115e-01 1.16292149e-01 0. 0. 6.58575654e-01
      4.57038611e-01 4.93574768e-01 6.74434364e-01 6.59209490e-01
      6.87226832e-01 6.94612205e-01 6.85966015e-01 9.61197138e-01
      6.92477226e-01 3.09597194e-01 2.93687761e-01 6.02329195e-01
      5.53106368e-01 0. 0.</_>
    <_>
      0. 0. 2.97748089e-01 4.98674631e-01 5.76261103e-01 5.99422753e-01
      6.55082405e-01 6.61048055e-01 6.54460788e-01 8.91948581e-01
      8.95241022e-01 8.75557244e-01 8.73371959e-01 8.70602846e-01
      8.62214684e-01 5.96495628e-01 0. 0. 0. 0. 0. 0. 0. 8.85071337e-01
      8.84446323e-01 9.06495154e-01 9.24439967e-01 9.35748637e-01
      9.16269779e-01 9.40220058e-01 7.12285101e-01 4.73032683e-01 0.
      6.44275129e-01 5.58063507e-01 4.85699743e-01 3.89581472e-01 0. 0.
      3.68832707e-01 6.43481433e-01 6.66990519e-01 7.08407998e-01
      7.70981073e-01 7.83354819e-01 1. 9.99496102e-01 7.61381209e-01
      7.49209642e-01 7.28940368e-01 5.35836399e-01 0. 4.77793097e-01
      4.05777514e-01 0. 0. 1.55169830e-01 6.74162269e-01 6.53106868e-01
      6.75006390e-01 6.74392343e-01 6.80918157e-01 9.17442322e-01
      9.12271261e-01 6.93140864e-01 6.77747905e-01 3.06572855e-01
      6.11972928e-01 5.57477772e-01 0. 0. 0.</_>
    <_>
      0. 2.27052480e-01 4.60530967e-01 5.30430734e-01 5.78607202e-01
      6.01623237e-01 6.44570291e-01 6.91595614e-01 9.36074853e-01
      4.91883874e-01 6.98207676e-01 9.33095872e-01 9.20595527e-01
      8.98038507e-01 8.99190724e-01 8.96259725e-01 0. 0. 0. 0. 0. 0. 0.
      9.42340672e-01 9.27215159e-01 9.66208994e-01 9.59169924e-01 1.
      8.15531254e-01 8.20105970e-01 8.09261799e-01 5.14818311e-01
      3.60626280e-02 7.12946713e-01 6.64969087e-01 5.25422513e-01
      2.60319442e-01 0. 0. 7.04814494e-01 6.73506916e-01 0. 0.
      5.76953709e-01 8.67348909e-01 8.61336231e-01 8.40340674e-01
      7.79916584e-01 7.88672805e-01 7.55950630e-01 7.70461261e-01
      4.98896122e-01 4.49966609e-01 3.80014718e-01 1.79774329e-01 0. 0.
      7.10530579e-01 7.03711212e-01 6.84685946e-01 7.11758792e-01
      6.98999524e-01 7.34184802e-01 9.55849767e-01 9.78485584e-01
      6.84797585e-01 6.48370326e-01 5.73267579e-01 0. 0. 0. 0.</_>
    <_>
      0. 0. 5.00443101e-01 7.04235494e-01 6.73921525e-01 0. 0.
      6.39155567e-01 8.58284414e-01 8.53556156e-01 8.08940291e-01
      7.69717515e-01 7.77199805e-01 7.15311348e-01 7.31468320e-01 0. 0.
      0. 0. 0. 0. 0. 7.06003368e-01 7.08994925e-01 6.94467366e-01
      7.42745638e-01 1. 9.95334983e-01 7.51512647e-01 7.33645022e-01
      6.78813100e-01 6.05071247e-01 5.91717422e-01 4.40380335e-01 0. 0.
      0. 0. 0. 5.58358133e-01 5.66878498e-01 6.29955769e-01
      6.71711028e-01 7.35311806e-01 7.53639460e-01 9.67759669e-01
      9.70023572e-01 9.55061853e-01 7.36235857e-01 7.30006218e-01 0. 0.
      6.83474123e-01 0. 4.82206523e-01 4.51376498e-01 4.54071671e-01
      3.97463262e-01 7.80021176e-02 7.36617744e-01 7.22281635e-01
      7.70660639e-01 7.82823980e-01 8.00963938e-01 8.24686170e-01
      8.35034609e-01 5.91193974e-01 5.31655550e-01 4.04927909e-01
      3.83090973e-01 7.02304840e-01 0.</_>
    <_>
      0. 4.12917733e-01 0. 4.55008835e-01 5.70986122e-02 4.72528666e-01
      7.51422882e-01 7.41568506e-01 7.10185051e-01 9.15441930e-01
      9.16156709e-01 6.48910820e-01 6.15605593e-01 6.26690269e-01
      7.22887516e-01 7.03344107e-01 6.01203322e-01 6.15943074e-01 0. 0.
      6.20773852e-01 5.96806169e-01 0. 0. 6.72139108e-01 6.62276387e-01
      5.66268802e-01 7.54451871e-01 7.75716662e-01 8.08181524e-01
      6.59099698e-01 6.66018009e-01 6.53792024e-01 3.78370732e-01
      6.17010474e-01 2.77569056e-01 5.72210073e-01 5.43817699e-01
      4.87901390e-01 3.99618834e-01 3.77312005e-01 0. 3.03941607e-01
      2.51570910e-01 0. 2.45353982e-01 7.96346366e-01 8.25111628e-01
      8.17082644e-01 0. 5.23778796e-01 4.85674471e-01 7.23028839e-01
      6.46485746e-01 6.10691309e-01 5.80383301e-01 5.82417667e-01
      5.03482401e-01 5.11077940e-01 8.64052176e-01 8.90090704e-01
      8.68617654e-01 9.85906780e-01 1. 1.53478950e-01 0. 2.01861650e-01
      5.75613678e-01 0. 2.16306046e-01 3.02107245e-01 0.</_>
    <_>
      0. 0. 0. 0. 0. 0. 4.92056936e-01 5.97010553e-01 0. 6.77112639e-01
      7.00818598e-01 7.30808794e-01 7.66345799e-01 7.63714671e-01
      7.67791510e-01 7.97862768e-01 3.11927646e-01 2.73834378e-01 0. 0.
      1.11131169e-01 0. 0. 0. 0. 9.01114762e-01 8.93258035e-01
      9.29600060e-01 9.51648533e-01 9.33357954e-01 0. 8.10313761e-01
      7.53980935e-01 6.29343271e-01 3.16004783e-01 0. 0. 0. 0. 0. 0. 0.
      0. 7.45194674e-01 6.21491551e-01 8.21632087e-01 7.97503114e-01
      3.90992880e-01 3.27549785e-01 6.84777319e-01 6.01227462e-01
      5.60316384e-01 5.12060642e-01 4.74294990e-01 2.11542264e-01
      4.67367500e-01 4.37551916e-01 4.42084819e-01 3.87057960e-01
      3.97377700e-01 7.54508317e-01 9.92092967e-01 9.84678328e-01 1. 0.
      0. 2.08685398e-01 2.36119941e-01 0. 0. 5.70565701e-01
      4.97412086e-01</_>
    <_>
      0. 4.23355162e-01 4.57315624e-01 1.98915675e-01 2.61399865e-01
      3.34376127e-01 5.12895942e-01 7.72589028e-01 7.64818728e-01
      6.93947136e-01 6.93593264e-01 6.77369058e-01 6.66909575e-01
      6.62487864e-01 6.64224625e-01 4.99996781e-01 6.24268591e-01
      6.48315609e-01 3.29505324e-01 0. 0. 0. 0. 6.95205271e-01
      6.80593908e-01 7.36966550e-01 7.47356474e-01 7.62984991e-01
      7.64519155e-01 7.68485904e-01 6.55415058e-01 6.51312470e-01
      6.27009809e-01 5.71457326e-01 5.36450744e-01 5.25690317e-01
      4.94076937e-01 4.63853180e-01 4.08698797e-01 3.00680935e-01
      2.72987664e-01 2.55332023e-01 0. 0. 0. 0. 7.84473658e-01
      8.50555480e-01 8.40483367e-01 5.40698469e-01 4.89177138e-01
      7.30736017e-01 6.95492327e-01 6.46925807e-01 6.16200149e-01
      6.15647495e-01 5.92037320e-01 5.68465590e-01 5.54735124e-01
      8.29894841e-01 5.22167087e-01 9.13216591e-01 8.66301894e-01 1.
      3.71056765e-01 0. 3.99874628e-01 6.02427661e-01 5.52393794e-01
      2.61525065e-01 0. 3.11701447e-01</_>
    <_>
      0. 4.31792200e-01 4.34373587e-01 4.75381345e-01 5.12757778e-01
      5.33058047e-01 7.63925374e-01 5.48498571e-01 7.36247063e-01
      8.16364288e-01 8.37975860e-01 6.97279096e-01 7.05992997e-01
      4.98586655e-01 6.78647101e-01 6.58782721e-01 6.80427194e-01 0. 0.
      0. 0. 0. 0. 0. 0. 7.85780370e-01 7.95824707e-01 8.11500669e-01
      8.77922297e-01 6.68854535e-01 6.93948925e-01 6.88513517e-01
      6.78658009e-01 5.14420748e-01 6.52639389e-01 3.35592330e-01
      6.08387411e-01 5.46584010e-01 4.89175916e-01 4.34904933e-01
      3.46501231e-01 3.28382641e-01 0. 0. 0. 0. 8.88711393e-01
      9.57688868e-01 9.70116198e-01 6.34343147e-01 0. 8.46834898e-01
      7.62734592e-01 7.50760972e-01 7.11413324e-01 6.81288600e-01
      6.53150201e-01 6.32097185e-01 5.88891804e-01 8.88513446e-01
      6.65117562e-01 1. 4.00442004e-01 8.30537379e-01 4.19669598e-01
      6.43550575e-01 5.84041715e-01 0. 2.67825305e-01 0. 3.17070246e-01
      0.</_>
    <_>
      0. 0. 1.97055683e-01 2.63118386e-01 3.30393195e-01 4.08380240e-01
      4.61809725e-01 7.58281350e-01 7.51269341e-01 8.54469895e-01
      8.99034739e-01 9.26927030e-01 8.73467684e-01 7.30695486e-01
      7.72191584e-01 7.68200040e-01 5.94979048e-01 0. 6.10685647e-01 0.
      1.49001881e-01 0. 0. 6.66597724e-01 6.51976347e-01 0.
      9.14411187e-01 9.49389458e-01 9.92768228e-01 7.84234226e-01
      7.76421487e-01 5.81425428e-01 4.98698860e-01 0. 6.92116737e-01
      5.78730643e-01 5.14942825e-01 3.90966207e-01 2.70070910e-01 0. 0.
      0. 0. 0. 8.30266118e-01 8.92386377e-01 8.92978430e-01
      8.76165032e-01 8.05150330e-01 7.47405052e-01 4.15714771e-01
      6.57128036e-01 6.10454082e-01 5.68347752e-01 5.31894803e-01
      5.02327681e-01 4.44780648e-01 4.50814813e-01 4.29419667e-01
      8.53467464e-01 8.53415132e-01 8.42309117e-01 1. 7.78585196e-01
      2.96856135e-01 0. 6.11708760e-01 5.10077298e-01 0. 0. 0.
      4.17862050e-02</_>
    <_>
      0. 3.24982584e-01 4.32625115e-01 4.39429194e-01 4.81131524e-01
      5.04866064e-01 8.08469534e-01 8.93667638e-01 8.86544704e-01
      9.77846265e-01 9.52067733e-01 8.83957446e-01 7.57593393e-01
      7.55207121e-01 3.75620037e-01 7.07457721e-01 7.32300222e-01
      7.54696012e-01 0. 0. 1.05358563e-01 5.99038243e-01 4.26248014e-01
      6.19603693e-01 8.29145014e-01 8.67430091e-01 8.59896898e-01
      9.48832750e-01 1. 7.60872483e-01 6.07969344e-01 7.89267302e-01
      7.90417790e-01 5.51693916e-01 4.67963398e-01 7.35330939e-01
      6.94882512e-01 5.92876434e-01 5.28186202e-01 4.66898203e-01 0. 0.
      0. 0. 0. 9.21316266e-01 9.95091736e-01 9.99136567e-01
      9.85846102e-01 5.96956611e-01 8.29700291e-01 7.86359966e-01
      7.34337151e-01 6.86786115e-01 6.44697130e-01 6.11222923e-01
      5.81513762e-01 4.14401948e-01 5.95502079e-01 9.19585288e-01
      9.48163390e-01 9.22612429e-01 8.85889173e-01 8.06434572e-01 0.
      6.18524551e-01 5.51641285e-01 1.37752816e-01 0. 2.32495606e-01 0.
      0.</_>
    <_>
      0. 2.51442671e-01 3.12992513e-01 4.11231995e-01 4.19603795e-01
      4.68433052e-01 7.83827305e-01 5.51690221e-01 5.45366883e-01
      5.64101279e-01 7.52214015e-01 7.39408493e-01 7.07053006e-01
      7.17955410e-01 7.19098926e-01 7.17792630e-01 5.60684383e-01 0.
      5.44818997e-01 5.74152231e-01 0. 1.67996526e-01 0. 0.
      6.51228547e-01 8.27635229e-01 8.20228815e-01 8.75177622e-01
      7.50621915e-01 7.55145133e-01 5.49915552e-01 5.19114852e-01 0. 0.
      0. 0. 6.03289068e-01 4.84227151e-01 3.39809090e-01 0.
      2.59258568e-01 0. 0. 0. 0. 7.47429907e-01 8.10595393e-01
      8.13801706e-01 5.49237192e-01 0. 6.89984262e-01 6.31281853e-01
      5.87447107e-01 5.48009872e-01 5.15601337e-01 4.84659761e-01
      4.61073667e-01 4.38119173e-01 4.18049395e-01 7.56529152e-01
      8.22317839e-01 8.36941779e-01 4.85371083e-01 1. 3.33617359e-01 0.
      5.50912976e-01 4.54636395e-01 0. 0. 0. 1.04910992e-01</_>
    <_>
      0. 0. 2.34505326e-01 3.67962480e-01 4.06212389e-01 4.56990838e-01
      8.31201673e-01 0. 5.62550724e-01 5.79028547e-01 7.98599064e-01
      7.82043099e-01 8.83112192e-01 8.50958526e-01 7.57231832e-01
      7.46999323e-01 6.02283537e-01 7.44860530e-01 5.86035967e-01
      6.16997004e-01 1.52686432e-01 0. 0. 0. 6.83307230e-01
      8.66221786e-01 9.55771863e-01 9.31957245e-01 7.97563791e-01
      8.03765118e-01 5.96047997e-01 5.80698967e-01 0. 0. 6.46350980e-01
      5.75977027e-01 5.11732876e-01 3.56022507e-01 2.95987129e-01 0. 0.
      0. 0. 0. 7.83348203e-01 8.45604241e-01 8.25630546e-01 0.
      7.33291090e-01 6.75230682e-01 4.11685944e-01 5.95815778e-01
      5.47823608e-01 5.04806638e-01 4.68138397e-01 4.37191993e-01
      4.39411223e-01 4.13313895e-01 3.90405476e-01 7.45597780e-01
      8.56222332e-01 7.93604493e-01 9.85235572e-01 9.55776155e-01 1.
      2.56313115e-01 0. 0. 4.87857640e-01 0. 0. 0.</_>
    <_>
      0. 2.84234941e-01 3.47213030e-01 3.82193536e-01 4.27609056e-01
      4.38548535e-01 7.32505143e-01 4.81118023e-01 7.97015131e-01
      5.13342977e-01 7.03424096e-01 7.99213409e-01 7.66160846e-01
      7.50875115e-01 6.71460211e-01 6.79862857e-01 5.12888432e-01
      5.37272274e-01 0. 0. 5.37486315e-01 5.49085259e-01 0. 0. 0. 0.
      8.36206198e-01 8.73603344e-01 8.96573365e-01 7.56494224e-01
      7.48684227e-01 2.52046883e-01 5.34224451e-01 4.57339704e-01
      6.59303606e-01 6.19284451e-01 5.24461329e-01 4.64163780e-01
      3.76154184e-01 0. 2.34377533e-01 0. 0. 0. 0. 7.97917426e-01
      8.39820981e-01 8.45490098e-01 7.93047965e-01 7.07527041e-01
      6.44363999e-01 6.06168866e-01 5.89651108e-01 5.49240828e-01
      5.14372468e-01 4.84445840e-01 4.86239731e-01 4.66063946e-01
      4.45026040e-01 8.54999781e-01 8.80690038e-01 8.58650208e-01 1.
      9.89716053e-01 6.48394704e-01 3.13865215e-01 0. 4.97283429e-01
      4.43376601e-01 0. 1.67523727e-01 0.</_>
    <_>
      0. 2.85868883e-01 0. 0. 3.90359163e-01 4.38478500e-01
      7.45313168e-01 7.87775517e-01 4.72771376e-01 7.65130401e-01
      7.43736327e-01 7.54801631e-01 8.04444909e-01 6.52685463e-01
      6.40176535e-01 6.38800859e-01 6.31706953e-01 6.55468285e-01
      4.67661798e-01 4.67593670e-01 6.84682906e-01 0. 0. 5.72556555e-01
      7.72713304e-01 7.62031555e-01 0. 8.50623727e-01 8.90478492e-01
      7.52440751e-01 7.76974916e-01 5.96522987e-01 6.25352740e-01
      6.15073800e-01 6.21720910e-01 6.51198745e-01 5.52681744e-01
      4.92664874e-01 4.04889315e-01 2.91917413e-01 0. 0. 0. 0. 0.
      8.43074143e-01 8.64859164e-01 8.49140644e-01 5.98016202e-01
      5.11320114e-01 6.99350893e-01 6.11053228e-01 5.65720558e-01
      5.54651499e-01 5.21657586e-01 4.90161598e-01 4.92048681e-01
      4.42884177e-01 4.50965047e-01 8.49669158e-01 8.73631179e-01
      8.49026263e-01 1. 9.93102074e-01 5.90935707e-01 4.02646571e-01
      4.92581666e-01 0. 1.13498725e-01 0. 1.70639783e-01 0.</_>
    <_>
      0. 3.49408150e-01 3.82467479e-01 6.80941880e-01 6.97420716e-01
      2.53473222e-01 3.90338153e-01 6.59920931e-01 6.71131432e-01
      7.68627167e-01 7.47630596e-01 7.31439292e-01 6.19117498e-01
      4.88257796e-01 6.04551315e-01 5.68733037e-01 5.26113510e-01 0. 0.
      5.40993214e-01 4.85027134e-01 3.50080073e-01 0. 5.90394020e-01
      5.77373505e-01 6.05543852e-01 5.58942258e-01 0. 4.72637266e-01
      7.18120992e-01 6.86219156e-01 5.81812203e-01 5.69896519e-01
      5.41366518e-01 5.61904430e-01 0. 4.38341618e-01 5.49852252e-01
      5.27209461e-01 5.32126188e-01 4.84287083e-01 4.40224946e-01
      4.01186109e-01 0. 0. 0. 8.62319589e-01 9.26613629e-01
      9.15634453e-01 8.56665790e-01 7.72813797e-01 7.36905158e-01
      7.20535874e-01 6.75928414e-01 6.41901016e-01 5.84360003e-01
      5.64469039e-01 8.35465372e-01 6.46980643e-01 8.81138027e-01 0.
      4.30636674e-01 5.03462136e-01 1. 0. 2.64956594e-01 2.87623137e-01
      2.97432363e-01 3.12026024e-01 3.38553190e-01 3.30771536e-01 0.</_>
    <_>
      0. 4.49645221e-01 4.54793960e-01 4.91399765e-01 3.38657230e-01
      5.18952072e-01 5.18141389e-01 7.79333174e-01 7.72813141e-01
      7.45523572e-01 7.47928381e-01 7.28057623e-01 7.34715939e-01
      6.71040356e-01 6.86986446e-01 6.75664902e-01 6.18941545e-01
      6.43951535e-01 4.46673989e-01 0. 0. 0. 6.70124054e-01
      6.51429057e-01 6.77526176e-01 7.51683056e-01 7.61905789e-01
      7.78397739e-01 7.33277500e-01 8.79098415e-01 8.44127238e-01
      8.55298340e-01 4.74414021e-01 4.52243716e-01 4.44107115e-01
      3.71528089e-01 5.59975684e-01 5.27888715e-01 4.99066591e-01
      4.41788107e-01 3.88864666e-01 0. 3.42322171e-01 0. 0. 0.
      9.06372845e-01 9.61398244e-01 7.25974917e-01 8.65301609e-01
      8.23485076e-01 7.59472668e-01 7.41660714e-01 6.93185985e-01
      6.58573449e-01 6.26073778e-01 5.97575366e-01 5.77650130e-01
      9.54194784e-01 1. 6.61274374e-01 7.51784325e-01 7.44405210e-01
      4.49120343e-01 6.04600966e-01 5.39649308e-01 2.74949938e-01 0.
      3.15980345e-01 3.35610330e-01 3.66086602e-01 4.22048569e-01</_>
    <_>
      0. 2.35350400e-01 5.25868893e-01 5.62529981e-01 4.47878450e-01
      6.00237012e-01 6.00244582e-01 5.90201378e-01 8.30856860e-01
      8.51102054e-01 5.80141544e-01 5.64586639e-01 7.85498857e-01
      7.27386653e-01 5.01182854e-01 7.09648132e-01 0. 0. 0. 0. 0.
      7.02591062e-01 6.81007922e-01 0. 7.72706866e-01 7.78162062e-01
      7.96127975e-01 8.31049025e-01 8.76095772e-01 8.35124314e-01
      6.21298969e-01 6.04992509e-01 4.34693664e-01 4.23085541e-01
      3.44358563e-01 5.31281948e-01 4.94066685e-01 0. 4.33242530e-01
      3.75837028e-01 5.31053580e-02 2.94283837e-01 2.36934945e-01 0.
      2.28103414e-01 0. 8.56787801e-01 9.31048274e-01 9.38517332e-01
      8.59881997e-01 8.17842424e-01 7.53571808e-01 7.28840590e-01
      6.91916585e-01 6.52774870e-01 6.52376294e-01 6.28528357e-01
      5.73106050e-01 5.81649840e-01 9.44599807e-01 1. 6.36758566e-01
      4.52530921e-01 4.47786748e-01 0. 6.10107541e-01 5.91660857e-01 0.
      3.18673015e-01 0. 3.70493144e-01 0.</_>
    <_>
      0. 4.55757648e-01 4.96416479e-01 5.03303826e-01 5.44442534e-01
      3.86202753e-01 5.80833375e-01 8.26911628e-01 8.65687370e-01
      7.86253512e-01 8.35078001e-01 8.18619430e-01 7.99018085e-01
      5.21134138e-01 7.78718650e-01 7.66957462e-01 7.47415841e-01
      4.91474420e-01 5.22585213e-01 0. 0. 0. 5.43085515e-01
      7.90044546e-01 8.04100931e-01 8.24535489e-01 8.10424507e-01
      8.57722163e-01 8.79406869e-01 9.09434259e-01 9.16699648e-01
      8.63291800e-01 4.88214731e-01 4.02154595e-01 3.60804856e-01
      5.58550775e-01 5.18686473e-01 4.51448172e-01 3.87103796e-01
      3.27364296e-01 2.62899280e-01 0. 2.45185822e-01 0. 0. 0.
      8.77018452e-01 9.54385817e-01 0. 6.50709867e-01 8.31181049e-01
      7.51847088e-01 7.10390806e-01 6.58059716e-01 6.21250868e-01
      6.19659901e-01 5.92079103e-01 5.65023363e-01 9.75893557e-01 1.
      9.68187749e-01 6.09979749e-01 4.33017224e-01 4.28083569e-01
      4.28388685e-01 0. 5.54952621e-01 2.48877987e-01 0. 2.66872317e-01
      3.31411332e-01 0.</_>
    <_>
      0. 3.65115076e-01 3.99877280e-01 4.34771478e-01 4.79494840e-01 0.
      2.47794494e-01 8.52748096e-01 9.03373837e-01 1. 9.37137365e-01
      7.71557033e-01 8.01605701e-01 5.54068506e-01 7.04297364e-01
      7.22915173e-01 0. 0. 7.50663280e-01 0. 7.58276641e-01
      7.11345494e-01 6.90570831e-01 8.04823756e-01 8.01473022e-01
      7.94407725e-01 8.47580731e-01 8.86303902e-01 8.01234066e-01
      6.12863243e-01 0. 3.70149672e-01 2.89599270e-01 0. 4.80779827e-01
      4.75954592e-01 4.43155944e-01 3.23566407e-01 2.34336287e-01 0.
      2.10773081e-01 5.15170634e-01 6.08700871e-01 6.49468243e-01 0.
      7.75983691e-01 8.20712030e-01 8.25197160e-01 8.40498030e-01
      6.90277994e-01 6.50695384e-01 6.00732505e-01 2.42588580e-01 0. 0.
      7.14940131e-01 7.21338928e-01 6.44370914e-01 6.33197367e-01
      6.16462708e-01 7.90743768e-01 7.80848324e-01 7.49173880e-01
      7.22311556e-01 0. 6.01493418e-01 5.42858541e-01 0. 0. 0.
      2.23128617e-01 0.</_>
    <_>
      0. 2.29604721e-01 2.93809742e-01 3.59542936e-01 4.34769660e-01
      4.85497683e-01 8.28148961e-01 8.01791191e-01 5.65456450e-01
      7.99453139e-01 7.80539036e-01 7.67266691e-01 7.59931684e-01
      7.58706331e-01 5.53785324e-01 1.44821778e-01 7.31143892e-01
      1.07921116e-01 0. 0. 0. 7.37554014e-01 7.15710104e-01
      7.35036671e-01 5.40238380e-01 7.60052681e-01 7.85456598e-01
      8.21514606e-01 8.43962431e-01 6.51593804e-01 4.19653356e-01
      5.94664931e-01 0. 5.60728014e-01 5.15605986e-01 4.45638567e-01
      3.82460833e-01 2.90878683e-01 0. 0. 0. 4.85815704e-01
      4.99100983e-01 5.72360277e-01 0. 6.28390193e-01 0. 7.18566477e-01
      7.34000266e-01 7.31445551e-01 7.35261798e-01 5.60800135e-01
      7.08064437e-01 6.61669433e-01 6.28349245e-01 0. 0. 0.
      4.34997946e-01 4.74045724e-01 7.04001606e-01 7.07955360e-01 1.
      9.94364798e-01 9.73467290e-01 4.55877692e-01 5.97705960e-01
      5.40238380e-01 4.85596150e-01 0. 0. 0.</_>
    <_>
      0. 0. 0. 0. 0. 0. 3.91141802e-01 4.91185933e-01 5.33575535e-01
      5.91516614e-01 8.70616376e-01 8.37646961e-01 8.45348418e-01
      8.53270829e-01 2.41571262e-01 2.30837539e-01 4.74129677e-01
      4.98851627e-01 0. 0. 0. 5.07200897e-01 4.85796958e-01 0.
      8.74339938e-01 8.96285534e-01 9.08334076e-01 9.04768944e-01
      9.49166477e-01 6.92299426e-01 0. 2.28020102e-01 5.95354319e-01
      4.66940582e-01 4.00282621e-01 0. 0. 0. 3.91484112e-01
      4.62906450e-01 5.00339806e-01 1.25970647e-01 4.12130803e-01
      4.70271170e-01 0. 1. 9.79199350e-01 6.64499521e-01 6.47223949e-01
      6.57130241e-01 4.93172914e-01 4.42259878e-01 5.81293046e-01
      5.46027958e-01 5.09671092e-01 4.78804052e-01 4.83578801e-01
      5.18608510e-01 5.71965039e-01 5.94915330e-01 5.81552267e-01
      5.96837640e-01 9.29264784e-01 9.25773084e-01 5.81120253e-01
      5.67030847e-01 4.15102541e-01 5.19847095e-01 4.66947764e-01
      4.27707613e-01 0. 0.</_>
    <_>
      0. 0. 0. 2.70637512e-01 3.36548865e-01 4.52402949e-01
      5.06015062e-01 0. 8.51501763e-01 8.28476131e-01 8.47732365e-01
      8.10116529e-01 8.40697527e-01 8.05867970e-01 5.51492333e-01
      5.69744825e-01 0. 1.52170926e-01 0. 1.20563366e-01 0. 0. 0.
      5.97115219e-01 8.26859534e-01 8.32365632e-01 8.62202287e-01
      9.66945887e-01 8.82599831e-01 6.51554525e-01 4.41309154e-01
      4.25583273e-01 0. 5.51004887e-01 5.04919291e-01 4.04333234e-01 0.
      0. 0. 0. 4.55844432e-01 5.06502509e-01 0. 5.75948060e-01
      6.28166318e-01 6.24910414e-01 6.89374387e-01 7.16912389e-01
      7.24188089e-01 7.19150126e-01 2.60898411e-01 0. 5.29071391e-01
      6.41512096e-01 6.04970753e-01 5.43913007e-01 0. 5.91226995e-01
      6.37180626e-01 6.58944309e-01 6.44607663e-01 6.74278140e-01
      6.83639109e-01 1. 6.35965943e-01 4.23166931e-01 5.63006043e-01
      5.06361783e-01 0. 0. 0. 0.</_>
    <_>
      0. 4.74085927e-01 0. 4.87867922e-01 5.23919225e-01 5.16490996e-01
      7.39326656e-01 7.28707075e-01 7.14255512e-01 6.88884556e-01
      6.69005632e-01 6.55118883e-01 6.22447848e-01 6.33332849e-01 0.
      5.79212725e-01 6.01002872e-01 0. 0. 0. 0. 0. 6.22274160e-01
      6.05176866e-01 3.93724024e-01 6.58953190e-01 6.86526895e-01
      6.83772087e-01 7.27145016e-01 7.49723732e-01 7.62937725e-01
      5.48682392e-01 5.36681950e-01 5.53739429e-01 5.37757635e-01
      2.04080358e-01 1.43005878e-01 4.95771438e-01 4.98251468e-01
      4.44744080e-01 3.94899607e-01 3.11793834e-01 4.68834817e-01
      5.24684370e-01 6.23672187e-01 0. 3.07923079e-01 8.11786115e-01
      8.42468560e-01 8.62771869e-01 6.40058219e-01 6.09588206e-01
      5.73499978e-01 5.03823280e-01 0. 7.60744035e-01 0. 0. 0.
      8.16669881e-01 8.13310802e-01 8.05883050e-01 7.75141478e-01 1.
      6.25156939e-01 5.65164685e-01 2.78845906e-01 0. 2.91499794e-01
      3.46160382e-01 3.94536257e-01 0.</_>
    <_>
      0. 4.14416939e-01 4.52466339e-01 2.96332955e-01 0. 4.77799296e-01
      4.76161271e-01 8.11268866e-01 7.34259844e-01 7.54581153e-01
      9.11769450e-01 9.15530562e-01 6.99512720e-01 7.10166216e-01
      6.97741568e-01 6.86735809e-01 0. 6.56521738e-01 6.50343060e-01
      6.50397480e-01 6.52768493e-01 6.38088942e-01 6.77369535e-01
      4.55301553e-01 4.38579798e-01 7.54323423e-01 7.62615502e-01
      7.53643513e-01 5.27617633e-01 6.00797892e-01 8.82930756e-01
      6.19684041e-01 6.21000469e-01 0. 4.28962588e-01 3.85898232e-01
      5.76541245e-01 2.88461834e-01 4.86546367e-01 4.55153972e-01
      4.31321412e-01 3.81484747e-01 0. 6.84492707e-01 7.02322066e-01
      2.18115434e-01 9.19310808e-01 1. 9.91931677e-01 8.46260846e-01
      8.07407379e-01 7.66444266e-01 8.65068078e-01 3.77028972e-01
      8.50124598e-01 6.91292107e-01 7.25253880e-01 7.47283936e-01
      8.97142828e-01 7.36058414e-01 8.45759392e-01 8.05302918e-01
      7.43584633e-01 5.79385579e-01 0. 0. 2.94658005e-01 1.08646765e-01
      3.39074403e-01 0. 0. 3.85925710e-01</_>
    <_>
      0. 5.37550390e-01 5.79772294e-01 6.29332364e-01 4.47728097e-01
      5.05257070e-01 6.96425617e-01 6.84292793e-01 9.54399765e-01 1.
      9.74577308e-01 9.57263768e-01 9.16308463e-01 9.10560608e-01
      8.98345292e-01 0. 0. 0. 0. 0. 0. 8.64765882e-01 8.74225259e-01
      8.77686322e-01 8.77579153e-01 8.84706318e-01 9.05290842e-01
      9.21932042e-01 9.45046842e-01 9.59003687e-01 9.88398254e-01 0.
      3.89633298e-01 3.76394719e-01 5.13383508e-01 0. 4.27074641e-01
      3.55814964e-01 0. 2.89073914e-01 1.84971869e-01 0. 0.
      4.74384993e-01 6.96343482e-01 0. 5.93975008e-01 8.56738925e-01
      9.45937037e-01 9.58748043e-01 9.58905697e-01 9.65686500e-01
      7.88519382e-01 9.17333603e-01 8.78323793e-01 8.39852095e-01
      3.42044324e-01 9.01790798e-01 8.08596730e-01 9.60310817e-01
      9.60408688e-01 9.67119753e-01 9.30169523e-01 8.75024021e-01 0.
      7.76920259e-01 6.05947316e-01 0. 0. 3.01133364e-01 0.
      3.98190647e-01</_>
    <_>
      0. 2.67966628e-01 3.36464077e-01 4.06451464e-01 4.86338675e-01
      5.39920628e-01 0. 4.41206217e-01 9.48476076e-01 9.89199162e-01
      9.41361487e-01 8.60419989e-01 9.14428294e-01 9.09437716e-01
      8.80535662e-01 8.44767034e-01 6.21410131e-01 4.81334478e-01
      8.56452659e-02 0. 0. 0. 8.91631842e-02 8.62419605e-01
      6.70244336e-01 9.34855938e-01 9.57155347e-01 1. 9.53090012e-01
      7.03714609e-01 2.67359167e-01 4.68779206e-01 4.54732716e-01
      5.76296628e-01 5.27273595e-01 3.87351662e-01 3.19284201e-01
      2.21340045e-01 0. 0. 5.12195230e-01 5.96882463e-01 6.54517293e-01
      7.32305706e-01 6.27684057e-01 8.11236501e-01 8.56139719e-01
      8.91358256e-01 8.83355856e-01 7.35773087e-01 8.54978740e-01
      8.43390048e-01 7.83828914e-01 7.38664210e-01 6.63696110e-01
      6.96857214e-01 7.35744655e-01 7.73075223e-01 8.06391895e-01
      8.00515234e-01 7.85599351e-01 7.63256907e-01 7.36593127e-01
      6.81432545e-01 6.81172609e-01 5.92445433e-01 4.81919438e-01 0. 0.
      0. 0. 0.</_>
    <_>
      0. 0. 0. 0. 0. 4.50746804e-01 5.82020342e-01 6.37832105e-01
      6.71557426e-01 7.06706464e-01 9.60383117e-01 9.64428604e-01
      9.53275502e-01 7.33735919e-01 7.21852541e-01 2.99370944e-01
      2.62693554e-01 0. 0. 0. 0. 0. 0. 7.18276203e-01 5.43424606e-01
      7.43707418e-01 1. 9.95811582e-01 7.21151471e-01 6.63843870e-01
      6.70699716e-01 6.39671981e-01 5.73777199e-01 4.03562009e-01 0. 0.
      0. 3.79977614e-01 5.03143787e-01 5.43484151e-01 5.88515580e-01
      6.10102475e-01 5.96392453e-01 3.88071567e-01 6.78059101e-01
      6.95196629e-01 7.18043745e-01 7.04773426e-01 6.72127843e-01
      6.83176398e-01 3.66102695e-01 6.27494693e-01 5.91255605e-01 0. 0.
      5.74708462e-01 5.47841430e-01 0. 6.01963699e-01 5.83913505e-01
      3.83155704e-01 6.36498272e-01 6.45291865e-01 8.91482890e-01
      9.11331534e-01 6.26301944e-01 5.93610108e-01 6.04966640e-01
      5.80179691e-01 5.32268524e-01 4.88636196e-01 0.</_>
    <_>
      0. 0. 4.68122780e-01 5.15814900e-01 5.25541127e-01 5.70563436e-01
      6.15240335e-01 6.03730321e-01 9.22743678e-01 9.45631146e-01
      9.20336485e-01 9.03526843e-01 8.82978141e-01 8.75536501e-01
      8.15418959e-01 8.48659039e-01 5.61384439e-01 0. 0. 0. 0. 0.
      8.00884843e-01 8.71671140e-01 8.86486232e-01 9.07605410e-01
      8.91817212e-01 9.62390900e-01 9.62836027e-01 1. 9.60211456e-01
      6.86717033e-01 4.96535569e-01 4.83641177e-01 6.10864222e-01
      5.69585621e-01 5.27374268e-01 4.56475258e-01 3.88802350e-01 0.
      2.92386264e-01 0. 6.06390715e-01 7.22817600e-01 0. 6.85019791e-01
      7.10147321e-01 9.67364430e-01 8.56615424e-01 9.96467233e-01
      8.55773926e-01 7.98540175e-01 9.18577492e-01 8.77569795e-01
      7.98673153e-01 8.32283556e-01 8.78985941e-01 9.27907228e-01
      9.02756453e-01 9.25070822e-01 9.20013011e-01 8.91349375e-01
      8.23618233e-01 4.41913188e-01 6.91345453e-01 5.44925094e-01 0.
      2.01447308e-01 0. 0. 2.23081261e-01 3.27383548e-01</_>
    <_>
      0. 5.35997212e-01 5.73980570e-01 5.86631060e-01 6.36707425e-01
      6.18122876e-01 6.31638229e-01 6.34939671e-01 9.06731129e-01
      8.97346616e-01 8.75893235e-01 8.55115175e-01 8.08118105e-01
      7.77473330e-01 7.93696702e-01 7.61151969e-01 7.84508109e-01 0. 0.
      0. 0. 0. 0. 8.13363016e-01 5.31372666e-01 8.54462266e-01 1.
      9.45653379e-01 9.67993140e-01 3.94780070e-01 6.55772150e-01
      6.78336680e-01 6.64174318e-01 3.30921710e-01 6.14731133e-01
      5.77325702e-01 5.73713422e-01 5.39454043e-01 4.76667225e-01
      4.17161226e-01 0. 3.31834853e-01 6.22323871e-01 7.29434550e-01 0.
      2.09435016e-01 9.01606560e-01 9.37401354e-01 9.64230359e-01
      7.67655611e-01 7.67568588e-01 7.02315271e-01 6.53569162e-01 0.
      2.78789580e-01 3.11126471e-01 0. 6.21091247e-01 6.70288146e-01
      5.48076272e-01 9.11559582e-01 9.17194247e-01 9.08951879e-01
      8.77914429e-01 8.29216063e-01 7.19436586e-01 5.63993096e-01
      2.68638521e-01 0. 2.87369221e-01 3.81990045e-01 4.40930873e-01</_>
    <_>
      0. 4.25845534e-01 4.29025203e-01 4.62723464e-01 0. 4.98818636e-01
      4.85925108e-01 7.27177262e-01 7.20759928e-01 7.16664374e-01
      6.96215630e-01 6.83241665e-01 6.91344023e-01 6.76338792e-01 0.
      6.16732538e-01 6.36487305e-01 6.81795299e-01 0. 0. 0.
      6.86229289e-01 6.43595278e-01 6.25279427e-01 6.60803616e-01
      8.10652256e-01 8.39781702e-01 8.80883932e-01 7.55430698e-01
      3.85585278e-01 7.58185923e-01 7.83523500e-01 2.35263601e-01 0.
      4.59597886e-01 4.54763204e-01 3.92288983e-01 3.34965855e-01
      2.76833385e-01 2.52580345e-01 0. 0. 4.40963656e-01 5.75682342e-01
      0. 0. 1. 7.35033870e-01 7.49842346e-01 7.47013271e-01
      3.43537003e-01 5.55162489e-01 5.09937406e-01 6.75741017e-01
      2.30952278e-01 0. 0. 4.75441277e-01 5.19112945e-01 5.40181577e-01
      7.09371030e-01 7.11415052e-01 9.64776397e-01 0. 0. 5.48571467e-01
      4.32826489e-01 0. 0. 0. 2.55690634e-01 2.80006379e-01</_>
    <_>
      0. 0. 0. 4.34750974e-01 4.43859905e-01 4.96252269e-01
      5.38039148e-01 0. 9.12514329e-01 9.09461796e-01 8.86759579e-01
      8.93778205e-01 8.23198855e-01 8.35274339e-01 5.97869992e-01
      8.04800570e-01 0. 0. 0. 4.26012695e-01 4.59734052e-01
      4.70769912e-01 8.06788564e-01 7.87081957e-01 6.13687754e-01
      8.86754811e-01 6.72568142e-01 8.70092094e-01 9.14497137e-01
      6.28628492e-01 6.34925902e-01 0. 5.72550833e-01 4.11063492e-01
      4.41333503e-01 0. 0. 0. 0. 4.70783263e-01 5.18489242e-01 0.
      5.84366262e-01 4.32452232e-01 4.50146496e-01 6.90304875e-01 1.
      9.44841325e-01 9.26849425e-01 6.80122375e-01 6.95611179e-01
      6.73737705e-01 6.20096326e-01 5.84065139e-01 0. 0. 0.
      3.66465241e-01 4.43392575e-01 6.35403872e-01 6.77132428e-01
      6.79814398e-01 9.54222620e-01 9.51079428e-01 9.50991333e-01
      1.74888358e-01 0. 5.36226332e-01 4.94548798e-01 0. 0. 0.</_>
    <_>
      0. 3.05468738e-01 4.30563986e-01 5.01623929e-01 5.48141360e-01 0.
      5.71394384e-01 5.90787709e-01 8.61024380e-01 6.04021311e-01
      8.56956720e-01 8.19088399e-01 7.75119126e-01 7.86688566e-01
      7.88248897e-01 0. 0. 0. 0. 0. 7.35618234e-01 7.11489081e-01 0.
      7.68402696e-01 7.69431353e-01 7.76267529e-01 7.69955158e-01 1.
      8.71881366e-01 5.81564903e-01 2.82018751e-01 0. 0. 4.99337673e-01
      4.25270021e-01 3.89876455e-01 2.64235377e-01 0. 0. 0. 0.
      4.87989902e-01 0. 5.56918144e-01 4.17037457e-01 4.36524332e-01
      7.12680697e-01 7.40140200e-01 7.31141925e-01 7.28226721e-01
      2.86261916e-01 5.31620145e-01 6.67898357e-01 3.56553763e-01
      6.24529719e-01 5.93258739e-01 6.25610828e-01 0. 6.86808705e-01
      3.45994830e-01 7.20098555e-01 7.21494138e-01 7.29075134e-01
      7.00382531e-01 4.22825277e-01 0. 5.82580805e-01 5.11184990e-01
      4.31321323e-01 0. 0. 0.</_>
    <_>
      0. 2.54641086e-01 3.18569124e-01 4.50393915e-01 4.97245699e-01
      5.48645496e-01 5.89381158e-01 0. 6.52413666e-01 9.25999880e-01
      9.25132513e-01 8.91815722e-01 8.99280667e-01 8.93361151e-01
      8.68616581e-01 0. 1.71587870e-01 0. 1.36572734e-01 0. 0. 0. 0.
      1.45712867e-01 9.11254287e-01 9.14765596e-01 9.90915954e-01 1.
      6.75445437e-01 6.61842763e-01 4.24129546e-01 0. 5.76071024e-01
      5.37154913e-01 5.28453469e-01 3.60371679e-01 2.35650539e-01 0. 0.
      0. 5.09110391e-01 5.60366571e-01 6.14969909e-01 0. 0.
      7.20495462e-01 7.63328552e-01 7.66824663e-01 7.80993760e-01
      7.76990831e-01 7.50796020e-01 7.19516814e-01 7.04559684e-01
      6.68797970e-01 6.59542680e-01 6.28683388e-01 0. 6.78934515e-01
      5.02627492e-01 5.53445458e-01 7.30795264e-01 7.32809603e-01
      7.41160035e-01 7.32941151e-01 7.11843610e-01 2.37967297e-01
      6.20163858e-01 5.63373923e-01 0. 0. 0. 0.</_>
    <_>
      0. 3.48353803e-01 4.13158238e-01 4.48884457e-01 4.94510382e-01
      5.45056939e-01 0. 5.87561190e-01 5.97385764e-01 9.63587642e-01
      9.66899931e-01 9.90632653e-01 9.17890608e-01 8.43741715e-01
      8.43653202e-01 3.81643444e-01 5.62191963e-01 4.05036092e-01 0. 0.
      0. 0. 0. 5.90861857e-01 4.49843735e-01 4.38713104e-01 1.
      6.90631151e-01 7.15018332e-01 5.41470885e-01 7.27656484e-01
      6.81349277e-01 6.96245134e-01 6.74213529e-01 6.20532572e-01
      5.50127089e-01 5.16847491e-01 4.54378039e-01 3.63356680e-01 0.
      2.17218295e-01 6.28818333e-01 6.82941496e-01 7.55497098e-01
      7.90070653e-01 6.07023358e-01 8.92228782e-01 9.15939927e-01
      9.03486192e-01 3.84045959e-01 6.74455106e-01 6.23136044e-01
      7.55874336e-01 7.46412575e-01 7.12812364e-01 5.27262509e-01
      7.48401642e-01 0. 6.18373752e-01 7.94670939e-01 7.91032314e-01
      7.93388605e-01 7.58666515e-01 7.28826225e-01 9.42264646e-02
      6.42883360e-01 5.20792186e-01 0. 0. 1.05670288e-01 0.
      2.26189271e-01</_>
    <_>
      0. 0. 4.00722861e-01 4.06062663e-01 4.52306271e-01 4.91795182e-01
      5.17241478e-01 5.05898654e-01 5.22982240e-01 8.42115045e-01
      9.07988012e-01 8.91643405e-01 8.54971647e-01 7.77187467e-01
      7.64405549e-01 7.62030482e-01 7.47222424e-01 7.72023737e-01
      4.86360967e-01 0. 0. 0. 5.10379016e-01 8.35775077e-01
      8.21283937e-01 8.93243730e-01 5.68960667e-01 5.64499021e-01 1.
      9.59816754e-01 6.90866292e-01 6.75224483e-01 0. 4.58419383e-01
      4.49498743e-01 5.94325900e-01 5.57885289e-01 4.95855153e-01
      4.05212998e-01 3.78917396e-01 2.29227304e-01 0. 6.40160143e-01
      6.82206690e-01 0. 5.95300913e-01 8.58916104e-01 8.82565677e-01
      8.95618618e-01 4.20740306e-01 6.70847178e-01 6.21052504e-01
      7.62239099e-01 7.51961648e-01 7.15884089e-01 7.17451632e-01
      7.51168013e-01 4.16855097e-01 6.28842235e-01 7.94544220e-01
      7.89833903e-01 7.64635265e-01 7.30324805e-01 7.01112926e-01
      6.34131968e-01 5.49964368e-01 0. 1.38134927e-01 0. 2.23072812e-01
      0. 2.76439190e-01</_>
    <_>
      0. 0. 0. 0. 0. 0. 0. 6.92109942e-01 7.98895419e-01 8.46007943e-01
      8.93288136e-01 9.25121248e-01 9.61724460e-01 7.78452694e-01 0.
      7.44386435e-01 0. 0. 3.79648745e-01 3.46837997e-01 0.
      3.57561469e-01 3.99049312e-01 7.83925951e-01 7.84678340e-01
      9.87028897e-01 1. 9.94031966e-01 9.70299959e-01 0. 8.23262513e-01
      7.59865403e-01 0. 0. 0. 0. 5.24699867e-01 5.91837227e-01
      6.64241791e-01 7.08995521e-01 0. 4.95143265e-01 5.83596051e-01
      8.28721941e-01 8.40920329e-01 8.62121642e-01 8.59420776e-01
      8.40708494e-01 8.28345656e-01 5.53173423e-01 7.36724555e-01
      6.94002509e-01 6.75425529e-01 6.29991174e-01 0. 5.90198159e-01
      5.62007666e-01 6.07453167e-01 6.48331344e-01 2.78684705e-01
      2.48355806e-01 7.47145593e-01 7.59715974e-01 7.79287636e-01
      7.58219540e-01 7.37062991e-01 7.44099200e-01 7.37325788e-01
      7.07461119e-01 6.40695393e-01 5.91506004e-01 5.52496672e-01</_>
    <_>
      0. 4.58581150e-01 4.93801504e-01 5.37256896e-01 5.76754868e-01 0.
      6.24693990e-01 6.29888296e-01 8.81527543e-01 8.47424686e-01
      8.47093105e-01 8.08466196e-01 7.98153341e-01 7.65644133e-01
      7.80164361e-01 7.35150397e-01 7.58578181e-01 0. 0. 0. 0. 0.
      7.72463620e-01 7.76052117e-01 7.61033118e-01 9.26935136e-01
      9.38494682e-01 1. 8.42659235e-01 8.73505473e-01 3.70964110e-01
      3.26806694e-01 0. 0. 4.89108980e-01 0. 4.16438401e-01
      3.50797892e-01 2.24343464e-01 0. 0. 0. 5.47181189e-01
      6.07979476e-01 6.71065331e-01 7.31958568e-01 7.54312038e-01
      8.34754348e-01 8.27104270e-01 8.25739622e-01 2.18152791e-01
      6.15595162e-01 6.06443524e-01 7.57811308e-01 7.15715528e-01
      6.82870448e-01 0. 7.34348357e-01 5.88177383e-01 3.96213114e-01
      8.00988853e-01 8.04493666e-01 7.88839221e-01 7.61069000e-01
      7.15410113e-01 7.18382120e-01 5.89184940e-01 5.27597189e-01 0. 0.
      0. 3.94663870e-01</_>
    <_>
      0. 3.87433678e-01 4.58581716e-01 5.04763246e-01 5.46846092e-01
      6.01873279e-01 0. 6.65399313e-01 9.72051680e-01 9.67575133e-01
      9.42791998e-01 9.05657589e-01 8.67892087e-01 8.80327880e-01
      8.80965114e-01 0. 8.60877633e-01 0. 0. 0. 0. 0. 8.81650627e-01
      9.04422760e-01 9.31672871e-01 9.22039390e-01 9.33741629e-01
      9.51467931e-01 1. 7.15337574e-01 0. 4.59206194e-01 0.
      5.92197835e-01 5.10305941e-01 4.37518388e-01 3.66242856e-01
      1.95112005e-01 0. 0. 0. 6.24511480e-01 6.85244024e-01 0.
      5.61237752e-01 8.48784328e-01 8.75401497e-01 8.80346835e-01
      8.69002938e-01 8.49020600e-01 6.50738835e-01 7.99681544e-01
      7.57465065e-01 2.20193565e-01 0. 0. 0. 5.80048382e-01
      6.33135796e-01 6.14205360e-01 8.27982724e-01 8.33223879e-01
      8.24627519e-01 7.92810619e-01 7.67325401e-01 0. 6.33120716e-01
      5.20939410e-01 0. 0. 0. 0.</_>
    <_>
      0. 3.62055600e-01 3.93863499e-01 4.33605105e-01 4.41733301e-01
      4.79090184e-01 3.05325627e-01 5.31176507e-01 7.70946443e-01
      7.48445749e-01 8.51575971e-01 8.60272884e-01 7.05505967e-01
      7.03673542e-01 3.64131659e-01 6.89908624e-01 4.69103575e-01
      6.97230339e-01 0. 0. 0. 0. 0. 7.39391506e-01 7.08564043e-01
      7.67899275e-01 5.32098293e-01 7.76088476e-01 8.39785874e-01
      8.20953131e-01 8.33611548e-01 4.20497715e-01 4.07739848e-01
      5.08747339e-01 4.73040223e-01 4.67309237e-01 3.43900532e-01
      2.84878969e-01 0. 0. 1.43604413e-01 4.70448256e-01 5.62373757e-01
      0. 4.81557846e-01 0. 1. 7.32426882e-01 7.45706320e-01
      7.41640747e-01 5.85204363e-01 5.37138522e-01 6.78263247e-01
      6.32920444e-01 6.00647449e-01 0. 6.35446668e-01 5.25927603e-01
      3.19964200e-01 5.53785086e-01 6.97176695e-01 6.99328840e-01
      6.66546404e-01 6.38855577e-01 0. 5.78311384e-01 4.61969107e-01 0.
      0. 0. 1.89706400e-01 0.</_>
    <_>
      0. 3.92616689e-01 3.95173281e-01 4.34551984e-01 4.70296115e-01
      2.69301295e-01 3.46948087e-01 5.46739876e-01 5.40829778e-01
      5.59491575e-01 8.45480144e-01 1. 7.97652066e-01 7.91473508e-01
      7.78772354e-01 3.26660693e-01 0. 0. 0. 0. 0. 7.40838408e-01
      7.21017182e-01 8.69943440e-01 8.55861604e-01 8.05816531e-01
      4.77764755e-01 4.96744901e-01 8.26364994e-01 8.53205502e-01
      8.19596767e-01 4.75933373e-01 2.68555254e-01 4.41832453e-01
      3.99026781e-01 0. 3.33866775e-01 2.75367916e-01 0. 0. 0. 0. 0.
      4.75362718e-01 5.33115685e-01 0. 6.32783115e-01 6.59646451e-01
      6.67029560e-01 6.63019061e-01 6.11808956e-01 4.34941024e-01
      5.12138486e-01 0. 5.61736882e-01 5.90729535e-01 6.26460314e-01
      5.18853724e-01 6.46357358e-01 6.65642262e-01 6.50561273e-01
      6.91997588e-01 7.00730860e-01 6.74290955e-01 0. 3.07365149e-01
      5.24861395e-01 4.45697337e-01 0. 0. 0. 0.</_>
    <_>
      0. 3.63770038e-01 4.32962477e-01 4.39482242e-01 4.78140414e-01
      3.59514147e-01 5.13302565e-01 5.18458605e-01 8.76639426e-01
      9.99195099e-01 1. 8.06215227e-01 7.96034634e-01 7.91988969e-01
      7.82807767e-01 4.44404960e-01 4.65727180e-01 0. 0. 0. 0. 0. 0.
      4.95300263e-01 8.32606912e-01 8.80859792e-01 8.73036087e-01
      9.29928064e-01 9.29992676e-01 5.77967584e-01 5.67931473e-01
      3.97385359e-01 5.25186062e-01 3.44933301e-01 0. 4.60071713e-01
      3.59825730e-01 2.97390133e-01 0. 2.08749741e-01 0. 0.
      5.56007683e-01 5.72001338e-01 4.06409115e-01 5.35275698e-01
      7.36682653e-01 7.66039968e-01 7.57276416e-01 7.26797640e-01
      2.21920162e-01 6.10041022e-01 6.32615447e-01 6.52994037e-01
      6.80064201e-01 5.54432333e-01 5.91112196e-01 6.02912784e-01
      5.81099927e-01 7.31294453e-01 7.28588283e-01 7.16187000e-01
      6.80531979e-01 6.50546670e-01 5.61652064e-01 4.97602254e-01 0. 0.
      0. 0. 2.12578550e-01 0.</_>
    <_>
      0. 4.08562183e-01 4.10940945e-01 4.53568459e-01 4.92584974e-01
      4.14609015e-01 5.27906179e-01 5.32779098e-01 8.68552268e-01
      8.60633731e-01 9.96370673e-01 1. 0. 8.62802386e-01 7.78573751e-01
      7.75803089e-01 0. 0. 0. 0. 0. 0. 0. 7.98932731e-01 8.66456866e-01
