<?xml version="1.0"?>
<opencv_storage>
<opencv_ml_svm>
  <format>3</format>
  <svmType>C_SVC</svmType>
  <kernel>
    <type>POLY</type>
    <degree>3.</degree>
    <gamma>3.</gamma>
    <coef0>0.</coef0></kernel>
  <C>1.</C>
  <term_criteria><epsilon>1.1920928955078125e-07</epsilon>
    <iterations>1000</iterations></term_criteria>
  <var_count>360</var_count>
  <class_count>9</class_count>
  <class_labels type_id="opencv-matrix">
    <rows>9</rows>
    <cols>1</cols>
    <dt>i</dt>
    <data>
      1 2 3 4 5 6 7 8 9</data></class_labels>
  <sv_total>164</sv_total>
  <support_vectors>
    <_>
      0. 0. 0. 0. 0. 0. 0. 0. 0. 0. 0. 0. 4.32720929e-01 0.
      5.14110386e-01 4.77812022e-01 5.96172273e-01 5.60175240e-01 0. 0.
      0. 0. 7.38938987e-01 0. 0. 7.53619432e-01 8.03447843e-01 0. 0. 0.
      0. 8.38690042e-01 8.90071392e-01 0. 0. 0. 9.31106448e-01 0. 0.
      9.23507214e-01 0. 0. 9.71831918e-01 0. 0. 9.70362484e-01 0.
      9.97208178e-01 6.26348019e-01 4.67506140e-01 1. 0. 9.76091683e-01
      0. 0. 9.83239949e-01 0. 6.91548884e-01 0. 6.71315432e-01 0.
      7.87300766e-01 8.20160568e-01 6.85776949e-01 7.69589007e-01 0. 0.
      7.87605643e-01 0. 0. 0. 0. 0. 0. 0. 0. 0. 3.59135687e-01 0. 0. 0.
      0. 3.14898878e-01 0. 0. 0. 0. 0. 0. 0. 0. 0. 0. 0. 0.
      7.26096153e-01 0. 0. 8.04630995e-01 0. 0. 7.73268580e-01 0. 0.
      7.80838132e-01 8.26270461e-01 0. 7.54089713e-01 7.18213439e-01 0.
      8.48705113e-01 0. 0. 0. 8.27564657e-01 0. 0. 6.41720533e-01
      8.59825850e-01 0. 6.59400403e-01 0. 8.45637798e-01 0.
      8.65648091e-01 3.77053499e-01 4.29272026e-01 8.56492400e-01
      5.34176409e-01 8.26781988e-01 4.52181637e-01 5.04978359e-01
      6.63571775e-01 8.22332501e-01 0. 0. 7.68282950e-01 0. 0.
      6.89683378e-01 7.70818412e-01 3.72470081e-01 5.59770107e-01 0.
      5.89564264e-01 0. 4.85052913e-01 7.03354359e-01 6.51538849e-01 0.
      2.46397495e-01 6.32282734e-01 5.81383407e-01 0. 3.63269240e-01 0.
      5.64716935e-01 0. 5.15325427e-01 4.31742698e-01 0. 0. 0. 0. 0. 0.
      0. 0. 0. 0. 0. 0. 0. 0. 0. 0. 0. 0. 0. 0. 0. 0. 0. 0. 0. 0.
      2.89313316e-01 0. 2.14766562e-01 0. 4.05612081e-01 0.
      3.31789047e-01 0. 0. 0. 0. 0. 0. 5.42443991e-01 1.86892852e-01 0.
      0. 5.55754781e-01 0. 6.05107129e-01 2.35989034e-01 0.
      6.21604681e-01 0. 6.72393799e-01 0. 0. 6.07928276e-01
      2.54339963e-01 0. 6.28835738e-01 0. 0. 4.63869631e-01 0.
      6.22132301e-01 7.80705512e-01 6.46935940e-01 8.05858850e-01 0.
      3.68094556e-02 0. 6.46969974e-01 0. 6.75031602e-01 0.
      7.03970909e-01 0. 3.58859628e-01 8.16333473e-01 7.11940169e-01
      7.95082927e-01 6.08109355e-01 6.91545665e-01 6.40081465e-01
      8.07385027e-01 6.72622979e-01 7.89459944e-01 0. 0. 1.52489766e-01
      8.07087719e-01 0. 4.72500741e-01 0. 0. 0. 4.59883749e-01
      4.95762616e-01 0. 0. 7.59101748e-01 2.95541137e-01 5.23377538e-01
      3.32253337e-01 0. 6.71128333e-01 0. 0. 0. 3.64576340e-01
      4.01974499e-01 0. 0. 0. 0. 4.38790321e-01 0. 0. 0. 0.
      4.41387355e-01 0. 0. 0. 4.83948410e-01 0. 4.10415649e-01 0.
      3.37514043e-01 0. 0. 0. 0. 0. 0. 4.32507128e-01 0. 0. 0. 0.
      7.83127666e-01 7.49761105e-01 8.00540030e-01 8.51590633e-01
      6.84307814e-01 0. 8.70862722e-01 4.33884770e-01 0. 8.60494018e-01
      0. 8.82759929e-01 0. 6.66042924e-01 8.77350032e-01 6.90513134e-01
      9.02318120e-01 0. 0. 0. 6.89721704e-01 3.71831059e-01
      6.64400935e-01 9.04219806e-01 0. 8.80281806e-01 0. 6.69900119e-01
      8.87611151e-01 0. 0. 0. 8.46444666e-01 5.76522350e-01 0.
      5.25485516e-01 8.60619426e-01 5.58695138e-01 0. 4.24863309e-01
      8.28336000e-01 0. 7.79370248e-01 4.94053990e-01 4.10732120e-01
      4.46190774e-01 0. 7.54819453e-01 0. 7.08709836e-01 2.81458080e-01
      0. 7.00329721e-01 5.82862616e-01 6.19809568e-01 6.56817138e-01 0.
      0. 0. 0. 0. 0. 0.</_>
    <_>
      0. 0. 4.68994230e-01 0. 0. 0. 0. 0. 0. 0. 0. 5.74665129e-01 0. 0.
      5.81392765e-01 0. 6.20498180e-01 0. 0. 6.29992962e-01 0.
      6.70846343e-01 0. 0. 0. 0. 0. 0. 0. 0. 7.25393891e-01
      3.96016389e-01 3.24681461e-01 0. 7.14935839e-01 4.13219005e-01
      7.33035386e-01 0. 0. 4.77048904e-01 7.26925850e-01 7.47478664e-01
      0. 0. 0. 0. 0. 0. 7.46503353e-01 9.51094925e-01 9.75329101e-01 0.
      1. 9.80192423e-01 9.61042225e-01 0. 0. 0. 5.78830183e-01
      5.34786224e-01 0. 0. 5.18940330e-01 0. 0. 0. 0. 0. 0. 0.
      4.20750618e-01 0. 5.82323372e-01 0. 0. 4.41285044e-01
      6.04146600e-01 0. 0. 0. 0. 4.96822506e-01 0. 1.70815229e-01 0.
      5.24187803e-01 0. 0. 0. 0. 0. 0. 4.25659090e-01 0. 0.
      1.37976170e-01 0. 3.95867199e-01 0. 0. 0. 5.95215619e-01 0. 0. 0.
      0. 0. 4.78182614e-01 1.44118547e-01 5.48850060e-01 0.
      4.88449007e-01 0. 5.29959500e-01 6.01353526e-01 0. 0. 0. 0.
      4.86125559e-01 0. 6.44958019e-01 0. 5.02379537e-01 4.31219995e-01
      6.35438919e-01 5.20096242e-01 4.49463934e-01 6.54248297e-01
      5.84062219e-01 4.69183058e-01 5.59350789e-01 6.49612188e-01
      4.44995224e-01 6.71081066e-01 0. 0. 0. 6.71154439e-01
      4.45105821e-01 6.49763703e-01 0. 6.29273713e-01 0. 0.
      4.05134559e-01 6.35826111e-01 3.60624999e-01 3.16326290e-01 0.
      4.58914757e-01 0. 4.86732721e-01 4.43488240e-01 5.15036464e-01
      4.00687426e-01 3.29168439e-01 5.01339853e-01 0. 0. 3.88233215e-01
      0. 0. 3.47472250e-01 4.79210883e-01 2.77000934e-01 5.40827096e-01
      4.39899653e-01 5.02261937e-01 0. 0. 0. 4.96525168e-01
      3.33654135e-01 0. 4.60926890e-01 0. 0. 2.67232448e-01 0. 0. 0. 0.
      0. 3.63750964e-01 0. 0. 0. 0. 0. 0. 0. 0. 0. 0. 0. 2.10241318e-01
      0. 0. 0. 0. 0. 0. 0. 0. 0. 0. 1.20124653e-01 0. 4.49507773e-01 0.
      4.21662152e-01 5.36899090e-01 2.79090017e-01 0. 5.98662615e-01 0.
      0. 6.62398696e-01 7.07321525e-01 6.82500243e-01 7.27589190e-01
      2.72991240e-01 0. 5.89548409e-01 0. 7.93044567e-01 0.
      8.16206574e-01 5.44979870e-01 1.14501938e-01 5.69243014e-01 0. 0.
      3.44627291e-01 0. 8.05937529e-01 8.32437336e-01 0. 5.13370693e-01
      8.42652202e-01 0. 0. 0. 5.97444415e-01 0. 0. 0. 6.13268614e-01 0.
      0. 0. 4.29573059e-01 0. 2.57628649e-01 2.88388968e-01 0.
      5.83252549e-01 5.13715804e-01 0. 6.07931674e-01 0. 7.34269917e-01
      5.39679110e-01 0. 0. 0. 0. 2.14735568e-01 0. 0. 0. 0. 0. 0. 0. 0.
      0. 0. 0. 5.41136563e-01 0. 0. 0. 5.15857756e-01 0. 0.
      5.24037540e-01 4.93442297e-01 0. 2.60667831e-01 7.77409852e-01 0.
      7.17972696e-01 6.88560724e-01 0. 4.15855199e-01 7.02040493e-01 0.
      0. 6.88717961e-01 0. 7.05104947e-01 0. 0. 0. 4.21007931e-01
      9.00923848e-01 8.75328124e-01 8.50166202e-01 6.90288544e-01
      8.70580137e-01 8.46487343e-01 0. 0. 8.45218599e-01 0.
      8.22873712e-01 5.96718907e-01 0. 8.25298905e-01 0. 0. 0. 0. 0. 0.
      0. 7.48794615e-01 0. 0. 0. 0. 6.72795415e-01 6.29789770e-01 0.
      5.87122023e-01 6.16311133e-01 0. 0. 0. 0. 0. 0. 0. 0. 0. 0. 0. 0.
      0. 3.45226675e-01 0. 0. 0. 0. 0. 0. 0. 0.</_>
    <_>
      0. 0. 0. 0. 0. 0. 3.19179177e-01 0. 2.50877023e-01 0. 0.
      3.58019471e-01 0. 0. 4.32355523e-01 3.99000704e-01 0.
      4.74379987e-01 3.32901686e-01 0. 0. 4.85192448e-01 0.
      5.29715240e-01 0. 5.74896276e-01 5.43778002e-01 0. 5.89883506e-01
      6.36358023e-01 4.06150550e-01 0. 4.53237057e-01 0. 0. 0.
      4.72102344e-01 6.91784918e-01 0. 4.92643774e-01 3.69320363e-01
      9.54355836e-01 9.76840496e-01 9.02888238e-01 1. 9.75205541e-01 0.
      7.08126128e-01 0. 9.53048825e-01 9.04580653e-01 9.79186237e-01
      7.37586439e-01 6.41226888e-01 9.84772623e-01 8.40684891e-01 0.
      5.73422730e-01 8.49966824e-01 9.26424325e-01 9.08741653e-01
      7.85162687e-01 3.08003455e-01 0. 0. 4.92270827e-01 7.53725708e-01
      7.08287656e-01 0. 0. 5.10277867e-01 0. 0. 0. 0. 0. 1.73554689e-01
      0. 0. 2.07019418e-01 0. 6.58663332e-01 2.74609059e-01
      5.85549533e-01 6.87847912e-01 0. 5.47761023e-01 6.16283238e-01
      2.37042174e-01 0. 6.83553576e-01 0. 0. 6.49660707e-01 0. 0.
      6.86147451e-01 0. 0. 0. 0. 0. 0. 0. 0. 2.44421303e-01 0. 0. 0. 0.
      0. 0. 0. 0. 7.46718466e-01 0. 6.07569456e-01 0. 7.30511069e-01
      6.23394549e-01 7.46891856e-01 0. 0. 5.64180613e-01 7.35518038e-01
      0. 0. 0. 5.55446386e-01 2.60150552e-01 7.96764910e-01 0. 0.
      7.93584406e-01 0. 8.17398489e-01 0. 0. 0. 8.18635166e-01
      5.76235414e-01 7.96129823e-01 7.74495006e-01 0. 0. 0.
      7.81861722e-01 0. 6.39091611e-01 5.15280426e-01 6.68432534e-01
      6.21498346e-01 4.21280473e-01 7.28430867e-01 6.82164788e-01 0.
      7.44230568e-01 0. 0. 7.30795383e-01 5.77832043e-01 0. 0.
      6.75324619e-01 0. 6.32647276e-01 0. 0. 6.24393523e-01 0.
      5.50239861e-01 5.84061563e-01 4.42922711e-01 5.10985374e-01 0.
      3.36455107e-01 4.04925466e-01 0. 0. 0. 0. 3.00712705e-01 0. 0. 0.
      0. 0. 0. 0. 0. 0. 0. 0. 0. 0. 4.17605251e-01 0. 4.93059129e-01
      5.68878651e-01 0. 5.36301613e-01 6.12549186e-01 0. 6.25145257e-01
      0. 6.70433939e-01 0. 0. 7.62230098e-01 7.31812298e-01 0. 0. 0.
      7.66794443e-01 0. 7.85955966e-01 8.33837986e-01 0. 0.
      8.27232897e-01 7.03955531e-01 8.97657692e-01 0. 8.71976972e-01 0.
      0. 8.71099472e-01 4.82454240e-01 8.47401798e-01 0. 0.
      5.82357943e-01 0. 6.09306395e-01 0. 0. 5.89112163e-01
      4.17518765e-01 0. 0. 5.99738777e-01 8.76711786e-01 9.06631947e-01
      5.83272278e-01 0. 0. 0. 0. 5.99934518e-01 6.31756604e-01 0.
      8.04747343e-01 8.37243259e-01 7.61249840e-01 6.85440660e-01 0.
      5.01415193e-01 0. 2.84866214e-01 4.93699908e-01 0. 0.
      4.20185596e-01 2.11308956e-01 5.22394896e-01 0. 0. 4.85248208e-01
      5.19557357e-01 0. 0. 0. 4.15936500e-01 1.75572634e-01 0. 0.
      4.86450464e-01 0. 3.15707743e-01 0. 4.56777155e-01 4.22956645e-01
      0. 0. 7.47117639e-01 0. 7.89144397e-01 6.47576451e-01
      6.14654243e-01 7.99172223e-01 7.34194636e-01 8.10533106e-01
      7.78438509e-01 7.46545076e-01 1.91611409e-01 0. 8.05992305e-01 0.
      7.75233269e-01 8.21579516e-01 0. 6.85010076e-01 8.08755577e-01
      7.79621184e-01 7.03283727e-01 0. 5.98945141e-01 0. 0.
      7.91475952e-01 7.64773607e-01 0. 0. 5.67660093e-01 7.61902213e-01
      0. 7.37333357e-01 0. 0. 0. 7.39160478e-01 0. 0. 0. 0. 0. 0. 0. 0.
      6.57318056e-01 6.10101461e-01 0. 0. 5.93222320e-01 5.46946943e-01
      0. 5.01108944e-01 5.32504320e-01 4.55840260e-01 3.79239023e-01 0.
      0. 0. 0. 0. 0. 0. 0. 0. 0. 0. 0. 0. 0. 0. 0. 0. 0. 0. 0.</_>
    <_>
      0. 0. 0. 0. 3.07803601e-01 0. 2.30709672e-01 0. 1.53854996e-01
      4.27263737e-01 3.50852430e-01 0. 0. 0. 0. 5.56199789e-01
      5.18810451e-01 0. 2.00162947e-01 0. 4.08072829e-01 2.85836160e-01
      7.02207625e-01 4.58070308e-01 7.17040718e-01 0. 7.68338323e-01 0.
      1.28412887e-01 7.85732687e-01 8.38178217e-01 0. 0. 1.81338683e-01
      0. 0. 0. 0. 5.36708176e-01 5.91017306e-01 0. 5.06786168e-01
      6.15892649e-01 9.98209476e-01 0. 6.42134070e-01 0. 6.69580996e-01
      0. 6.43525481e-01 1. 0. 0. 1.23647220e-01 0. 5.95540226e-01 0.
      3.48603755e-01 0. 2.95279473e-01 6.06974125e-01 0. 0.
      5.88357389e-01 0. 0. 0. 0. 6.07358396e-01 0. 0. 0. 5.93810856e-01
      0. 0. 0. 6.19920611e-01 0. 0. 0. 0. 2.17303440e-01 7.64069259e-01
      2.93827206e-01 0. 7.97761202e-01 0. 6.79198205e-01 7.17811644e-01
      0. 0. 7.16890037e-01 9.82550979e-02 0. 0. 0. 7.98194408e-01
      7.21288621e-01 0. 0. 0. 6.50391459e-01 7.71671712e-01 0.
      6.96132541e-01 0. 0. 7.05853283e-01 0. 0. 8.03326130e-01
      6.81097865e-01 6.44927382e-01 1.06404737e-01 7.81663716e-01 0.
      6.24953568e-01 0. 0. 8.15577209e-01 0. 6.09247923e-01 0.
      8.01743150e-01 6.29898369e-01 8.23013604e-01 5.98146558e-01
      2.65538990e-01 3.19689095e-01 8.14829826e-01 6.75958753e-01
      7.84846902e-01 7.55653143e-01 0. 7.27343798e-01 7.82017469e-01 0.
      0. 0. 7.83005893e-01 5.64703763e-01 0. 0. 0. 4.86052513e-01
      4.31990832e-01 0. 0. 0. 6.36008322e-01 0. 0. 5.30399501e-01 0.
      6.51148379e-01 0. 0. 0. 5.48462689e-01 0. 0. 5.34546256e-01 0. 0.
      4.85910237e-01 3.63744169e-01 0. 0. 0. 0. 0. 0. 0. 0.
      1.96678713e-01 0. 0. 0. 0. 0. 0. 0. 0. 0. 2.73475319e-01
      2.34904394e-01 1.96370870e-01 0. 0. 0. 3.54747266e-01
      3.16633373e-01 0. 4.38010424e-01 4.00354773e-01 0. 0.
      4.85037953e-01 0. 0. 0. 4.97092903e-01 0. 5.47248065e-01 0. 0. 0.
      5.63294113e-01 6.15345180e-01 0. 0. 0. 6.34389281e-01
      6.87582433e-01 0. 7.08907545e-01 7.62784481e-01 0. 0.
      5.92579842e-01 7.01277852e-01 6.17196262e-01 7.26327181e-01
      8.35519075e-01 7.52530336e-01 0. 0. 6.15745306e-01 0.
      6.44129515e-01 0. 4.25987601e-01 3.17219585e-01 7.58079529e-01
      8.43010247e-01 0. 8.20436954e-01 7.66711354e-01 7.99097896e-01
      5.20390570e-01 0. 5.53684831e-01 8.12828183e-01 0. 7.95053840e-01
      5.35684824e-01 0. 0. 8.14378977e-01 0. 5.55958927e-01 0. 0.
      2.62132436e-01 5.43564081e-01 2.99204469e-01 7.77423382e-01 0. 0.
      5.71458161e-01 0. 6.85366750e-01 0. 3.29644233e-01 0.
      4.44978863e-01 0. 0. 5.64788021e-02 0. 4.43100780e-01 0. 0. 0. 0.
      4.83136714e-01 0. 3.29119503e-01 0. 4.87579167e-01 0. 0. 0.
      3.35606903e-01 0. 4.57466215e-01 0. 0. 0. 4.68580782e-01 0.
      4.32200789e-01 0. 0. 0. 0. 7.93094814e-01 0. 7.58484066e-01
      8.10698926e-01 8.63219380e-01 6.90554798e-01 0. 8.50099921e-01
      7.64227569e-01 0. 8.71707320e-01 0. 7.01136112e-01 8.63924861e-01
      6.70709372e-01 8.88566434e-01 0. 3.94012213e-01 0. 0.
      8.58657181e-01 6.94634914e-01 8.86823773e-01 6.68398917e-01
      8.06734383e-01 7.52260327e-01 8.90999436e-01 0. 6.73929274e-01 0.
      8.44623268e-01 5.97843051e-01 0. 8.56021285e-01 0. 5.77595234e-01
      0. 0. 8.18670690e-01 7.66998768e-01 0. 0. 4.56880212e-01 0.
      4.92902786e-01 7.37344623e-01 0. 6.88260734e-01 0. 6.40085101e-01
      6.77401841e-01 5.93039036e-01 6.30768895e-01 0. 0. 0. 0. 0. 0. 0.
      0. 0. 0. 0.</_>
    <_>
      0. 0. 0. 5.08238971e-01 0. 0. 0. 4.77889806e-01 0. 0. 0.
      3.13383937e-01 0. 0. 0. 4.90430802e-01 0. 0. 0. 0. 4.68458116e-01
      0. 0. 0. 4.80688661e-01 0. 7.47926593e-01 7.18082726e-01
      2.71640122e-01 4.65442091e-01 0. 7.04831958e-01 6.76362395e-01
      7.96294272e-01 7.68331349e-01 6.94523454e-01 7.87184358e-01
      8.33637536e-01 4.27576125e-01 7.80809402e-01 8.27620447e-01
      7.55209446e-01 8.49073589e-01 8.71269703e-01 0. 8.47097456e-01
      8.23560596e-01 6.35341942e-01 8.47733259e-01 6.12707794e-01 0.
      8.97828043e-01 0. 6.63857877e-01 0. 3.57693195e-01 0.
      6.71299994e-01 5.79218686e-01 6.53318048e-01 0. 0. 0.
      5.91489673e-01 0. 0. 6.51164532e-01 0. 0. 0. 0. 6.26003087e-01 0.
      0. 0. 0. 0. 0. 0. 5.34912884e-01 0. 6.32998109e-01 6.98662996e-01
      5.62139213e-01 0. 0. 0. 0. 0. 0. 0. 0. 0. 0. 0. 0. 0. 0.
      6.96233511e-01 0. 0. 6.68654382e-01 0. 0. 0. 0. 0. 6.84190035e-01
      0. 6.94223821e-01 6.62821531e-01 0. 0. 6.74816787e-01 0.
      6.13834798e-01 0. 0. 7.02931464e-01 0. 5.99235356e-01 0. 0. 0.
      7.08030164e-01 0. 0. 0. 7.46832788e-01 6.73995852e-01 0.
      9.08341110e-01 7.42376268e-01 6.70707405e-01 9.05903757e-01 0.
      4.11464185e-01 1. 0. 0. 8.14550459e-01 7.20830441e-01
      4.14155632e-01 7.46852696e-01 8.19974780e-01 8.46873760e-01
      8.74211848e-01 0. 8.55982125e-01 8.84291410e-01 0. 7.93231726e-01
      8.96730542e-01 0. 8.07075620e-01 8.37040544e-01 5.39519548e-01
      3.16522300e-01 8.54069889e-01 0. 0. 3.78616780e-01 0. 0. 0.
      5.79128802e-01 0. 4.01342362e-01 0. 0. 0. 0. 0. 0. 0. 0. 0. 0. 0.
      0. 0. 0. 3.90930057e-01 0. 0. 0. 0. 3.93072397e-01 5.62264740e-01
      0. 0. 0. 5.67671239e-01 0. 3.32876116e-01 3.00552338e-01 0. 0. 0.
      0. 5.20933807e-01 4.89718050e-01 0. 2.79607922e-01 0. 0. 0.
      4.72486258e-01 0. 0. 0. 4.13787603e-01 0. 0. 0. 0. 0.
      4.04349446e-01 0. 0. 6.38084888e-01 7.31860340e-01 6.12865448e-01
      7.53859997e-01 0. 0. 0. 0. 0. 0. 0. 0. 0. 0. 0. 9.53685999e-01
      6.94678605e-01 0. 6.02469802e-01 0. 9.73255515e-01 0.
      9.56910670e-01 9.86268282e-01 0. 9.71283376e-01 0. 9.87691402e-01
      0. 0. 8.26865792e-01 0. 8.15749288e-01 9.52609956e-01 0.
      9.42977011e-01 9.02163267e-01 5.22820711e-01 5.55195093e-01 0. 0.
      5.81523597e-01 6.14409626e-01 0. 0. 0. 0. 0. 6.74591005e-01 0. 0.
      6.40914679e-01 2.74944156e-01 0. 6.42217875e-01 0. 0. 0. 0. 0.
      2.45120332e-01 0. 8.91122937e-01 8.25966477e-01 8.98245931e-01
      9.38652098e-01 7.69380093e-01 0. 9.15959179e-01 7.79041767e-01
      9.26483095e-01 0. 7.58876085e-01 9.07153964e-01 7.71545589e-01
      9.20188844e-01 0. 9.04405296e-01 0. 7.26054192e-01 6.96857572e-01
      0. 0. 8.79568100e-01 8.51734638e-01 0. 0. 8.43893468e-01 0. 0. 0.
      3.18849921e-01 7.66500950e-01 6.47828996e-01 6.94860458e-01
      6.23868346e-01 0. 0. 0. 0. 3.18838298e-01 0. 0. 1.78341568e-01 0.
      0. 3.71783078e-01 0. 0. 0. 0. 0. 0. 3.83502305e-01 0.
      4.13392276e-01 0. 1.90335721e-01 0. 0. 0. 0. 0. 2.52851129e-01 0.
      0. 0. 4.54217434e-01 0. 0. 0. 4.47442144e-01 0. 0. 0.
      4.76207316e-01 0. 0. 0. 0.</_>
    <_>
      0. 0. 0. 2.64148146e-01 2.31107369e-01 0. 0. 0. 0. 0. 0. 0. 0.
      3.71679544e-01 3.39430153e-01 0. 0. 0. 0. 0. 0. 0. 4.95700508e-01
      4.64991271e-01 5.38828075e-01 0. 1.08764745e-01 2.56726295e-01 0.
      4.49254304e-01 0. 0. 4.65772599e-01 5.85020483e-01 6.30725324e-01
      0. 9.80203152e-01 6.95573747e-01 1. 0. 0. 7.36558795e-01 0.
      7.58387446e-01 7.34220743e-01 0. 0. 3.83270890e-01 7.34861195e-01
      0. 7.12971985e-01 6.19725406e-01 3.14729512e-01 4.33675677e-01
      7.18219340e-01 6.25755250e-01 6.98946834e-01 7.26449311e-01
      9.19288039e-01 8.73640597e-01 8.56589615e-01 9.30450857e-01
      8.40495944e-01 9.14459825e-01 8.99402320e-01 4.55493301e-01
      1.59630507e-01 0. 8.57651457e-02 4.42142546e-01 0. 0. 0. 0.
      4.62545961e-01 0. 2.53488898e-01 0. 4.54251170e-01 4.86607671e-01
      5.19056499e-01 0. 6.49497926e-01 4.81011540e-01 6.12405956e-01
      6.78243399e-01 0. 6.09767139e-01 0. 0. 0. 5.09651065e-01 0. 0.
      6.09864593e-01 4.77771819e-01 0. 5.79721570e-01 5.14045358e-01
      6.82485044e-01 6.17100358e-01 5.51904738e-01 4.86974180e-01 0. 0.
      0. 0. 0. 2.22215816e-01 0. 0. 6.51801825e-01 0. 0. 5.90450406e-01
      7.08090484e-01 0. 5.30260921e-01 6.48689985e-01 0. 7.38448381e-01
      0. 6.36119962e-01 2.50274450e-01 7.27431059e-01 5.80683768e-01 0.
      0. 7.65642405e-01 0. 5.74284434e-01 7.60800362e-01 5.95855772e-01
      7.82826781e-01 0. 6.18445933e-01 0. 5.95165789e-01 0. 0. 0. 0. 0.
      0. 0. 7.70096004e-01 0. 7.97375381e-01 5.12939811e-01 0.
      4.21918571e-01 4.95785028e-01 4.50840175e-01 5.98781765e-01 0. 0.
      6.58110857e-01 0. 6.44829869e-01 0. 0. 0. 5.59638798e-01
      6.95715547e-01 5.18131196e-01 0. 5.81937075e-01 6.14028335e-01 0.
      0. 0. 0. 0. 3.35017025e-01 4.33544755e-01 0. 0. 2.32901841e-01
      2.98995227e-01 0. 0. 0. 0. 0. 0. 0. 0. 1.67513967e-01 0. 0.
      3.35971862e-01 0. 2.70818591e-01 4.07140642e-01 3.74862611e-01
      4.79164541e-01 4.47188586e-01 5.51708817e-01 5.19982696e-01 0. 0.
      6.35190725e-01 3.21544558e-01 6.47309065e-01 0. 6.90876544e-01 0.
      0. 0. 0. 7.20654309e-01 7.65769541e-01 0. 7.82875121e-01
      6.35769248e-01 7.27711558e-01 7.73830891e-01 8.20026636e-01 0.
      7.67537892e-01 8.60670090e-01 4.37050581e-01 5.30413866e-01
      8.57573748e-01 5.52846849e-01 0. 0. 7.63448358e-01 0. 0.
      7.65697122e-01 8.37699473e-01 7.91151762e-01 8.63567531e-01 0.
      6.32059038e-01 0. 0. 0. 0. 5.96309304e-01 0. 0. 3.58499110e-01 0.
      0. 0. 0. 0. 6.26991689e-01 0. 0. 7.20121443e-01 0. 0.
      3.64685774e-01 3.96606207e-01 2.92283356e-01 0. 4.93292302e-01
      3.57018054e-01 4.22200382e-01 2.20934704e-01 4.87650931e-01 0.
      3.52303565e-01 4.84210044e-01 0. 0. 0. 3.83750170e-01 0. 0. 0. 0.
      4.51076925e-01 0. 0. 0. 4.21918541e-01 0. 3.56684685e-01
      1.55495495e-01 0. 0. 6.36990547e-01 6.05085075e-01 7.09625542e-01
      0. 0. 0. 6.57202423e-01 7.30825484e-01 7.00069547e-01 0.
      6.39257073e-01 6.83251023e-01 0. 5.79621255e-01 6.98265791e-01 0.
      7.88326025e-01 0. 0. 3.00456375e-01 0. 6.31023109e-01
      7.69704461e-01 0. 7.43515968e-01 6.71286166e-01 0. 6.46192968e-01
      7.39640892e-01 5.28289378e-01 0. 6.91924393e-01 4.57979202e-01 0.
      1.30627438e-01 6.94097161e-01 0. 0. 0. 0. 0. 0. 6.34270728e-01
      5.88478327e-01 0. 0. 5.71301520e-01 5.26271880e-01 0. 0.
      5.11292756e-01 3.63367587e-01 4.67510581e-01 3.93660873e-01
      3.19875538e-01 2.46212408e-01 0. 0. 0. 0. 0. 0. 0. 0. 0. 0. 0.
      1.32935315e-01 0. 0. 0. 0. 0. 0. 0.</_>
    <_>
      0. 3.08069974e-01 0. 0. 0. 0. 3.44245583e-01 0. 0. 0. 0. 0.
      3.49384159e-01 0. 0. 0. 0. 2.48934045e-01 4.66653496e-01
      2.16052979e-01 0. 2.92516857e-01 4.77960676e-01 0. 5.22871196e-01
      0. 0. 5.37419438e-01 0. 5.83852887e-01 0. 0. 6.00877643e-01
      6.48255467e-01 0. 0. 0. 0. 0. 8.80671799e-01 7.08586216e-01
      9.02624130e-01 8.28069329e-01 5.59308290e-01 8.51379037e-01 0.
      6.80602014e-01 0. 6.08087838e-01 9.25484836e-01 9.51398253e-01 0.
      8.80980730e-01 9.08164859e-01 0. 5.91500759e-01 6.67704761e-01 0.
      8.20564449e-01 8.49683702e-01 8.79187703e-01 0. 8.62234473e-01
      8.15652788e-01 8.46343935e-01 6.46343112e-01 5.69363773e-01 0.
      4.47075188e-01 0. 0. 4.02548134e-01 6.52938306e-01 5.76839745e-01
      4.67963725e-01 0. 3.92265677e-01 1.41636655e-01 4.59148586e-01 0.
      0. 4.18758124e-01 0. 4.86875653e-01 6.23613298e-01 0. 0. 0. 0. 0.
      0. 1.72295883e-01 0. 0. 0. 0. 0. 6.24030530e-01 5.55649936e-01 0.
      0. 0. 0. 0. 0. 0. 0. 5.02057850e-01 0. 4.36317056e-01
      5.12705743e-01 0. 4.80454326e-01 4.48528349e-01 6.02305949e-01
      6.79235995e-01 0. 6.17004275e-01 0. 6.63427293e-01 5.56341529e-01
      0. 6.03500605e-01 0. 6.98455751e-01 0. 0. 6.90002561e-01
      5.17803431e-01 6.14422143e-01 0. 0. 0. 5.61983168e-01
      7.56682754e-01 0. 1.96222603e-01 7.56764889e-01 5.62093675e-01
      7.82281816e-01 5.87989926e-01 0. 6.14725351e-01 0. 0.
      5.94115317e-01 7.94475257e-01 2.49971554e-01 7.75585234e-01 0. 0.
      0. 0. 0. 0. 0. 4.17895555e-01 2.64058083e-01 4.49496746e-01 0. 0.
      5.13795018e-01 3.28545958e-01 0. 3.61398220e-01 5.03293574e-01
      5.36499500e-01 4.27852511e-01 0. 6.70569241e-01 0. 0.
      6.64345086e-01 5.57212770e-01 6.25621140e-01 3.48005742e-01
      4.85278279e-01 5.54005325e-01 0. 0. 5.18488467e-01 0. 0. 0. 0.
      4.16587591e-01 3.82275522e-01 3.13735425e-01 0. 0. 0. 0. 0. 0. 0.
      0. 2.52520412e-01 0. 0. 4.37400430e-01 5.13737440e-01
      5.90249360e-01 5.58117151e-01 0. 6.80080295e-01 0. 0.
      6.94742560e-01 7.41089404e-01 3.56192201e-01 0. 0. 3.26464206e-01
      8.23058784e-01 3.74051034e-01 0. 2.97753453e-01 1.73663914e-01
      3.94116372e-01 2.21948475e-01 0. 3.67469311e-01 0. 6.10636294e-01
      0. 9.75384772e-01 0. 1. 9.76530373e-01 3.67284119e-01 0.
      7.11123943e-01 0. 3.45467895e-01 9.86061454e-01 7.17669904e-01 0.
      0. 0. 2.01722980e-01 0. 3.55427444e-01 4.32363898e-01 0.
      4.62831616e-01 6.47796810e-01 0. 5.25241792e-01 0. 7.42483020e-01
      6.97930515e-01 8.39208782e-01 4.36154366e-01 5.77803016e-01
      5.01892865e-01 5.35058618e-01 5.68375945e-01 0. 0. 0. 0. 0.
      2.43716598e-01 0. 0. 4.14787352e-01 4.83440161e-01 0. 0. 0.
      5.16516626e-01 0. 0. 0. 4.83170927e-01 4.48815197e-01 0. 0. 0.
      2.09102809e-01 8.03602099e-01 0. 7.01987267e-01 0. 0. 0.
      6.42805099e-01 3.58942747e-01 0. 6.52775228e-01 0. 7.73190320e-01
      8.49836946e-01 7.09187150e-01 7.86038756e-01 0. 0. 8.46190214e-01
      6.61507428e-01 0. 8.31980467e-01 6.01409078e-01 0. 5.72102845e-01
      4.95582581e-01 7.91730404e-01 7.15490401e-01 0. 7.84124851e-01 0.
      0. 3.16228658e-01 0. 7.05297589e-01 0. 5.83069682e-01 0.
      7.05209553e-01 5.10532022e-01 6.82130039e-01 6.33551598e-01 0. 0.
      0. 0. 5.90940475e-01 5.42941749e-01 3.70906383e-01 4.47402626e-01
      5.24049401e-01 4.76780295e-01 0. 0. 0. 1.52293593e-01 0. 0. 0. 0.
      1.83679551e-01 0. 0. 0. 0. 0. 0. 0. 0. 0. 0. 0. 2.07612172e-01 0.
      0. 0. 0. 0. 0. 0. 0.</_>
    <_>
      0. 3.93082738e-01 1.38610929e-01 0. 0. 4.22533542e-01 0. 0. 0.
      4.25587505e-01 1.97676644e-01 1.69824466e-01 4.58195418e-01 0.
      2.58718699e-01 0. 2.31303185e-01 0. 2.93527156e-01 0. 0. 0.
      4.81774509e-01 3.03227365e-01 0. 0. 4.66973394e-01 0.
      3.15174103e-01 4.79843467e-01 0. 0. 3.29122841e-01 0.
      4.70111668e-01 0. 6.89988971e-01 4.86198604e-01 0. 6.84426188e-01
      0. 6.62580252e-01 0. 7.61052966e-01 6.60427690e-01 0.
      6.40262842e-01 8.20567727e-01 0. 6.81684256e-01 3.01315844e-01 0.
      0. 6.85450137e-01 7.47544765e-01 0. 6.52212977e-01 7.14957774e-01
      0. 5.97947598e-01 0. 0. 0. 6.72064841e-01 6.34084046e-01 0.
      5.96366107e-01 0. 0. 7.00538576e-01 0. 6.64188027e-01 0. 0. 0. 0.
      6.74721777e-01 3.52390200e-01 6.40654862e-01 6.68291092e-01 0. 0.
      5.74815273e-01 0. 0. 5.99624634e-01 0. 0. 0. 0. 0. 0. 0. 0. 0.
      3.72291952e-01 6.00156069e-01 0. 0. 5.75646579e-01 3.47818464e-01
      0. 0. 0. 0. 0. 0. 0. 0. 0. 0. 0. 0. 0. 0. 0. 0. 0. 0.
      6.49770677e-01 0. 0. 0. 6.39824986e-01 0. 0. 0. 8.13154519e-01
      7.90598392e-01 0. 6.66968048e-01 7.86522150e-01 7.65271962e-01 0.
      7.04514742e-01 4.44280952e-01 0. 0. 7.65230298e-01 0.
      7.86461294e-01 0. 7.28574276e-01 7.90497661e-01 8.13036859e-01
      7.34019637e-01 7.96523750e-01 0. 8.04494977e-01 0. 0.
      7.51205027e-01 7.75919259e-01 0. 5.09881675e-01 0. 3.45650226e-01
      4.97788817e-01 0. 0. 0. 5.13570130e-01 0. 0. 0. 3.26033086e-01 0.
      0. 0. 0. 0. 0. 0. 4.87238377e-01 0. 0. 0. 4.56359684e-01 0. 0.
      4.55272734e-01 0. 0. 0. 0. 0. 0. 0. 4.02235031e-01 3.74224246e-01
      0. 0. 0. 0. 3.51711035e-01 0. 2.96982229e-01 0. 0. 0. 0. 0. 0. 0.
      2.79736131e-01 0. 0. 0. 0. 0. 0. 4.95351970e-01 0. 4.71195400e-01
      5.10269642e-01 5.49475849e-01 0. 0. 0. 0. 0. 0. 0. 0. 0.
      9.59385335e-01 9.39509749e-01 0. 1. 9.41024184e-01 9.62349176e-01
      7.23392785e-01 5.02568901e-01 7.45580554e-01 0. 0. 0.
      5.71285069e-01 0. 7.59985805e-01 0. 7.45539606e-01 6.05479538e-01
      0. 7.57014036e-01 5.92666149e-01 0. 0. 7.33190358e-01 0.
      7.49136925e-01 5.96942663e-01 7.39900768e-01 0. 7.04492092e-01 0.
      6.96960926e-01 6.35308266e-01 0. 0. 0. 0. 4.24950361e-01
      2.53034443e-01 0. 0. 0. 4.78349090e-01 0. 0. 4.77345616e-01 0. 0.
      0. 4.78015780e-01 0. 2.80551612e-01 4.80352521e-01 0. 0. 0.
      4.56487685e-01 4.28700298e-01 0. 0. 6.68169796e-01 6.13568723e-01
      7.02906489e-01 0. 2.64170080e-01 5.95070601e-01 7.20657170e-01 0.
      5.78748584e-01 7.04974532e-01 0. 7.16674209e-01 0. 0.
      7.04316676e-01 0. 7.18257070e-01 0. 5.68207681e-01 0.
      5.44668376e-01 0. 7.02543616e-01 4.59388196e-01 6.80127621e-01 0.
      0. 6.76614821e-01 0. 6.55753076e-01 0. 0. 6.55777395e-01 0.
      6.36747122e-01 0. 5.78638434e-01 5.38882315e-01 0. 5.21722257e-01
      0. 4.42867488e-01 0. 0. 0. 0. 2.23861650e-01 0. 0. 0. 0. 0. 0. 0.
      0. 2.37787515e-01 0. 0. 0. 2.91565686e-01 0. 0. 0. 0. 0. 0.
      3.12788129e-01 3.40688050e-01 0. 0. 0. 0. 0. 0. 0.</_>
    <_>
      0. 0. 0. 0. 0. 0. 0. 0. 0. 0. 5.19791663e-01 0. 0. 0.
      5.26062787e-01 0. 5.64565957e-01 0. 0. 2.73600698e-01 0. 0.
      5.84695339e-01 0. 0. 0. 5.68339646e-01 0. 0. 0. 0. 8.53577554e-01
      5.98467767e-01 0. 8.43646407e-01 8.17491293e-01 5.89337111e-01 0.
      9.24659193e-01 0. 8.75269711e-01 0. 8.06602597e-01 8.72503102e-01
      4.02073830e-01 8.49600554e-01 7.82522559e-01 3.79814655e-01
      8.50291312e-01 5.82083762e-01 7.84550369e-01 0. 7.64259040e-01
      8.33514035e-01 5.42214453e-01 7.70246387e-01 0. 8.22503805e-01 0.
      5.50621569e-01 8.76218498e-01 0. 0. 7.74764717e-01 0.
      7.60821640e-01 0. 0. 0. 7.77215242e-01 0. 7.95791507e-01 0. 0. 0.
      0. 0. 0. 0. 0. 0. 0. 0. 0. 0. 0. 0. 0. 0. 0. 0. 0. 0. 0. 0. 0. 0.
      0. 0. 0. 0. 0. 0. 0. 0. 0. 0. 0. 0. 0. 0. 0. 0. 0. 0. 0. 0.
      8.40175211e-01 8.11954081e-01 0. 8.27003479e-01 0. 0.
      8.16077054e-01 0. 8.33458781e-01 0. 9.40178275e-01 8.26262951e-01
      8.45806658e-01 9.34877157e-01 0. 1. 8.42291892e-01 8.63794386e-01
      0. 4.38323379e-01 8.63838792e-01 8.87079000e-01 0. 0.
      4.40689683e-01 6.43338084e-01 6.68253183e-01 4.65692312e-01 0. 0.
      0. 0. 0. 0. 6.86116278e-01 0. 6.70949817e-01 4.86883819e-01 0. 0.
      6.85772181e-01 0. 0. 0. 4.62516934e-01 0. 0. 0. 4.53166544e-01 0.
      3.84014934e-01 4.14888740e-01 0. 0. 3.46771091e-01 0.
      6.33152127e-01 0. 5.98028302e-01 0. 0. 5.95890701e-01 0. 0.
      5.63783586e-01 0. 0. 0. 5.01942515e-01 0. 0. 0. 0. 4.42783475e-01
      3.80425394e-01 0. 0. 0. 0. 0. 3.57103199e-01 0. 0. 0. 0. 0. 0. 0.
      0. 0. 0. 0. 6.06942892e-01 6.50035143e-01 5.79397380e-01
      4.38248903e-01 6.66358173e-01 7.10076809e-01 0. 0. 0. 0. 0. 0. 0.
      0. 0. 0. 0. 0. 0. 8.74216735e-01 5.61228514e-01 8.76977980e-01
      5.40662169e-01 9.01451230e-01 0. 0. 9.07446802e-01 9.33268607e-01
      9.15593743e-01 9.42255676e-01 7.14151084e-01 0. 0. 7.25856185e-01
      0. 0. 7.11483359e-01 2.86944389e-01 0. 7.27374673e-01 0.
      7.15836525e-01 4.45436388e-01 0. 7.35728920e-01 7.66044557e-01
      4.66124743e-01 0. 7.88485527e-01 8.19294333e-01 0. 4.90038335e-01
      5.52402973e-01 0. 0. 5.48194170e-01 2.93123752e-01 0. 0.
      5.77406883e-01 0. 0. 5.76864898e-01 0. 0. 5.46479821e-01 0. 0. 0.
      5.49564600e-01 0. 0. 0. 8.15084159e-01 4.61403728e-01
      7.22337008e-01 0. 0. 0. 6.69418037e-01 0. 6.79351211e-01 0.
      4.49638277e-01 0. 6.61363482e-01 0. 8.86674404e-01 8.58287692e-01
      0. 0. 8.45307410e-01 6.33394599e-01 8.61374021e-01 0.
      5.79807937e-01 6.23772442e-01 5.53783774e-01 0. 8.44846427e-01
      8.19905460e-01 0. 0. 8.16185236e-01 0. 0. 0. 0. 0. 0. 0. 0. 0. 0.
      6.86384678e-01 0. 0. 6.23464763e-01 5.79476893e-01 0.
      5.62413752e-01 0. 0. 0. 2.20852882e-01 0. 0. 0. 0. 0. 0. 0. 0. 0.
      2.38143787e-01 0. 0. 0. 2.99194813e-01 0. 0. 0. 0. 0. 0.
      3.56199384e-01 0. 0. 0. 0. 3.85794759e-01</_>
    <_>
      0. 0. 3.78433615e-01 0. 0. 0. 4.12379086e-01 3.80516618e-01 0. 0.
      0. 0. 0. 4.85858142e-01 0. 0. 0. 4.93756354e-01 0. 5.33858120e-01
      0. 0. 0. 0. 0. 0. 0. 0. 0. 2.85157055e-01 2.13595703e-01 0. 0.
      3.72971594e-01 6.03930652e-01 0. 0. 3.91153753e-01 5.96166193e-01
      0. 8.66267800e-01 4.11031365e-01 8.41866672e-01 9.08517957e-01
      4.32370722e-01 8.39986682e-01 8.17313552e-01 0. 8.85814250e-01 1.
      9.78938043e-01 8.43544066e-01 9.58483934e-01 8.23464930e-01
      8.04160833e-01 5.99319339e-01 0. 0. 8.12360525e-01 7.95370281e-01
      0. 5.64727187e-01 0. 8.07480693e-01 0. 7.92977631e-01 0. 0.
      8.08938205e-01 0. 7.97040582e-01 8.27074766e-01 0. 0. 0. 0. 0. 0.
      0. 0. 0. 0. 0. 0. 0. 0. 0. 0. 0. 0. 0. 0. 0. 0. 0. 0. 0. 0. 0. 0.
      0. 0. 0. 0. 0. 0. 0. 0. 0. 0. 0. 0. 0. 0. 0. 0. 0. 0. 0. 0. 0.
      9.00533736e-01 0. 6.14928305e-01 1.26054779e-01 0. 0.
      8.81925642e-01 9.01132524e-01 0. 4.65793908e-01 8.96473169e-01 0.
      9.17613924e-01 9.39371407e-01 9.16403770e-01 0. 9.39282358e-01 0.
      6.91268861e-01 9.41375673e-01 9.65788603e-01 0. 5.35447657e-01 0.
      1.25389263e-01 0. 5.42904437e-01 7.29579329e-01 0. 7.12833762e-01
      0. 0. 2.24217206e-01 7.25557387e-01 0. 0. 4.96899039e-01 0. 0.
      4.84837383e-01 4.13701087e-01 0. 4.44057733e-01 3.73396397e-01 0.
      0. 0. 0. 6.60996616e-01 0. 6.23519063e-01 0. 0. 6.18943393e-01 0.
      0. 0. 0. 0. 5.50660253e-01 0. 0. 4.87089217e-01 0. 0. 0. 0.
      4.26081657e-01 0. 0. 0. 0. 0. 0. 0. 0. 0. 0. 0. 0. 0. 0.
      5.61579883e-01 5.32143712e-01 0. 6.46252155e-01 0. 4.02659148e-01
      6.60743415e-01 7.04219520e-01 0. 0. 0. 0. 0. 0. 0. 0. 0. 0. 0.
      5.65370142e-01 2.70153463e-01 5.87145448e-01 6.32438838e-01
      8.81588459e-01 0. 6.78551376e-01 8.83379936e-01 7.02663898e-01
      9.07703280e-01 0. 2.72199571e-01 0. 0. 0. 7.15802193e-01
      9.02480245e-01 9.29619312e-01 6.98846340e-01 0. 0. 7.11275339e-01
      0. 2.38538936e-01 6.97158754e-01 4.10843879e-01 6.84251368e-01 0.
      0. 7.02804923e-01 7.33143866e-01 0. 8.24928939e-01 4.90526140e-01
      0. 0. 0. 5.14099836e-01 0. 0. 0. 5.08705080e-01 0. 0.
      5.37233531e-01 0. 0. 0. 5.35916328e-01 0. 0. 5.04519761e-01 0. 0.
      0. 5.07179260e-01 0. 0. 0. 0. 7.44205475e-01 0. 8.13714623e-01 0.
      0. 4.25637037e-01 6.28159583e-01 0. 8.40916753e-01 8.10814142e-01
      0. 8.22512567e-01 6.20588362e-01 0. 8.06236327e-01 6.34180665e-01
      8.20505083e-01 7.92219341e-01 2.47730732e-01 8.08006763e-01
      5.93827426e-01 0. 0. 4.95905519e-01 5.40534914e-01 7.90240705e-01
      5.14810264e-01 7.64865696e-01 0. 7.85136521e-01 7.60940552e-01 0.
      0. 0. 7.59701133e-01 0. 0. 0. 0. 0. 0. 6.75455153e-01
      6.30611956e-01 0. 6.12067997e-01 5.67640007e-01 0. 4.79274124e-01
      5.50704241e-01 5.06970823e-01 0. 0. 0. 0. 0. 0. 0. 0. 0. 0. 0. 0.
      1.94212794e-01 0. 0. 0. 0. 0. 0. 0. 0. 0. 2.19422892e-01 0. 0. 0.
      0. 0.</_>
    <_>
      0. 4.29702163e-01 0. 0. 0. 0. 0. 0. 4.91300344e-01 0. 0.
      4.95748430e-01 0. 0. 5.29905438e-01 0. 0. 5.37144244e-01
      5.73199511e-01 0. 0. 5.82765281e-01 2.44926944e-01 3.09293807e-01
      0. 5.67183495e-01 0. 0. 5.79731464e-01 1.27938285e-01 0.
      5.68481028e-01 0. 1.67529404e-01 5.83862782e-01 4.15744394e-01 0.
      0. 5.77042699e-01 0. 5.95010042e-01 0. 5.73057234e-01
      7.76897609e-01 0. 0. 7.76092649e-01 8.37704539e-01 0. 0.
      8.39940012e-01 7.58569241e-01 8.21496427e-01 8.44146430e-01 0.
      7.46236503e-01 0. 7.29995430e-01 0. 0. 7.39354193e-01
      7.64441848e-01 0. 0. 0. 0. 0. 0. 0. 4.68761861e-01 0. 0. 0. 0.
      4.86644119e-01 0. 0. 0. 0. 0. 0. 0. 0. 0. 0. 0. 0. 0. 0. 0. 0. 0.
      0. 0. 0. 0. 0. 0. 0. 0. 0. 4.74377483e-01 0. 0. 0. 0.
      4.52771515e-01 0. 0. 0. 0. 0. 0. 0. 0. 0. 0. 0. 0. 0.
      7.67721295e-01 7.42744327e-01 5.10039032e-01 0. 7.97780216e-01 0.
      7.50111043e-01 0. 8.07744443e-01 7.44514763e-01 8.25720012e-01 0.
      7.81895399e-01 8.22668135e-01 0. 8.62462699e-01 0. 8.01473379e-01
      8.63411009e-01 0. 8.03531587e-01 9.06939089e-01 5.59583426e-01
      8.07650924e-01 8.30660403e-01 0. 5.65482676e-01 8.37635994e-01 0.
      3.41530055e-01 0. 5.34777999e-01 0. 1.33844078e-01 3.27493280e-01
      5.47075629e-01 2.88963228e-01 2.24470302e-01 0. 0. 0. 0. 0. 0.
      5.15866816e-01 0. 4.80311066e-01 0. 0. 0. 0. 0. 0. 4.69309002e-01
      0. 0. 0. 0. 0. 0. 4.07528520e-01 0. 0. 0. 0. 3.50664794e-01 0. 0.
      0. 0. 0. 0. 2.68622726e-01 0. 0. 0. 0. 0. 0. 0. 0. 0. 0. 0. 0. 0.
      4.53158140e-01 0. 4.27383959e-01 5.31004071e-01 4.02030647e-01 0.
      5.45505881e-01 0. 0. 0. 0. 0. 0. 0. 0. 0. 8.14435035e-02 0.
      9.59395468e-01 9.38656688e-01 1. 0. 9.80120659e-01 2.24698871e-01
      7.16299415e-01 7.38487840e-01 4.72483158e-01 0. 3.91528517e-01 0.
      0. 0. 5.43209374e-01 0. 5.67763507e-01 7.60997593e-01 0.
      7.47053385e-01 0. 0. 7.60048628e-01 0. 0. 8.87871310e-02
      5.82091331e-01 0. 0. 5.72540641e-01 3.26329440e-01 0.
      7.11243987e-01 6.20215833e-01 0. 0. 6.42329216e-01 3.76413673e-01
      0. 0. 0. 0. 4.30369228e-01 0. 0. 0. 4.29174811e-01 0. 0. 0.
      4.58741009e-01 0. 0. 4.61248636e-01 0. 0. 0. 4.37163502e-01 0. 0.
      0. 4.43567932e-01 0. 0. 0. 0. 6.98248684e-01 3.97285819e-01
      7.08184898e-01 7.45730519e-01 0. 7.57246494e-01 6.02002740e-01 0.
      7.43942678e-01 5.89437127e-01 7.57689059e-01 3.96029741e-01
      6.03940785e-01 7.47744262e-01 0. 7.63607919e-01 7.39921629e-01 0.
      7.57051110e-01 0. 5.90031087e-01 2.61040419e-01 0. 5.46423972e-01
      7.50457108e-01 0. 7.29776204e-01 0. 0. 7.30937958e-01 0. 0. 0. 0.
      1.39348462e-01 0. 0. 0. 6.43850505e-01 6.04115665e-01 0. 0.
      5.89642048e-01 4.85998333e-01 5.11699855e-01 0. 0. 0. 0. 0.
      1.50936455e-01 0. 0. 0. 0. 0. 0. 0. 0. 0. 2.90380925e-01 0. 0. 0.
      0. 0. 3.15202475e-01 0. 0. 0.</_>
    <_>
      0. 0. 0. 0. 0. 0. 0. 0. 0. 0. 0. 0. 0. 2.49428406e-01 0.
      3.46071661e-01 9.32184383e-02 4.13359821e-01 3.84043336e-01 0. 0.
      0. 4.91283774e-01 0. 0. 5.03219068e-01 0. 5.44058084e-01 0. 0. 0.
      0. 0. 0. 0. 0. 0. 0. 0. 6.26867115e-01 0. 0. 0. 6.23681009e-01
      8.83747995e-01 6.44898176e-01 0. 8.83621931e-01 9.49343681e-01
      9.72160459e-01 0. 8.65831792e-01 0. 1. 8.71117473e-01 0.
      9.63740706e-01 6.57382488e-01 8.61840248e-01 6.40824020e-01
      8.45949173e-01 2.41135910e-01 0. 8.57960045e-01 8.85267973e-01 0.
      0. 0. 6.26010895e-01 0. 0. 0. 0. 0. 0. 0. 5.96332192e-01 0. 0.
      6.19354904e-01 0. 0. 0. 4.27639216e-01 0. 0. 0. 4.55084801e-01 0.
      0. 0. 0. 0. 0. 0. 0. 0. 0. 0. 0. 0. 0. 0. 0. 0. 0. 0. 0. 0.
      4.80068028e-01 6.45049393e-01 0. 0. 0. 6.27699971e-01 0. 0. 0. 0.
      0. 0. 0. 0. 6.85395360e-01 0. 9.66209352e-01 0. 6.77473128e-01 0.
      0. 0. 9.54969466e-01 9.75015163e-01 9.52266812e-01 7.13177204e-01
      9.73334789e-01 7.34701693e-01 9.73585248e-01 5.40216267e-01 0.
      3.23840678e-01 2.80651301e-01 0. 7.40462542e-01 0. 7.22058892e-01
      3.72815013e-01 4.83379394e-01 4.40888554e-01 0. 0. 0. 0. 0. 0. 0.
      0. 0. 0. 0. 0. 6.20983481e-01 0. 0. 6.11351669e-01 5.43865919e-01
      5.73441923e-01 5.06475329e-01 4.09975618e-01 4.40002888e-01 0. 0.
      3.74288142e-01 0. 0. 2.48729214e-01 0. 0. 0. 0. 0. 0. 0. 0. 0. 0.
      0. 0. 0. 0. 4.06391919e-01 0. 5.02415538e-01 4.42418426e-01 0. 0.
      2.56423712e-01 5.76531172e-01 0. 5.85736811e-01 0. 6.24975204e-01
      0. 0. 0. 2.37849221e-01 0. 0. 0. 0. 0. 0. 0. 0. 0. 4.47288245e-01
      4.89949137e-01 7.28914380e-01 5.08205235e-01 0. 0. 7.23889530e-01
      7.43991256e-01 0. 7.64794469e-01 0. 5.69406986e-01 7.64940202e-01
      0. 7.44290769e-01 5.71251273e-01 0. 7.48220503e-01 5.51875889e-01
      7.29678452e-01 2.69767672e-01 0. 5.58849633e-01 7.37521589e-01 0.
      5.42506576e-01 0. 7.06070304e-01 5.27441621e-01 0. 7.19420433e-01
      0. 7.06799984e-01 5.69957197e-01 6.66735947e-01 6.27111495e-01
      6.55971646e-01 5.88015676e-01 0. 3.26326281e-01 3.55797708e-01 0.
      0. 0. 0. 0. 3.79132807e-01 0. 0. 0. 3.75217527e-01 0. 0. 0. 0.
      4.04450446e-01 0. 0. 0. 0. 3.74864668e-01 0. 0. 0. 3.78434002e-01
      3.48178655e-01 0. 0. 0. 0. 6.07545614e-01 5.77894807e-01
      5.18947363e-01 6.15892410e-01 6.54557824e-01 0. 0. 5.00011206e-01
      0. 6.76958859e-01 5.11960745e-01 2.78533608e-01 0. 6.62554324e-01
      0. 6.77195489e-01 0. 0. 5.14105976e-01 6.67038858e-01 0.
      6.84337556e-01 6.59582853e-01 0. 0. 9.17948604e-01 8.94403398e-01
      0. 1.32791951e-01 8.92024875e-01 9.13307965e-01 0. 6.74959719e-01
      4.58211899e-01 6.54174626e-01 0. 3.94687891e-01 0. 6.58102632e-01
      0. 0. 0. 0. 0. 0. 0. 0. 0. 0. 0. 5.76700330e-01 5.35931230e-01 0.
      0. 5.24063110e-01 0. 4.84688967e-01 0. 0. 4.46056277e-01
      4.75504756e-01 0. 0. 0. 0. 0. 0. 0. 0. 0. 0. 0. 0. 0. 0.</_>
    <_>
      0. 0. 0. 0. 2.62047827e-01 2.02477321e-01 0. 1.43033549e-01 0.
      3.24571609e-01 2.95046210e-01 0. 8.39860141e-02 0. 0.
      4.24293280e-01 3.95449340e-01 3.66768271e-01 0. 2.43862703e-01
      4.98890847e-01 2.15695858e-01 3.76485348e-01 5.09589195e-01
      4.15461332e-01 5.48860908e-01 0. 0. 5.61786532e-01 6.02097511e-01
      4.01915342e-01 6.16801381e-01 6.57808065e-01 0. 6.73944175e-01 0.
      2.84843534e-01 0. 6.67017221e-01 2.19145939e-01 9.60800350e-01
      9.38016772e-01 9.80141342e-01 1. 9.78130043e-01 9.56692159e-01 0.
      0. 0. 0. 0. 0. 0. 2.83534914e-01 0. 4.98619735e-01 0. 0.
      4.81778502e-01 7.22287178e-01 0. 7.06991911e-01 4.92380857e-01 0.
      7.19235420e-01 0. 0. 5.06294489e-01 6.94617867e-01 5.61572075e-01
      6.55916572e-01 0. 6.45973861e-01 5.79993010e-01 0. 2.02508628e-01
      5.71851671e-01 4.77704376e-01 5.35938919e-01 0. 5.94468832e-01
      6.53214633e-01 0. 0. 4.96977031e-01 5.86135685e-01 6.45640075e-01
      0. 5.54380715e-01 6.73743486e-01 0. 5.83823860e-01 0. 0.
      5.84955633e-01 0. 0. 5.87604642e-01 0. 6.80285215e-01 0.
      1.99067429e-01 6.55848861e-01 1.69819921e-01 0. 5.10169327e-01
      5.75608313e-01 0. 6.12811208e-01 4.90006328e-01 5.56214809e-01
      6.88958049e-01 0. 0. 0. 6.72839701e-01 5.78968406e-01
      6.85628474e-01 5.92278838e-01 0. 6.73414111e-01 7.14270890e-01 0.
      0. 0. 7.46600926e-01 0. 0. 7.40234256e-01 5.90960860e-01
      7.58959889e-01 0. 0. 7.56243348e-01 0. 7.76881099e-01 0.
      5.87000251e-01 0. 0. 0. 5.89564800e-01 0. 0. 2.30646074e-01 0. 0.
      0. 5.37092924e-01 4.29480702e-01 6.29255056e-01 4.55167025e-01
      5.88556826e-01 0. 5.74682474e-01 0. 5.34833908e-01 2.67964184e-01
      0. 5.22948265e-01 0. 0. 4.18102771e-01 5.40872157e-01
      5.69370627e-01 0. 5.32481968e-01 4.67316210e-01 0. 5.54936945e-01
      4.02677000e-01 4.61460233e-01 4.90936875e-01 3.68469685e-01 0.
      1.57382190e-01 0. 2.46654138e-01 0. 0. 0. 0. 0. 0. 0. 0. 0.
      1.27373978e-01 0. 0. 0. 0. 0. 3.43572021e-01 0. 4.08615232e-01
      3.79793495e-01 4.74139243e-01 4.45553482e-01 5.11575639e-01
      5.77770054e-01 5.49707234e-01 0. 0. 0. 0. 0. 0. 4.13191915e-01
      3.46438318e-01 3.87024045e-01 1.46276399e-01 0. 6.43138170e-01
      6.18050575e-01 0. 0. 0. 6.11098588e-01 0. 0. 5.22742212e-01 0.
      4.16132182e-01 5.42744100e-01 0. 0. 2.25803897e-01 0.
      7.76154518e-01 6.07624054e-01 0. 8.21801126e-01 8.45282674e-01
      3.13706636e-01 8.27433228e-01 0. 8.35165501e-01 6.19853079e-01
      8.19274902e-01 0. 6.30137622e-01 8.30311418e-01 7.23164320e-01
      7.49741495e-01 0. 8.03588033e-01 7.64123559e-01 7.24970698e-01
      6.86182976e-01 7.80528069e-01 2.03912422e-01 7.70476580e-01
      6.09980762e-01 0. 6.95818424e-01 0. 2.90026188e-01 0.
      3.48408878e-01 3.77757311e-01 0. 2.55043894e-01 2.84620941e-01 0.
      4.03348058e-01 4.33091521e-01 0. 1.62910566e-01 2.22590029e-01
      4.61419016e-01 0. 0. 4.61917907e-01 0. 0. 0. 1.93938226e-01 0. 0.
      0. 0. 4.09998745e-01 3.80793571e-01 0. 0. 1.99639797e-01 0.
      6.71569765e-01 3.59864831e-01 6.14869714e-01 0. 3.03692549e-01
      5.97673416e-01 7.30981946e-01 7.70427227e-01 6.76628947e-01
      3.15948278e-01 7.56774068e-01 6.63733602e-01 7.71082461e-01 0.
      6.12155676e-01 7.60964572e-01 7.36006021e-01 1.97693408e-01
      6.03807688e-01 0. 2.81177640e-01 0. 5.98330677e-01 0.
      5.75619280e-01 7.44287968e-01 7.22462714e-01 0. 5.74546397e-01
      3.63417268e-01 7.22842813e-01 0. 3.43356669e-01 4.92466688e-01
      4.50463295e-01 0. 0. 1.75510406e-01 0. 3.49299192e-01
      4.15664703e-01 0. 6.15288794e-01 5.74505925e-01 4.00477499e-01 0.
      5.60442150e-01 0. 0. 4.14284825e-01 0. 4.41901028e-01
      3.75423133e-01 0. 0. 0. 0. 0. 0. 0. 0. 0. 0. 0. 0. 0. 0. 0. 0. 0.
      0. 0.</_>
    <_>
      0. 0. 0. 4.75195259e-01 0. 0. 5.41973591e-01 0. 0. 0. 0.
      6.15297496e-01 0. 0. 6.22207761e-01 0. 6.61777616e-01 0. 0.
      6.71335042e-01 0. 7.12588489e-01 0. 7.24370956e-01 0. 0.
      7.08154738e-01 0. 4.62121457e-01 7.22913265e-01 0. 4.77903962e-01
      7.11096406e-01 5.22412539e-01 7.28675663e-01 2.61933744e-01 0. 0.
      7.21323192e-01 0. 7.41489708e-01 0. 0. 0. 7.38532603e-01
      7.15230107e-01 0. 0. 5.09691298e-01 7.16562629e-01 0. 0. 0.
      6.75413549e-01 0. 0. 0. 6.82986736e-01 0. 0. 0. 0. 6.49431527e-01
      4.60906744e-01 0. 6.63647473e-01 0. 0. 4.76352870e-01 0. 0. 0. 0.
      0. 0. 0. 0. 0. 0. 0. 0. 0. 0. 0. 0. 0. 0. 0. 0. 0. 0. 0. 0. 0. 0.
      0. 0. 0. 0. 0. 0. 0. 0. 0. 0. 0. 0. 0. 0. 0. 0. 0. 0. 0. 0. 0. 0.
      0. 0. 0. 0. 9.65188265e-01 9.37574208e-01 9.82215226e-01
      9.10273135e-01 1. 9.73374009e-01 9.47105467e-01 7.14049935e-01 0.
      5.26836693e-01 0. 7.54917026e-01 0. 0. 7.53175795e-01 0.
      7.76226103e-01 0. 0. 7.78579235e-01 0. 8.03510070e-01
      7.83603132e-01 0. 2.52868772e-01 0. 7.91246951e-01 0. 0. 0.
      4.96277869e-01 3.79970312e-01 0. 4.08731788e-01 0. 0. 0. 0. 0. 0.
      0. 0. 0. 0. 6.82266295e-01 0. 6.42886698e-01 0. 0. 6.36201084e-01
      0. 5.99042773e-01 0. 0. 5.30932426e-01 0. 0. 4.64112341e-01 0. 0.
      0. 0. 3.66887540e-01 0. 0. 0. 0. 0. 0. 0. 2.41580859e-01 0. 0. 0.
      0. 0. 0. 0. 0. 0. 0. 0. 7.12087989e-01 6.82298779e-01
      7.25086749e-01 0. 0. 0. 0. 4.93669987e-01 5.37833989e-01
      7.70950079e-01 0. 0. 7.61503160e-01 0. 0. 0. 0. 0. 0. 0. 0. 0. 0.
      6.12088323e-01 0. 5.89727223e-01 0. 6.13949299e-01 0. 0. 0.
      6.19197190e-01 2.95591474e-01 0. 0. 0. 0. 2.77955234e-01 0. 0.
      3.06342423e-01 8.12904477e-01 0. 0. 5.09590030e-01 5.39381504e-01
      2.92959571e-01 4.97465521e-01 0. 6.60970926e-01 4.56290632e-01 0.
      6.51669025e-01 0. 3.13976437e-01 0. 6.75486445e-01 0. 0. 0. 0.
      6.65083408e-01 0. 0. 6.29905283e-01 0. 0. 0. 0. 6.28811419e-01
      4.34796125e-01 0. 0. 5.98521352e-01 4.69741493e-01 0.
      6.02309227e-01 0. 0. 5.76094687e-01 0. 0. 7.48384595e-01
      5.83629429e-01 0. 4.90497231e-01 6.95178986e-01 5.62153339e-01
      7.05901325e-01 5.01418650e-01 0. 0. 0. 6.58832192e-01 0.
      6.73255086e-01 0. 0. 0. 6.61093652e-01 0. 0. 0. 0. 6.97096825e-01
      0. 0. 6.91444695e-01 0. 7.12588549e-01 0. 0. 0. 7.11490452e-01 0.
      7.34911561e-01 0. 0. 7.38116384e-01 0. 7.18094826e-01 0. 0. 0.
      7.25717187e-01 0. 7.08307505e-01 0. 6.19689405e-01 0. 0. 0. 0. 0.
      0. 0. 0. 0. 0. 0. 0. 0. 0. 0. 0. 0. 0. 0. 0. 3.16348076e-01 0. 0.
      0. 0. 0. 3.45630914e-01 0.</_>
    <_>
      0. 0. 0. 0. 0. 0. 0. 0. 0. 3.89187306e-01 5.36827207e-01 0. 0.
      6.14255965e-01 6.92350566e-01 6.57505035e-01 7.70908594e-01
      7.01769352e-01 0. 0. 0. 0. 0. 0. 0. 0. 0. 0. 0. 0. 0. 0. 0. 0.
      6.31012678e-01 6.01223886e-01 6.51321709e-01 7.01522946e-01 0. 0.
      0. 7.46412933e-01 1. 0. 9.73549604e-01 7.44456530e-01 0.
      9.73377943e-01 9.48908985e-01 7.45964825e-01 9.75856066e-01
      9.52806950e-01 0. 9.30574834e-01 0. 0. 9.38685060e-01 0. 0. 0. 0.
      0. 8.82471740e-01 0. 0. 8.98236156e-01 6.57259583e-01 0. 0. 0.
      6.76372409e-01 0. 0. 0. 8.46648455e-01 0. 0. 8.71997714e-01 0. 0.
      0. 0. 0. 0. 0. 0. 0. 0. 0. 0. 0. 0. 0. 0. 0. 0. 0. 0. 0. 0. 0. 0.
      0. 0. 0. 8.77059758e-01 0. 0. 8.52726936e-01 0. 0. 0. 0. 0. 0. 0.
      6.98509157e-01 9.07226801e-01 0. 0. 8.92448425e-01 0. 0. 0.
      9.30097818e-01 7.20837653e-01 0. 9.21311677e-01 0. 9.43175495e-01
      9.15266752e-01 4.04596806e-01 9.38648164e-01 0. 0. 0. 0. 0.
      9.37824965e-01 0. 5.82713127e-01 0. 0. 0. 0. 0. 0. 0. 0. 0. 0. 0.
      0. 0. 2.11426660e-01 0. 0. 7.58554518e-01 7.11347103e-01 0.
      6.64672375e-01 6.98368788e-01 6.18650854e-01 5.39120197e-01
      4.59874183e-01 3.46351564e-01 0. 0. 0. 0. 0. 0. 0. 0. 0. 0. 0. 0.
      0. 0. 0. 0. 0. 0. 0. 0. 0. 0. 0. 0. 0. 0. 0. 0. 0. 0.
      7.19797313e-01 6.85270905e-01 0. 7.30331063e-01 0. 0.
      4.35460895e-01 0. 4.82446253e-01 0. 3.69462848e-01 7.71170378e-01
      0. 7.87596643e-01 7.56172240e-01 0. 4.35593277e-01 0.
      7.44348109e-01 4.05550212e-01 4.55630511e-01 0. 0. 0.
      2.47476563e-01 0. 3.48822504e-01 5.01060545e-01 0. 0.
      5.76807201e-01 0. 0. 5.01394033e-01 3.49301398e-01 5.79330087e-01
      4.78234112e-01 0. 3.77427489e-01 0. 0. 0. 0. 2.27602258e-01
      8.06951225e-01 7.57938743e-01 8.38211775e-01 0. 0. 7.73334920e-01
      8.05900514e-01 7.58524120e-01 0. 0. 7.45153069e-01 7.78897762e-01
      0. 6.19674861e-01 6.53971314e-01 0. 0. 6.44453168e-01 0. 0.
      6.72166467e-01 0. 0. 0. 0. 0. 0. 6.63326800e-01 0. 0.
      6.25867009e-01 0. 0. 0. 0. 0. 6.28807366e-01 0. 0. 0.
      5.97858846e-01 0. 0. 6.04760885e-01 0. 0. 0. 0. 5.79240501e-01
      7.72238433e-01 7.38189340e-01 0. 0. 7.17431009e-01 6.04179204e-01
      0. 7.32065320e-01 0. 0. 5.87491095e-01 0. 6.85396969e-01
      6.05275393e-01 0. 7.04376578e-01 4.95065510e-01 7.24641979e-01 0.
      0. 0. 7.18017280e-01 0. 7.41399467e-01 0. 0. 0. 7.40177810e-01 0.
      7.66258717e-01 0. 0. 0. 7.70123124e-01 7.98463225e-01
      3.88831705e-01 0. 0. 8.06986868e-01 0. 0. 8.67783189e-01 0. 0. 0.
      0. 0. 0. 0. 0. 0. 0. 0. 0. 0. 0. 0. 0. 0. 0. 0. 0. 0. 0. 0. 0. 0.
      0. 0. 0. 0.</_>
    <_>
      0. 0. 0. 0. 0. 0. 0. 0. 0. 0. 0. 0. 0. 5.07239640e-01 0.
      5.90423703e-01 5.53597569e-01 6.74141467e-01 6.37584031e-01 0. 0.
      7.70446002e-01 0. 7.84343004e-01 0. 8.34506333e-01 0. 0. 0. 0. 0.
      0. 0. 0. 0. 9.28799927e-01 0. 5.69580078e-01 6.23023450e-01
      9.20852661e-01 5.39468944e-01 9.44918096e-01 0. 0. 9.41756606e-01
      9.68312681e-01 0. 0. 7.25945175e-01 9.69742298e-01 9.44694042e-01
      0. 0. 0. 9.50764179e-01 9.28344011e-01 7.37688541e-01 0. 0.
      9.39182281e-01 0. 0. 0. 0. 0. 8.84239316e-01 0. 0. 9.03702676e-01
      0. 0. 0. 0. 6.36365771e-01 0. 0. 0. 6.63144588e-01 0. 0. 0. 0. 0.
      0. 0. 0. 0. 0. 0. 0. 0. 0. 0. 0. 0. 0. 0. 0. 0. 0. 0. 0. 0. 0. 0.
      0. 0. 0. 0. 0. 0. 0. 0. 0. 0. 0. 0. 9.36326921e-01 0. 0.
      9.20821249e-01 7.50539243e-01 2.20509395e-01 0. 0. 7.39026129e-01
      9.82906461e-01 3.26460123e-01 7.61402607e-01 9.75636840e-01
      7.84996808e-01 1. 7.55856752e-01 0. 0. 0. 7.54140913e-01
      9.97405708e-01 0. 9.71645057e-01 7.02485561e-01 5.94984531e-01
      9.76293921e-01 6.78404272e-01 0. 0. 0. 0. 0. 0. 0. 0. 0. 0.
      8.52890730e-01 8.01950336e-01 0. 0. 7.86514878e-01 0. 0.
      3.26057106e-01 6.03461266e-01 6.39833272e-01 5.19217193e-01
      5.55863500e-01 0. 4.72377390e-01 0. 0. 0. 0. 0. 0. 0. 0. 0. 0. 0.
      0. 0. 0. 0. 0. 0. 0. 0. 0. 0. 0. 0. 0. 0. 0. 0. 7.51551092e-01
      7.14753628e-01 7.98712909e-01 4.00360733e-01 3.64057362e-01
      8.10616493e-01 4.48746204e-01 8.24116409e-01 4.98278081e-01
      2.92866826e-01 8.39135349e-01 8.04537237e-01 0. 0. 6.51110649e-01
      7.88172543e-01 5.32619178e-01 0. 0. 0. 2.77807444e-01 0. 0.
      6.28577948e-01 0. 5.98852396e-01 0. 0. 6.24041617e-01 0. 0.
      2.72775322e-01 0. 6.24154687e-01 0. 0. 0. 2.47414500e-01 0. 0. 0.
      0. 0. 0. 0. 0. 0. 4.81308043e-01 0. 9.41736102e-01 0. 0. 0. 0.
      4.14194524e-01 6.55249298e-01 0. 0. 0. 7.99948514e-01
      8.73310208e-01 7.89818645e-01 0. 7.06763506e-01 0. 8.56372714e-01
      0. 0. 0. 0. 0. 0. 7.29043841e-01 8.43366504e-01 0. 8.04294109e-01
      0. 0. 7.67029583e-01 6.14628613e-01 0. 7.69813001e-01 0.
      5.80244660e-01 7.36744523e-01 0. 0. 7.43568242e-01 7.06255138e-01
      0. 0. 7.15408444e-01 0. 0. 0. 6.90324605e-01 0. 4.13326532e-01
      7.03835487e-01 6.68663204e-01 4.63309228e-01 0. 6.84732378e-01 0.
      4.80187446e-01 5.32101214e-01 6.69444442e-01 0. 0. 0. 0. 0.
      7.11484551e-01 0. 0. 0. 7.05091834e-01 0. 7.30384111e-01 0. 0. 0.
      7.30164587e-01 0. 7.58465648e-01 0. 0. 0. 7.63992548e-01 0.
      7.94756472e-01 0. 0. 0. 8.05473447e-01 0. 7.86119342e-01 0. 0. 0.
      8.02414060e-01 7.51738846e-01 0. 0. 7.36914277e-01 6.51971996e-01
      0. 0. 0. 0. 0. 0. 0. 0. 0. 0. 0. 0. 0. 0. 0. 0. 0. 0. 0.</_>
    <_>
      0. 0. 0. 0. 0. 0. 0. 0. 0. 0. 3.41243058e-01 0. 4.61460620e-01 0.
      5.44837177e-01 0. 5.07675052e-01 5.92008710e-01 6.76716924e-01
      6.40307367e-01 0. 6.89496338e-01 0. 7.39398003e-01 0. 0. 0. 0.
      7.72243023e-01 0. 8.24286640e-01 0. 8.43587041e-01 0. 0.
      8.32424819e-01 5.55755079e-01 0. 4.71185535e-01 5.78931570e-01
      8.78660023e-01 0. 0. 8.74711573e-01 4.12680030e-01 9.01133776e-01
      0. 6.57064378e-01 9.02196169e-01 0. 8.76899004e-01 0. 0. 0.
      8.83009732e-01 0. 6.68842137e-01 0. 8.39300513e-01 0. 0.
      8.52622211e-01 6.28998280e-01 0. 8.34679425e-01 0. 0.
      8.53268921e-01 0. 0. 0. 0. 0. 0. 0. 0. 0. 0. 0. 0. 0. 0. 0. 0. 0.
      0. 0. 0. 0. 0. 0. 0. 0. 0. 0. 0. 0. 0. 0. 0. 7.17957795e-01
      6.80183172e-01 0. 7.25558937e-01 0. 0. 0. 0. 0. 7.46471226e-01 0.
      0. 0. 0. 0. 0. 0. 0. 0. 0. 0. 0. 0. 9.33935285e-01 0. 0. 0.
      9.24101293e-01 0. 0. 9.71427500e-01 7.25740969e-01 0.
      7.51124859e-01 9.68082845e-01 9.94687915e-01 0. 7.50728965e-01 0.
      3.71094614e-01 0. 1. 4.54508305e-01 9.76257265e-01 6.76892519e-01
      2.93133944e-01 5.69840193e-01 6.54934525e-01 6.01835787e-01 0.
      4.10746545e-01 0. 0. 4.44255024e-01 0. 0. 0. 4.27608877e-01 0. 0.
      8.26902986e-01 4.97504622e-02 7.77978718e-01 0. 7.29811966e-01
      7.66675591e-01 6.82563245e-01 5.61555028e-01 5.98936558e-01 0.
      5.16031563e-01 0. 0. 3.96216154e-01 0. 0. 0. 0. 0. 0. 0. 0. 0. 0.
      0. 0. 0. 0. 0. 0. 0. 0. 0. 0. 0. 0. 0. 7.68237889e-01
      8.52792680e-01 8.16208899e-01 8.64926040e-01 5.00948787e-01
      8.78569782e-01 0. 3.44172925e-01 8.93654823e-01 0. 3.09350401e-01
      8.75922918e-01 8.42097819e-01 0. 0. 0. 8.28606904e-01 0. 0. 0. 0.
      0. 0. 0. 0. 6.74502254e-01 0. 0. 0. 6.73080683e-01 2.93212831e-01
      0. 0. 0. 0. 0. 0. 0. 0. 0. 0. 2.99917549e-01 5.23656130e-01 0.
      9.51721311e-01 5.04385352e-01 0. 0. 0. 6.58926666e-01
      6.93932295e-01 0. 0. 0. 7.15566158e-01 0. 0. 7.03683197e-01 0. 0.
      6.93722904e-01 0. 6.48054838e-01 0. 0. 0. 6.41832471e-01 0. 0.
      5.99592507e-01 0. 0. 0. 8.28080595e-01 0. 0. 7.51863301e-01 0. 0.
      7.54358768e-01 5.63504398e-01 0. 7.20809102e-01 0. 5.69422722e-01
      7.27472961e-01 0. 0. 0. 6.98973656e-01 0. 0. 7.10005581e-01
      6.73649669e-01 5.16242802e-01 0. 6.87236369e-01 0. 0. 0.
      6.68110967e-01 0. 0. 6.86115623e-01 0. 0. 0. 6.73551619e-01 0. 0.
      6.95662796e-01 0. 0. 0. 6.89711928e-01 0. 0. 7.15450823e-01 0.
      4.16623026e-01 0. 7.15866208e-01 0. 7.44663835e-01 0. 0. 0.
      7.50970960e-01 5.05530059e-01 0. 7.28924453e-01 0. 0. 0.
      7.41351962e-01 0. 7.23096550e-01 0. 0. 0. 0. 0. 0. 0. 0. 0. 0. 0.
      0. 0. 0. 0. 0. 0. 0. 0. 0. 0. 0. 0. 0. 0. 0.</_>
    <_>
      0. 0. 0. 0. 4.03878719e-01 0. 0. 0. 4.90738362e-01 4.49507862e-01
      0. 5.79531372e-01 5.38664281e-01 6.69489026e-01 6.28957570e-01 0.
      7.19959974e-01 0. 0. 7.32011735e-01 0. 7.85088420e-01 0. 0. 0. 0.
      8.17733407e-01 0. 8.73539746e-01 0. 0. 8.57247412e-01 0.
      5.79155743e-01 0. 4.86748010e-01 9.02728975e-01 6.60990298e-01
      4.52865720e-01 0. 8.94752562e-01 0. 9.21557665e-01 0. 0.
      6.83953166e-01 0. 0. 7.13826120e-01 9.21040714e-01 6.86134696e-01
      8.93953741e-01 0. 6.59908593e-01 0. 9.01408970e-01 0. 0.
      6.69973314e-01 8.55300665e-01 0. 0. 0. 8.71082723e-01 0. 0. 0. 0.
      0. 0. 0. 0. 0. 0. 0. 0. 0. 0. 0. 7.87240088e-01 0. 0. 0.
      8.21410537e-01 6.09692335e-01 0. 0. 0. 0. 0. 0. 0. 0. 0. 0. 0. 0.
      0. 0. 0. 0. 0. 0. 0. 0. 0. 0. 0. 0. 0. 0. 8.68826866e-01 0. 0. 0.
      8.46121013e-01 0. 0. 0. 0. 0. 0. 0. 0. 0. 0. 9.50403988e-01 0. 0.
      0. 9.42648113e-01 0. 9.69492614e-01 7.62091160e-01 0.
      9.67279434e-01 0. 9.96940672e-01 0. 4.08638805e-01 1. 0.
      9.73574996e-01 0. 0. 6.81975245e-01 6.23963356e-01 5.66128016e-01
      5.08529365e-01 6.01195157e-01 4.51258123e-01 0. 0. 0.
      4.31433678e-01 3.38362396e-01 0. 3.76248121e-01 0. 0.
      4.14851129e-01 8.09558570e-01 0. 0. 7.96505511e-01 0. 0.
      6.54297590e-01 6.94910884e-01 0. 6.05149984e-01 0. 0.
      5.16563952e-01 0. 0. 3.05254102e-01 0. 0. 0. 0. 0. 0. 0. 0. 0. 0.
      0. 0. 0. 0. 0. 0. 0. 0. 0. 0. 0. 0. 0. 8.08172822e-01
      4.13393706e-01 8.61637712e-01 0. 8.77479017e-01 0. 6.15763247e-01
      8.94977331e-01 0. 2.99455762e-01 8.77652049e-01 0. 8.41752231e-01
      0. 0. 0. 8.29597175e-01 0. 0. 0. 0. 0. 0. 0. 0. 0. 6.70003891e-01
      0. 0. 0. 0. 6.72938883e-01 0. 0. 7.97082603e-01 7.38961816e-01 0.
      3.22978288e-01 0. 0. 0. 0. 9.72807288e-01 3.01832020e-01
      5.81052542e-01 0. 5.25421858e-01 0. 6.94727719e-01 0. 0. 0. 0.
      3.24715227e-01 0. 0. 0. 7.48221457e-01 0. 2.73995608e-01
      7.39339471e-01 0. 6.91475570e-01 0. 0. 0. 6.86918199e-01 0. 0.
      6.43248022e-01 0. 0. 0. 0. 0. 8.54133368e-01 0. 6.46939516e-01 0.
      7.76094079e-01 0. 6.11803234e-01 7.83177257e-01 0. 0.
      6.20763838e-01 7.52112865e-01 0. 0. 7.63969243e-01 5.92887938e-01
      0. 0. 7.39156246e-01 0. 5.69749892e-01 7.55815923e-01
      7.18321383e-01 0. 0. 7.37805307e-01 0. 0. 0. 7.24144995e-01 0. 0.
      7.48122692e-01 0. 0. 0. 7.41695940e-01 0. 0. 0. 0. 7.98775613e-01
      0. 0. 0. 8.01454186e-01 0. 8.33640695e-01 0. 8.08421850e-01 0. 0.
      0. 8.19569051e-01 0. 0. 7.98256218e-01 0. 0. 7.78587162e-01 0. 0.
      0. 0. 0. 0. 0. 0. 0. 0. 0. 0. 0. 0. 0. 0. 0. 0. 0. 0. 0. 0. 0. 0.
      0.</_>
    <_>
      0. 0. 2.99755871e-01 0. 0. 0. 0. 4.68561411e-01 0. 3.44746202e-01
      5.56576908e-01 5.15593648e-01 6.45985007e-01 6.05342329e-01 0. 0.
      0. 7.47184336e-01 0. 0. 7.60211229e-01 0. 8.13785970e-01 0. 0.
      8.29940140e-01 8.85156214e-01 0. 0. 0. 0. 9.24066007e-01 0.
      5.53395569e-01 9.10820365e-01 0. 9.34578657e-01 6.35053992e-01
      6.93328083e-01 0. 9.27096188e-01 3.94717187e-01 9.54079211e-01
      6.88251495e-01 0. 7.16990650e-01 0. 0. 0. 9.53977168e-01
      7.19330490e-01 9.26938593e-01 0. 9.01008368e-01 0. 0. 0.
      9.10499454e-01 0. 6.45551264e-01 0. 0. 0. 0. 8.47310483e-01 0. 0.
      8.67420852e-01 0. 0. 0. 0. 0. 0. 0. 0. 0. 0. 0. 0. 0.
      8.08547139e-01 0. 0. 8.44061136e-01 0. 0. 0. 0. 0. 0. 0. 0. 0. 0.
      0. 0. 0. 0. 0. 0. 8.53757501e-01 0. 0. 0. 8.22008908e-01 0. 0. 0.
      0. 0. 0. 0. 0. 0. 0. 0. 0. 0. 0. 0. 0. 9.36192811e-01 0. 0.
      7.16537595e-01 9.24325109e-01 2.66922891e-01 3.25164169e-01 0.
      9.74564493e-01 0. 7.35373735e-01 9.70323861e-01 0. 9.98935938e-01
      0. 7.34468043e-01 1. 7.06440210e-01 9.72513258e-01 0.
      9.46056068e-01 0. 5.04910648e-01 9.54453468e-01 0. 5.39009035e-01
      0. 0. 0. 0. 0. 0. 0. 0. 0. 8.52258623e-01 0. 7.97828734e-01 0.
      7.83221483e-01 0. 0. 7.70583689e-01 0. 6.79318011e-01
      7.19595551e-01 6.29178703e-01 4.57862496e-01 0. 5.39633691e-01 0.
      0. 4.10168111e-01 0. 0. 0. 1.99458480e-01 0. 0. 0. 0. 0. 0. 0. 0.
      0. 0. 0. 0. 0. 0. 0. 0. 0. 0. 0. 0. 7.78480947e-01 8.31357121e-01
      0. 4.37137455e-01 8.46447706e-01 3.98686916e-01 0. 8.63279104e-01
      5.46888292e-01 0. 6.02876484e-01 3.24113935e-01 0. 0.
      8.30731928e-01 2.88593739e-01 0. 0. 0. 0. 0. 0. 0. 0.
      6.65561974e-01 0. 0. 6.35545850e-01 0. 6.65635169e-01 0. 0.
      3.13573629e-01 0. 6.70882940e-01 0. 0. 7.96403050e-01
      7.38699973e-01 0. 0. 0. 0. 0. 9.75218117e-01 5.47422409e-01 0.
      5.85047901e-01 4.92152780e-01 3.06517512e-01 0. 7.00613320e-01
      4.76830274e-01 0. 0. 0. 0. 0. 0. 7.57660210e-01 0. 0. 0.
      7.50106573e-01 0. 7.03440487e-01 0. 0. 0. 7.00254023e-01 0. 0.
      6.57950401e-01 0. 0. 8.67256999e-01 0. 0. 8.29313815e-01
      6.64261818e-01 0. 7.93917179e-01 0. 0. 8.01949084e-01 0. 0.
      6.40653670e-01 7.72036135e-01 0. 0. 7.84712613e-01 7.45569229e-01
      0. 0. 7.60963678e-01 6.30016804e-01 4.99357492e-01 0.
      7.41130114e-01 0. 6.11592650e-01 7.61171639e-01 7.25533009e-01 0.
      0. 7.48307943e-01 0. 0. 7.72651017e-01 0. 0. 0. 7.66776681e-01 0.
      7.94913530e-01 0. 0. 0. 7.95750499e-01 0. 8.27088952e-01 0. 0. 0.
      0. 0. 0. 0. 8.45224082e-01 0. 0. 8.23838770e-01 0. 8.04036677e-01
      0. 0. 7.85937488e-01 0. 0. 0. 0. 0. 0. 0. 0. 0. 0. 0. 0. 0. 0. 0.
      0. 0. 0. 0. 0. 0. 0. 0.</_>
    <_>
      0. 0. 0. 0. 0. 0. 0. 0. 0. 0. 0. 3.53316844e-01 5.19629121e-01 0.
      6.07362688e-01 5.68245649e-01 6.95754051e-01 6.56935036e-01 0. 0.
      7.97193170e-01 0. 0. 8.11620951e-01 8.64579439e-01 0. 0. 0. 0. 0.
      0. 0. 0. 0. 0. 9.63738859e-01 5.27058363e-01 5.83493531e-01
      6.96695268e-01 9.55270529e-01 0. 9.80738521e-01 0. 7.49108911e-01
      0. 0. 7.77140141e-01 0. 0. 0. 7.79273331e-01 9.80827570e-01
      9.55392361e-01 0. 0. 0. 9.63920176e-01 0. 0. 0. 6.84826672e-01 0.
      9.00418937e-01 0. 0. 7.01340735e-01 9.18384969e-01 0. 0. 0. 0. 0.
      0. 0. 0. 0. 0. 0. 0. 3.14272285e-01 0. 8.45160604e-01 0. 0.
      8.79242957e-01 0. 0. 0. 0. 0. 0. 0. 0. 0. 0. 0. 0. 8.78331602e-01
      0. 0. 8.43832850e-01 0. 0. 0. 0. 2.33761951e-01 0. 1.94824964e-01
      3.22504759e-01 0. 0. 0. 0. 0. 0. 0. 0. 9.32546139e-01
      3.00437897e-01 0. 0. 9.16289687e-01 7.36127853e-01 0.
      3.20920527e-01 9.59422946e-01 7.24483192e-01 9.82770503e-01
      9.50517833e-01 0. 9.75751817e-01 0. 0. 9.72043633e-01 0. 1. 0.
      9.71684039e-01 5.15012741e-01 0. 9.74676728e-01 5.45468867e-01 0.
      0. 0. 0. 0. 0. 0. 0. 0. 0. 0. 8.38500917e-01 7.84191012e-01 0. 0.
      7.67125845e-01 0. 0. 7.51844704e-01 5.72432816e-01 7.00135410e-01
      6.10757649e-01 5.21698713e-01 0. 4.33155209e-01 0. 0. 0. 0. 0. 0.
      0. 0. 0. 0. 0. 0. 0. 0. 0. 0. 0. 0. 0. 0. 0. 0. 0. 0. 0. 0. 0. 0.
      3.91704261e-01 3.52697998e-01 7.74305582e-01 7.35633135e-01 0.
      7.86601305e-01 2.75878221e-01 8.00747156e-01 4.55857605e-01
      5.46002507e-01 8.16646934e-01 0. 0. 0. 7.98434258e-01
      7.63129175e-01 0. 0. 0. 7.50157773e-01 0. 0. 0. 0. 0. 0. 0. 0. 0.
      0. 5.93563795e-01 0. 0. 0. 0. 0. 5.96256316e-01 0. 2.24093363e-01
      0. 0. 0. 0. 7.83745170e-01 7.28112102e-01 0. 0. 0. 9.24185812e-01
      0. 5.08868754e-01 2.38082558e-01 9.43367124e-01 4.55474138e-01 0.
      0. 6.58462644e-01 0. 0. 0. 0. 0. 0. 0. 7.15360880e-01 0. 0.
      6.68732405e-01 0. 0. 0. 6.64078057e-01 8.65437925e-01 0.
      8.23359609e-01 0. 0. 7.83187568e-01 6.21745527e-01 0.
      7.85471261e-01 0. 5.84465981e-01 0. 7.49808311e-01 0. 0.
      7.56517291e-01 0. 0. 7.26189673e-01 0. 0. 7.37550735e-01
      5.71516335e-01 0. 0. 7.13301897e-01 5.85884392e-01 0.
      7.29351103e-01 0. 6.92922771e-01 0. 5.66680253e-01 7.11728275e-01
      0. 5.86753666e-01 4.96851176e-01 6.98344469e-01 0. 0.
      7.21542716e-01 0. 6.89446568e-01 0. 7.15218365e-01 3.42900842e-01
      0. 7.42293715e-01 0. 0. 0. 7.42764354e-01 0. 7.73101032e-01 0. 0.
      0. 7.79852390e-01 0. 8.12822104e-01 0. 0. 0. 8.25196862e-01 0.
      8.05425346e-01 0. 0. 0. 8.23872328e-01 0. 7.70724118e-01
      7.18184769e-01 0. 0. 0. 0. 0. 0. 0. 0. 0. 0. 0. 0. 0. 0. 0. 0. 0.
      0. 0. 0.</_>
    <_>
      0. 0. 5.58953285e-01 0. 0. 6.41366899e-01 0. 0. 0. 0. 0. 0. 0.
      7.79248357e-01 0. 0. 7.89120495e-01 0. 8.39155436e-01 0. 0. 0. 0.
      0. 5.23495913e-01 0. 4.87013012e-01 0. 9.00785327e-01 0. 0.
      8.85189056e-01 0. 0. 9.06472683e-01 0. 0. 8.96406829e-01 0.
      9.20950413e-01 0. 0. 6.89201236e-01 9.16356504e-01 8.86941135e-01
      0. 0. 0. 8.87654901e-01 6.60426438e-01 0. 0. 8.35476041e-01 0. 0.
      0. 8.43937099e-01 0. 0. 0. 0. 0. 0. 7.81881094e-01 0.
      5.48057616e-01 0. 8.01078081e-01 0. 0. 5.69459260e-01 0. 0. 0. 0.
      0. 0. 0. 0. 0. 6.65287137e-01 0. 0. 0. 0. 0. 0. 0. 0. 0. 0.
      6.55041218e-01 0. 0. 0. 6.16413236e-01 0. 0. 6.60483837e-01 0.
      7.46009946e-01 6.66837573e-01 0. 7.93084443e-01 7.14599788e-01
      6.75530493e-01 0. 7.24953532e-01 8.13651264e-01 1.39427632e-01
      7.37358987e-01 6.99561894e-01 7.89063811e-01 0. 0. 0. 0.
      8.21633339e-01 0. 0. 0. 8.05367887e-01 6.25983000e-01 0. 0. 0. 0.
      6.15088284e-01 8.72514486e-01 0. 0. 8.66600335e-01 0.
      8.93452823e-01 0. 6.93751156e-01 0. 8.93129170e-01 6.65700912e-01
      9.22720313e-01 0. 8.96422207e-01 6.70112491e-01 0. 9.03292418e-01
      0. 0. 3.89235884e-01 6.23669147e-01 5.68315566e-01 0.
      5.13296545e-01 0. 5.48660278e-01 0. 0. 0. 0. 0. 0. 0. 0. 0. 0.
      7.58674562e-01 0. 7.09320128e-01 0. 0. 6.61176503e-01
      7.00633705e-01 5.74789822e-01 6.14528418e-01 0. 0. 5.69743216e-01
      0. 0. 0. 4.87083644e-01 0. 0. 0. 0. 0. 0. 3.27324182e-01 0.
      2.07394376e-01 0. 0. 0. 0. 0. 0. 0. 0. 0. 0. 0. 0. 0. 0.
      1.78993300e-01 0. 7.54798949e-01 8.08251977e-01 0. 6.82268858e-01
      0. 0. 0. 6.66940749e-01 8.67426157e-01 4.88050848e-01
      5.43928146e-01 5.99994540e-01 8.57311368e-01 5.11408687e-01 0. 0.
      0. 0. 0. 3.36400121e-01 0. 0. 7.06168473e-01 0. 6.79057598e-01 0.
      0. 0. 0. 6.85244083e-01 0. 7.18021274e-01 0. 0. 7.85653651e-01
      7.30549097e-01 0. 3.51531416e-01 0. 0. 0. 0. 1. 0. 3.34522337e-01
      5.88642418e-01 6.26494169e-01 0. 0. 5.75842917e-01 7.80276954e-01
      8.19149315e-01 3.60628068e-01 0. 8.10000420e-01 0. 0. 0. 0.
      7.97495008e-01 0. 0. 7.54073501e-01 0. 0. 7.52771378e-01 0. 0.
      7.13442743e-01 0. 0. 0. 0. 9.21032548e-01 0. 7.21979856e-01
      8.47794950e-01 0. 0. 8.56138170e-01 0. 0. 8.27656627e-01 0. 0.
      8.40061486e-01 6.75081909e-01 0. 8.16978097e-01 6.90234244e-01 0.
      8.33434105e-01 7.97292054e-01 0. 0. 8.16130757e-01 0. 0. 0.
      8.02494764e-01 0. 8.25144947e-01 0. 0. 0. 8.17618310e-01 0.
      8.43704522e-01 0. 0. 0. 8.42128217e-01 0. 8.71199787e-01
      5.87096632e-01 0. 0. 0. 0. 0. 8.82926822e-01 0. 0. 0. 0.
      8.38896990e-01 7.83846557e-01 8.18960190e-01 0. 0. 0. 0. 0. 0. 0.
      0. 0. 0. 0. 2.46887311e-01 0. 0. 0. 0. 0. 0. 0. 0. 0. 0.
      2.78765351e-01 0. 0. 0. 0.</_>
    <_>
      0. 0. 0. 0. 0. 0. 0. 0. 0. 2.32340723e-01 0. 3.81693840e-01 0. 0.
      4.60391372e-01 4.25180376e-01 5.39831400e-01 5.04936635e-01 0. 0.
      0. 0. 6.78220928e-01 0. 0. 6.92614794e-01 0. 7.41007149e-01 0. 0.
      0. 0. 0. 0. 0. 0. 8.15440774e-01 0. 4.73831892e-01 8.08389485e-01
      3.94473225e-01 8.31677854e-01 5.99385500e-01 0. 0. 8.29548359e-01
      0. 8.55347812e-01 3.42028379e-01 6.25525594e-01 8.57901573e-01
      6.53329313e-01 8.34805727e-01 0. 6.31106079e-01 8.42133224e-01 0.
      0. 0. 6.40767276e-01 8.02612662e-01 0. 0. 8.16715956e-01 0.
      2.80760437e-01 1.99579418e-01 0. 7.86033750e-01 0. 0.
      8.06992710e-01 0. 0. 0. 6.01202369e-01 0. 0. 0. 0. 0. 0. 0. 0. 0.
      0. 0. 0. 0. 0. 0. 0. 0. 0. 0. 0. 0. 0. 0. 0. 0. 0. 0. 0. 0. 0. 0.
      0. 0. 0. 0. 0. 0. 0. 0. 0. 0. 0. 0. 0. 0. 0. 0. 0. 9.09531057e-01
      0. 0. 9.00345147e-01 0. 0. 9.45157647e-01 7.12695241e-01 0.
      9.41938400e-01 0. 9.67053473e-01 0. 9.41513598e-01 9.68003154e-01
      7.62839019e-01 2.23063052e-01 9.71670032e-01 1. 0. 0.
      6.95100904e-01 0. 0. 6.74922943e-01 0. 5.75081408e-01 0. 0. 0. 0.
      0. 0. 0. 0. 0. 0. 0. 7.92550802e-01 8.27039361e-01 7.81692207e-01
      6.66962922e-01 7.01985896e-01 6.22666419e-01 6.58043027e-01 0.
      5.79536438e-01 0. 4.65977728e-01 2.81083047e-01 0. 0. 0. 0. 0. 0.
      0. 0. 0. 0. 0. 0. 0. 0. 0. 0. 0. 0. 0. 0. 0. 4.38018024e-01
      4.02961522e-01 7.82075882e-01 8.27462435e-01 0. 3.33657056e-01
      5.29090166e-01 4.95156080e-01 5.76096714e-01 0. 0. 0.
      8.83088827e-01 0. 0. 0. 0. 0. 0. 0. 0. 0. 6.66508257e-01 0.
      6.37839139e-01 0. 0. 6.61226630e-01 3.26470822e-01 0. 0.
      6.59911454e-01 3.00481498e-01 0. 0. 0. 0. 0. 0. 0. 0. 0.
      3.06311429e-01 5.17921329e-01 8.91397715e-01 0. 0. 0. 0. 0. 0.
      6.78022683e-01 7.11281955e-01 0. 0. 6.97846949e-01 0. 0. 0. 0. 0.
      6.76047206e-01 0. 6.32308245e-01 0. 0. 0. 6.25645518e-01 0. 0.
      5.84909320e-01 3.28446299e-01 0. 0. 0. 0. 7.63391852e-01
      5.81845164e-01 2.91443020e-01 7.28571296e-01 0. 5.47522247e-01
      6.95801914e-01 0. 0. 7.01130629e-01 0. 0. 5.58597147e-01
      6.72919750e-01 0. 0. 6.82304919e-01 6.47559106e-01 2.68481940e-01
      0. 6.59309745e-01 0. 0. 0. 6.39620125e-01 5.25581956e-01 0.
      6.55549824e-01 0. 0. 0. 6.41936660e-01 0. 0. 6.61807716e-01 0. 0.
      0. 6.54399931e-01 0. 0. 6.77806139e-01 0. 0. 0. 6.76449180e-01 0.
      7.02880144e-01 0. 0. 0. 7.07188487e-01 0. 0. 6.85371280e-01 0. 0.
      0. 6.95500910e-01 0. 0. 6.77211046e-01 0. 6.60413265e-01 0. 0. 0.
      0. 0. 0. 0. 0. 0. 0. 0. 0. 0. 0. 0. 0. 0. 0. 0. 0. 0. 0. 0. 0. 0.</_>
    <_>
      0. 0. 0. 0. 0. 2.46072635e-01 0. 0. 0. 3.98078889e-01 0. 0.
      4.77696627e-01 4.41300124e-01 5.58342159e-01 5.22271812e-01
      6.39626801e-01 6.03833079e-01 6.85773790e-01 0. 0. 6.97811544e-01
      0. 7.45921493e-01 0. 7.60647118e-01 8.10146153e-01 0. 0. 0. 0. 0.
      0. 8.64740670e-01 0. 5.65536201e-01 4.83233303e-01 8.54975700e-01
      8.77358615e-01 4.53426987e-01 0. 0. 8.72502089e-01 6.87338412e-01
      8.97532344e-01 0. 0. 0. 0. 0. 9.00381684e-01 2.67211407e-01
      8.76894593e-01 0. 6.68486059e-01 0. 8.84627223e-01 0. 0.
      6.78597629e-01 0. 0. 8.25966358e-01 0. 0. 8.42416883e-01 0. 0. 0.
      0. 0. 0. 0. 0. 0. 7.90975034e-01 0. 0. 8.18337679e-01 0. 0.
      5.85220635e-01 0. 0. 0. 6.17242694e-01 0. 0. 0. 0. 0. 0. 0. 0. 0.
      0. 0. 0. 0. 0. 0. 0. 0. 0. 0. 0. 0. 0. 0. 0. 0. 0. 0. 0. 0. 0.
      8.88852060e-01 0. 0. 0. 8.72968376e-01 0. 2.41221488e-01 0.
      6.94807649e-01 2.92631954e-01 0. 9.54097390e-01 0. 0. 0.
      9.48107123e-01 9.72440958e-01 0. 9.97567236e-01 7.60517359e-01 0.
      7.87140965e-01 0. 7.62113035e-01 1. 9.76181626e-01 0. 0. 0.
      9.83066678e-01 9.61707115e-01 5.07940650e-01 9.92692947e-01
      6.73325360e-01 6.22264028e-01 0. 0. 0. 0. 9.20288205e-01 0.
      8.71008933e-01 0. 8.56566727e-01 8.08534145e-01 0. 0.
      7.96434045e-01 0. 0. 6.68557644e-01 7.04605222e-01 6.23786569e-01
      4.70596790e-01 5.07085741e-01 0. 0. 4.27733600e-01 0. 0.
      2.38852933e-01 0. 0. 0. 0. 0. 0. 0. 0. 0. 0. 0. 0. 0. 0. 0. 0. 0.
      0. 0. 0. 0. 0. 8.78118813e-01 4.90260065e-01 0. 4.55461621e-01 0.
      0. 5.87155282e-01 6.36588037e-01 0. 9.35893178e-01 3.53985578e-01
      0. 8.38161349e-01 0. 0. 0. 8.26658070e-01 7.96155989e-01
      3.42366070e-01 0. 6.84721351e-01 0. 6.56051695e-01 3.65702301e-01
      6.80820882e-01 0. 0. 3.38604599e-01 0. 6.80970192e-01 0. 0. 0. 0.
      0. 0. 3.42959881e-01 0. 0. 0. 0. 5.39391577e-01 0. 9.54486251e-01
      5.21400213e-01 0. 0. 0. 0. 0. 7.40057647e-01 7.74695337e-01 0.
      7.62277961e-01 0. 0. 0. 0. 0. 7.42423296e-01 0. 6.98523045e-01 0.
      0. 6.92754626e-01 0. 0. 6.51878715e-01 0. 0. 0. 0. 0.
      6.50168896e-01 0. 0. 8.37804258e-01 6.15480363e-01 0.
      7.67434359e-01 6.20173514e-01 0. 7.36401439e-01 0. 0.
      7.44053841e-01 0. 0. 7.17803895e-01 0. 0. 7.29452670e-01 0.
      5.77080071e-01 0. 7.08535314e-01 5.91506779e-01 0. 7.24162221e-01
      5.24746835e-01 0. 0. 7.08961725e-01 0. 7.28385270e-01 0. 0. 0.
      7.19065905e-01 0. 0. 7.41959631e-01 0. 0. 0. 7.38450646e-01 0.
      7.64386952e-01 0. 0. 0. 7.66412079e-01 7.94918478e-01 0. 0. 0.
      8.02053750e-01 0. 7.81138361e-01 0. 0. 0. 7.93641388e-01
      7.43132234e-01 6.92931712e-01 0. 0. 0. 0. 0. 0. 0. 0. 0. 0. 0. 0.
      0. 0. 0. 0. 0. 0. 0. 0. 0. 0. 0. 0. 0. 0.</_>
    <_>
      0. 0. 0. 0. 0. 0. 0. 0. 0. 0. 0. 0. 0. 0. 0. 0. 0. 0.
      3.34130198e-01 4.48368132e-01 5.28400958e-01 6.08631253e-01
      5.74893475e-01 0. 7.02782691e-01 0. 0. 7.18129218e-01
      7.66737342e-01 0. 0. 8.33618462e-01 0. 0. 1.21249475e-01
      8.72939706e-01 0. 1.71620965e-01 0. 8.65517616e-01 5.55319130e-01
      8.88368309e-01 0. 6.81247115e-01 8.85508776e-01 0. 9.10726964e-01
      0. 6.81355715e-01 0. 7.08316982e-01 0. 9.16602552e-01 0.
      8.94556224e-01 0. 6.92966580e-01 9.03349221e-01 0. 0.
      7.04280972e-01 8.65581751e-01 0. 0. 8.80614281e-01 0. 0. 0. 0. 0.
      0. 8.38257968e-01 6.43893778e-01 0. 8.61380875e-01 6.67884290e-01
      0. 0. 0. 0. 0. 0. 0. 0. 0. 0. 0. 0. 0. 0. 0. 0. 0. 0. 0. 0. 0.
      6.73848614e-02 0. 0. 0. 0. 0. 0. 0. 0. 0. 0. 0. 0. 0. 0. 0.
      1.11889370e-01 0. 0. 0. 0. 7.25638986e-01 9.35948849e-01 0. 0.
      9.22392130e-01 0. 0. 0. 0. 9.82820153e-01 0. 7.73444235e-01
      9.76623416e-01 7.96229720e-01 1. 0. 7.93517649e-01 0.
      7.67849445e-01 9.98297155e-01 0. 9.74006832e-01 0. 0.
      9.78482723e-01 6.96434855e-01 5.95160604e-01 0. 0. 0. 0. 0. 0. 0.
      0. 8.60497117e-01 8.12029243e-01 0. 0. 7.96853244e-01 0.
      6.68971121e-01 7.02658594e-01 6.22366607e-01 6.56457663e-01
      5.76522589e-01 4.96860921e-01 0. 0. 0. 0. 0. 0. 0. 0. 0. 0. 0. 0.
      0. 0. 0. 0. 0. 0. 0. 0. 0. 0. 0. 0. 0. 0. 4.12057012e-01 0. 0.
      7.88196146e-01 7.53137350e-01 0. 7.97489583e-01 4.99914259e-01
      4.65573311e-01 5.45716465e-01 0. 8.20544481e-01 0. 8.34182262e-01
      8.01138520e-01 0. 0. 7.84584641e-01 0. 0. 0. 0. 0. 2.69514531e-01
      0. 0. 0. 6.01518691e-01 0. 5.73296607e-01 0. 0. 5.97039640e-01 0.
      2.64348179e-01 0. 0. 6.47967458e-01 0. 0. 0. 0. 3.69870692e-01 0.
      0. 2.68965036e-01 0. 4.79406476e-01 4.29591179e-01 0.
      8.81981254e-01 0. 4.11903083e-01 0. 8.48180413e-01 6.38686478e-01
      8.33117485e-01 0. 0. 0. 6.58691406e-01 0. 0. 6.47294402e-01 0. 0.
      6.37742698e-01 3.75062734e-01 5.94645441e-01 0. 2.61777192e-01 0.
      5.88684440e-01 0. 0. 5.48878253e-01 7.65147209e-01 0. 0.
      7.27823794e-01 0. 0. 6.92260861e-01 5.11842132e-01 0.
      6.94702744e-01 2.59750932e-01 0. 6.63279891e-01 0. 0.
      6.69736803e-01 0. 0. 0. 6.43199980e-01 4.94323462e-01 0.
      6.53860688e-01 0. 5.05542457e-01 0. 6.32868946e-01 0. 0.
      6.47743165e-01 0. 6.15412712e-01 0. 5.02822876e-01 6.32764637e-01
      4.71628338e-01 0. 4.41186905e-01 6.21636033e-01 0. 0.
      6.42891824e-01 0. 3.32425863e-01 0. 6.38107121e-01 0. 0.
      6.62781835e-01 0. 0. 3.31056088e-01 6.64064050e-01 0.
      6.91592693e-01 0. 0. 0. 6.98449969e-01 0. 7.28266478e-01 0.
      7.08932102e-01 0. 0. 0. 7.22881377e-01 0. 0. 7.07099974e-01
      6.59457028e-01 0. 6.12370133e-01 0. 0. 0. 0. 0. 0. 0. 0. 0. 0. 0.
      0. 0. 0. 0. 0. 0. 0. 0. 0.</_>
    <_>
      0. 0. 2.95127511e-01 0. 0. 0. 4.51893568e-01 0. 3.36623460e-01
      5.33521354e-01 4.95354205e-01 0. 6.16469979e-01 5.78605890e-01 0.
      0. 0. 7.10098147e-01 0. 0. 7.21866369e-01 7.71463275e-01 0. 0.
      7.86122382e-01 8.37272108e-01 0. 0. 0. 0. 0. 0. 8.92434061e-01
      5.80959797e-01 4.95090604e-01 0. 8.81482601e-01 6.56826437e-01
      9.04316247e-01 0. 6.80606782e-01 8.98517013e-01 0. 9.24170136e-01
      6.77312076e-01 8.96023870e-01 0. 7.04654098e-01 8.96864533e-01
      6.78423703e-01 8.71272385e-01 0. 9.01029527e-01 0. 8.77265394e-01
      0. 0. 8.86597216e-01 0. 6.40423894e-01 0. 0. 0. 0. 8.28366041e-01
      0. 7.25326896e-01 8.47114742e-01 0. 0. 0. 0. 0. 0. 0. 0. 0. 0. 0.
      0. 0. 0. 0. 2.00055644e-01 0. 0. 0. 0. 0. 0. 0. 0. 7.78728247e-01
      0. 8.18979323e-01 0. 1.60528868e-01 1.22061357e-01 0. 0. 0. 0. 0.
      0. 0. 8.43225241e-01 0. 0. 8.16621184e-01 1.68429434e-01 0. 0.
      2.54304647e-01 0. 0. 0. 0. 0. 0. 0. 1.84277013e-01 0.
      9.13774490e-01 0. 2.37485290e-01 9.02634978e-01 0. 7.31980026e-01
      0. 9.49048817e-01 0. 0. 7.26307929e-01 9.44680870e-01
      9.71015155e-01 0. 7.79413700e-01 9.71375585e-01 7.52800941e-01 1.
      0. 9.74808574e-01 0. 0. 9.81281996e-01 2.07938269e-01 0. 0.
      6.58414483e-01 6.05152547e-01 4.65884387e-01 6.38503075e-01 0. 0.
      1.88038215e-01 0. 0. 0. 0. 8.48143756e-01 7.98182249e-01 0. 0.
      7.85654247e-01 0. 0. 6.52857602e-01 6.90413952e-01 5.68706989e-01
      6.06543303e-01 0. 5.23518026e-01 2.88313478e-01 0. 0.
      4.41814870e-01 0. 0. 0. 2.46340021e-01 0. 0. 0. 0. 0. 0. 0. 0. 0.
      0. 0. 0. 0. 0. 0. 0. 0. 0. 0. 8.31183612e-01 7.94635773e-01
      4.27910626e-01 8.44329357e-01 3.91909778e-01 0. 6.50900602e-01
      8.75165999e-01 0. 5.81143558e-01 8.92699897e-01 8.58774185e-01 0.
      0. 8.45607400e-01 3.41453850e-01 0. 0. 0. 0. 0. 0. 0. 0.
      3.34802955e-01 6.62779927e-01 0. 0. 0. 3.62116396e-01
      6.63898051e-01 0. 0. 3.37011039e-01 0. 0. 0. 0. 0. 0. 0. 0.
      3.47909510e-01 0. 0. 9.87436593e-01 0. 5.03598750e-01 0. 0. 0. 0.
      0. 7.69946575e-01 0. 0. 7.95725286e-01 0. 0. 7.86522329e-01
      4.67867076e-01 7.41035581e-01 0. 0. 7.35223532e-01 5.00288785e-01
      0. 6.92850471e-01 0. 0. 6.52312100e-01 8.84285212e-01 0.
      8.07200849e-01 0. 0. 8.09293151e-01 6.55198395e-01 0.
      7.74870753e-01 0. 6.21865392e-01 7.80889273e-01 0. 4.69955057e-01
      7.51151860e-01 0. 0. 7.61297345e-01 0. 0. 0. 7.36876190e-01 0. 0.
      7.51207173e-01 6.29414797e-01 0. 0. 7.32595921e-01 6.11987531e-01
      7.51001775e-01 5.78411043e-01 0. 0. 7.38484919e-01 0. 0.
      7.60689199e-01 0. 0. 0. 7.54305065e-01 0. 7.79900849e-01 0. 0. 0.
      7.79451787e-01 0. 8.07957709e-01 0. 0. 0. 0. 0. 0. 0.
      8.21778476e-01 0. 8.00831795e-01 0. 7.81238735e-01 0. 0.
      7.63103485e-01 0. 0. 0. 0. 0. 0. 0. 0. 0. 0. 0. 0. 0. 0. 0. 0. 0.
      0. 0. 0. 0. 0. 0. 0. 0.</_>
    <_>
      0. 0. 0. 0. 0. 0. 0. 0. 0. 0. 0. 0. 0. 0. 5.42578697e-01 0.
      6.25142157e-01 5.88850558e-01 6.72088027e-01 7.55581379e-01
      7.19930053e-01 0. 7.68501043e-01 8.17671001e-01 0. 0.
      8.33050966e-01 8.83466005e-01 0. 0. 0. 0. 0. 0. 0. 9.60180581e-01
      6.04672313e-01 6.57438695e-01 9.51906383e-01 5.74558198e-01
      9.75425601e-01 4.92191315e-01 7.58444130e-01 0. 0. 0. 0. 0. 0.
      9.72997189e-01 7.60118783e-01 9.48586881e-01 0. 7.36389220e-01
      9.55240130e-01 0. 9.33420956e-01 7.44939983e-01 0. 9.44715559e-01
      0. 0. 0. 0. 0. 0. 0. 0. 8.76090109e-01 0. 0. 8.97685409e-01
      6.94644570e-01 0. 0. 0. 0. 0. 0. 0. 0. 0. 0. 0. 0. 0. 0. 0. 0. 0.
      0. 0. 0. 0. 0. 0. 0. 0. 0. 0. 0. 0. 0. 0. 0. 0. 0. 0. 0. 0. 0. 0.
      0. 0. 0. 9.26756203e-01 0. 0. 9.09101188e-01 0. 7.58456230e-01 0.
      0. 0. 9.66222703e-01 0. 0. 9.56774771e-01 0. 9.79628086e-01
      4.13850307e-01 7.61789799e-01 9.74704623e-01 1. 0. 9.72689271e-01
      0. 0. 9.73600149e-01 6.53830230e-01 5.47362924e-01 4.94174540e-01
      6.29609764e-01 0. 0. 0. 0. 0. 0. 0. 0. 0. 0. 0. 8.01397502e-01
      7.51032829e-01 0. 3.29433352e-01 7.35874355e-01 6.51741922e-01
      6.86927676e-01 6.03052497e-01 5.19344568e-01 4.35900152e-01 0. 0.
      0. 0. 0. 0. 0. 0. 0. 0. 0. 0. 0. 0. 0. 0. 0. 0. 0. 0. 0. 0. 0. 0.
      0. 0. 0. 0. 0. 0. 7.38945782e-01 7.02311397e-01 7.84973562e-01
      7.48689055e-01 0. 7.95943856e-01 6.40845299e-01 7.24623144e-01
      6.89295232e-01 4.51008916e-01 8.22653651e-01 7.03789532e-01 0.
      7.19972491e-01 0. 0. 0. 7.89264560e-01 0. 0. 0. 6.41474545e-01
      6.93997383e-01 0. 0. 5.80712199e-01 0. 0. 0. 2.57065088e-01 0. 0.
      0. 0. 0. 2.30576023e-01 5.78518450e-01 0. 0. 0. 0. 0. 0.
      7.51903236e-01 6.99655831e-01 0. 0. 0. 8.81571412e-01
      3.24337214e-01 0. 4.42470104e-01 0. 4.76829767e-01 0.
      3.08425367e-01 4.27624404e-01 0. 0. 0. 6.54241502e-01
      6.90442741e-01 0. 3.33087265e-01 6.81024313e-01 0. 0.
      6.73591554e-01 0. 0. 6.30735040e-01 0. 0. 6.27260506e-01 0. 0.
      5.88305175e-01 0. 0. 0. 5.89431584e-01 0. 7.80541539e-01 0.
      5.55538535e-01 0. 7.10399091e-01 0. 0. 7.17314184e-01 0. 0.
      6.89734101e-01 0. 0. 7.00930357e-01 0. 5.45993030e-01 0.
      6.79001629e-01 0. 0. 6.94486082e-01 0. 5.76279223e-01 0.
      6.78672850e-01 0. 0. 6.98256493e-01 0. 0. 5.83264709e-01
      6.88762903e-01 5.52957594e-01 0. 7.12079406e-01 5.23617506e-01 0.
      0. 7.08826840e-01 0. 7.35388219e-01 0. 0. 0. 7.38051832e-01
      3.90126824e-01 7.67318785e-01 0. 0. 0. 7.75402606e-01 0.
      8.06848347e-01 0. 7.87030816e-01 0. 0. 0. 8.02049458e-01 0. 0. 0.
      0. 7.70943165e-01 0. 0. 0. 0. 0. 0. 0. 0. 0. 0. 0. 0. 0. 0. 0. 0.
      0. 0. 0. 0.</_>
    <_>
      0. 0. 0. 0. 0. 0. 0. 0. 0. 0. 0. 0. 0. 0. 0. 0. 0. 0. 0. 0. 0. 0.
      3.64955962e-01 4.41785306e-01 0. 5.64198673e-01 0. 5.33145368e-01
      0. 5.79573750e-01 6.26353681e-01 0. 0. 6.91517115e-01 0. 0. 0.
      6.82976365e-01 0. 0. 9.73383129e-01 0. 0. 9.69787002e-01
      9.44540501e-01 0. 9.68633235e-01 9.44614053e-01 0. 4.57582623e-01
      9.47199106e-01 4.83833075e-01 9.25193548e-01 7.31644988e-01
      5.11060417e-01 7.11322367e-01 5.39116502e-01 3.67021978e-01 0.
      7.21368492e-01 9.51992154e-01 9.81967807e-01 0. 0. 6.88186765e-01
      0. 0. 0. 7.05334485e-01 0. 0. 0. 0. 0. 0. 0. 0. 2.79672474e-01 0.
      0. 0. 0. 0. 0. 2.39663094e-01 0. 0. 0. 6.52119160e-01 0. 0.
      6.85956180e-01 0. 0. 1.00176767e-01 0. 0. 0. 0. 0. 0. 0. 0. 0. 0.
      0. 0. 0. 0. 0. 0. 0. 0. 0. 0. 0. 0. 0. 0. 0. 7.86347389e-01 0.
      7.67247006e-02 7.74557650e-01 0. 0. 0. 0. 0. 0. 0. 8.57006133e-01
      0. 0. 8.54582310e-01 0. 0. 9.03645992e-01 7.08825350e-01 0. 0.
      9.06603575e-01 7.12592006e-01 9.60442245e-01 7.39835441e-01 0.
      7.19647467e-01 4.99704152e-01 7.00574219e-01 4.52136844e-01
      6.05798721e-01 6.82709098e-01 6.35755897e-01 0. 0. 0. 0. 0. 0. 0.
      0. 0. 0. 0. 0. 0. 0. 4.30734932e-01 0. 6.73772991e-01 0.
      7.75361419e-01 0. 0. 0. 0. 0. 0. 0. 0. 0. 0. 0. 0. 0. 0. 0. 0. 0.
      0. 4.59150106e-01 0. 7.08886683e-01 7.83557057e-01 7.50009537e-01
      5.74447393e-01 0. 0. 0. 0. 0. 3.00688624e-01 0. 0. 2.68747836e-01
      8.39170814e-01 0. 0. 0. 0. 0. 0. 0. 0. 6.27665877e-01 0.
      5.99288404e-01 0. 0. 6.19937718e-01 0. 0. 0. 6.15980864e-01 0. 0.
      0. 0. 0. 0. 0. 0. 0. 7.43522882e-01 7.71123886e-01 4.26544398e-01
      3.78585577e-01 0. 7.80222297e-01 0. 7.62270331e-01 3.60402673e-01
      0. 0. 7.76078463e-01 4.98781472e-01 0. 0. 0. 4.85124737e-01 0. 0.
      0. 7.24426389e-01 5.06545007e-01 6.81762099e-01 0. 0.
      4.97897804e-01 0. 0. 6.67122602e-01 0. 0. 6.28141105e-01
      4.53160912e-01 0. 6.25001550e-01 0. 0. 5.89289904e-01 0. 0.
      5.89982688e-01 4.17954177e-01 0. 0. 5.58428228e-01 0. 0. 0.
      5.63391864e-01 3.19921672e-01 0. 0. 0. 5.03608167e-01 0. 0.
      5.13751686e-01 0. 0. 0. 0. 0. 4.94300455e-01 0. 0. 5.09317040e-01
      0. 4.79036987e-01 0. 0. 4.96913463e-01 9.93952692e-01
      9.65340555e-01 0. 0. 0. 4.89074051e-01 0. 9.52323794e-01
      9.74935591e-01 0. 0. 0. 0. 9.49191332e-01 9.74317253e-01 1. 0. 0.
      5.63083231e-01 0. 5.90561867e-01 0. 0. 0. 0. 0. 0. 0. 0.
      6.13242149e-01 0. 0. 5.98345041e-01 0. 0. 0. 0. 6.17390215e-01 0.
      5.73624730e-01 0. 5.30727148e-01 0. 0. 0. 0. 0. 0. 0. 0. 0. 0. 0.
      0. 0. 0.</_>
    <_>
      0. 0. 0. 0. 0. 0. 0. 0. 0. 0. 0. 0. 0. 0. 0. 0. 0. 0. 0. 0. 0. 0.
      3.86804402e-01 4.51499194e-01 4.89571363e-01 3.33347619e-01 0.
      5.02039850e-01 2.42320910e-01 5.41232049e-01 0. 0. 0. 0. 0. 0. 0.
      0. 0. 8.31697226e-01 0. 0. 8.28057289e-01 8.06479216e-01
      6.21138394e-01 0. 8.05870175e-01 4.36306477e-01 7.85830498e-01 0.
      6.02538586e-01 2.93933094e-01 4.39038038e-01 0. 6.07302904e-01
      8.16528618e-01 7.99925745e-01 0. 0. 8.08750749e-01 5.99623740e-01
      7.94111431e-01 8.19540858e-01 0. 8.06144476e-01 0. 0.
      8.20059717e-01 5.60759962e-01 8.35763097e-01 0. 0. 5.77674448e-01
      0. 4.49340016e-01 0. 0. 0. 0. 0. 0. 0. 8.30833912e-02 0. 0. 0. 0.
      0. 0. 0. 0. 0. 0. 0. 0. 0. 0. 0. 0. 0. 0. 0. 0. 0. 0. 0. 0. 0.
      5.58355339e-02 0. 0. 0. 0. 0. 0. 0. 0. 0. 0. 0. 0. 0. 0.
      5.12815714e-01 0. 0. 0. 0. 6.91695392e-01 1. 0. 0. 6.87728763e-01
      0. 0. 0. 0. 0. 7.69161940e-01 6.05123639e-01 0. 7.72176981e-01 0.
      7.94870913e-01 6.32169604e-01 0. 0. 6.15501404e-01 0. 0. 0.
      5.85071683e-01 5.45669675e-01 0. 5.71464777e-01 0. 0. 0. 0. 0. 0.
      0. 2.62549162e-01 0. 0. 0. 0. 5.85817397e-01 6.42355502e-01
      5.51079035e-01 4.60022390e-01 0. 0. 0. 0. 0. 0. 0. 0. 0. 0. 0. 0.
      0. 0. 0. 0. 0. 0. 0. 3.99534583e-01 0. 0. 4.33458209e-01
      6.44568801e-01 4.96635854e-01 0. 5.32294869e-01 0. 0. 0. 0. 0.
      2.38752857e-01 6.81050658e-01 0. 2.12252930e-01 0. 0. 0. 0. 0. 0.
      5.00308692e-01 0. 4.75974470e-01 0. 2.02419713e-01 0.
      4.69880402e-01 0. 0. 4.88651812e-01 0. 0. 0. 0. 5.28985918e-01 0.
      0. 0. 3.45580161e-01 0. 0. 6.18186891e-01 3.27832341e-01 0. 0. 0.
      4.16418880e-01 0. 2.72048265e-01 6.35890543e-01 0. 6.22371018e-01
      0. 0. 6.36547387e-01 0. 4.42274123e-01 6.25743091e-01 0.
      5.88584185e-01 0. 0. 0. 4.24423873e-01 5.72352707e-01 0.
      5.37782967e-01 0. 0. 5.32921076e-01 0. 0. 5.00686824e-01 0. 0.
      3.82786781e-01 4.98853326e-01 0. 0. 4.69676971e-01 0. 0.
      4.71313953e-01 0. 3.55744123e-01 0. 0. 4.46024835e-01 0. 0.
      3.31815034e-01 0. 0. 0. 4.58749712e-01 0. 3.11482787e-01 0.
      4.40452754e-01 0. 0. 0. 4.51631963e-01 0. 0. 0. 0. 0. 0.
      4.13777977e-01 0. 0. 4.29602176e-01 0. 0. 0. 0. 0. 4.24158931e-01
      8.55699897e-01 8.34073067e-01 0. 0. 0. 0. 0. 8.34567130e-01
      8.56422246e-01 0. 0. 4.88786072e-01 0. 0. 0. 0. 4.96054471e-01 0.
      5.20789087e-01 0. 0. 0. 5.32389879e-01 0. 0. 5.20101368e-01 0. 0.
      0. 5.36453724e-01 0. 4.99697804e-01 0. 4.63665932e-01 0. 0. 0. 0.
      0. 0. 0. 0. 0. 0. 0. 0. 0. 0.</_>
    <_>
      0. 0. 0. 0. 0. 0. 0. 0. 0. 0. 0. 0. 0. 0. 0. 0. 0. 0. 0. 0. 0.
      4.24398959e-01 4.97199148e-01 5.70087433e-01 6.12962663e-01
      3.63862813e-01 0. 6.26863122e-01 6.70895636e-01 0. 0. 0. 0. 0. 0.
      0. 0. 7.40944028e-01 0. 0. 0. 7.35732973e-01 0. 7.57309377e-01
      5.48409998e-01 0. 9.87756491e-01 3.86438042e-01 7.33998120e-01
      9.89276528e-01 9.67790544e-01 5.74067056e-01 7.37494707e-01
      9.72647786e-01 9.53034282e-01 0. 5.80377638e-01 7.25434005e-01
      5.62307000e-01 0. 9.71722841e-01 1. 0. 0. 6.76673532e-01 0. 0. 0.
      6.92930460e-01 0. 0. 0. 5.35917521e-01 0. 0. 0. 0. 0. 0. 0. 0. 0.
      0. 0. 0. 0. 0. 0. 0. 0. 0. 0. 0. 0. 0. 0. 0. 0. 0. 0. 0. 0. 0. 0.
      0. 0. 0. 0. 0. 0. 0. 0. 0. 0. 0. 0. 0. 0. 0. 0. 0. 0. 0.
      6.02227628e-01 0. 0. 0. 5.93814313e-01 8.03178072e-01 0. 0.
      7.98230767e-01 0. 0. 0. 0. 8.65198374e-01 0. 0. 8.66802037e-01
      8.91570449e-01 0. 7.07383871e-01 8.96713674e-01 6.87355459e-01
      9.22999263e-01 0. 0. 6.50391459e-01 6.05394840e-01 4.87605363e-01
      6.33636177e-01 0. 0. 0. 0. 0. 0. 0. 0. 0. 3.42560381e-01 0.
      7.14954853e-01 7.77614772e-01 6.74280584e-01 6.02624476e-01 0.
      5.31374037e-01 0. 0. 0. 0. 0. 0. 0. 0. 0. 0. 0. 0. 0. 0. 0. 0. 0.
      0. 0. 3.58092099e-01 0. 0. 4.27924842e-01 3.95838231e-01
      6.97400808e-01 7.36645341e-01 0. 4.35230941e-01 7.45233357e-01 0.
      7.55141795e-01 2.37969920e-01 0. 0. 7.35903263e-01 7.05692172e-01
      0. 0. 6.89736187e-01 0. 0. 0. 2.22136080e-01 0. 0. 0. 0.
      1.94661096e-01 5.21732211e-01 0. 0. 0. 0. 5.16777813e-01 0. 0.
      5.38967431e-01 0. 0. 0. 5.40148914e-01 1.92426130e-01 0. 0. 0. 0.
      0. 0. 0. 0. 6.72082305e-01 7.00072527e-01 3.91675293e-01 0. 0.
      7.13089585e-01 4.49891955e-01 6.98917091e-01 4.79697257e-01 0.
      7.16449857e-01 0. 4.67608750e-01 0. 0. 0. 6.95684791e-01
      6.55620992e-01 0. 0. 0. 0. 0. 6.42927706e-01 4.76435125e-01 0.
      6.06446862e-01 0. 4.40740734e-01 6.04058325e-01 0. 0.
      5.70726037e-01 0. 0. 5.71941435e-01 0. 4.08880383e-01 0.
      5.42566955e-01 0. 4.13173050e-01 5.47766209e-01 0. 0. 0. 0.
      5.23191929e-01 0. 0. 5.32615006e-01 3.98275048e-01 0. 0. 0.
      5.13596058e-01 0. 0. 5.27266443e-01 0. 3.51935744e-01 0. 0.
      5.14326930e-01 0. 0. 5.32016218e-01 0. 5.05306423e-01 0. 0.
      5.25341451e-01 0. 0. 0. 0. 5.22691309e-01 0. 0. 0. 5.70267081e-01
      0. 0. 0. 0. 5.75314879e-01 0. 6.01943970e-01 0. 0. 0.
      6.11996174e-01 0. 6.40444160e-01 0. 0. 0. 6.54821813e-01 0.
      6.41704857e-01 0. 0. 0. 6.60929799e-01 0. 0. 6.51230931e-01
      5.79514027e-01 6.11233056e-01 0. 0. 0. 0. 0. 0. 0. 0. 0. 0. 0. 0.</_>
    <_>
      0. 4.72346097e-01 0. 0. 0. 5.42477429e-01 0. 0. 6.14180803e-01 0.
      6.53129339e-01 0. 0. 6.59774482e-01 0. 7.01228499e-01 0. 0.
      7.10740447e-01 0. 7.54075706e-01 0. 7.66007066e-01 4.73016262e-01
      4.41445529e-01 7.48038709e-01 4.87006038e-01 0. 7.63154447e-01 0.
      0. 7.49839246e-01 0. 0. 7.67989397e-01 0. 0. 7.59421587e-01 0. 1.
      9.73447084e-01 0. 0. 9.70346272e-01 7.02942967e-01 9.45450783e-01
      0. 0. 7.03676403e-01 9.71408904e-01 0. 9.49024081e-01
      9.27367866e-01 6.59596145e-01 0. 9.34242010e-01 0. 6.67466104e-01
      0. 8.96271408e-01 0. 0. 9.08576787e-01 4.32372749e-01
      8.92547786e-01 0. 0. 9.40238595e-01 0. 4.49551195e-01 0.
      5.90102673e-01 0. 0. 0. 6.12483919e-01 0. 0. 0. 0. 0. 0. 0. 0. 0.
      0. 0. 0. 0. 0. 0. 0. 0. 0. 0. 0. 0. 0. 0. 0. 0. 0. 0. 0. 0. 0. 0.
      0. 0. 0. 0. 0. 0. 0. 0. 9.46570098e-01 0. 0. 0. 0. 9.16313410e-01
      6.86674178e-01 9.33776975e-01 0. 0. 9.23671663e-01 0.
      9.43495989e-01 0. 0. 9.37269270e-01 9.59268093e-01 7.39814878e-01
      5.68973899e-01 9.56840277e-01 0. 9.80801225e-01 7.62917280e-01
      9.82027769e-01 0. 5.94761968e-01 7.66030788e-01 0. 7.92795479e-01
      0. 0. 8.00215125e-01 0. 7.81308115e-01 5.34053862e-01
      2.86955982e-01 0. 7.93297648e-01 0. 4.70464766e-01 0. 0. 0. 0. 0.
      0. 0. 0. 7.25859880e-01 0. 6.83384538e-01 0. 0. 6.75231040e-01
      5.67492664e-01 6.01179183e-01 0. 5.27883708e-01 0. 3.87442648e-01
      4.55709606e-01 0. 0. 0. 3.50993514e-01 0. 0. 0. 0. 0. 0. 0. 0. 0.
      1.81464925e-01 0. 0. 0. 0. 0. 0. 0. 0. 0. 0. 0. 0. 7.43621767e-01
      7.88204551e-01 0. 0. 0. 8.16914976e-01 4.33438957e-01
      7.86491871e-01 4.79873598e-01 5.26682198e-01 7.73765624e-01
      7.44740605e-01 0. 0. 0. 7.36098886e-01 0. 3.17784816e-01 0. 0. 0.
      2.91803509e-01 0. 6.31257534e-01 0. 6.07066631e-01 3.16157311e-01
      6.32303238e-01 0. 0. 0. 6.37051642e-01 0. 0. 0. 7.69084573e-01
      7.21695960e-01 0. 0. 8.57168615e-01 3.04134935e-01 0.
      8.71544540e-01 9.02440012e-01 5.19118667e-01 0. 4.74048316e-01 0.
      0. 6.46625876e-01 0. 0. 0. 6.69091225e-01 3.11136544e-01 0. 0. 0.
      0. 6.54043257e-01 7.89604008e-01 8.23579192e-01 0. 7.51394570e-01
      0. 0. 0. 0. 6.10337555e-01 0. 0. 7.47953951e-01 0. 7.15765178e-01
      0. 0. 7.19485462e-01 0. 5.83765209e-01 6.91088319e-01 0. 0.
      6.98318541e-01 0. 0. 5.65847576e-01 6.74278677e-01 0. 0.
      4.68285859e-01 5.44608712e-01 6.97501600e-01 0. 0. 0.
      6.80384874e-01 0. 6.96228862e-01 0. 0. 0. 6.84257925e-01 0. 0.
      7.03367710e-01 0. 0. 6.96605742e-01 0. 0. 0. 0. 7.41659701e-01 0.
      0. 7.41623104e-01 0. 7.66998887e-01 0. 0. 0. 0. 0. 0.
      7.79104054e-01 0. 7.60314822e-01 7.13104963e-01 6.66081607e-01 0.
      6.95916831e-01 0. 0. 0. 0. 0. 0. 0. 0. 0. 0. 0. 0. 0. 0. 0. 0. 0.
      0. 0. 0. 0. 0. 0. 0. 0. 0. 0.</_>
    <_>
      0. 3.56305689e-01 0. 0. 0. 5.51459312e-01 0. 3.97325128e-01 0. 0.
      0. 6.38643920e-01 6.00685537e-01 0. 6.84639096e-01 0. 0.
      6.94659948e-01 0. 7.43237734e-01 5.84314644e-01 0. 0.
      5.12165308e-01 0. 5.63194215e-01 0. 4.41795677e-01 0.
      5.80516696e-01 8.05990577e-01 6.86082661e-01 0. 7.92704284e-01
      7.06757843e-01 7.60488033e-01 0. 0. 0. 0. 6.13472581e-01
      7.77090251e-01 0. 7.48212159e-01 1.18274286e-01 0. 0.
      7.48028398e-01 0. 0. 0. 0. 0. 5.88834763e-01 0. 0. 5.66258967e-01
      6.52140141e-01 5.12620449e-01 0. 0. 0. 6.65569246e-01 0.
      6.99821770e-01 0. 6.83131397e-01 0. 0. 5.46050489e-01
      5.82193196e-01 0. 0. 6.55354679e-01 1.65938422e-01 6.07145011e-01
      0. 0. 0. 0. 0. 0. 0. 0. 0. 0. 0. 1.20800391e-01 0. 0. 0. 0. 0. 0.
      0. 0. 0. 5.89018166e-01 0. 2.00299636e-01 6.32913530e-01 0.
      5.56811154e-01 5.18903553e-01 0. 1.24384984e-01 5.65599620e-01
      6.50617480e-01 0. 0. 2.09747344e-01 0. 0. 0. 5.54832339e-01
      6.41279280e-01 5.19669473e-01 0. 4.85045165e-01 6.23947918e-01
      1.39088571e-01 0. 0. 5.57450056e-01 4.71514553e-01 6.64820015e-01
      5.25321901e-01 4.39918965e-01 0. 0. 0. 1.07303977e-01
      5.73269427e-01 0. 4.90115523e-01 8.73174429e-01 0. 9.55402076e-01
      9.83658493e-01 3.53705406e-01 9.58029807e-01 0. 9.33302224e-01 0.
      0. 0. 0. 0. 0. 8.17176327e-02 0. 1.68069929e-01 0. 0. 0.
      4.62212235e-01 0. 0. 0. 3.24787706e-01 0. 6.05732143e-01 0.
      2.75337785e-01 0. 0. 6.31581604e-01 7.06747472e-01 0. 0. 0. 0.
      3.10243033e-02 0. 0. 0. 0. 6.95450455e-02 0. 0. 0. 0. 0.
      6.89427316e-01 0. 0. 0. 0. 0. 0. 0. 0. 0. 0. 0. 0. 0.
      3.95094395e-01 0. 7.25262761e-01 0. 0. 1.99328974e-01
      4.93992209e-01 0. 4.58479166e-01 0. 5.10056555e-01 0.
      9.60632384e-01 9.26843166e-01 9.79749858e-01 5.81568718e-01 1. 0.
      0. 9.89600539e-01 9.04243648e-01 0. 6.79975927e-01 8.97747755e-01
      6.50039852e-01 8.68421137e-01 0. 0. 0. 4.29036140e-01 0. 0.
      5.66636026e-01 0. 0. 7.34916806e-01 0. 0. 7.11531878e-01
      6.03686035e-01 5.50001621e-01 0. 5.82749546e-01 6.69038594e-01 0.
      0. 7.36728489e-01 0. 0. 7.19672918e-01 6.68587089e-01 0. 0. 0. 0.
      0. 0. 2.38089010e-01 0. 0. 0. 0. 0. 0. 0. 0. 0. 2.68210560e-01 0.
      0. 0. 0. 0. 0. 5.76088965e-01 2.66567081e-01 1.89219564e-01 0. 0.
      5.00818253e-01 0. 6.58985853e-01 3.08697104e-01 0. 0.
      4.29807991e-01 5.89247406e-01 0. 0. 5.98593414e-01 4.39137042e-01
      4.02164578e-01 5.24536192e-01 4.87896532e-01 5.73868692e-01 0. 0.
      0. 0. 7.26517558e-01 0. 5.18875241e-01 2.59359777e-01
      4.84903485e-01 7.10513294e-01 5.37883282e-01 5.91181576e-01 0.
      4.19424027e-01 0. 0. 0. 6.36117160e-01 1.94945484e-01 0.
      8.24707031e-01 4.13386792e-01 6.32152855e-01 0. 8.23473632e-01
      3.30994755e-01 8.51558447e-01 6.32913530e-01 8.25873077e-01 0. 0.
      0. 8.31873834e-01 0. 6.69764757e-01 0. 0. 0. 0. 0. 0. 0. 0.
      6.10934138e-01 0. 0. 0. 0. 5.44916391e-01 0. 7.03736305e-01 0.
      6.55039966e-01 5.69958091e-01 6.07371449e-01 0. 0. 0. 0. 0. 0. 0.
      0. 0. 0. 0. 0. 0.</_>
    <_>
      0. 0. 4.35893118e-01 0. 0. 0. 5.10784149e-01 4.74686772e-01 0.
      5.87341249e-01 5.51478207e-01 0. 6.29365146e-01 0. 0.
      6.37486935e-01 0. 6.82219386e-01 0. 0. 6.93527937e-01 0.
      7.40214646e-01 0. 0. 0. 7.21109927e-01 5.26092410e-01 0.
      4.93796140e-01 5.43107092e-01 7.54688919e-01 0. 6.42676115e-01
      7.43084550e-01 0. 0. 7.63896823e-01 0. 0. 7.57667780e-01 0.
      7.30218410e-01 0. 6.00947917e-01 0. 7.29139268e-01 5.23865223e-01
      7.04323173e-01 0. 0. 0. 0. 7.08801270e-01 0. 5.05694807e-01 0. 0.
      6.66652083e-01 0. 0. 5.98098218e-01 0. 5.48928142e-01
      6.62487030e-01 0. 0. 6.47396445e-01 9.46059152e-02 6.00073755e-01
      0. 0. 0. 0. 0. 0. 0. 0. 0. 0. 0. 0. 0. 0. 0. 0. 0. 0. 0. 0. 0. 0.
      0. 0. 0. 0. 0. 0. 5.63793361e-01 0. 0. 6.05260491e-01 0.
      1.63936377e-01 0. 0. 5.42570770e-01 5.07691562e-01 0. 0.
      4.38621640e-01 2.09142372e-01 0. 0. 0. 0. 5.00076830e-01 0.
      4.67667699e-01 0. 5.16904593e-01 0. 0. 5.35666168e-01
      5.85933864e-01 0. 0. 6.06906116e-01 2.94839054e-01 0.
      6.29274130e-01 0. 6.01654232e-01 0. 0. 8.82919729e-01
      9.08646405e-01 8.06011200e-01 9.35074210e-01 0. 9.10949171e-01
      9.38716233e-01 8.36621344e-01 6.83791459e-01 0. 8.94438624e-01
      7.93287396e-01 6.92577660e-01 4.30893838e-01 0. 0. 0.
      4.93564099e-01 7.36964464e-01 4.44705009e-01 2.82404810e-01 0.
      3.96469712e-01 0. 4.29929167e-01 0. 0. 3.83274168e-01 0.
      3.03060323e-01 1.88373014e-01 3.37976009e-01 0. 0. 2.58992642e-01
      0. 0. 0. 0. 0. 1.45785183e-01 0. 0. 0. 0. 0. 0. 0. 0. 0. 0. 0. 0.
      0. 0. 0. 0. 0. 0. 0. 3.74813408e-01 0. 7.18703568e-01 0.
      6.49398386e-01 5.00277102e-01 4.66216356e-01 0. 0. 5.13514340e-01
      3.99276406e-01 5.61520159e-01 4.47763681e-01 3.66613060e-01 0. 0.
      5.46296179e-01 3.84480059e-01 0. 9.58039463e-01 9.28014636e-01
      9.78571713e-01 8.98452580e-01 1. 9.71273124e-01 6.59613729e-01
      8.13044190e-01 9.15433049e-01 0. 4.00231481e-01 7.08127558e-01 0.
      6.31250322e-01 0. 7.09238708e-01 5.55590630e-01 4.53282505e-01 0.
      5.32601535e-01 0. 0. 0. 7.22478569e-01 6.72255218e-01 0. 0. 0. 0.
      0. 0. 0. 0. 0. 0. 0. 0. 0. 0. 0. 0. 0. 0. 0. 0. 0. 0. 0.
      2.42038086e-01 0. 0. 0. 0. 0. 0. 0. 0. 2.75614321e-01 0. 0. 0.
      4.22358721e-01 0. 0. 2.78010696e-01 0. 6.47779584e-01
      6.12034917e-01 3.55711699e-01 6.54864907e-01 3.20271343e-01
      5.84310710e-01 3.99646789e-01 0. 5.94376206e-01 6.74692810e-01 0.
      5.25729358e-01 1.00950845e-01 6.53690636e-01 5.39341927e-01 0. 0.
      0. 0. 6.04084432e-01 1.49342671e-01 0. 4.91597354e-01 0.
      5.91769040e-01 0. 0. 0. 0. 7.65132725e-01 0. 0. 7.60660052e-01
      3.74927998e-01 7.85373092e-01 0. 0. 0. 2.97818452e-01
      1.95264608e-01 0. 6.08735561e-01 7.90086448e-01 0. 5.86487472e-01
      6.66587651e-01 7.46915221e-01 0. 0. 5.96308112e-01 7.58133769e-01
      0. 0. 0. 0. 5.61758101e-01 0. 5.13755977e-01 0. 0. 0.
      5.00525117e-01 0. 6.84217095e-01 0. 0. 0. 0. 0. 0. 0. 0. 0. 0. 0.
      0. 0. 0. 0. 0.</_>
    <_>
      0. 0. 0. 0. 0. 0. 0. 0. 2.40966007e-01 4.33022112e-01 0. 0.
      5.14045417e-01 4.77177501e-01 5.95993519e-01 5.59438586e-01
      6.78531408e-01 6.42242670e-01 7.25403905e-01 6.89518273e-01 0. 0.
      0. 0. 0. 0. 0. 0. 0. 5.31157792e-01 4.46879894e-01 4.98427987e-01
      0. 8.22292626e-01 6.02466047e-01 7.90815890e-01 0. 6.24003828e-01
      7.29642153e-01 7.82569289e-01 7.00100601e-01 8.06359112e-01 0. 0.
      8.03603530e-01 0. 0. 6.16853178e-01 7.51100004e-01 0. 0. 0.
      7.55711317e-01 0. 8.40707421e-02 0. 2.20002472e-01 5.75712383e-01
      0. 1.67732865e-01 6.91768646e-01 0. 0. 0. 7.06910968e-01 0. 0.
      6.90948486e-01 2.35264614e-01 6.41563594e-01 0. 7.12129056e-01 0.
      0. 5.81132889e-01 6.17420495e-01 0. 0. 0. 0. 6.82498097e-01 0. 0.
      6.39168441e-01 0. 0. 0. 0. 0. 0. 0. 0. 0. 0. 0. 0. 6.36135936e-01
      0. 0. 6.78235054e-01 0. 0. 6.84834063e-01 0. 6.11124933e-01
      6.93425417e-01 6.57003582e-01 6.20737314e-01 0. 0. 0. 0. 0.
      5.62016845e-01 5.27316451e-01 2.40064442e-01 6.61751747e-01 0.
      7.12376475e-01 0. 5.10531187e-01 3.42150390e-01 0. 2.58119822e-01
      0. 7.18423128e-01 6.34881318e-01 3.62979621e-01 2.27145717e-01 0.
      0. 6.80997133e-01 5.46087861e-01 6.52653694e-01 9.19204056e-01
      9.45398211e-01 0. 0. 1. 8.93450499e-01 9.75097358e-01
      8.68769825e-01 0. 8.45053017e-01 0. 3.09284866e-01 0. 0. 0. 0.
      5.08847058e-01 2.88916379e-01 0. 0. 4.90966856e-01 1.53559119e-01
      4.40741718e-01 0. 2.72276342e-01 0. 1.88206032e-01 3.07431519e-01
      0. 7.36949027e-01 6.17687583e-01 0. 0. 0. 6.44475818e-01 0. 0. 0.
      0. 0. 0. 0. 0. 0. 7.04558432e-01 0. 0. 0. 0. 0. 0. 1.00697532e-01
      0. 0. 3.67316186e-01 3.29922795e-01 0. 4.47768748e-01
      4.10770357e-01 0. 0. 0. 7.30956793e-01 3.00858587e-01 0.
      5.03419995e-01 0. 0. 7.54784226e-01 0. 0. 9.37742829e-01
      9.03487027e-01 9.53871191e-01 0. 0. 5.49785793e-01 9.89659607e-01
      5.17352521e-01 0. 8.93726051e-01 3.49673241e-01 5.38166940e-01
      9.68022346e-01 0. 8.55319440e-01 9.08379197e-01 5.31672180e-01
      6.91399515e-01 0. 5.57079613e-01 7.17101336e-01 0. 6.90490663e-01
      0. 6.64956093e-01 5.05318940e-01 0. 5.87607682e-01 0.
      1.04549520e-01 0. 5.12474298e-01 0. 0. 0. 5.76355577e-01 0. 0.
      2.20985979e-01 6.42749012e-01 6.76657856e-01 5.08007288e-01 0.
      6.61427379e-01 1.71040133e-01 6.12546384e-01 0. 0. 0.
      8.73389915e-02 0. 0. 0. 0. 0. 0. 0. 0. 0. 2.35926196e-01 0. 0. 0.
      0. 0. 0. 0. 5.36552727e-01 0. 2.34957173e-01 1.59674451e-01
      5.01230001e-01 0. 0. 6.18181050e-01 5.43612778e-01 0. 0.
      3.95478457e-01 0. 3.58804733e-01 4.77393083e-02 5.60825884e-01 0.
      6.44153237e-01 0. 0. 5.37822604e-01 6.21944249e-01 5.03042877e-01
      0. 0. 0. 3.50621551e-01 0. 0. 0. 4.53662544e-01 5.89622378e-01
      5.05752325e-01 2.86079913e-01 0. 5.27350664e-01 5.80183685e-01
      6.33103371e-01 5.50688922e-01 0. 0. 0. 7.88825333e-01 0.
      7.08459079e-01 1.74983099e-01 7.89042890e-01 0. 7.63898909e-01
      3.09773773e-01 7.92858422e-01 0. 7.69690573e-01 0. 0. 0.
      7.79100716e-01 2.35206977e-01 0. 0. 0. 1.83871254e-01 0. 0. 0. 0.
      5.05426168e-01 0. 0. 0. 4.91959602e-01 0. 6.83110118e-01 0.
      6.36615157e-01 5.17671168e-01 5.54413140e-01 0. 0. 0. 0. 0. 0. 0.
