<?xml version="1.0"?>
<opencv_storage>
<opencv_ml_svm>
  <format>3</format>
  <svmType>C_SVC</svmType>
  <kernel>
    <type>POLY</type>
    <degree>3.</degree>
    <gamma>3.</gamma>
    <coef0>0.</coef0></kernel>
  <C>1.</C>
  <term_criteria><epsilon>1.1920928955078125e-07</epsilon>
    <iterations>1000</iterations></term_criteria>
  <var_count>18</var_count>
  <class_count>9</class_count>
  <class_labels type_id="opencv-matrix">
    <rows>9</rows>
    <cols>1</cols>
    <dt>i</dt>
    <data>
      1 2 3 4 5 6 7 8 9</data></class_labels>
  <sv_total>154</sv_total>
  <support_vectors>
    <_>
      0. 3.16827387e-01 7.57880569e-01 1. 7.63746917e-01 4.78959888e-01
      4.03679222e-01 8.87547135e-01 8.08632731e-01 0. 4.58254039e-01
      6.85249805e-01 9.76342678e-01 8.31685722e-01 1.86956182e-01
      8.56860697e-01 8.61756146e-01 7.90852606e-01</_>
    <_>
      0. 1.85572833e-01 7.65469790e-01 1. 7.01352715e-01 0.
      6.01304591e-01 6.80158734e-01 4.90461290e-01 3.33554566e-01
      2.10327819e-01 5.64762115e-01 8.74625981e-01 8.67111802e-01
      5.10111868e-01 2.23244399e-01 2.85787463e-01 6.93892181e-01</_>
    <_>
      0. 0. 6.51250005e-01 1. 8.47363055e-01 8.40792298e-01
      1.78751439e-01 3.08527619e-01 3.39406997e-01 3.52296084e-01
      5.61217010e-01 9.26213503e-01 8.33672464e-01 7.88884580e-01
      3.92652690e-01 4.08694178e-01 3.06674033e-01 6.01516724e-01</_>
    <_>
      0. 4.79382843e-01 7.50726223e-01 6.65774345e-01 6.82978988e-01
      5.87924719e-01 2.69938648e-01 8.25637937e-01 8.52959931e-01
      4.79315400e-01 6.21565163e-01 7.45834231e-01 1. 6.33624375e-01
      6.09976292e-01 8.57580364e-01 8.15259397e-01 5.26078463e-01</_>
    <_>
      0. 3.59777957e-01 7.70118415e-01 6.40209973e-01 5.97677588e-01
      5.13468623e-01 0. 8.31396207e-02 6.86079681e-01 6.47465706e-01
      3.77332181e-01 7.45645344e-01 1. 8.67948413e-01 4.32617724e-01
      3.78047973e-01 7.54138649e-01 0.</_>
    <_>
      0. 3.40602666e-01 1. 6.87253237e-01 8.60544741e-01 2.48869255e-01
      8.65690827e-01 8.87093067e-01 7.48390734e-01 1.04291737e-01 0.
      8.20337236e-01 9.85708714e-01 6.67501867e-01 3.82980943e-01
      7.49952495e-01 7.36901522e-01 7.26402283e-01</_>
    <_>
      0. 6.39085650e-01 8.80079150e-01 1. 9.15067077e-01 2.17523068e-01
      7.76154757e-01 8.60999942e-01 7.51730442e-01 2.60318279e-01
      5.52188098e-01 8.26374173e-01 9.63378191e-01 8.50095272e-01
      1.72865659e-01 4.76471692e-01 8.50483239e-01 8.87011826e-01</_>
    <_>
      0. 6.26819432e-01 6.76305771e-01 8.90391290e-01 8.41521442e-01
      7.85436690e-01 7.15232849e-01 8.44378173e-01 7.67618060e-01 0. 0.
      7.74627507e-01 9.50929284e-01 1. 6.66500449e-01 4.44598883e-01
      9.71606433e-01 7.76151180e-01</_>
    <_>
      0. 1.31489649e-01 8.43270838e-01 9.17055786e-01 8.85128558e-01
      8.52885544e-01 8.59331131e-01 7.65944064e-01 8.27036798e-01
      2.88320631e-01 6.74435496e-01 8.11358631e-01 1. 9.26124454e-01
      5.35587668e-01 4.57469732e-01 3.32460999e-01 6.39623344e-01</_>
    <_>
      0. 2.11100712e-01 9.06885564e-01 9.21996593e-01 8.81181598e-01
      7.74955988e-01 8.19706798e-01 8.51497114e-01 1.63963750e-01
      2.37223029e-01 4.04228568e-01 6.28265262e-01 9.47487533e-01 1.
      8.80389988e-01 4.93811965e-01 3.79844546e-01 4.80264992e-01</_>
    <_>
      0. 7.47325540e-01 7.60748863e-01 8.51974666e-01 8.11174095e-01
      6.31686091e-01 6.84819937e-01 8.28449488e-01 8.65909219e-01
      1.12125866e-01 0. 5.88644564e-01 1. 6.29146457e-01 7.78678715e-01
      9.75942075e-01 9.62217152e-01 3.60297322e-01</_>
    <_>
      0. 5.08589268e-01 8.66952419e-01 8.39868903e-01 8.19280028e-01
      7.38402784e-01 8.04193795e-01 9.19883132e-01 6.54422641e-01
      5.69680691e-01 4.74711061e-01 6.89979315e-01 8.42054605e-01
      8.35687459e-01 5.17361224e-01 7.83353150e-01 1. 6.28180325e-01</_>
    <_>
      0. 4.93604481e-01 5.96391976e-01 9.73600030e-01 8.17674935e-01 0.
      8.68202627e-01 9.40192282e-01 7.08586633e-01 6.35436475e-01
      4.31295335e-01 6.82812929e-01 8.67825568e-01 8.53206992e-01
      5.08056521e-01 7.76324928e-01 1. 6.92735672e-01</_>
    <_>
      0. 5.66444755e-01 6.31173790e-01 9.05163944e-01 7.85298526e-01 0.
      7.90884495e-01 9.30144846e-01 8.74732196e-01 4.85876322e-01
      2.61205375e-01 5.51213443e-01 1. 7.36681581e-01 6.56860113e-01
      6.92607641e-01 7.66967595e-01 7.40975201e-01</_>
    <_>
      0. 4.16190624e-01 5.71833611e-01 8.91535640e-01 8.54116559e-01
      5.66907167e-01 5.88476658e-01 9.56542373e-01 7.24261284e-01
      6.37730837e-01 6.09926045e-01 7.50422180e-01 1. 7.48256028e-01
      4.42307860e-01 6.86957240e-01 9.13692653e-01 5.80754340e-01</_>
    <_>
      0. 4.59584206e-01 7.17710316e-01 8.88236642e-01 7.18466580e-01
      7.26911545e-01 7.60828853e-01 8.50096047e-01 8.65893960e-01
      4.88642126e-01 4.28056300e-01 5.67455232e-01 1. 7.15484262e-01
      4.66540664e-01 6.81777656e-01 8.55573595e-01 5.61222374e-01</_>
    <_>
      0. 4.41412359e-01 7.76852965e-01 9.68041718e-01 7.11566806e-01
      7.48256147e-01 7.30880737e-01 8.25900316e-01 8.80126834e-01
      5.11971354e-01 4.51644450e-01 6.20120108e-01 1. 8.02611172e-01
      5.05575716e-01 7.51944721e-01 9.51983094e-01 5.60072601e-01</_>
    <_>
      0. 9.64484751e-01 1. 2.37913176e-01 1.90467298e-01 0.
      7.71499932e-01 8.02570224e-01 7.50863910e-01 1.87624365e-01 0.
      8.15044343e-01 8.09570909e-01 9.02109981e-01 8.83918524e-01
      6.40038967e-01 6.24819815e-01 9.82129276e-01</_>
    <_>
      0. 6.95949852e-01 9.89740670e-01 9.44812179e-01 8.29602718e-01
      6.45110667e-01 8.77694428e-01 9.62124467e-01 9.77546990e-01
      8.10056567e-01 4.40901101e-01 9.87932980e-01 8.92036557e-01
      9.60558653e-01 9.89470184e-01 9.45881903e-01 6.29776537e-01 1.</_>
    <_>
      0. 8.28141093e-01 1. 9.63784754e-01 8.40401351e-01 8.04444730e-01
      7.65930116e-01 8.79047751e-01 7.93333054e-01 3.06179076e-01
      1.78005338e-01 8.23741198e-01 6.31435037e-01 9.12506700e-01 0.
      8.39981556e-01 8.91839266e-01 0.</_>
    <_>
      0. 8.68257105e-01 9.31976974e-01 8.94559979e-01 7.54376352e-01
      7.01913118e-01 7.24773347e-01 8.02818179e-01 7.61703968e-01
      4.91699636e-01 3.64483505e-01 8.40355515e-01 8.05479705e-01 1.
      9.73532856e-01 8.34009767e-01 8.97119761e-01 9.34270680e-01</_>
    <_>
      0. 8.23486984e-01 9.79070544e-01 1. 9.15718794e-01 2.65646696e-01
      3.45075011e-01 9.11700606e-01 8.56793821e-01 5.63400924e-01
      6.96197987e-01 7.82495797e-01 6.13229513e-01 8.86090219e-01
      8.14730108e-01 7.25375235e-01 6.57990158e-01 0.</_>
    <_>
      0. 5.32655358e-01 9.79747474e-01 9.66281235e-01 9.01088357e-01
      8.25702846e-01 9.10964429e-01 9.81533110e-01 9.89408314e-01 0. 0.
      9.09607291e-01 8.44643056e-01 1. 9.45640087e-01 8.31795156e-01
      8.65639806e-01 0.</_>
    <_>
      0. 7.85827994e-01 8.55847299e-01 8.42836738e-01 7.66509116e-01 0.
      0. 8.59497130e-01 8.91358137e-01 5.57332337e-01 0. 5.02574682e-01
      6.70576215e-01 1. 9.04708982e-01 8.42613757e-01 0. 0.</_>
    <_>
      0. 7.44570017e-01 8.19719553e-01 7.79539526e-01 7.13841915e-01
      6.76175058e-01 7.01740146e-01 8.19466412e-01 8.47391665e-01
      7.16917396e-01 0. 8.98630202e-01 6.68308496e-01 1. 9.57881272e-01
      6.55580580e-01 8.50368023e-01 0.</_>
    <_>
      0. 8.55139077e-01 8.44494164e-01 7.82650709e-01 6.72451138e-01
      6.51639700e-01 7.02750146e-01 8.20080340e-01 8.75163317e-01
      8.42420757e-01 5.11346340e-01 9.69235361e-01 7.84257233e-01 1.
      9.62865293e-01 6.86521530e-01 9.54324603e-01 9.50640023e-01</_>
    <_>
      0. 6.74416006e-01 8.55212867e-01 8.20910335e-01 7.77718127e-01
      7.40255415e-01 7.79777706e-01 8.68655384e-01 8.74395311e-01
      7.27955818e-01 0. 8.87509465e-01 7.21222103e-01 1. 8.72764707e-01
      0. 7.34139025e-01 0.</_>
    <_>
      0. 1.90870479e-01 8.35527122e-01 8.29237580e-01 8.21333468e-01 0.
      0. 1. 8.16671848e-01 6.76553071e-01 6.82720006e-01 7.23262131e-01
      6.71669543e-01 6.68257177e-01 5.74473262e-01 4.85999703e-01
      8.90417755e-01 5.50908387e-01</_>
    <_>
      0. 5.07958829e-01 6.66425288e-01 8.77946496e-01 8.50970507e-01 0.
      0. 1. 8.07000995e-01 7.19163239e-01 6.97831392e-01 7.08560944e-01
      5.05827904e-01 6.97831392e-01 6.32481694e-01 5.29363990e-01
      9.56939042e-01 6.20881677e-01</_>
    <_>
      0. 7.26623595e-01 9.75588918e-01 9.49506283e-01 9.06731546e-01
      5.93246937e-01 9.38759685e-01 1. 8.20923626e-01 7.18836546e-01
      1.42952830e-01 8.15389633e-01 6.34163141e-01 9.06989753e-01
      8.01624060e-01 6.99772656e-01 7.51882195e-01 7.61153400e-01</_>
    <_>
      0. 7.53024518e-01 5.54218113e-01 0. 0. 0. 0. 0. 8.39008749e-01
      8.06201696e-01 4.97242689e-01 5.13985038e-01 4.65063095e-01 0. 0.
      0. 1. 9.70031321e-01</_>
    <_>
      0. 1.86455473e-01 2.80375957e-01 1.76091120e-01 1.55492932e-01 0.
      0. 1. 9.49743748e-01 0. 0. 2.90914148e-01 2.86817729e-01 0. 0. 0.
      7.14580655e-01 6.87227726e-01</_>
    <_>
      0. 0. 0. 0. 0. 0. 0. 1. 9.65098500e-01 3.34895253e-01
      3.19125891e-01 2.89215118e-01 0. 0. 0. 0. 0. 0.</_>
    <_>
      0. 0. 0. 9.91909564e-01 9.65597391e-01 1. 3.39454383e-01 0. 0. 0.
      8.76572669e-01 8.47988963e-01 9.42243934e-01 7.78434992e-01
      7.65128553e-01 4.31656063e-01 0. 0.</_>
    <_>
      0. 8.01556766e-01 8.95237148e-01 6.59682274e-01 3.64513993e-01
      4.44049925e-01 4.80526626e-01 4.21732664e-01 2.88034916e-01
      3.29402804e-01 7.87249386e-01 1. 1.95826665e-01 0. 0.
      1.43731475e-01 1.26118049e-01 6.62495613e-01</_>
    <_>
      0. 1. 4.91378844e-01 2.84774631e-01 0. 0. 8.99593472e-01
      9.77653205e-01 0. 0. 0. 7.77460277e-01 7.70743787e-01
      9.66604769e-01 0. 0. 0. 0.</_>
    <_>
      0. 0. 0. 5.88235021e-01 5.27099967e-01 0. 0. 8.34583282e-01
      9.03916001e-01 7.57035017e-01 3.19984913e-01 8.03287745e-01
      1.85966656e-01 0. 0. 7.06995249e-01 1. 0.</_>
    <_>
      0. 0. 9.36645210e-01 9.25158143e-01 0. 0. 9.74676609e-01 1.
      7.23273814e-01 0. 6.53931499e-01 7.18515098e-01 7.69122958e-01
      6.50139511e-01 0. 0. 7.22803593e-01 0.</_>
    <_>
      0. 0. 0. 7.72333682e-01 8.50731254e-01 7.16808915e-01
      7.34714210e-01 4.22379792e-01 7.50911653e-01 6.50521278e-01
      6.78648770e-01 5.54151416e-01 8.39160085e-01 6.19733751e-01
      6.42627776e-01 0. 0. 1.</_>
    <_>
      0. 0. 0. 8.29994023e-01 7.87229002e-01 0. 6.81331038e-01 1. 0. 0.
      0. 9.17397916e-01 6.63956881e-01 6.92126989e-01 0. 0.
      7.72881508e-01 5.44550896e-01</_>
    <_>
      0. 0. 4.13810074e-01 9.67252195e-01 7.75066018e-01 3.76102418e-01
      9.86552179e-01 9.53804016e-01 6.05286360e-01 5.68738639e-01
      4.01455969e-01 4.86419290e-01 8.43272626e-01 4.49816316e-01
      4.18630064e-01 0. 1. 0.</_>
    <_>
      0. 6.17111683e-01 6.75168335e-01 0. 0. 0. 0. 8.99556816e-01
      8.80034447e-01 0. 0. 1. 0. 0. 5.92236698e-01 3.97210687e-01 0. 0.</_>
    <_>
      0. 5.74764788e-01 8.92043650e-01 1. 0. 7.50106096e-01
      7.95675039e-01 8.83554161e-01 8.86827767e-01 4.52448100e-01
      4.83629346e-01 6.06635630e-01 9.07643855e-01 7.24101901e-01
      6.91714585e-01 7.18876123e-01 7.61998534e-01 6.20987713e-01</_>
    <_>
      0. 5.26069939e-01 6.79312527e-01 7.03271925e-01 9.29349363e-01 0.
      6.69731557e-01 1. 5.95871091e-01 5.13981760e-01 5.13839006e-01
      8.29210401e-01 7.75348365e-01 6.25036061e-01 5.25228977e-01
      5.86633801e-01 8.63909841e-01 8.84359002e-01</_>
    <_>
      0. 5.48268676e-01 5.74586034e-01 7.92808115e-01 7.28172481e-01
      4.87391919e-01 5.04759371e-01 9.08165216e-01 9.30078685e-01
      4.55725968e-01 4.26590383e-01 7.60942161e-01 1. 6.16277456e-01
      5.91305256e-01 6.29821360e-01 6.81645155e-01 6.31650448e-01</_>
    <_>
      0. 6.56604409e-01 8.20593297e-01 8.63599420e-01 5.75677574e-01 0.
      6.21387541e-01 7.07094669e-01 8.11766565e-01 4.84929234e-01
      4.51708823e-01 7.53335774e-01 7.74649024e-01 6.16105795e-01
      5.80560327e-01 6.08291805e-01 1. 5.12733817e-01</_>
    <_>
      0. 0. 5.85062325e-01 7.80716002e-01 8.93062651e-01 1.83550939e-01
      0. 1. 5.81205070e-01 6.13585949e-01 4.05156314e-01 3.76375377e-01
      5.23372352e-01 2.44505763e-01 6.38026953e-01 5.38622022e-01
      5.91181695e-01 0.</_>
    <_>
      0. 2.32956037e-01 8.86693478e-01 9.41547811e-01 0. 0.
      7.52033710e-01 9.21239972e-01 8.61447215e-01 5.09674489e-01
      2.99555421e-01 7.02875316e-01 8.26547027e-01 4.62876588e-01
      9.82007086e-01 1. 1.85388044e-01 0.</_>
    <_>
      0. 3.25149894e-01 6.47962809e-01 9.23075080e-01 8.75890851e-01
      8.73981059e-01 9.20900345e-01 1. 7.55878806e-01 4.31966543e-01
      7.29785800e-01 8.61270428e-01 0. 2.45052174e-01 6.10794485e-01
      8.56341422e-01 8.65270555e-01 0.</_>
    <_>
      0. 0. 8.66665900e-01 0. 7.22396553e-01 7.12850928e-01
      7.59380221e-01 8.40992630e-01 0. 0. 0. 0. 0. 9.88517046e-01
      8.00085485e-01 1. 0. 0.</_>
    <_>
      0. 5.11882484e-01 5.46829462e-01 0. 9.21052814e-01 8.12205374e-01
      1. 9.65747833e-01 6.33260787e-01 0. 0. 6.72074676e-01
      7.39378989e-01 0. 0. 9.99499977e-01 0. 0.</_>
    <_>
      0. 5.52655160e-01 6.83844566e-01 8.21203947e-01 7.14766145e-01
      7.71611571e-01 8.14192891e-01 8.73138666e-01 8.33527684e-01
      6.85754955e-01 0. 7.83561409e-01 7.18310237e-01 9.19081092e-01
      8.82104099e-01 1. 8.08430791e-01 0.</_>
    <_>
      0. 0. 5.52398622e-01 7.75738835e-01 7.97017097e-01 8.33434999e-01
      8.74436796e-01 1. 8.78625810e-01 0. 5.94873011e-01 6.85149372e-01
      9.83951569e-01 8.21358085e-01 8.36419225e-01 7.26505876e-01
      6.85264289e-01 0.</_>
    <_>
      0. 0. 9.60844994e-01 1. 9.86415565e-01 0. 9.67674613e-01
      9.70061779e-01 7.59766459e-01 0. 5.91769397e-01 7.70472884e-01
      8.64805758e-01 6.96085155e-01 8.51856232e-01 7.30141401e-01
      8.96110594e-01 8.75842154e-01</_>
    <_>
      0. 0. 8.98061156e-01 9.66568351e-01 9.51079965e-01 9.63896990e-01
      1. 9.28306103e-01 6.84485376e-01 0. 4.28179801e-01 7.50499845e-01
      7.44189739e-01 7.52206564e-01 6.88362300e-01 7.51766503e-01
      8.47179592e-01 8.52048457e-01</_>
    <_>
      0. 0. 8.78313839e-01 9.66429174e-01 9.59742963e-01 9.23450232e-01
      9.29956198e-01 1. 9.36090946e-01 5.42468309e-01 0. 8.18056107e-01
      9.99173999e-01 9.73583341e-01 8.66314471e-01 8.42438877e-01
      9.12818134e-01 8.77715409e-01</_>
    <_>
      0. 0. 8.26032460e-01 1. 9.94144976e-01 8.46380889e-01
      9.85192657e-01 9.34381068e-01 8.07592869e-01 0. 5.06761372e-01
      7.79115736e-01 8.53092909e-01 8.35345745e-01 7.54102886e-01
      8.28480422e-01 8.38096917e-01 8.12865078e-01</_>
    <_>
      0. 6.22933090e-01 6.95774198e-01 9.26310718e-01 8.56587768e-01
      8.32117319e-01 9.11821544e-01 9.50000823e-01 9.50492680e-01
      7.02212870e-01 7.04744399e-01 9.09724534e-01 9.05346990e-01
      8.16396594e-01 7.49689519e-01 7.87348628e-01 1. 7.72584617e-01</_>
    <_>
      0. 6.07681334e-01 6.93540454e-01 9.04767513e-01 8.48950148e-01 0.
      8.76904309e-01 9.66719031e-01 9.95206177e-01 6.55086219e-01
      6.45864427e-01 8.78850579e-01 8.74452472e-01 8.45644772e-01
      7.53140211e-01 7.92516589e-01 1. 7.49859214e-01</_>
    <_>
      0. 6.17449284e-01 9.47192550e-01 9.40702677e-01 9.14095759e-01 0.
      8.88351023e-01 9.77681279e-01 7.64835179e-01 6.57872558e-01
      6.72353208e-01 8.38644087e-01 8.54781389e-01 7.54926145e-01
      4.46279317e-01 7.57929862e-01 1. 7.52704144e-01</_>
    <_>
      0. 6.46846294e-01 7.01094985e-01 9.28980410e-01 9.10396695e-01 0.
      9.01462853e-01 9.87554550e-01 7.82656431e-01 7.01980054e-01
      7.06190646e-01 8.64622712e-01 8.60595107e-01 7.89982259e-01
      3.94501716e-01 7.27385938e-01 1. 7.34334707e-01</_>
    <_>
      0. 5.18073916e-01 7.21697628e-01 9.67088103e-01 6.94699585e-01
      6.37412667e-01 7.06319809e-01 1. 7.99355328e-01 6.31921113e-01
      6.29875064e-01 6.25520110e-01 8.33179057e-01 7.38905489e-01
      6.58575654e-01 6.74434364e-01 9.61197138e-01 6.92477226e-01</_>
    <_>
      0. 5.76261103e-01 6.61048055e-01 8.95241022e-01 8.70602846e-01 0.
      8.85071337e-01 9.35748637e-01 9.40220058e-01 6.44275129e-01
      6.43481433e-01 7.83354819e-01 1. 7.28940368e-01 4.05777514e-01
      6.75006390e-01 9.17442322e-01 6.77747905e-01</_>
    <_>
      0. 5.78607202e-01 9.36074853e-01 9.33095872e-01 8.99190724e-01 0.
      9.42340672e-01 1. 8.20105970e-01 7.12946713e-01 7.04814494e-01
      8.67348909e-01 8.61336231e-01 7.70461261e-01 3.80014718e-01
      7.11758792e-01 9.78485584e-01 0.</_>
    <_>
      0. 7.04235494e-01 8.58284414e-01 8.53556156e-01 7.31468320e-01 0.
      7.08994925e-01 1. 7.33645022e-01 4.40380335e-01 5.66878498e-01
      7.53639460e-01 9.70023572e-01 7.30006218e-01 4.82206523e-01
      7.36617744e-01 8.24686170e-01 8.35034609e-01</_>
    <_>
      0. 0. 5.97010553e-01 7.66345799e-01 7.97862768e-01 2.73834378e-01
      0. 9.51648533e-01 9.33357954e-01 6.29343271e-01 0. 7.45194674e-01
      8.21632087e-01 6.84777319e-01 4.74294990e-01 7.54508317e-01 1.
      2.36119941e-01</_>
    <_>
      0. 4.57315624e-01 7.72589028e-01 6.93947136e-01 6.64224625e-01
      6.48315609e-01 6.95205271e-01 7.64519155e-01 7.68485904e-01
      5.71457326e-01 4.63853180e-01 2.55332023e-01 8.50555480e-01
      7.30736017e-01 6.46925807e-01 8.29894841e-01 1. 6.02427661e-01</_>
    <_>
      0. 5.12757778e-01 7.63925374e-01 8.37975860e-01 6.80427194e-01 0.
      0. 8.77922297e-01 6.93948925e-01 6.52639389e-01 5.46584010e-01
      3.28382641e-01 9.70116198e-01 8.46834898e-01 7.50760972e-01
      8.88513446e-01 1. 6.43550575e-01</_>
    <_>
      0. 3.30393195e-01 7.58281350e-01 9.26927030e-01 7.72191584e-01
      6.10685647e-01 6.66597724e-01 9.92768228e-01 7.84234226e-01
      6.92116737e-01 3.90966207e-01 8.30266118e-01 8.92978430e-01
      7.47405052e-01 5.68347752e-01 8.53467464e-01 1. 6.11708760e-01</_>
    <_>
      0. 4.06212389e-01 8.31201673e-01 8.83112192e-01 8.50958526e-01
      7.44860530e-01 6.83307230e-01 9.55771863e-01 8.03765118e-01
      6.46350980e-01 3.56022507e-01 7.83348203e-01 8.45604241e-01
      6.75230682e-01 5.04806638e-01 8.56222332e-01 1. 4.87857640e-01</_>
    <_>
      0. 6.97420716e-01 6.71131432e-01 7.68627167e-01 6.04551315e-01
      5.40993214e-01 5.90394020e-01 6.05543852e-01 7.18120992e-01
      5.61904430e-01 5.49852252e-01 4.40224946e-01 9.26613629e-01
      8.56665790e-01 6.75928414e-01 8.81138027e-01 1. 3.12026024e-01</_>
    <_>
      0. 5.62529981e-01 8.30856860e-01 8.51102054e-01 7.27386653e-01 0.
      7.72706866e-01 8.76095772e-01 8.35124314e-01 5.31281948e-01
      4.33242530e-01 2.94283837e-01 9.38517332e-01 8.59881997e-01
      6.91916585e-01 1. 6.36758566e-01 6.10107541e-01</_>
    <_>
      0. 4.79494840e-01 9.03373837e-01 1. 7.22915173e-01 7.58276641e-01
      8.04823756e-01 8.86303902e-01 6.12863243e-01 4.80779827e-01
      3.23566407e-01 6.49468243e-01 8.40498030e-01 6.90277994e-01
      7.21338928e-01 7.90743768e-01 7.80848324e-01 6.01493418e-01</_>
    <_>
      0. 4.34769660e-01 8.28148961e-01 7.99453139e-01 7.58706331e-01
      1.07921116e-01 7.37554014e-01 8.43962431e-01 6.51593804e-01
      5.60728014e-01 2.90878683e-01 5.72360277e-01 7.34000266e-01
      7.35261798e-01 6.61669433e-01 7.04001606e-01 1. 5.97705960e-01</_>
    <_>
      0. 0. 5.33575535e-01 8.70616376e-01 8.53270829e-01 4.98851627e-01
      8.74339938e-01 9.49166477e-01 6.92299426e-01 4.66940582e-01
      5.00339806e-01 4.70271170e-01 1. 6.57130241e-01 5.46027958e-01
      5.94915330e-01 9.29264784e-01 5.67030847e-01</_>
    <_>
      0. 3.36548865e-01 8.51501763e-01 8.47732365e-01 8.05867970e-01
      1.52170926e-01 8.26859534e-01 9.66945887e-01 6.51554525e-01
      5.51004887e-01 4.55844432e-01 6.28166318e-01 7.24188089e-01
      7.19150126e-01 6.41512096e-01 6.58944309e-01 1. 0.</_>
    <_>
      0. 5.23919225e-01 7.39326656e-01 6.88884556e-01 6.33332849e-01 0.
      6.22274160e-01 7.27145016e-01 7.62937725e-01 5.53739429e-01
      4.98251468e-01 6.23672187e-01 8.42468560e-01 8.62771869e-01
      7.60744035e-01 8.16669881e-01 1. 5.65164685e-01</_>
    <_>
      0. 4.52466339e-01 8.11268866e-01 9.15530562e-01 7.10166216e-01
      6.56521738e-01 6.77369535e-01 7.62615502e-01 8.82930756e-01
      5.76541245e-01 4.86546367e-01 7.02322066e-01 1. 8.65068078e-01
      8.50124598e-01 8.97142828e-01 8.05302918e-01 3.39074403e-01</_>
    <_>
      0. 6.29332364e-01 9.54399765e-01 1. 9.10560608e-01 0.
      8.77686322e-01 9.45046842e-01 9.88398254e-01 5.13383508e-01
      3.55814964e-01 6.96343482e-01 9.45937037e-01 9.65686500e-01
      9.17333603e-01 9.60408688e-01 9.67119753e-01 7.76920259e-01</_>
    <_>
      0. 0. 6.71557426e-01 9.64428604e-01 7.33735919e-01 0.
      7.18276203e-01 1. 6.70699716e-01 4.03562009e-01 5.88515580e-01
      6.78059101e-01 7.18043745e-01 6.83176398e-01 5.74708462e-01
      6.01963699e-01 9.11331534e-01 6.26301944e-01</_>
    <_>
      0. 6.36707425e-01 9.06731129e-01 8.97346616e-01 7.93696702e-01 0.
      8.13363016e-01 1. 6.78336680e-01 6.14731133e-01 5.39454043e-01
      7.29434550e-01 9.64230359e-01 7.67655611e-01 3.11126471e-01
      9.11559582e-01 9.17194247e-01 7.19436586e-01</_>
    <_>
      0. 4.62723464e-01 7.27177262e-01 7.16664374e-01 6.76338792e-01
      6.81795299e-01 6.86229289e-01 8.80883932e-01 7.83523500e-01
      4.59597886e-01 3.34965855e-01 5.75682342e-01 1. 7.47013271e-01
      6.75741017e-01 7.09371030e-01 9.64776397e-01 5.48571467e-01</_>
    <_>
      0. 4.43859905e-01 9.12514329e-01 9.09461796e-01 8.35274339e-01
      4.59734052e-01 8.06788564e-01 9.14497137e-01 6.34925902e-01
      4.41333503e-01 5.18489242e-01 5.84366262e-01 1. 6.95611179e-01
      5.84065139e-01 6.77132428e-01 9.54222620e-01 5.36226332e-01</_>
    <_>
      0. 5.48141360e-01 8.61024380e-01 8.56956720e-01 7.88248897e-01
      7.35618234e-01 7.69431353e-01 1. 5.81564903e-01 4.99337673e-01 0.
      5.56918144e-01 7.40140200e-01 7.28226721e-01 6.25610828e-01
      7.20098555e-01 7.29075134e-01 5.82580805e-01</_>
    <_>
      0. 4.97245699e-01 6.52413666e-01 9.25999880e-01 8.93361151e-01
      1.36572734e-01 9.11254287e-01 1. 6.61842763e-01 5.37154913e-01
      5.09110391e-01 6.14969909e-01 7.80993760e-01 7.76990831e-01
      6.68797970e-01 7.30795264e-01 7.41160035e-01 0.</_>
    <_>
      0. 4.94510382e-01 5.97385764e-01 9.90632653e-01 8.43741715e-01
      4.05036092e-01 5.90861857e-01 1. 7.27656484e-01 6.74213529e-01
      4.54378039e-01 7.90070653e-01 9.15939927e-01 7.55874336e-01
      7.48401642e-01 7.94670939e-01 7.93388605e-01 6.42883360e-01</_>
    <_>
      0. 4.52306271e-01 5.22982240e-01 9.07988012e-01 7.77187467e-01
      7.72023737e-01 8.35775077e-01 1. 9.59816754e-01 5.94325900e-01
      4.95855153e-01 6.82206690e-01 8.95618618e-01 7.62239099e-01
      7.51961648e-01 7.94544220e-01 7.64635265e-01 5.49964368e-01</_>
    <_>
      0. 0. 7.98895419e-01 9.61724460e-01 7.78452694e-01 3.79648745e-01
      7.84678340e-01 1. 8.23262513e-01 5.24699867e-01 7.08995521e-01
      8.40920329e-01 8.62121642e-01 7.36724555e-01 6.29991174e-01
      6.48331344e-01 7.79287636e-01 7.44099200e-01</_>
    <_>
      0. 5.76754868e-01 8.81527543e-01 8.47424686e-01 7.80164361e-01 0.
      7.76052117e-01 1. 8.73505473e-01 4.89108980e-01 3.50797892e-01
      6.71065331e-01 8.34754348e-01 8.25739622e-01 7.57811308e-01
      8.00988853e-01 8.04493666e-01 7.18382120e-01</_>
    <_>
      0. 5.46846092e-01 9.72051680e-01 9.67575133e-01 8.80965114e-01 0.
      9.31672871e-01 1. 7.15337574e-01 5.92197835e-01 1.95112005e-01
      6.85244024e-01 8.80346835e-01 8.49020600e-01 2.20193565e-01
      8.27982724e-01 8.33223879e-01 6.33120716e-01</_>
    <_>
      0. 4.41733301e-01 7.70946443e-01 8.60272884e-01 7.03673542e-01
      6.97230339e-01 7.39391506e-01 8.39785874e-01 8.33611548e-01
      5.08747339e-01 2.84878969e-01 5.62373757e-01 1. 7.41640747e-01
      6.35446668e-01 6.97176695e-01 6.99328840e-01 5.78311384e-01</_>
    <_>
      0. 4.70296115e-01 5.46739876e-01 1. 7.91473508e-01 0.
      8.69943440e-01 8.26364994e-01 8.53205502e-01 4.41832453e-01
      2.75367916e-01 5.33115685e-01 6.67029560e-01 6.63019061e-01
      6.26460314e-01 6.65642262e-01 7.00730860e-01 5.24861395e-01</_>
    <_>
      0. 4.78140414e-01 8.76639426e-01 1. 7.91988969e-01 0.
      8.32606912e-01 9.29992676e-01 5.77967584e-01 4.60071713e-01
      2.97390133e-01 5.72001338e-01 7.66039968e-01 7.26797640e-01
      6.80064201e-01 7.31294453e-01 7.16187000e-01 4.97602254e-01</_>
    <_>
      0. 4.92584974e-01 8.68552268e-01 1. 8.62802386e-01 0.
      8.66456866e-01 9.56391573e-01 9.14494753e-01 4.55106199e-01
      3.21855038e-01 6.48059368e-01 7.73214877e-01 7.68998682e-01
      7.25308836e-01 7.47328103e-01 7.15804517e-01 5.72247207e-01</_>
    <_>
      0. 4.35668677e-01 9.09501314e-01 1. 8.47447038e-01 4.86163974e-01
      8.89963806e-01 9.71935213e-01 6.59930646e-01 5.34604907e-01
      2.54571915e-01 6.22129798e-01 7.82816291e-01 6.16396725e-01
      6.66333854e-01 7.09371388e-01 6.91238403e-01 5.17080963e-01</_>
    <_>
      0. 3.70353043e-01 5.40164590e-01 1. 8.45570207e-01 5.14185905e-01
      8.70007277e-01 9.73378420e-01 5.98266840e-01 4.72238183e-01 0.
      5.71577847e-01 6.95761442e-01 6.77403271e-01 6.29246116e-01
      6.40507579e-01 6.42572463e-01 0.</_>
    <_>
      0. 4.46762919e-01 5.20547450e-01 1. 8.13977301e-01 7.72878051e-01
      8.44821930e-01 9.49997723e-01 6.09490037e-01 4.83380020e-01
      3.28204483e-01 6.53635681e-01 7.64842331e-01 7.42556810e-01
      6.82442844e-01 7.28732526e-01 7.27930546e-01 5.46535373e-01</_>
    <_>
      0. 5.13845444e-01 8.17624331e-01 9.94041800e-01 7.16625690e-01
      6.98629141e-01 7.37105787e-01 8.42563570e-01 6.20756567e-01
      5.43708742e-01 3.40660930e-01 6.50287509e-01 7.76638210e-01
      7.71305561e-01 6.76844299e-01 7.47577190e-01 1. 5.48796713e-01</_>
    <_>
      0. 0. 9.75839376e-01 9.77764547e-01 6.97978854e-01 0.
      7.23068893e-01 9.77844357e-01 6.37463391e-01 0. 5.73248267e-01
      7.01201677e-01 7.14997530e-01 6.32400095e-01 5.95940471e-01
      6.74214602e-01 1. 6.76102102e-01</_>
    <_>
      0. 4.20741856e-01 6.20355904e-01 9.29635882e-01 9.06965673e-01 0.
      6.72609687e-01 9.66829062e-01 7.17141032e-01 5.06330609e-01
      5.77523053e-01 7.50193119e-01 7.85862029e-01 7.31768727e-01
      6.57127738e-01 7.11601973e-01 1. 5.56393564e-01</_>
    <_>
      0. 9.31811854e-02 6.09704316e-01 1. 7.41992176e-01 5.48480809e-01
      7.76298583e-01 8.04167211e-01 6.80817068e-01 2.05997393e-01
      6.06391311e-01 7.26335585e-01 7.39131272e-01 4.98492599e-01
      5.69848597e-01 6.01727068e-01 9.32482123e-01 5.82500696e-01</_>
    <_>
      0. 5.42001784e-01 6.72849417e-01 9.32317555e-01 8.91362906e-01 0.
      9.07807589e-01 1. 6.95986032e-01 5.76590180e-01 5.41350842e-01
      7.47805297e-01 7.70246148e-01 7.38075912e-01 6.99620783e-01
      7.35677898e-01 7.38466620e-01 6.99804008e-01</_>
    <_>
      0. 4.80138570e-01 6.60368085e-01 9.68781233e-01 9.11197722e-01
      5.07626355e-01 6.89406574e-01 1. 7.11717904e-01 4.88653898e-01
      5.56643307e-01 7.33106077e-01 7.47779131e-01 7.11511970e-01
      6.28921807e-01 6.79495811e-01 9.89703894e-01 6.37694597e-01</_>
    <_>
      0. 4.88139927e-01 6.00693107e-01 9.40650582e-01 8.49893272e-01
      5.30905664e-01 8.97370577e-01 1. 9.04163241e-01 5.43504953e-01
      1.22662015e-01 5.82389653e-01 7.31595397e-01 6.20287895e-01
      6.65723443e-01 7.02892303e-01 7.05442250e-01 5.47007501e-01</_>
    <_>
      0. 4.10567254e-01 5.60474575e-01 9.69064116e-01 8.88411224e-01 0.
      6.58873677e-01 1. 7.26331055e-01 5.97456694e-01 5.40883183e-01
      7.16465175e-01 7.86514461e-01 6.20410919e-01 6.63258433e-01
      6.88605964e-01 6.69494152e-01 5.19352019e-01</_>
    <_>
      0. 4.60166097e-01 9.37273204e-01 1. 8.96682262e-01 4.19023067e-01
      4.48512226e-01 9.88399446e-01 6.82648718e-01 5.39412141e-01
      4.14304852e-01 6.03751898e-01 7.66743064e-01 6.84680700e-01
      6.62222743e-01 7.06350803e-01 7.09756613e-01 0.</_>
    <_>
      0. 5.95895588e-01 6.74915969e-01 9.39443290e-01 9.65980947e-01
      4.10791308e-01 9.40241814e-01 1. 6.07125998e-01 5.06388545e-01
      2.34766319e-01 6.32336855e-01 7.96261013e-01 7.94075131e-01
      7.57331192e-01 8.20788682e-01 8.27881277e-01 7.21084535e-01</_>
    <_>
      0. 4.58321214e-01 8.00523221e-01 7.77985275e-01 7.46171117e-01
      6.62793159e-01 6.81681216e-01 8.68643165e-01 5.13392806e-01
      4.25708175e-01 2.97517329e-01 5.63273132e-01 1. 6.79987907e-01
      6.41937435e-01 6.91753924e-01 9.78882849e-01 5.19162953e-01</_>
    <_>
      0. 4.33666110e-01 5.79020441e-01 9.26604033e-01 8.55475664e-01 0.
      0. 1. 6.36216581e-01 4.89867955e-01 0. 6.67735338e-01
      7.07890451e-01 6.45958066e-01 6.28243864e-01 6.67907059e-01
      6.66983247e-01 0.</_>
    <_>
      0. 5.39542317e-01 6.40521705e-01 9.05589402e-01 1. 9.05128300e-01
      7.73767233e-01 7.94696271e-01 4.72685724e-01 4.59278762e-01
      4.52935934e-01 4.58720267e-01 7.51915276e-01 6.32351100e-01
      5.81347644e-01 5.69870651e-01 4.63248283e-01 0.</_>
    <_>
      0. 1.58417419e-01 6.17849648e-01 8.50344896e-01 5.98642409e-01
      4.38172549e-01 6.04302645e-01 8.19670618e-01 8.56603205e-01
      4.08704400e-01 4.67005968e-01 5.48397303e-01 1. 7.54901230e-01 0.
      8.31253707e-01 7.67394602e-01 5.84577203e-01</_>
    <_>
      0. 5.44937074e-01 6.24334693e-01 5.87242663e-01 9.39855576e-01
      9.35767829e-01 1. 9.83174682e-01 4.33103621e-01 4.45812881e-01
      4.85406995e-01 5.50364017e-01 5.46068847e-01 7.36392260e-01
      7.32541263e-01 9.98390555e-01 9.56332147e-01 0.</_>
    <_>
      0. 3.22371751e-01 0. 0. 0. 8.43879342e-01 1. 9.08958912e-01
      7.43246078e-01 0. 0. 0. 6.81701124e-01 6.11971855e-01
      5.59786737e-01 4.70359296e-01 6.60386920e-01 6.36010110e-01</_>
    <_>
      0. 3.37033898e-01 8.17352116e-01 8.32181573e-01 7.25195467e-01 0.
      7.34186053e-01 8.08674753e-01 8.12801659e-01 4.88669902e-01
      4.88537163e-01 6.01899624e-01 8.03108990e-01 7.85025835e-01
      2.92319302e-02 8.17350209e-01 1. 5.24001956e-01</_>
    <_>
      0. 2.72975773e-01 3.19758713e-01 2.25710809e-01 0. 1.66844666e-01
      6.02992177e-01 6.23342931e-01 4.12533313e-01 2.49998927e-01
      2.12528363e-01 5.97789213e-02 0. 0. 7.51881823e-02 1.
      1.35509372e-01 2.06461683e-01</_>
    <_>
      0. 4.79606032e-01 8.23605597e-01 1. 6.84646785e-01 0.
      7.12668657e-01 9.71983910e-01 8.05175006e-01 4.80834424e-01
      2.86902666e-01 5.27327478e-01 8.52287710e-01 8.63794863e-01
      4.56505567e-01 8.41530740e-01 7.90148377e-01 5.10739028e-01</_>
    <_>
      0. 6.52505755e-01 1. 0. 0. 0. 0. 3.22996318e-01 3.31868291e-01 0.
      8.97008717e-01 9.92268622e-01 0. 0. 0. 0. 0. 4.59420234e-01</_>
    <_>
      0. 3.38955581e-01 4.00629848e-01 5.01728058e-01 0. 0.
      8.85729194e-01 9.10711586e-01 0. 0. 0. 0. 5.04749238e-01
      5.05475879e-01 3.75779569e-01 1. 0. 0.</_>
    <_>
      0. 5.18036842e-01 9.72979784e-01 9.39681292e-01 8.69319558e-01 0.
      8.40771019e-01 9.19874310e-01 9.59711373e-01 5.61165631e-01
      5.32106519e-01 5.91359198e-01 9.75189030e-01 1. 8.51023614e-01
      9.97615457e-01 8.90840232e-01 6.76454663e-01</_>
    <_>
      0. 0. 8.70359302e-01 0. 0. 0. 5.96076906e-01 6.42137170e-01
      4.45059955e-01 0. 1.88922897e-01 2.32150197e-01 9.85154927e-01 1.
      0. 0. 0. 5.31955838e-01</_>
    <_>
      0. 4.29747105e-01 3.88738930e-01 5.57089858e-02 0. 0. 1.
      9.29268837e-01 0. 0. 0. 6.96105659e-01 7.42852509e-01 0. 0. 0.
      6.89054728e-01 0.</_>
    <_>
      0. 4.40625370e-01 6.63105309e-01 6.94184601e-01 1. 9.46816564e-01
      6.33370817e-01 5.78696609e-01 2.65465796e-01 7.01301634e-01
      7.20889091e-01 7.05973744e-01 5.86035132e-01 7.35149026e-01
      4.72570449e-01 9.18920755e-01 9.00663376e-01 5.07763803e-01</_>
    <_>
      0. 0. 0. 0. 0. 0. 9.61578727e-01 1. 4.61346060e-01 0. 0. 0. 0.
      8.93880844e-01 8.82883728e-01 0. 0. 0.</_>
    <_>
      0. 0. 0. 8.90972793e-01 8.10424805e-01 0. 1. 8.87028754e-01
      6.55655324e-01 5.76289535e-01 5.25080085e-01 4.85115618e-01
      5.50324917e-01 6.59312129e-01 7.81861484e-01 9.20667529e-01
      9.27767217e-01 0.</_>
    <_>
      0. 0. 0. 1. 8.79651964e-01 0. 0. 2.83014476e-01 4.20806676e-01
      4.42891359e-01 4.22759116e-01 3.47580791e-01 6.29813075e-01
      4.38982427e-01 3.91672790e-01 1.86303943e-01 0. 0.</_>
    <_>
      0. 0. 0. 0. 0. 0. 8.06829333e-01 8.55708241e-01 7.81912506e-01
      4.08561230e-01 4.08481270e-01 0. 0. 0. 0. 1. 9.55982625e-01
      7.65832067e-01</_>
    <_>
      0. 7.32510269e-01 0. 0. 4.75469142e-01 5.16338229e-01
      5.27348518e-01 1. 8.30787659e-01 0. 0. 0. 0. 7.83895135e-01
      7.75516689e-01 0. 0. 0.</_>
    <_>
      0. 3.05244952e-01 4.52956259e-01 1. 6.67453468e-01 0.
      4.91712064e-01 7.63780415e-01 7.50107944e-01 6.77775800e-01
      8.54188025e-01 8.00014377e-01 5.71651220e-01 6.02905512e-01
      5.61283231e-01 6.48173928e-01 9.03623104e-01 8.59375477e-01</_>
    <_>
      0. 4.85009372e-01 4.74266350e-01 3.55221897e-01 3.03138942e-01
      3.51776540e-01 0. 1.25775650e-01 8.05810153e-01 8.89847040e-01
      4.24767375e-01 0. 0. 1. 9.44644749e-01 0. 0. 5.18885791e-01</_>
    <_>
      0. 6.90793157e-01 7.95988262e-01 8.02960515e-01 8.20111930e-01
      7.20847189e-01 8.37944686e-01 9.51311827e-01 8.29556644e-01
      4.49294925e-01 6.95489466e-01 8.03500950e-01 9.88622010e-01
      7.98523188e-01 7.63616741e-01 7.40682364e-01 1. 7.88885236e-01</_>
    <_>
      0. 6.67644203e-01 8.28288078e-01 1. 8.65678549e-01 7.69495368e-01
      7.83602715e-01 9.28444326e-01 7.09784985e-01 6.62575662e-01
      6.94331586e-01 8.55104983e-01 9.73369300e-01 7.73446739e-01
      7.16013372e-01 7.29718864e-01 8.70926380e-01 4.24478114e-01</_>
    <_>
      0. 6.62739217e-01 8.00604224e-01 8.84023309e-01 8.95237446e-01
      7.86146700e-01 8.52287591e-01 1. 7.36981452e-01 6.88255608e-01
      7.52869785e-01 8.45498681e-01 9.58118320e-01 8.54607642e-01
      7.57835329e-01 7.83300757e-01 9.21206534e-01 7.64689744e-01</_>
    <_>
      8.24041843e-01 0. 0. 0. 6.45326197e-01 0. 6.22308552e-01 0. 1.
      8.75544965e-01 0. 1. 0. 6.22308552e-01 0. 0. 0. 0.</_>
    <_>
      0. 7.02185035e-01 7.99434125e-01 6.84243262e-01 7.47382641e-01
      7.74240971e-01 7.98314214e-01 9.04146194e-01 8.15200746e-01
      7.69114316e-01 6.10708773e-01 7.26422906e-01 1. 8.89069319e-01 0.
      9.07561779e-01 9.94339943e-01 7.92030692e-01</_>
    <_>
      0. 6.81685805e-01 8.11093152e-01 1. 7.59385288e-01 7.58672357e-01
      8.27022672e-01 9.10830200e-01 4.35902625e-01 5.89850664e-01
      5.79656720e-01 7.38428116e-01 7.99999595e-01 6.74749434e-01
      4.90948051e-01 6.86454892e-01 9.15882349e-01 8.42182279e-01</_>
    <_>
      0. 7.50281215e-01 7.94737339e-01 1. 9.11031604e-01 2.29561388e-01
      9.26696897e-01 8.84438097e-01 7.83563375e-01 7.61333585e-01
      4.29767162e-01 9.00135100e-01 9.61863518e-01 8.88668418e-01
      3.02123070e-01 8.14055502e-01 9.60407197e-01 8.98578763e-01</_>
    <_>
      0. 5.52421272e-01 8.27306628e-01 7.40452886e-01 6.77018642e-01
      6.26694143e-01 6.21263683e-01 6.66012645e-01 7.04607368e-01
      4.69092786e-01 6.93218648e-01 7.27429986e-01 8.82345676e-01
      3.24341804e-01 0. 3.55327100e-01 1. 6.45013869e-01</_>
    <_>
      0. 0. 7.82846153e-01 1. 6.47304296e-01 6.15314424e-01
      6.52131379e-01 7.25218177e-01 7.06521392e-01 2.96464860e-01
      6.78393304e-01 8.37680340e-01 7.93277800e-01 3.68397206e-01
      3.33651721e-01 3.41240317e-01 7.36344576e-01 7.42279232e-01</_>
    <_>
      0. 0. 9.11408782e-01 9.69335675e-01 6.42891884e-01 0.
      6.92286193e-01 8.69975865e-01 7.47449696e-01 6.38654351e-01
      3.07512105e-01 7.56191313e-01 7.05114841e-01 6.19312406e-01
      5.38060069e-01 4.99855429e-01 1. 0.</_>
    <_>
      0. 1. 7.06898868e-01 1.38496205e-01 1.82962626e-01 3.17248583e-01
      3.28254253e-01 0. 6.36174619e-01 6.23652101e-01 4.08188224e-01
      4.23258632e-01 4.79893774e-01 4.76936668e-01 4.00524348e-01
      3.33657563e-01 2.26082429e-01 0.</_>
    <_>
      0. 1. 9.68706608e-01 0. 3.51489633e-01 4.20732319e-01
      3.56656010e-03 0. 5.27995408e-01 6.81813657e-01 3.79950732e-01
      3.36906403e-01 4.89894807e-01 5.23068905e-01 4.87516224e-01
      4.03291464e-01 0. 0.</_>
    <_>
      0. 2.86075383e-01 2.35745698e-01 0. 2.46072769e-01 2.57004559e-01
      2.88743854e-01 0. 6.98717654e-01 0. 0. 0. 1. 0. 0. 0. 0. 0.</_>
    <_>
      0. 7.14187384e-01 7.53982604e-01 1. 4.42625999e-01 4.30659175e-01
      8.19223464e-01 9.43645120e-01 4.42455918e-01 6.68169141e-01
      6.61100268e-01 4.52609003e-01 9.72796142e-01 7.41882622e-01
      3.46488357e-01 6.97250783e-01 9.82127964e-01 6.22292757e-01</_>
    <_>
      0. 7.22271562e-01 5.30805349e-01 1. 7.56004155e-01 0.
      6.65803611e-01 7.07797289e-01 7.49079645e-01 6.70785248e-01
      2.69025266e-01 7.88615882e-01 7.48693109e-01 8.79593372e-01 0.
      8.32936347e-01 8.54552448e-01 9.23544765e-01</_>
    <_>
      0. 6.54088199e-01 1. 6.40213907e-01 3.50575387e-01 5.23882866e-01
      7.06932187e-01 5.97204745e-01 4.48030263e-01 4.48388934e-01
      3.72340888e-01 4.28067923e-01 7.62973070e-01 8.00531268e-01
      6.73454762e-01 5.07260621e-01 3.12890440e-01 0.</_>
    <_>
      0. 0. 0. 3.50964099e-01 4.71817285e-01 1.99232027e-01
      1.73171282e-01 6.01537585e-01 3.79948229e-01 2.03137144e-01
      1.67086422e-01 1.55808061e-01 1.86582759e-01 7.64133751e-01
      2.54952222e-01 2.89866596e-01 1. 0.</_>
    <_>
      0. 5.25635183e-01 2.26168185e-01 2.22537071e-01 2.11006507e-01
      1.57791093e-01 1.61043048e-01 0. 2.28043303e-01 7.07883835e-01 0.
      0. 1. 0. 0. 7.83488810e-01 0. 0.</_>
    <_>
      0. 6.81322694e-01 0. 8.60679030e-01 7.88366556e-01 7.94617593e-01
      8.29593480e-01 1. 8.31115425e-01 7.24360943e-01 5.18260658e-01
      7.84803152e-01 9.34011221e-01 7.75760293e-01 7.21843004e-01
      7.51573980e-01 9.42113876e-01 8.05665910e-01</_>
    <_>
      0. 6.79297745e-01 7.45371759e-01 3.76072899e-02 4.29183453e-01
      4.38099056e-01 5.14192343e-01 6.31930292e-01 5.25660634e-01
      4.90099311e-01 4.69337076e-01 2.73509562e-01 8.83145928e-01
      9.00650918e-01 2.02923849e-01 2.17212558e-01 1. 3.65691811e-01</_>
    <_>
      0. 0. 2.01025590e-01 2.70172298e-01 8.10709417e-01 1. 0. 0. 0.
      6.49622023e-01 6.17932081e-01 5.60386896e-01 5.84241927e-01
      6.72630847e-01 6.00072682e-01 6.19046569e-01 5.87074757e-01 0.</_>
    <_>
      0. 4.75308865e-01 5.13849497e-01 1. 8.82844090e-01 8.13383222e-01
      6.18744671e-01 7.50232577e-01 3.96148086e-01 7.04664707e-01
      7.01829016e-01 7.73041248e-01 9.77477670e-01 9.00500000e-01
      7.98278272e-01 7.53339708e-01 6.95499301e-01 6.74984813e-01</_>
    <_>
      0. 1. 9.63012397e-01 1.07216038e-01 5.23950219e-01 0. 0.
      5.39544344e-01 5.99386036e-01 6.24037266e-01 2.53119797e-01
      3.37932944e-01 5.49361944e-01 0. 0. 0. 0. 0.</_>
    <_>
      0. 5.66346347e-01 0. 7.07010150e-01 7.25632608e-01 7.88215697e-01
      7.97230303e-01 1. 8.14790308e-01 7.64954388e-01 7.40187883e-01
      9.35770273e-01 5.13790965e-01 5.54867864e-01 0. 6.54983521e-01
      8.45454156e-01 6.77259266e-01</_>
    <_>
      0. 7.31787756e-02 5.72225094e-01 6.70154810e-01 6.05305612e-01
      5.90195179e-01 6.24215245e-01 8.34775805e-01 1. 6.01220429e-01
      5.37234783e-01 9.80631530e-01 1.12340502e-01 0. 7.03208983e-01
      7.21202731e-01 8.38725388e-01 0.</_></support_vectors>
  <decision_functions>
    <_>
      <sv_count>13</sv_count>
      <rho>-1.4720755073640615e+00</rho>
      <alpha>
        9.1692221520473625e-05 6.4015656362934894e-04
        1.8468166810787140e-04 2.1994278136325360e-04
        1.5491492816750038e-04 2.2256628829291273e-04
        5.4134735070320743e-04 2.6375442571886792e-04
        -1.7977877185554509e-04 -5.3797187178447029e-04
        -5.7194087657584051e-04 -8.5772567368680566e-05
        -9.4359213991889997e-04</alpha>
      <index>
        1 3 4 6 7 10 11 12 17 19 20 22 27</index></_>
    <_>
      <sv_count>13</sv_count>
      <rho>2.3139398079491902e+00</rho>
      <alpha>
        7.7103795272882327e-04 3.6476594481927818e-04
        3.0981666516864074e-03 1.9092504321769379e-04
        3.7971629198862690e-04 2.6668300254448213e-04
        2.6045447991143115e-03 6.9010220933624067e-04
        -3.0004124565730702e-04 -3.5420761077898923e-04
        -1.3419277535459417e-03 -5.0319862875898812e-03
        -1.3377789978637415e-03</alpha>
      <index>
        1 2 3 4 6 7 13 14 33 42 43 44 45</index></_>
    <_>
      <sv_count>18</sv_count>
      <rho>-2.1055330476714160e+00</rho>
      <alpha>
        2.6555771698150822e-03 5.3926464962366684e-04
        1.5152957446182378e-04 1.2083183017114610e-03
        3.5451538888802234e-03 3.3999227835944169e-03
        3.8248851345740781e-03 1.0288380287567340e-04
        -1.3478775983136026e-03 -5.5043060784380608e-04
        -4.8449145143520289e-04 -9.9891281884740028e-04
        -3.4113410701967657e-05 -1.3493972699879090e-03
        -4.7329545304363834e-04 -2.9832377170935882e-03
        -2.7590076932697033e-03 -4.4467712849996077e-03</alpha>
      <index>
        3 5 6 8 11 12 13 14 46 49 50 51 52 55 56 61 62 64</index></_>
    <_>
      <sv_count>11</sv_count>
      <rho>-1.5650959444345049e+00</rho>
      <alpha>
        2.0896097521474911e-03 2.4810702849726289e-04
        6.8152361213725881e-04 2.8794745712884553e-03
        1.7207009951218082e-03 2.0565794287626697e-03
        -8.1631556815887625e-04 -3.1832406923818046e-03
        -2.2789146177904836e-03 -2.2921101922421289e-03
        -1.1054143173816525e-03</alpha>
      <index>
        3 4 10 11 12 16 66 68 69 70 71</index></_>
    <_>
      <sv_count>19</sv_count>
      <rho>-2.3045883217310021e+00</rho>
      <alpha>
        7.4190551241734562e-03 3.4826241515881212e-04
        2.1113352841544294e-03 9.0129091012936652e-04
        8.5907547647670560e-03 7.3949832484551774e-03
        9.0015472937095640e-03 3.1033321844484464e-03
        2.3254132301087447e-03 -9.0323935346103357e-04
        -3.6531266052313321e-03 -1.4724859822919797e-03
        -5.6635076091146449e-03 -9.9045683723935178e-03
        -2.8160126941124209e-03 -6.5379152057490177e-03
        -1.3262253951366952e-03 -2.1352600893046504e-03
        -6.7836331483097636e-03</alpha>
      <index>
        3 5 9 10 11 12 13 15 16 74 76 79 80 81 82 85 86 89 90</index></_>
    <_>
      <sv_count>14</sv_count>
      <rho>2.3835287482805723e+00</rho>
      <alpha>
        1.3470757854035583e-03 5.8931111468095519e-05
        2.0929998230804618e-03 2.9870728255424221e-03
        5.2276440325250478e-03 1.9502356086720412e-03
        3.4539593347153773e-03 -4.4573114089341932e-03
        -1.4903407203482283e-03 -6.4990869386717198e-04
        -4.5988908050560977e-04 -2.7249666918460324e-04
        -1.7805381051202828e-03 -8.0074338434469212e-03</alpha>
      <index>
        1 4 9 10 11 12 13 93 96 97 101 102 106 107</index></_>
    <_>
      <sv_count>18</sv_count>
      <rho>1.3909802535310472e+00</rho>
      <alpha>
        4.3108608586802272e-04 9.6184531336005017e-04
        8.0786968248785227e-04 5.6539737063354917e-04
        1.2281220157258344e-04 7.6417488954958116e-05
        1.3773858986690840e-04 3.4597102724756563e-04
        1.9889620603531820e-03 6.8666775457593913e-04
        -3.3997329659847991e-04 -1.5581247245484116e-03
        -1.1740160174021840e-04 -1.3922566539739394e-03
        -1.2272016611131651e-03 -3.5857188075264315e-04
        -8.8438630613147100e-04 -2.4685145006228369e-04</alpha>
      <index>
        0 1 3 4 5 9 10 11 12 15 109 110 112 115 118 120 121 124</index></_>
    <_>
      <sv_count>18</sv_count>
      <rho>1.8177993898205875e+00</rho>
      <alpha>
        7.2083160186258420e-04 1.3183383357746690e-03
        6.5497803386947381e-04 1.4134474211816852e-03
        5.2369978515079364e-04 4.1659350677803299e-05
        4.9009719593748492e-03 4.3290258881242827e-03
        2.7876018352096603e-03 -2.6622674096936491e-03
        -1.0580553152790793e-03 -2.6100387589363702e-03
        -7.6610724808043795e-04 -3.3460050132617983e-03
        -7.5716258061476419e-04 -2.2036534884499535e-03
        -2.6612811231009717e-04 -3.0211362845996436e-03</alpha>
      <index>
        1 2 3 4 6 8 11 12 14 129 133 135 137 138 143 145 148 150</index></_>
    <_>
      <sv_count>13</sv_count>
      <rho>1.5303405674032793e+00</rho>
      <alpha>
        5.8969471843271185e-04 3.2293056853636905e-04
        4.6934266875570832e-05 5.0659517895202652e-05
        8.0295566642831363e-04 3.1117815727089938e-04
        8.6757957284598971e-05 -4.8078143127453800e-05
        -1.5319379386794982e-04 -1.3302173583716091e-04
        -5.1122366815058325e-04 -4.8122432258681776e-04
        -8.8436918915370114e-04</alpha>
      <index>
        17 19 20 26 27 28 29 35 41 42 43 44 45</index></_>
    <_>
      <sv_count>14</sv_count>
      <rho>1.3432327099883186e+00</rho>
      <alpha>
        2.8494513511575451e-04 2.6185461791990400e-04
        3.8100949661961292e-04 2.0837294748838600e-04
        3.4717932915087439e-05 3.0218918472724730e-04
        1.0766599842299694e-03 2.9767569971297323e-04
        -5.7638955294021148e-04 -8.3363000705867702e-04
        -1.6483840397141922e-04 -1.7658141999077242e-04
        -1.0771221731487562e-04 -9.8827339745297918e-04</alpha>
      <index>
        17 18 19 22 23 24 27 29 46 51 55 57 59 64</index></_>
    <_>
      <sv_count>12</sv_count>
      <rho>-6.3866922710853063e-03</rho>
      <alpha>
        1.2489393222817809e-04 3.5138552368677158e-04
        2.3576869389652661e-04 6.1533519812083672e-05
        4.7460559527843962e-06 1.1999902862893528e-04
        9.9939343650724453e-04 -2.9648136422501194e-04
        -4.4089145667091414e-04 -9.1138388302962499e-04
        -6.3340452635382558e-05 -1.8562303415159035e-04</alpha>
      <index>
        18 19 20 22 23 24 27 65 67 69 70 71</index></_>
    <_>
      <sv_count>12</sv_count>
      <rho>9.8964838141641731e-01</rho>
      <alpha>
        4.1498571665487063e-04 4.3293844340311461e-05
        1.8127896340093975e-04 9.1173009173867940e-05
        2.9849096903153920e-04 1.5309671632780092e-04
        8.6268923724664933e-04 1.0099507666423348e-03
        -4.5364852875467326e-04 -1.2459407493209344e-03
        -5.7687129628605049e-05 -1.2976828151140989e-03</alpha>
      <index>
        17 18 19 20 22 23 27 29 77 83 85 88</index></_>
    <_>
      <sv_count>12</sv_count>
      <rho>1.8648945157543331e+00</rho>
      <alpha>
        1.9270059273513395e-05 3.8174651598513149e-04
        1.3590039438731675e-04 3.5069989151902473e-04
        4.2363635737192098e-04 1.3445472359530691e-03
        4.4258869212704670e-04 -6.2675891817372948e-04
        -3.1934735832848428e-04 -4.7919733320702827e-04
        -1.0620732368352573e-03 -6.1101230007252409e-04</alpha>
      <index>
        17 19 21 22 23 27 29 93 97 102 105 108</index></_>
    <_>
      <sv_count>11</sv_count>
      <rho>1.2760504021624921e+00</rho>
      <alpha>
        2.9005936939185094e-04 3.3864948480795501e-04
        2.1684041142616038e-04 6.7065456070368771e-04
        1.7077871167319345e-04 -1.4409586489211559e-04
        -7.3601853572147268e-04 -2.2367701373378308e-04
        -2.5574037386901475e-04 -1.9055314548751721e-04
        -1.3689760429894452e-04</alpha>
      <index>
        17 19 23 27 29 109 115 116 118 121 126</index></_>
    <_>
      <sv_count>17</sv_count>
      <rho>1.5616696046569039e+00</rho>
      <alpha>
        2.1563354099096818e-04 5.6593938928222212e-05
        4.7948597833380441e-04 1.6744678180286246e-04
        1.6547339978410241e-04 1.4137457851336454e-04
        8.8061953295599771e-04 7.3831872110412524e-05
        -2.2117617735934836e-04 -5.5955685366599088e-04
        -2.5589735804784999e-04 -1.4304176817890569e-04
        -5.0554469991373268e-04 -9.5969960575688289e-05
        -2.5392235208800628e-04 -1.3540322190610195e-04
        -9.9472316841110405e-06</alpha>
      <index>
        17 18 19 20 25 26 27 29 128 129 130 135 138 140 143 144 151</index></_>
    <_>
      <sv_count>13</sv_count>
      <rho>-2.8401436005598248e+00</rho>
      <alpha>
        9.7084526507175119e-05 8.9129983437762268e-04
        3.7900804720468000e-03 2.3325343881442037e-03
        1.5173967755532335e-03 -2.1501489899984723e-03
        -2.5125329101344013e-04 -4.3020957598335056e-04
        -1.0667485952467625e-04 -7.4565564142907372e-04
        -4.3546829946947119e-04 -4.5902927220715012e-04
        -4.0499560670034023e-03</alpha>
      <index>
        40 42 43 44 45 46 49 50 55 57 58 61 64</index></_>
    <_>
      <sv_count>10</sv_count>
      <rho>-1.7299186348003612e+00</rho>
      <alpha>
        1.9787049808186894e-05 7.1713087490556869e-05
        1.6423006816804227e-04 8.5133311247356824e-04
        5.9987057367256720e-04 -4.1316172935548052e-04
        -3.1882270376637546e-05 -3.3282670054974819e-04
        -5.4946918524889296e-04 -3.7959400608216236e-04</alpha>
      <index>
        36 40 42 44 45 65 66 68 70 71</index></_>
    <_>
      <sv_count>12</sv_count>
      <rho>-2.9949435214148252e+00</rho>
      <alpha>
        4.4016518031384758e-04 7.7969982681942880e-04
        1.2797712585246707e-03 9.2338383007740260e-04
        4.7508298031089083e-04 -7.5773382888440178e-04
        -1.1652399387669559e-03 -2.4991254478652376e-04
        -3.2230792525287131e-04 -1.3792961388567297e-04
        -6.3887633190896383e-05 -1.2010915912789172e-03</alpha>
      <index>
        40 42 43 44 45 76 79 80 81 83 85 90</index></_>
    <_>
      <sv_count>11</sv_count>
      <rho>-1.9712047532512107e+00</rho>
      <alpha>
        2.4704199454102693e-04 9.7109983995597338e-04
        3.7342036797860647e-04 1.3757516118639765e-03
        1.3353348399309183e-03 6.3430490624797773e-04
        -6.8503532832765723e-04 -1.0422487300251104e-03
        -1.5797488253039527e-03 -1.2864494359489484e-03
        -3.4347124091280954e-04</alpha>
      <index>
        33 40 42 43 44 45 91 100 104 107 108</index></_>
    <_>
      <sv_count>29</sv_count>
      <rho>4.4399494909632276e-01</rho>
      <alpha>
        2.7165315825986822e-04 4.9690300775872230e-04
        4.8594003516217021e-03 4.9317544671530038e-04
        1.1519914360975637e-03 1.0705840769020321e-03
        3.9028227880379978e-05 5.5485778280271272e-05
        6.1438692454460949e-05 3.2911338146433469e-04
        6.2787598958230777e-04 6.6335113494807687e-04
        1.1614976806807429e-04 1.6353181731282814e-04
        7.2150347748260042e-06 4.8999251667675766e-04
        -4.1539052696774615e-04 -1.3440422600360518e-04
        -3.4697848130298234e-04 -1.4594429470954696e-03
        -2.9840164144691653e-04 -2.1900100971884691e-03
        -6.5936792742366510e-04 -2.0434932886397327e-03
        -2.2015462981728390e-04 -3.5704527653301926e-04
        -1.8592100074724608e-03 -1.5448556405257268e-04
        -7.5850520485358584e-04</alpha>
      <index>
        30 31 32 33 34 35 36 37 38 39 40 41 42 43 44 45 109 110 113 114
        115 116 119 120 121 122 124 125 126</index></_>
    <_>
      <sv_count>30</sv_count>
      <rho>4.7295521069139618e-01</rho>
      <alpha>
        4.7494337340723452e-04 4.2028373930352216e-03
        5.6465097728074839e-04 1.4262979379164951e-03
        1.3653131975424788e-03 9.1388611456758419e-04
        3.6586290891556743e-04 1.7765463354079709e-03
        1.1546043086561098e-03 1.4001108517474130e-03
        1.9724185275449713e-03 2.4857401777261113e-03
        -1.5109670517891149e-03 -2.4414136239282551e-04
        -1.0331336115606193e-03 -2.6989208428842480e-04
        -2.7265570291377380e-04 -3.0519946887194895e-04
        -1.7528021987277161e-03 -1.8399269687867379e-03
        -2.5209197643225409e-04 -4.9390187904811865e-03
        -5.8360862997023260e-05 -5.3225895434884959e-04
        -8.0890694129272613e-04 -1.0348796990254203e-03
        -9.7201500282949311e-06 -1.0165150148699390e-03
        -1.8707788551477766e-03 -3.5196240979327737e-04</alpha>
      <index>
        30 32 33 34 36 38 39 40 42 43 44 45 127 128 129 132 135 136 137
        138 139 141 142 143 144 145 146 147 151 153</index></_>
    <_>
      <sv_count>14</sv_count>
      <rho>-1.4085707334618078e+00</rho>
      <alpha>
        7.5959715657246765e-04 8.1336397502895395e-05
        4.6326039514614931e-05 1.0090449724241347e-03
        8.8944146263337967e-04 8.8327213102400105e-04
        2.3531690734083480e-03 2.0469711723612784e-04
        5.9321046981637422e-04 -5.0979503988950355e-04
        -3.7616688537994796e-03 -8.4495812206153583e-04
        -1.6153023920054840e-04 -1.5421425651812768e-03</alpha>
      <index>
        46 47 50 51 55 59 61 62 64 66 68 69 70 71</index></_>
    <_>
      <sv_count>24</sv_count>
      <rho>1.5024549876754028e+00</rho>
      <alpha>
        4.0096013311092440e-03 2.4488712769779476e-03
        6.1885828655584320e-04 1.0560872392842142e-03
        3.8141589125570878e-03 2.5061744469778353e-03
        3.4307011411622659e-03 4.8806680327269699e-03
        8.8031108720906001e-04 1.7805332186004594e-02
        4.7304219220739886e-03 1.1561788228661388e-03
        5.5059611988190604e-03 -5.7209196657635759e-03
        -4.3712099560223013e-03 -3.7167020233579194e-04
        -3.9022413343817982e-03 -3.1271308076536507e-03
        -8.1191003487408701e-03 -5.4936490644626179e-04
        -1.8534320727858500e-03 -1.0677773573208442e-02
        -7.4982251608300280e-03 -6.6522578561556871e-03</alpha>
      <index>
        46 47 49 50 51 52 53 55 58 61 62 63 64 72 75 77 79 80 81 83 85
        86 87 88</index></_>
    <_>
      <sv_count>20</sv_count>
      <rho>1.3641975518271818e+00</rho>
      <alpha>
        5.7644278285602498e-03 2.3712815131370188e-04
        3.0409859632453862e-04 2.4931568809001894e-04
        1.7500344116075620e-03 4.8573683182871188e-03
        8.4768110618704524e-04 1.5869436672325712e-03
        3.6035767429162544e-03 1.2953670963099825e-03
        3.4752005748505165e-03 -1.7217951799512192e-03
        -4.7858283940715061e-03 -2.2143576375302778e-03
        -3.8182161833886772e-03 -2.8751197667973853e-03
        -2.8116785041658896e-04 -2.8378396188256396e-03
        -2.9907386619305301e-03 -2.4460788887677304e-03</alpha>
      <index>
        46 47 48 49 51 53 54 60 61 63 64 93 98 100 101 102 103 104 105
        107</index></_>
    <_>
      <sv_count>22</sv_count>
      <rho>1.2237064333995837e+00</rho>
      <alpha>
        1.1308997520571590e-03 6.8853912470220733e-05
        1.1779590099616471e-03 4.4884644942209836e-04
        9.4352130261128055e-04 4.0833229847703033e-04
        1.3691882494215555e-04 2.5770805779956345e-05
        7.3398938546851073e-04 3.1530248262652105e-04
        4.9061101122968738e-04 1.5914172371703592e-03
        -1.0347057269944841e-03 -7.6190816872222548e-04
        -1.1848037949799318e-03 -1.2218460095197194e-03
        -6.2397169433497338e-04 -1.4714683067774059e-03
        -7.1784200100322463e-04 -4.1728777871950905e-05
        -1.5486430496220160e-04 -2.5928368705050987e-04</alpha>
      <index>
        46 47 49 50 51 52 53 54 61 62 63 64 109 110 111 115 116 118 120
        122 124 126</index></_>
    <_>
      <sv_count>18</sv_count>
      <rho>3.1415020991180338e+00</rho>
      <alpha>
        3.2250827154047240e-03 2.4643822594191023e-04
        9.9307468861742809e-04 5.1596232572626022e-04
        3.5310358896094518e-04 1.3477909096794504e-02
        3.7261524608229097e-03 2.3128459981072102e-03
        4.9627196485925061e-03 -3.3687585615354097e-03
        -7.8710562380046086e-03 -3.6076204811743271e-04
        -6.6044072634199773e-03 -4.4987538304821434e-03
        -2.3780516500904506e-03 -1.4702702354150768e-03
        -6.0049058625520841e-04 -2.6607383356480954e-03</alpha>
      <index>
        46 48 49 50 54 57 60 61 64 127 129 130 131 135 138 147 152 153</index></_>
    <_>
      <sv_count>13</sv_count>
      <rho>1.1786025216490827e+00</rho>
      <alpha>
        6.5301218280040246e-03 6.5728818912324364e-05
        3.1748914800819291e-03 3.8807699072362883e-03
        -3.5180921160134839e-04 -6.8172237641047934e-04
        -1.8416706872678124e-03 -3.6221489536782609e-03
        -2.6615314194660101e-03 -1.6906426135990633e-03
        -9.8640853920557671e-04 -1.0866034319617129e-03
        -7.2897480104430214e-04</alpha>
      <index>
        68 69 70 71 73 74 76 77 80 81 83 85 86</index></_>
    <_>
      <sv_count>11</sv_count>
      <rho>2.2738349234000621e+00</rho>
      <alpha>
        2.7203972811650021e-04 4.5680397359507661e-04
        5.1446607474563795e-04 1.3380411011975847e-03
        7.6265166264411573e-04 5.4838233515133793e-04
        -1.7069751666719762e-03 -6.3588815343183986e-04
        -3.7306328811831640e-04 -4.0497372472423059e-04
        -7.7148454250388948e-04</alpha>
      <index>
        65 66 68 69 70 71 97 99 103 105 107</index></_>
    <_>
      <sv_count>15</sv_count>
      <rho>1.5218725755053264e+00</rho>
      <alpha>
        3.7873287721482482e-04 2.2459518662284249e-03
        2.0601284716153829e-04 6.4257827066006000e-04
        5.4845197392377251e-03 -6.8147560681489972e-04
        -1.1282990418478053e-03 -2.2328108285969184e-05
        -5.5712096857093096e-04 -3.5434476792055205e-05
        -1.6960208954554248e-03 -4.0602893211716558e-04
        -3.6869225588000497e-03 -7.2016688753207231e-04
        -2.3998124286195020e-05</alpha>
      <index>
        65 68 69 70 71 109 110 111 112 114 115 117 118 121 125</index></_>
    <_>
      <sv_count>13</sv_count>
      <rho>1.4833956889746285e+00</rho>
      <alpha>
        2.0680218694606820e-03 3.4661302744868185e-04
        1.1727398119987446e-03 1.7117591417195447e-04
        -7.1885196238937940e-04 -3.5557568730515995e-04
        -6.1092548449337197e-04 -1.1599620483832577e-03
        -1.2115501554115669e-04 -2.1940766162138455e-04
        -6.4350036365682544e-06 -4.3951615227739386e-04
        -1.2672160743239260e-04</alpha>
      <index>
        68 69 70 71 129 130 133 138 143 147 149 150 153</index></_>
    <_>
      <sv_count>17</sv_count>
      <rho>3.2059372052923116e+00</rho>
      <alpha>
        3.6121748459585948e-02 2.4569484239669249e-02
        8.6335280969883723e-04 3.8022851053142177e-03
        2.4272753823910264e-02 1.7952272267006686e-02
        1.1068294757137982e-02 9.8008643604008492e-03
        -1.5520760492135524e-03 -7.5965562308718945e-03
        -3.0360146846038018e-02 -3.0344335364367505e-02
        -2.3872466463524334e-03 -4.0121699670919253e-04
        -1.4881444358284200e-02 -5.3582207596971345e-03
        -3.5569812571190129e-02</alpha>
      <index>
        72 73 75 79 82 83 84 85 92 93 94 97 98 99 101 105 107</index></_>
    <_>
      <sv_count>15</sv_count>
      <rho>1.8927324695441208e+00</rho>
      <alpha>
        4.5972197916443564e-03 7.2959894351197827e-05
        2.8946346307957724e-05 1.5735766062353459e-03
        3.0598613569697160e-03 2.6992975828511573e-03
        2.2376909888043167e-03 -1.4533391516514918e-03
        -3.1301168703842569e-04 -1.6074515585053862e-03
        -3.7766350272503153e-03 -3.9794000396617107e-03
        -1.5696445435496727e-03 -7.3601281817052447e-04
        -8.3405774133651781e-04</alpha>
      <index>
        76 77 78 79 84 89 90 109 111 113 115 118 120 121 123</index></_>
    <_>
      <sv_count>16</sv_count>
      <rho>1.5238542723519324e+00</rho>
      <alpha>
        8.9637071009932012e-04 3.1084712152637519e-03
        9.6810974958302584e-04 1.1407571528398617e-04
        2.3921195816748227e-03 2.6639338104050825e-04
        3.2569626588534059e-04 1.6621653621201734e-03
        -3.2847520314154559e-03 -4.3045553825305669e-05
        -2.9005558625726073e-04 -4.3138170516561856e-03
        -1.9687621115555500e-04 -5.7686094726575412e-04
        -5.0908204904370660e-04 -5.1891255033169998e-04</alpha>
      <index>
        72 75 76 80 81 82 85 87 129 131 135 138 142 144 145 150</index></_>
    <_>
      <sv_count>15</sv_count>
      <rho>1.0336845393411533e+00</rho>
      <alpha>
        3.7289774168219156e-03 1.3499085719262454e-03
        1.4619570592905990e-04 1.6734338420352637e-05
        5.5064578122233970e-05 2.0323088692228318e-03
        1.4541151294314048e-03 -2.4126743754508502e-03
        -3.4859596388580028e-03 -2.7644265765589570e-05
        -1.2482159395833727e-03 -6.0397312376857454e-04
        -5.6434795097095409e-04 -4.1028503861251545e-04
        -3.0204276864185563e-05</alpha>
      <index>
        91 92 95 96 104 105 107 109 115 116 118 120 123 124 126</index></_>
    <_>
      <sv_count>15</sv_count>
      <rho>1.2646901056819604e+00</rho>
      <alpha>
        2.0772611196242328e-03 1.3340696330520693e-03
        3.8120991972051354e-04 1.2843867485451959e-03
        1.2161686537472995e-03 1.5640475862373365e-03
        -2.0015540166775378e-03 -1.3810820303778242e-03
        -1.9479086850982810e-04 -2.2367050919625377e-03
        -2.3505355235208132e-04 -8.7379777631350648e-04
        -2.2408323235830876e-04 -6.4601239771733981e-04
        -6.4064694657683577e-05</alpha>
      <index>
        97 100 101 102 104 107 129 134 137 138 143 145 147 150 153</index></_>
    <_>
      <sv_count>29</sv_count>
      <rho>2.4845809394131319e-01</rho>
      <alpha>
        4.9271235865859357e-04 1.9032156341648474e-03
        3.4911239861867767e-04 6.0734705643663691e-05
        3.2403401391511806e-03 5.9486153708426489e-04
        1.5535467828578257e-03 1.1203799229149421e-03
        1.6008608815666050e-03 2.8545331874897683e-03
        2.5916947720931618e-04 2.5610298890200063e-03
        8.4889022250725539e-04 -9.6013906980236924e-06
        -1.4079826463630866e-04 -1.0460757101808992e-03
        -7.0099262152058890e-04 -8.3163329580678166e-04
        -1.9292496552206611e-04 -4.8471462404868684e-03
        -4.9535680345593868e-04 -1.3074768103447725e-03
        -3.6452272668468857e-03 -1.2511278250855436e-03
        -1.6202777212124570e-03 -6.1551769247269203e-04
        -9.9141781652963375e-05 -8.8528073463176897e-05
        -5.4756067350098003e-04</alpha>
      <index>
        109 110 112 113 114 115 116 119 120 121 122 124 126 128 132 133
        134 137 138 141 143 144 145 146 149 150 151 152 153</index></_></decision_functions></opencv_ml_svm>
</opencv_storage>
