<?xml version="1.0"?>
<opencv_storage>
<opencv_ml_svm>
  <format>3</format>
  <svmType>C_SVC</svmType>
  <kernel>
    <type>POLY</type>
    <degree>3.</degree>
    <gamma>3.</gamma>
    <coef0>0.</coef0></kernel>
  <C>1.</C>
  <term_criteria><epsilon>1.1920928955078125e-07</epsilon>
    <iterations>1000</iterations></term_criteria>
  <var_count>36</var_count>
  <class_count>9</class_count>
  <class_labels type_id="opencv-matrix">
    <rows>9</rows>
    <cols>1</cols>
    <dt>i</dt>
    <data>
      1 2 3 4 5 6 7 8 9</data></class_labels>
  <sv_total>138</sv_total>
  <support_vectors>
    <_>
      0. 0. 5.96172273e-01 8.03447843e-01 9.31106448e-01 1.
      9.83239949e-01 8.20160568e-01 3.59135687e-01 3.14898878e-01
      8.04630995e-01 8.48705113e-01 8.59825850e-01 8.65648091e-01
      8.22332501e-01 7.03354359e-01 6.32282734e-01 0. 0. 4.05612081e-01
      5.42443991e-01 6.72393799e-01 6.28835738e-01 8.05858850e-01
      8.16333473e-01 8.07385027e-01 7.59101748e-01 6.71128333e-01
      4.41387355e-01 4.83948410e-01 8.51590633e-01 8.82759929e-01
      9.04219806e-01 8.87611151e-01 8.60619426e-01 7.54819453e-01</_>
    <_>
      0. 4.68994230e-01 6.29992962e-01 7.25393891e-01 7.33035386e-01
      9.75329101e-01 1. 5.18940330e-01 6.04146600e-01 5.24187803e-01
      4.25659090e-01 5.95215619e-01 6.01353526e-01 6.54248297e-01
      6.71154439e-01 6.35826111e-01 5.15036464e-01 5.40827096e-01
      4.96525168e-01 3.63750964e-01 2.10241318e-01 4.49507773e-01
      7.07321525e-01 8.16206574e-01 8.42652202e-01 6.13268614e-01
      6.07931674e-01 7.34269917e-01 5.41136563e-01 5.24037540e-01
      7.77409852e-01 9.00923848e-01 8.70580137e-01 7.48794615e-01
      6.72795415e-01 0.</_>
    <_>
      0. 3.19179177e-01 4.74379987e-01 6.36358023e-01 6.91784918e-01 1.
      9.84772623e-01 7.85162687e-01 2.07019418e-01 6.87847912e-01
      6.86147451e-01 2.44421303e-01 7.46891856e-01 7.96764910e-01
      8.18635166e-01 7.96129823e-01 7.44230568e-01 6.75324619e-01
      5.84061563e-01 3.00712705e-01 5.68878651e-01 7.62230098e-01
      8.33837986e-01 8.97657692e-01 6.09306395e-01 9.06631947e-01
      8.37243259e-01 5.22394896e-01 4.86450464e-01 7.99172223e-01
      8.21579516e-01 8.08755577e-01 7.61902213e-01 6.57318056e-01
      5.93222320e-01 0.</_>
    <_>
      0. 4.27263737e-01 5.56199789e-01 8.38178217e-01 5.91017306e-01 1.
      6.06974125e-01 6.07358396e-01 6.19920611e-01 7.97761202e-01
      7.98194408e-01 8.03326130e-01 8.15577209e-01 8.23013604e-01
      7.84846902e-01 6.36008322e-01 6.51148379e-01 5.34546256e-01
      1.96678713e-01 3.54747266e-01 4.85037953e-01 6.15345180e-01
      7.62784481e-01 8.35519075e-01 8.43010247e-01 8.14378977e-01
      7.77423382e-01 6.85366750e-01 4.87579167e-01 4.68580782e-01
      8.63219380e-01 8.71707320e-01 8.88566434e-01 8.90999436e-01
      8.18670690e-01 0.</_>
    <_>
      0. 5.08238971e-01 4.90430802e-01 7.47926593e-01 8.33637536e-01
      8.71269703e-01 8.97828043e-01 6.51164532e-01 6.26003087e-01
      6.98662996e-01 6.96233511e-01 6.94223821e-01 7.02931464e-01
      7.46832788e-01 1. 8.84291410e-01 8.96730542e-01 5.79128802e-01 0.
      5.62264740e-01 5.67671239e-01 4.89718050e-01 6.38084888e-01
      7.53859997e-01 9.73255515e-01 9.87691402e-01 9.52609956e-01
      6.74591005e-01 6.42217875e-01 9.38652098e-01 9.20188844e-01
      8.79568100e-01 7.66500950e-01 3.71783078e-01 4.13392276e-01
      4.54217434e-01</_>
    <_>
      0. 2.64148146e-01 3.71679544e-01 5.38828075e-01 1. 7.58387446e-01
      9.19288039e-01 9.30450857e-01 5.19056499e-01 6.78243399e-01
      6.82485044e-01 5.51904738e-01 7.38448381e-01 7.65642405e-01
      7.82826781e-01 7.97375381e-01 6.58110857e-01 6.95715547e-01
      4.33544755e-01 3.35971862e-01 5.51708817e-01 7.20654309e-01
      8.60670090e-01 8.57573748e-01 8.63567531e-01 6.26991689e-01
      7.20121443e-01 4.87650931e-01 4.51076925e-01 7.09625542e-01
      7.30825484e-01 7.88326025e-01 7.39640892e-01 6.34270728e-01
      5.71301520e-01 0.</_>
    <_>
      0. 3.44245583e-01 4.66653496e-01 5.83852887e-01 8.80671799e-01
      9.51398253e-01 9.08164859e-01 8.62234473e-01 6.52938306e-01
      6.23613298e-01 6.24030530e-01 5.12705743e-01 6.79235995e-01
      6.98455751e-01 7.82281816e-01 7.94475257e-01 4.49496746e-01
      6.70569241e-01 6.64345086e-01 4.16587591e-01 5.13737440e-01
      7.41089404e-01 8.23058784e-01 1. 9.86061454e-01 7.42483020e-01
      8.39208782e-01 5.16516626e-01 8.03602099e-01 7.01987267e-01
      8.49836946e-01 7.91730404e-01 7.05297589e-01 5.90940475e-01
      1.83679551e-01 0.</_>
    <_>
      0. 4.25587505e-01 4.58195418e-01 4.81774509e-01 6.89988971e-01
      8.20567727e-01 7.47544765e-01 7.00538576e-01 6.74721777e-01
      5.99624634e-01 6.00156069e-01 0. 6.49770677e-01 8.13154519e-01
      7.86522150e-01 8.13036859e-01 7.75919259e-01 5.13570130e-01
      4.87238377e-01 4.02235031e-01 3.51711035e-01 2.79736131e-01
      5.49475849e-01 1. 7.59985805e-01 7.57014036e-01 7.39900768e-01
      4.78349090e-01 4.80352521e-01 7.02906489e-01 7.20657170e-01
      7.18257070e-01 6.76614821e-01 5.78638434e-01 2.37787515e-01
      2.91565686e-01</_>
    <_>
      0. 5.19791663e-01 5.64565957e-01 5.84695339e-01 9.24659193e-01
      8.72503102e-01 8.76218498e-01 7.77215242e-01 7.95791507e-01 0. 0.
      0. 8.40175211e-01 9.40178275e-01 1. 6.68253183e-01 6.86116278e-01
      4.62516934e-01 6.33152127e-01 5.63783586e-01 3.80425394e-01
      6.50035143e-01 7.10076809e-01 8.76977980e-01 9.42255676e-01
      7.27374673e-01 8.19294333e-01 5.77406883e-01 5.76864898e-01
      8.15084159e-01 8.86674404e-01 8.61374021e-01 8.16185236e-01
      6.86384678e-01 2.20852882e-01 2.99194813e-01</_>
    <_>
      0. 4.12379086e-01 5.33858120e-01 2.85157055e-01 8.66267800e-01 1.
      9.58483934e-01 8.08938205e-01 8.27074766e-01 0. 0. 0. 0.
      9.01132524e-01 9.41375673e-01 9.65788603e-01 7.25557387e-01
      6.60996616e-01 6.23519063e-01 4.87089217e-01 0. 7.04219520e-01 0.
      8.83379936e-01 9.29619312e-01 7.11275339e-01 8.24928939e-01
      5.37233531e-01 5.07179260e-01 8.40916753e-01 8.22512567e-01
      8.08006763e-01 7.85136521e-01 6.75455153e-01 5.06970823e-01
      1.94212794e-01</_>
    <_>
      0. 4.91300344e-01 5.73199511e-01 5.82765281e-01 5.95010042e-01
      8.39940012e-01 8.44146430e-01 7.64441848e-01 4.86644119e-01 0. 0.
      4.74377483e-01 7.67721295e-01 8.25720012e-01 8.63411009e-01
      9.06939089e-01 5.47075629e-01 5.15866816e-01 4.69309002e-01
      3.50664794e-01 2.68622726e-01 5.31004071e-01 5.45505881e-01 1.
      7.38487840e-01 7.60997593e-01 7.11243987e-01 4.30369228e-01
      4.61248636e-01 6.98248684e-01 7.57689059e-01 7.63607919e-01
      7.50457108e-01 6.43850505e-01 5.89642048e-01 2.90380925e-01</_>
    <_>
      0. 0. 4.13359821e-01 5.44058084e-01 6.26867115e-01 9.72160459e-01
      1. 8.85267973e-01 6.19354904e-01 4.55084801e-01 0. 6.45049393e-01
      6.27699971e-01 9.66209352e-01 9.75015163e-01 7.40462542e-01 0.
      6.20983481e-01 3.74288142e-01 4.06391919e-01 5.85736811e-01
      6.24975204e-01 7.28914380e-01 7.64940202e-01 7.48220503e-01
      7.19420433e-01 6.55971646e-01 4.04450446e-01 3.78434002e-01
      6.54557824e-01 6.77195489e-01 9.17948604e-01 9.13307965e-01
      6.58102632e-01 5.76700330e-01 0.</_>
    <_>
      0. 3.24571609e-01 4.98890847e-01 6.02097511e-01 9.60800350e-01 1.
      7.22287178e-01 7.19235420e-01 6.45973861e-01 6.73743486e-01
      6.80285215e-01 6.55848861e-01 6.88958049e-01 7.58959889e-01
      7.76881099e-01 6.29255056e-01 5.88556826e-01 5.69370627e-01
      4.90936875e-01 1.27373978e-01 5.77770054e-01 5.49707234e-01
      6.43138170e-01 7.76154518e-01 8.45282674e-01 8.30311418e-01
      7.70476580e-01 4.61419016e-01 4.61917907e-01 6.71569765e-01
      7.71082461e-01 7.60964572e-01 7.44287968e-01 6.15288794e-01
      5.74505925e-01 0.</_>
    <_>
      0. 5.41973591e-01 6.71335042e-01 7.24370956e-01 7.41489708e-01
      7.38532603e-01 6.82986736e-01 6.63647473e-01 0. 0. 0. 0. 0. 1.
      7.78579235e-01 8.03510070e-01 4.96277869e-01 6.82266295e-01
      5.99042773e-01 3.66887540e-01 2.41580859e-01 7.25086749e-01
      7.70950079e-01 6.13949299e-01 6.19197190e-01 8.12904477e-01
      6.75486445e-01 6.65083408e-01 6.28811419e-01 7.48384595e-01
      7.05901325e-01 6.97096825e-01 7.34911561e-01 7.38116384e-01
      6.19689405e-01 0.</_>
    <_>
      0. 5.36827207e-01 7.70908594e-01 0. 7.01522946e-01 1.
      9.52806950e-01 8.98236156e-01 8.71997714e-01 0. 0. 8.77059758e-01
      9.07226801e-01 9.43175495e-01 9.38648164e-01 0. 7.58554518e-01
      6.98368788e-01 0. 0. 7.30331063e-01 7.87596643e-01 7.44348109e-01
      5.76807201e-01 8.06951225e-01 8.38211775e-01 7.78897762e-01
      6.63326800e-01 6.28807366e-01 7.72238433e-01 7.32065320e-01
      7.24641979e-01 7.66258717e-01 8.67783189e-01 0. 0.</_>
    <_>
      0. 4.90738362e-01 7.32011735e-01 8.73539746e-01 9.02728975e-01
      9.21557665e-01 9.01408970e-01 8.71082723e-01 7.87240088e-01
      8.21410537e-01 0. 0. 8.68826866e-01 9.50403988e-01 1.
      9.73574996e-01 4.31433678e-01 8.09558570e-01 5.16563952e-01 0.
      8.08172822e-01 8.94977331e-01 8.41752231e-01 6.70003891e-01
      7.97082603e-01 9.72807288e-01 7.48221457e-01 6.91475570e-01
      8.54133368e-01 7.83177257e-01 7.55815923e-01 7.48122692e-01
      8.01454186e-01 8.33640695e-01 0. 0.</_>
    <_>
      0. 0. 7.97193170e-01 8.64579439e-01 9.63738859e-01 9.80738521e-01
      9.80827570e-01 9.18384969e-01 3.14272285e-01 8.79242957e-01
      8.78331602e-01 3.22504759e-01 9.32546139e-01 9.82770503e-01 1.
      5.45468867e-01 8.38500917e-01 7.00135410e-01 0. 0. 7.86601305e-01
      8.16646934e-01 7.50157773e-01 5.93563795e-01 7.83745170e-01
      9.43367124e-01 7.15360880e-01 8.65437925e-01 7.85471261e-01
      7.56517291e-01 7.29351103e-01 7.21542716e-01 7.73101032e-01
      8.25196862e-01 8.23872328e-01 0.</_>
    <_>
      0. 6.41366899e-01 8.39155436e-01 9.00785327e-01 9.20950413e-01
      9.16356504e-01 8.43937099e-01 8.01078081e-01 6.65287137e-01 0.
      7.46009946e-01 8.13651264e-01 8.21633339e-01 8.72514486e-01
      9.22720313e-01 9.03292418e-01 5.48660278e-01 7.58674562e-01
      6.14528418e-01 3.27324182e-01 0. 8.08251977e-01 8.67426157e-01
      7.06168473e-01 7.85653651e-01 1. 8.19149315e-01 7.97495008e-01
      9.21032548e-01 8.56138170e-01 8.33434105e-01 8.25144947e-01
      8.71199787e-01 8.82926822e-01 8.18960190e-01 2.46887311e-01</_>
    <_>
      0. 2.32340723e-01 5.39831400e-01 7.41007149e-01 8.15440774e-01
      8.57901573e-01 8.42133224e-01 8.16715956e-01 8.06992710e-01 0. 0.
      0. 0. 9.45157647e-01 9.68003154e-01 1. 0. 8.27039361e-01
      4.65977728e-01 0. 8.27462435e-01 8.83088827e-01 6.66508257e-01
      6.61226630e-01 8.91397715e-01 7.11281955e-01 6.76047206e-01
      6.25645518e-01 7.63391852e-01 6.82304919e-01 6.59309745e-01
      6.61807716e-01 7.02880144e-01 7.07188487e-01 0. 0.</_>
    <_>
      0. 3.98078889e-01 6.85773790e-01 8.10146153e-01 8.77358615e-01
      9.00381684e-01 8.84627223e-01 8.42416883e-01 8.18337679e-01
      6.17242694e-01 0. 0. 8.88852060e-01 9.54097390e-01 1.
      9.92692947e-01 9.20288205e-01 7.96434045e-01 4.27733600e-01 0.
      8.78118813e-01 9.35893178e-01 8.38161349e-01 6.80970192e-01
      5.39391577e-01 9.54486251e-01 7.62277961e-01 6.92754626e-01
      8.37804258e-01 7.44053841e-01 7.24162221e-01 7.41959631e-01
      7.66412079e-01 8.02053750e-01 0. 0.</_>
    <_>
      0. 0. 5.28400958e-01 7.66737342e-01 8.72939706e-01 9.10726964e-01
      9.16602552e-01 8.80614281e-01 8.61380875e-01 0. 6.73848614e-02 0.
      9.35948849e-01 9.82820153e-01 1. 9.78482723e-01 8.60497117e-01
      6.56457663e-01 0. 0. 7.97489583e-01 8.34182262e-01 6.01518691e-01
      6.47967458e-01 4.79406476e-01 8.81981254e-01 6.58691406e-01
      7.65147209e-01 6.94702744e-01 6.69736803e-01 6.47743165e-01
      6.42891824e-01 6.64064050e-01 7.28266478e-01 0. 0.</_>
    <_>
      0. 0. 7.55581379e-01 8.83466005e-01 9.75425601e-01 9.72997189e-01
      9.55240130e-01 8.76090109e-01 8.97685409e-01 0. 0. 0.
      9.26756203e-01 9.79628086e-01 1. 6.29609764e-01 8.01397502e-01
      6.03052497e-01 0. 0. 7.95943856e-01 8.22653651e-01 7.89264560e-01
      5.78518450e-01 7.51903236e-01 8.81571412e-01 6.90442741e-01
      6.73591554e-01 7.80541539e-01 7.17314184e-01 6.94486082e-01
      7.12079406e-01 7.38051832e-01 8.06848347e-01 0. 0.</_>
    <_>
      0. 0. 0. 6.26353681e-01 9.73383129e-01 9.69787002e-01
      9.51992154e-01 9.81967807e-01 2.79672474e-01 6.52119160e-01
      6.85956180e-01 0. 7.86347389e-01 7.74557650e-01 9.03645992e-01
      9.60442245e-01 6.82709098e-01 6.73772991e-01 7.75361419e-01
      4.59150106e-01 7.83557057e-01 8.39170814e-01 6.27665877e-01
      6.15980864e-01 7.80222297e-01 7.76078463e-01 7.24426389e-01
      6.67122602e-01 5.89982688e-01 5.63391864e-01 5.09317040e-01
      9.93952692e-01 1. 5.90561867e-01 6.13242149e-01 0.</_>
    <_>
      0. 0. 0. 5.41232049e-01 8.31697226e-01 8.28057289e-01
      8.16528618e-01 8.35763097e-01 5.77674448e-01 8.30833912e-02 0.
      5.58355339e-02 0. 1. 7.69161940e-01 7.94870913e-01 5.85071683e-01
      6.42355502e-01 0. 3.99534583e-01 6.44568801e-01 6.81050658e-01
      5.00308692e-01 5.28985918e-01 6.18186891e-01 6.36547387e-01
      5.88584185e-01 5.32921076e-01 4.71313953e-01 4.58749712e-01
      4.51631963e-01 4.29602176e-01 8.56422246e-01 5.20789087e-01
      5.32389879e-01 0.</_>
    <_>
      0. 6.53129339e-01 7.54075706e-01 7.66007066e-01 1. 9.71408904e-01
      9.49024081e-01 9.40238595e-01 6.12483919e-01 0. 0. 0.
      9.46570098e-01 9.43495989e-01 9.82027769e-01 8.00215125e-01
      7.93297648e-01 7.25859880e-01 5.27883708e-01 1.81464925e-01 0.
      8.16914976e-01 7.73765624e-01 6.32303238e-01 7.69084573e-01
      9.02440012e-01 6.69091225e-01 8.23579192e-01 7.47953951e-01
      6.98318541e-01 6.97501600e-01 7.03367710e-01 7.66998887e-01
      7.79104054e-01 6.95916831e-01 0.</_>
    <_>
      0. 5.51459312e-01 7.43237734e-01 8.05990577e-01 7.92704284e-01
      7.77090251e-01 6.52140141e-01 6.99821770e-01 6.55354679e-01
      1.20800391e-01 6.32913530e-01 6.50617480e-01 6.41279280e-01
      6.64820015e-01 9.83658493e-01 9.33302224e-01 4.62212235e-01
      7.06747472e-01 6.95450455e-02 6.89427316e-01 7.25262761e-01
      9.60632384e-01 1. 8.68421137e-01 7.34916806e-01 7.36728489e-01
      2.38089010e-01 2.68210560e-01 6.58985853e-01 5.98593414e-01
      7.26517558e-01 7.10513294e-01 8.51558447e-01 8.31873834e-01
      6.10934138e-01 0.</_>
    <_>
      0. 5.87341249e-01 6.93527937e-01 7.40214646e-01 7.63896823e-01
      7.30218410e-01 7.08801270e-01 6.62487030e-01 0. 0. 5.63793361e-01
      6.05260491e-01 5.16904593e-01 6.29274130e-01 9.35074210e-01
      9.38716233e-01 7.36964464e-01 3.83274168e-01 1.45785183e-01 0.
      7.18703568e-01 5.61520159e-01 1. 9.15433049e-01 7.22478569e-01 0.
      0. 2.42038086e-01 6.47779584e-01 6.74692810e-01 6.53690636e-01
      7.65132725e-01 7.85373092e-01 7.90086448e-01 5.61758101e-01 0.</_>
    <_>
      0. 4.33022112e-01 7.25403905e-01 5.31157792e-01 8.22292626e-01
      8.06359112e-01 7.55711317e-01 7.06910968e-01 7.12129056e-01
      6.39168441e-01 6.78235054e-01 6.93425417e-01 7.12376475e-01
      7.18423128e-01 1. 8.68769825e-01 4.90966856e-01 7.36949027e-01
      7.04558432e-01 3.67316186e-01 7.30956793e-01 9.53871191e-01
      9.89659607e-01 7.17101336e-01 5.87607682e-01 6.76657856e-01
      8.73389915e-02 2.35926196e-01 6.18181050e-01 6.44153237e-01
      6.21944249e-01 6.33103371e-01 7.89042890e-01 7.92858422e-01
      5.05426168e-01 0.</_>
    <_>
      0. 6.38815165e-01 8.57510448e-01 7.17375994e-01 9.67557013e-01
      8.86001170e-01 8.34453464e-01 7.83135414e-01 6.99926615e-01
      7.08505929e-01 7.00178504e-01 7.26983905e-01 6.96961403e-01
      9.48495805e-01 1. 7.84986317e-01 7.03696012e-01 6.73368633e-01
      6.38270736e-01 7.64676571e-01 7.72432804e-01 5.38106680e-01
      9.42179441e-01 9.06166375e-01 6.69631660e-01 6.66577101e-01
      6.75177157e-01 0. 0. 6.36032581e-01 7.35295594e-01 7.12081373e-01
      8.76549721e-01 9.15020287e-01 9.06110764e-01 8.06291163e-01</_>
    <_>
      0. 0. 8.10528278e-01 7.76737332e-01 8.86977255e-01 8.59101474e-01
      8.12393248e-01 7.61565983e-01 1.69225216e-01 2.35266387e-01
      5.23436546e-01 6.97921634e-01 7.04786539e-01 9.52992916e-01 1.
      6.31693482e-01 6.93510115e-01 0. 0. 3.54625940e-01 4.40561354e-01
      9.32760358e-01 9.39206839e-01 6.66729808e-01 6.07787192e-01
      6.70336545e-01 5.47314703e-01 0. 5.61720729e-01 6.11209869e-01
      6.78805053e-01 7.09122479e-01 8.06334555e-01 8.44415426e-01
      8.19338202e-01 7.45369971e-01</_>
    <_>
      0. 4.94083047e-01 7.10374713e-01 7.71037340e-01 7.97504842e-01
      7.89025486e-01 7.19826639e-01 6.45039618e-01 6.80462658e-01
      6.64386213e-01 6.29897356e-01 5.98409832e-01 6.77148819e-01
      6.57181442e-01 1. 9.75513756e-01 5.99813282e-01 6.95822716e-01
      7.97956526e-01 7.87557244e-01 7.38515496e-01 9.26803946e-01
      9.63553071e-01 6.70863032e-01 7.29305863e-01 6.47961676e-01 0. 0.
      5.80496669e-01 6.77535832e-01 6.53682888e-01 7.40169644e-01
      8.07749033e-01 8.12493563e-01 5.62012732e-01 0.</_>
    <_>
      0. 3.88242483e-01 6.45311534e-01 7.23991871e-01 7.96232641e-01
      7.93297410e-01 7.75223851e-01 6.80495679e-01 6.80577457e-01
      2.46694803e-01 6.70773685e-01 6.40983939e-01 6.91011310e-01
      6.94401026e-01 1. 9.75396991e-01 6.62415504e-01 0. 0.
      7.60753930e-01 8.71868193e-01 9.31818724e-01 9.05834258e-01
      6.49547994e-01 6.53129637e-01 6.21698916e-01 0. 2.09101915e-01
      5.48448145e-01 6.05250716e-01 5.09909749e-01 6.68029606e-01
      7.12898254e-01 7.41669714e-01 7.23040700e-01 6.70003772e-01</_>
    <_>
      0. 4.86063004e-01 7.38262534e-01 7.55375504e-01 8.68198633e-01
      8.54777694e-01 7.95798719e-01 7.76699841e-01 6.79419339e-01
      2.56447971e-01 6.54705644e-01 6.83062494e-01 6.96646452e-01
      5.32859325e-01 1. 9.78474438e-01 8.21895599e-01 8.45820725e-01
      6.89346254e-01 8.17240000e-01 8.24557126e-01 9.55935001e-01
      9.61869657e-01 6.94375694e-01 7.00479150e-01 6.90937340e-01
      5.92270315e-01 2.13916421e-01 5.71214795e-01 5.88831782e-01
      5.28741062e-01 7.25769162e-01 8.22852910e-01 8.88091087e-01
      7.53341734e-01 0.</_>
    <_>
      0. 4.75932837e-01 7.52849400e-01 8.35945070e-01 8.60443294e-01
      8.45251918e-01 7.71145761e-01 0. 0. 1.91240668e-01 6.47961259e-01
      6.55611873e-01 6.72681034e-01 6.92243993e-01 9.29783344e-01
      9.84518111e-01 9.63657498e-01 8.50859106e-01 8.40386868e-01
      8.37807834e-01 3.99540424e-01 9.20901835e-01 1. 8.93879116e-01
      7.03565955e-01 6.98534489e-01 2.27172866e-01 2.19831362e-01
      5.96030414e-01 4.47247982e-01 7.18151510e-01 7.27835119e-01
      7.19354928e-01 6.96462750e-01 7.23892629e-01 0.</_>
    <_>
      0. 0. 7.19620407e-01 6.85617387e-01 6.57732844e-01 9.06542420e-01
      8.37411642e-01 8.09334755e-01 0. 7.12417603e-01 7.09608197e-01
      5.61614096e-01 7.56289244e-01 1. 9.68771100e-01 5.12176394e-01
      7.29525745e-01 5.66401601e-01 8.14831138e-01 4.45384383e-01
      5.04289448e-01 9.03485477e-01 9.07857597e-01 6.29617095e-01
      6.09363973e-01 5.99426806e-01 0. 1.58710852e-01 5.24058223e-01
      5.37677646e-01 5.74812710e-01 6.09124482e-01 6.69592679e-01
      8.13082755e-01 6.77870810e-01 6.82678223e-01</_>
    <_>
      0. 2.30793163e-01 4.76837307e-01 6.60562217e-01 7.20181882e-01
      7.39677548e-01 7.22650409e-01 6.54716730e-01 6.34323239e-01
      1.41257182e-01 0. 3.86457741e-02 7.05942273e-01 7.13977695e-01
      9.95183945e-01 1. 9.35573578e-01 4.07087922e-01 6.53822958e-01
      4.54943299e-01 5.44130147e-01 5.83261847e-01 9.84060943e-01
      6.99725807e-01 7.02370405e-01 6.07749760e-01 2.04587042e-01
      5.40718257e-01 5.73386014e-01 5.94774842e-01 5.09466469e-01
      6.90211833e-01 7.09978342e-01 7.15850651e-01 6.44600630e-01 0.</_>
    <_>
      0. 0. 7.16265082e-01 7.76848912e-01 8.58907580e-01 8.54527175e-01
      8.31477582e-01 7.46168852e-01 2.51431048e-01 6.12987518e-01
      2.44680375e-01 6.95790052e-01 7.09100842e-01 9.26648498e-01 1.
      9.52524304e-01 4.28155094e-01 0. 8.07999313e-01 8.07571292e-01
      5.06132662e-01 8.73700380e-01 9.38402712e-01 6.28094375e-01
      6.45770073e-01 5.96249521e-01 5.03266513e-01 1.89516887e-01
      5.17543077e-01 5.65755367e-01 5.19636929e-01 4.61335540e-01
      7.90957928e-01 8.05362880e-01 7.69245625e-01 7.25721061e-01</_>
    <_>
      0. 5.44791579e-01 2.57433563e-01 5.91599286e-01 8.01560342e-01
      7.63318360e-01 7.67511010e-01 7.54979610e-01 7.88287818e-01
      5.12470901e-01 3.13814670e-01 5.19033253e-01 8.55277836e-01
      8.66663516e-01 9.27760780e-01 9.58477259e-01 8.42276394e-01 0. 0.
      5.10289252e-01 2.90887415e-01 3.15765887e-01 1. 9.96785760e-01
      4.77995813e-01 7.87800014e-01 6.23785615e-01 7.45758116e-01
      5.40765345e-01 0. 7.69109905e-01 7.75919676e-01 7.63181508e-01
      7.43181884e-01 6.06663585e-01 3.52352291e-01</_>
    <_>
      0. 4.06751633e-01 4.52206522e-01 0. 7.85947263e-01 5.56662858e-01
      7.80548751e-01 8.20769072e-01 5.42013586e-01 3.53850007e-01
      5.48085570e-01 0. 6.03708148e-01 6.24631703e-01 9.96820450e-01 1.
      3.65461439e-01 6.33189917e-01 0. 6.18325472e-01 6.23710811e-01
      5.19173026e-01 9.93534207e-01 4.51493382e-01 7.82899559e-01
      7.22596586e-01 4.12967116e-01 6.29271448e-01 6.64898276e-01
      6.62391663e-01 9.40342724e-01 9.29447889e-01 6.38511300e-01
      5.77239811e-01 5.26386678e-01 1.88632473e-01</_>
    <_>
      0. 4.73348349e-01 5.59459209e-01 6.35062039e-01 6.40700340e-01
      8.20079744e-01 8.03847075e-01 8.28070283e-01 5.67188859e-01 0. 0.
      5.49585998e-01 5.67458510e-01 8.85103941e-01 1. 9.21748340e-01
      3.82733703e-01 2.54780293e-01 1.27464697e-01 0. 2.61056095e-01
      3.78922462e-01 7.86393642e-01 9.94420648e-01 7.23814905e-01
      5.87086022e-01 6.05931580e-01 5.70964575e-01 4.73596245e-01
      3.92163336e-01 6.19861901e-01 9.46547449e-01 9.00587261e-01
      6.89930201e-01 4.06348318e-01 5.85247159e-01</_>
    <_>
      0. 0. 6.39801860e-01 0. 3.48780751e-01 6.89798653e-01 1. 0. 0. 0.
      0. 8.96572351e-01 8.20242405e-01 8.66595805e-01 6.30147994e-01
      6.40227497e-01 0. 1.28396094e-01 0. 0. 5.39037883e-01
      4.87832546e-01 0. 8.01256180e-01 6.37882769e-01 5.61563849e-01
      6.16820514e-01 5.25473535e-01 5.25473535e-01 6.16820514e-01
      6.67722583e-01 7.50698566e-01 5.13410270e-01 7.51061380e-01
      4.87832546e-01 0.</_>
    <_>
      0. 1.89506233e-01 3.82551879e-01 4.97113258e-01 7.36474276e-01
      8.42027307e-01 9.86258745e-01 7.43284464e-01 6.74577892e-01 0. 0.
      0. 6.14922702e-01 9.74954247e-01 8.88753355e-01 4.00253177e-01 0.
      6.42178893e-01 0. 0. 6.25752985e-01 6.89111531e-01 6.63532197e-01
      8.46751571e-01 1. 7.23822355e-01 3.33278418e-01 8.57836604e-01
      8.54354203e-01 8.97638500e-01 9.66649711e-01 8.14653933e-01
      8.61889780e-01 8.74944866e-01 0. 0.</_>
    <_>
      0. 0. 6.21091723e-01 3.99522960e-01 0. 4.99335736e-01
      9.83726442e-01 7.64523029e-01 0. 0. 0. 6.38579547e-01
      6.70222402e-01 1. 2.93534160e-01 4.69401926e-01 6.06672704e-01 0.
      0. 3.00545812e-01 5.53145885e-01 6.09899104e-01 6.51494920e-01
      7.53866196e-01 5.36457479e-01 7.85097003e-01 7.21506536e-01
      4.49971974e-01 3.66804779e-01 7.12850213e-01 3.04254353e-01
      8.55458140e-01 8.46042275e-01 0. 4.74156141e-01 0.</_>
    <_>
      0. 2.72816062e-01 6.24073744e-01 0. 7.35323548e-01 8.40642273e-01
      8.02163124e-01 8.71225297e-01 5.25643170e-01 0. 5.16650081e-01
      7.85677135e-01 7.36643672e-01 8.82695973e-01 7.42670953e-01
      5.30298114e-01 3.13923687e-01 0. 2.15193480e-01 0. 0. 0.
      4.75639373e-01 7.57529318e-01 9.44324076e-01 3.21657389e-01
      7.28608310e-01 6.18184626e-01 3.74985814e-01 9.00008976e-01
      9.27530408e-01 1. 7.99665511e-01 0. 0. 0.</_>
    <_>
      0. 0. 0. 7.01775193e-01 6.78788960e-01 7.79139102e-01 1.
      8.78120065e-01 8.21984947e-01 0. 0. 6.69965804e-01 7.98806429e-01
      8.78252864e-01 0. 6.58017576e-01 0. 1.41342938e-01 0.
      4.42886531e-01 5.30173302e-01 2.45653033e-01 6.67698085e-01
      7.72522390e-01 6.80848360e-01 8.12563241e-01 2.06425980e-01
      6.53391480e-01 4.23770517e-01 6.70835972e-01 6.93244755e-01
      8.63111138e-01 8.43974829e-01 5.82195640e-01 5.06540418e-01 0.</_>
    <_>
      0. 0. 0. 5.34080744e-01 7.78949976e-01 8.91571224e-01
      9.49545205e-01 9.95658457e-01 3.32747847e-01 0. 0. 7.11999416e-01
      1. 9.23107028e-01 9.39175546e-01 7.87640989e-01 5.43271720e-01 0.
      0. 4.82590109e-01 6.95288479e-01 7.41846859e-01 8.03428352e-01
      7.93030083e-01 8.14766645e-01 8.66180062e-01 7.21194386e-01
      7.56906331e-01 5.81151366e-01 7.76422203e-01 8.61164212e-01
      8.09432149e-01 5.73585153e-01 7.94909954e-01 7.06919432e-01 0.</_>
    <_>
      0. 0. 0. 7.57085919e-01 7.07852602e-01 9.64806914e-01
      9.69876885e-01 1. 3.72716993e-01 4.17415679e-01 4.20315683e-01
      9.68529642e-01 9.34491813e-01 9.48266387e-01 8.61232340e-01
      7.09416807e-01 0. 0. 2.37440437e-01 4.63964313e-01 5.94607770e-01
      6.58028007e-01 5.61943710e-01 7.54876554e-01 7.73180127e-01
      7.72236884e-01 7.91693449e-01 7.73847580e-01 7.77664304e-01
      8.17360938e-01 7.86169767e-01 7.80568123e-01 8.18326294e-01
      8.61267567e-01 6.39301598e-01 6.98024333e-01</_>
    <_>
      0. 0. 6.81110203e-01 7.50457764e-01 7.32367396e-01 9.54432964e-01
      9.28116977e-01 9.42628622e-01 9.43187535e-01 6.55783474e-01
      8.18201542e-01 9.45283592e-01 9.25563872e-01 9.33432639e-01
      9.24412787e-01 7.39761293e-01 7.08434165e-01 5.18107951e-01 0. 0.
      5.20593166e-01 7.11464167e-01 7.77599514e-01 9.66437995e-01
      9.84499097e-01 8.81055295e-01 9.83930767e-01 8.18280399e-01
      8.78732800e-01 9.80909109e-01 1. 9.79460657e-01 9.59793329e-01
      7.06122637e-01 7.74814308e-01 0.</_>
    <_>
      0. 0. 0. 6.35655046e-01 7.94410527e-01 9.17424917e-01
      9.64628518e-01 1. 7.21531034e-01 8.81914437e-01 8.89602184e-01
      7.07156181e-01 9.98512447e-01 9.53226268e-01 9.16194677e-01
      7.51227379e-01 4.14507836e-01 2.29512434e-02 3.63042265e-01
      4.62371588e-01 6.35209441e-01 6.06322229e-01 5.01612306e-01
      8.05313230e-01 8.17837894e-01 8.34759533e-01 8.03183317e-01
      7.34456420e-01 6.76488459e-01 8.19008410e-01 7.73218155e-01
      8.10412765e-01 8.08383763e-01 7.88399994e-01 6.55162454e-01
      7.00734138e-01</_>
    <_>
      0. 0. 0. 7.64006972e-01 7.21974730e-01 9.40437138e-01
      9.61814404e-01 9.55954015e-01 9.80812311e-01 8.56930614e-01
      8.56199145e-01 1. 9.23550546e-01 9.74326015e-01 9.57700014e-01
      7.41536319e-01 5.45292258e-01 0. 0. 5.00868678e-01 6.75964355e-01
      4.31386262e-01 5.72765768e-01 8.78416657e-01 8.95306349e-01
      8.45354497e-01 8.79496634e-01 6.99049354e-01 7.49912024e-01
      8.87297690e-01 9.00317848e-01 8.42384875e-01 8.28958750e-01
      8.65812778e-01 7.16669858e-01 0.</_>
    <_>
      0. 0. 5.15178680e-01 8.09462011e-01 5.77013850e-01 9.91374433e-01
      1. 9.82714474e-01 9.85875010e-01 8.07147801e-01 8.02570343e-01
      9.78372455e-01 9.52621639e-01 9.04456735e-01 9.14325655e-01
      7.49260306e-01 5.71533144e-01 0. 0. 0. 4.79326993e-01
      7.03199506e-01 6.90218747e-01 8.44020605e-01 8.66763413e-01
      8.63270521e-01 8.93514574e-01 9.05440807e-01 8.56750011e-01
      9.19120789e-01 9.30622697e-01 9.38138783e-01 9.52015281e-01
      7.06315279e-01 7.84744918e-01 0.</_>
    <_>
      0. 6.60474420e-01 7.06717968e-01 6.88727677e-01 9.26828980e-01
      8.90822589e-01 8.49524260e-01 8.19054008e-01 8.03794563e-01
      8.16484213e-01 0. 8.31374228e-01 8.40034723e-01 8.78818870e-01
      9.00921226e-01 9.30324256e-01 7.49282837e-01 7.19315410e-01
      6.73286378e-01 5.98405540e-01 4.09020454e-01 8.24002206e-01
      4.80869681e-01 1. 9.63654280e-01 9.51000214e-01 7.06224144e-01
      5.80832183e-01 3.10584784e-01 6.47972763e-01 9.17440295e-01
      9.09017444e-01 8.94630790e-01 7.70531118e-01 7.07062364e-01
      4.62111682e-01</_>
    <_>
      0. 6.37434304e-01 7.04266667e-01 6.99250102e-01 7.02404201e-01
      9.25972819e-01 8.79853547e-01 8.43836010e-01 8.84737432e-01 0. 0.
      8.93267989e-01 8.69503498e-01 9.23787773e-01 9.69363749e-01 1.
      7.55549550e-01 7.30691612e-01 6.65090382e-01 5.22909880e-01
      3.58948261e-01 8.14902544e-01 9.04828250e-01 9.21237469e-01
      9.23395872e-01 9.30596113e-01 6.27198875e-01 5.81058800e-01
      2.71315008e-01 8.51911306e-01 8.57874095e-01 8.65430236e-01
      8.53679836e-01 8.08447182e-01 5.63102365e-01 3.64700258e-01</_>
    <_>
      0. 5.25889874e-01 6.48508012e-01 6.99454188e-01 9.44716752e-01
      9.40680325e-01 9.20972824e-01 9.27108884e-01 1.83913976e-01 0. 0.
      4.52963740e-01 9.56171274e-01 9.46407437e-01 9.62937891e-01
      7.59512961e-01 0. 6.62957609e-01 5.27191103e-01 2.05768332e-01
      6.68232083e-01 0. 5.61931193e-01 8.46794605e-01 7.87800968e-01
      7.92380512e-01 5.14100373e-01 4.59188074e-01 1.38005421e-01
      7.42714345e-01 7.36282349e-01 7.43133545e-01 1. 7.37268627e-01
      6.26663685e-01 5.86002767e-01</_>
    <_>
      0. 5.80045164e-01 6.24305069e-01 6.66664243e-01 9.08100307e-01
      9.04316127e-01 8.86826694e-01 8.70495439e-01 8.78933728e-01
      3.72477621e-01 0. 0. 9.16519940e-01 9.35229480e-01 1.
      7.79316604e-01 8.17136824e-01 7.56734848e-01 6.45913601e-01
      4.14430737e-01 7.54511237e-01 7.96898901e-01 9.65893924e-01
      9.40759778e-01 9.20226514e-01 6.22411251e-01 5.80384851e-01
      2.21891031e-01 2.21632615e-01 8.19154203e-01 8.08972120e-01
      8.25420916e-01 7.96657324e-01 3.81939411e-01 6.58154845e-01
      2.84084350e-01</_>
    <_>
      0. 0. 5.37320614e-01 6.30501688e-01 7.30784297e-01 9.89539742e-01
      1. 7.35230923e-01 7.04892993e-01 4.91474777e-01 5.22718310e-01 0.
      0. 7.82326043e-01 8.89305532e-01 5.90196609e-01 0. 6.87265158e-01
      0. 6.77425861e-01 0. 6.15314364e-01 8.74187768e-01 8.50681365e-01
      8.13913405e-01 5.39446175e-01 4.31068212e-01 0. 4.43073690e-01
      6.74321592e-01 6.74158156e-01 6.78544879e-01 6.89014316e-01
      6.72962546e-01 2.46785298e-01 0.</_>
    <_>
      0. 4.31174248e-01 6.25208020e-01 6.80207968e-01 7.34772563e-01
      9.64067400e-01 9.42997634e-01 9.52059329e-01 0. 0. 0. 0.
      9.70959008e-01 9.75658894e-01 9.92925704e-01 9.96174932e-01 0.
      6.66839361e-01 5.07242918e-01 0. 6.72920346e-01 7.28034317e-01
      8.27644467e-01 8.41470420e-01 8.05436313e-01 7.80981421e-01
      5.18411815e-01 4.61911678e-01 1.60821959e-01 7.14641750e-01
      7.17870772e-01 7.26046443e-01 1. 7.26428032e-01 6.58145368e-01 0.</_>
    <_>
      0. 3.24186862e-01 5.40317714e-01 5.92863142e-01 8.95452082e-01
      8.92120898e-01 8.77973437e-01 8.99640560e-01 6.07074440e-01
      4.25613523e-01 0. 0. 9.65807140e-01 9.64323997e-01 1.
      8.35759103e-01 5.45444667e-01 7.13000000e-01 6.44497871e-01 0.
      7.15021133e-01 0. 8.98019433e-01 8.73404562e-01 8.12964916e-01
      7.73787677e-01 4.22738582e-01 0. 6.97774947e-01 6.86846137e-01
      7.04598844e-01 7.20281601e-01 9.44754541e-01 5.98168671e-01 0. 0.</_>
    <_>
      0. 0. 6.20439947e-01 0. 5.79446971e-01 8.02741110e-01
      7.45773375e-01 6.95859551e-01 0. 0. 0. 6.82467580e-01
      7.01300621e-01 7.22196817e-01 1. 1.82156280e-01 6.36264086e-01
      3.79204959e-01 0. 5.09002447e-01 5.93693972e-01 6.30894303e-01
      7.11427629e-01 9.24792647e-01 6.83572769e-01 6.09791815e-01
      6.28006518e-01 4.31583643e-01 3.68741244e-01 8.02074224e-02
      6.51425481e-01 6.90112531e-01 7.27477670e-01 7.53900588e-01
      4.55760241e-01 6.10258758e-01</_>
    <_>
      0. 4.61708456e-01 5.05960703e-01 8.34325969e-01 8.23457897e-01
      7.84243107e-01 7.01968253e-01 6.81414247e-01 6.67791188e-01
      6.81638062e-01 0. 7.01603830e-01 7.44632185e-01 7.33548284e-01
      8.36358726e-01 8.93954158e-01 7.22518027e-01 6.81358278e-01
      6.31341815e-01 5.66788316e-01 4.47006196e-01 3.63749981e-01
      2.75660783e-01 8.06867421e-01 9.10344660e-01 6.03341639e-01
      7.97710896e-01 7.45860159e-01 6.42732859e-01 5.64229906e-01 1.
      9.71383095e-01 3.79870236e-01 6.54436469e-01 5.93021929e-01
      3.35788459e-01</_>
    <_>
      0. 4.13829654e-01 0. 4.72603351e-01 5.89027584e-01 6.69161201e-01
      7.56319463e-01 7.98249364e-01 6.15993261e-01 3.23589951e-01
      1.08449399e-01 0. 0. 9.08622861e-01 9.17427540e-01 0.
      7.46430874e-01 4.92693871e-01 0. 0. 0. 6.63487494e-01
      7.47184038e-01 1. 9.60263133e-01 5.97248018e-01 4.93157119e-01
      4.41592574e-01 4.06291157e-01 3.84186238e-01 3.45398128e-01
      9.29366648e-01 9.42725599e-01 1.75304621e-01 1.86683059e-01
      2.36095056e-01</_>
    <_>
      0. 4.71618950e-01 5.09606361e-01 3.78847867e-01 8.79319251e-01
      8.21874321e-01 7.81982064e-01 7.74667263e-01 8.05055559e-01 0. 0.
      0. 6.44272983e-01 8.97768080e-01 9.19315338e-01 7.69432724e-01
      7.62956679e-01 6.58826709e-01 6.07712626e-01 4.73540187e-01
      2.91165382e-01 0. 0. 9.21897173e-01 9.26359117e-01 9.08824146e-01
      7.91964412e-01 7.07490921e-01 6.65453970e-01 6.17081344e-01
      9.05251265e-01 1. 3.65653932e-01 3.70246112e-01 6.55834138e-01
      5.28947890e-01</_>
    <_>
      0. 4.77891803e-01 5.22869587e-01 5.98830879e-01 8.40933204e-01
      7.94121206e-01 8.02448392e-01 7.95903683e-01 5.85670888e-01 0. 0.
      0. 0. 8.68861496e-01 9.08277273e-01 7.33275533e-01 7.44601846e-01
      6.88383877e-01 6.07799172e-01 4.76217479e-01 3.27213854e-01 0.
      1.23560287e-01 9.29115117e-01 9.40479994e-01 8.75096142e-01
      8.11711669e-01 7.08282888e-01 6.76516533e-01 5.80515742e-01
      8.73042583e-01 1. 4.10521358e-01 6.97382867e-01 6.38862371e-01
      2.22873122e-01</_>
    <_>
      0. 6.23593368e-02 3.97059202e-01 5.33961177e-01 8.54014158e-01
      8.24876666e-01 8.11267912e-01 8.58908236e-01 6.57652974e-01
      6.64593637e-01 0. 0. 7.07672179e-01 9.86878455e-01 1.
      7.85715222e-01 7.17532218e-01 6.55531526e-01 4.74911302e-01 0. 0.
      0. 7.56091475e-01 8.40116680e-01 8.24021578e-01 7.39221513e-01
      6.60105467e-01 5.67744017e-01 4.98164177e-01 4.75183934e-01
      8.23155344e-01 8.82897139e-01 8.18882763e-01 3.10538948e-01
      6.28209710e-01 0.</_>
    <_>
      0. 1.33543909e-01 4.01269346e-01 8.24979603e-01 8.14576447e-01
      7.96872199e-01 7.81380177e-01 7.42463648e-01 7.79550850e-01
      5.92783689e-01 6.23738289e-01 1.70521319e-01 7.04184651e-01
      7.63340294e-01 8.04324090e-01 8.08260858e-01 5.44378161e-01 0.
      6.38523459e-01 2.97545314e-01 0. 0. 7.97080159e-01 8.55981529e-01
      7.36395240e-01 6.61219120e-01 5.41678548e-01 4.89171296e-01
      4.22862917e-01 3.96700472e-01 8.20719302e-01 9.82769489e-01 1.
      2.42393017e-01 4.73923057e-01 0.</_>
    <_>
      0. 4.32825178e-01 4.68521327e-01 7.57696748e-01 8.38643014e-01
      9.17527318e-01 7.60443509e-01 7.57545888e-01 6.12239182e-01
      6.19006991e-01 0. 0. 6.94980145e-01 7.55013525e-01 9.72158432e-01
      8.51804435e-01 7.02366114e-01 7.06937075e-01 6.74526274e-01
      6.01930439e-01 4.57177579e-01 3.76307726e-01 0. 8.76038074e-01
      9.49142694e-01 8.91820371e-01 7.71655679e-01 7.03371286e-01
      6.33878827e-01 5.82800150e-01 9.15944278e-01 1. 4.21457440e-01
      6.23722374e-01 2.91658640e-01 3.43089432e-01</_>
    <_>
      0. 3.31859827e-01 3.75490785e-01 7.32481301e-01 7.93023825e-01
      9.27009344e-01 8.01825345e-01 6.52579546e-01 6.49992585e-01
      6.87548995e-01 3.86132807e-01 5.49250364e-01 0. 8.72454047e-01
      9.09023523e-01 7.96335697e-01 5.50567746e-01 5.40052354e-01
      6.62252128e-01 5.10286272e-01 3.36711049e-01 0. 8.10984194e-01
      8.92154634e-01 8.53128314e-01 6.98596358e-01 5.90400517e-01
      5.48454165e-01 4.81745303e-01 8.24389815e-01 8.84207606e-01 1.
      9.96281266e-01 5.32348752e-01 0. 1.80336535e-01</_>
    <_>
      0. 4.84929383e-01 8.37114036e-01 8.69314969e-01 8.27838600e-01
      9.61641073e-01 6.54987276e-01 6.17022932e-01 7.23025799e-01
      6.54723167e-01 6.90553367e-01 6.78125381e-01 7.08528459e-01
      8.85965288e-01 8.82675052e-01 7.52791405e-01 6.40576422e-01
      4.28853273e-01 4.06388134e-01 5.93515217e-01 5.09726226e-01
      4.08863932e-01 3.24893236e-01 9.01071966e-01 1. 9.57926869e-01
      8.01999331e-01 7.50813067e-01 6.78161383e-01 9.07168448e-01
      9.79311049e-01 4.65822786e-01 6.20675802e-01 3.40309292e-01
      3.83832723e-01 0.</_>
    <_>
      0. 4.70183045e-01 5.06265044e-01 5.57082891e-01 8.25779855e-01
      8.19069624e-01 8.01730096e-01 7.42516696e-01 4.94500071e-01
      3.14256400e-01 0. 0. 7.34370470e-01 7.90576279e-01 8.75740707e-01
      9.05848384e-01 4.42758858e-01 4.04491305e-01 5.43405652e-01
      5.12173653e-01 3.96899790e-01 3.46468836e-01 2.77780175e-01
      8.54196370e-01 9.32662427e-01 8.24062586e-01 7.52964616e-01
      7.02860296e-01 6.32966995e-01 9.27045941e-01 1. 4.26510692e-01
      4.21177417e-01 6.01626277e-01 3.05222034e-01 3.53539646e-01</_>
    <_>
      0. 5.58631837e-01 4.21851546e-01 6.12279832e-01 8.72537911e-01
      8.39843214e-01 8.08450937e-01 7.59386659e-01 4.93488491e-01
      5.17361462e-01 0. 5.25418043e-01 7.63194084e-01 7.87814736e-01
      8.45575809e-01 8.05012345e-01 3.71135175e-01 3.60759914e-01
      5.01334131e-01 4.68625993e-01 3.53339463e-01 3.03063631e-01
      2.36069694e-01 0. 9.09154832e-01 9.03641820e-01 7.71026671e-01
      7.04540074e-01 6.38578236e-01 6.16750956e-01 9.16732550e-01 1.
      4.47871119e-01 6.32932603e-01 3.08616787e-01 4.06283408e-01</_>
    <_>
      0. 5.02460122e-01 3.63794148e-01 7.51593828e-01 7.83450067e-01
      7.25772023e-01 6.85123384e-01 6.66828930e-01 0. 0. 0. 0.
      6.65561914e-01 6.88608646e-01 7.23831117e-01 7.56259739e-01
      7.75679171e-01 3.61244112e-01 5.03176391e-01 4.68317419e-01
      3.93012643e-01 3.46538365e-01 2.83373833e-01 0. 8.97458792e-01
      8.91565382e-01 7.89173007e-01 6.93890631e-01 6.30136490e-01
      9.43201542e-01 1. 9.34204698e-01 4.33128923e-01 6.06863976e-01
      3.48965555e-01 4.47575986e-01</_>
    <_>
      0. 4.06565338e-01 4.88189131e-01 0. 9.59794998e-01 1.
      8.11871111e-01 5.38545072e-01 7.30641007e-01 5.57319820e-01 0.
      7.21551895e-01 7.66509712e-01 7.82376289e-01 8.20967495e-01
      6.28555417e-01 3.39236945e-01 5.29929698e-01 4.88534987e-01
      3.63047063e-01 2.76448637e-01 6.91344500e-01 2.82355309e-01
      8.36598277e-01 8.75221133e-01 6.91573560e-01 6.13245130e-01
      5.15984476e-01 6.14474714e-01 6.49902999e-01 8.32250476e-01
      7.95462787e-01 7.35510707e-01 6.11981452e-01 0. 2.55182028e-01</_>
    <_>
      0. 3.74595612e-01 4.55924064e-01 8.05626273e-01 7.94984877e-01
      7.54042923e-01 7.36499012e-01 7.21525013e-01 7.38837183e-01
      1.19634219e-01 0. 7.34890699e-01 7.29022503e-01 7.53186524e-01
      8.10409606e-01 8.13652813e-01 6.18397236e-01 5.53003013e-01
      5.17350852e-01 4.18626219e-01 0. 5.52472889e-01 2.14796275e-01
      7.05303371e-01 7.63710976e-01 7.59981573e-01 5.46546340e-01
      7.08860040e-01 6.69113040e-01 0. 7.23429739e-01 1. 9.92067814e-01
      5.94875097e-01 4.95165557e-01 1.31311178e-01</_>
    <_>
      0. 3.20123762e-01 4.65525806e-01 5.73328853e-01 8.71399105e-01
      8.41687977e-01 8.29526246e-01 8.49712253e-01 0. 5.86845338e-01 0.
      5.97455919e-01 8.50737870e-01 8.49479795e-01 1. 9.12437320e-01
      4.04929698e-01 5.98658562e-01 5.15804648e-01 2.56649852e-01
      4.40806121e-01 5.65896749e-01 0. 7.59704292e-01 8.05165470e-01
      8.02778363e-01 5.64505577e-01 7.28278339e-01 6.33417726e-01
      7.24785328e-01 7.46736825e-01 7.50152469e-01 7.37325311e-01
      6.93754375e-01 5.35478354e-01 0.</_>
    <_>
      0. 5.86636603e-01 6.18215144e-01 8.87574136e-01 8.62482786e-01
      8.21633041e-01 7.55353332e-01 7.29108810e-01 6.90287709e-01 0.
      4.40853029e-01 6.95870578e-01 7.24840045e-01 7.70568013e-01
      8.14806163e-01 8.54893386e-01 6.04098022e-01 2.42439896e-01
      2.02351674e-01 5.44471383e-01 4.87220109e-01 4.28824842e-01
      7.07123637e-01 0. 9.72999096e-01 1. 7.31419504e-01 5.98139644e-01
      0. 3.66597265e-01 9.89193320e-01 9.40107346e-01 9.07341540e-01
      7.14110851e-01 4.07615483e-01 4.96057063e-01</_>
    <_>
      0. 4.07127529e-01 2.22296447e-01 4.57514673e-01 7.43307292e-01
      9.28553939e-01 9.31847095e-01 7.13271797e-01 6.82212710e-01
      4.37983841e-01 6.58384264e-01 6.95114672e-01 7.45562553e-01
      8.12509418e-01 8.26948762e-01 9.10255253e-01 8.77282739e-01
      4.32540357e-01 6.06332779e-01 2.57547557e-01 4.87396955e-01
      6.54036522e-01 7.56562054e-01 9.64382589e-01 1. 8.20959389e-01
      7.00599194e-01 6.63142383e-01 7.04799056e-01 6.87800109e-01
      8.76355290e-01 7.32692659e-01 1.98508218e-01 2.49740064e-01
      2.64038891e-01 2.93497592e-01</_>
    <_>
      0. 5.48098564e-01 5.87518990e-01 6.17000043e-01 8.37068200e-01
      9.00413454e-01 8.34792674e-01 8.05312037e-01 5.13976753e-01 0. 0.
      6.92653239e-01 7.87808001e-01 8.11860263e-01 8.71757627e-01
      9.07053351e-01 9.27212656e-01 3.45997512e-01 5.43037474e-01
      4.69870448e-01 4.07876670e-01 3.19304109e-01 6.96442246e-01 0.
      9.57282186e-01 1. 7.66229510e-01 9.18470323e-01 8.93153429e-01
      9.31942284e-01 9.76778448e-01 9.31605518e-01 7.22246826e-01
      6.53098762e-01 3.36981654e-01 4.12922651e-01</_>
    <_>
      0. 3.03075463e-01 4.92779583e-01 6.06493413e-01 9.60952103e-01 1.
      9.47395384e-01 9.40659583e-01 6.53641045e-01 0. 0. 0.
      9.18661535e-01 9.67382431e-01 9.92761552e-01 6.84391677e-01
      6.52396321e-01 5.83504915e-01 4.56123769e-01 2.87831247e-01
      5.83960593e-01 6.97153926e-01 5.77918589e-01 8.76762688e-01
      8.78459394e-01 9.06694770e-01 8.01785827e-01 6.94131732e-01
      7.60827899e-01 8.12110841e-01 8.11582863e-01 7.85096288e-01
      7.23045051e-01 6.34515285e-01 4.16429758e-01 0.</_>
    <_>
      0. 0. 3.86693060e-01 5.87154031e-01 6.77764237e-01 9.92306054e-01
      1. 7.39290714e-01 2.94168919e-01 0. 0. 0. 7.37720072e-01
      7.62010276e-01 7.53784776e-01 7.00214922e-01 6.52493119e-01
      4.79946405e-01 0. 4.86452311e-01 5.63007534e-01 6.46307945e-01
      7.04684317e-01 7.22830176e-01 7.27453649e-01 7.11813927e-01
      6.55019701e-01 0. 0. 6.18557334e-01 4.01216805e-01 6.68208659e-01
      9.60542679e-01 6.45527422e-01 6.21914327e-01 0.</_>
    <_>
      0. 5.96847832e-01 3.17743033e-01 6.39828026e-01 9.06953871e-01
      8.67266655e-01 7.88294792e-01 7.68411756e-01 7.84363091e-01 0. 0.
      7.90052235e-01 7.93245435e-01 8.00007522e-01 8.58347535e-01
      8.83403122e-01 6.28910184e-01 3.06650788e-01 5.88103056e-01
      5.51942647e-01 4.62586164e-01 3.45961452e-01 7.40092993e-01 0.
      9.93824542e-01 7.85742283e-01 7.41759658e-01 6.25378788e-01
      3.56408328e-01 7.23370075e-01 7.47258365e-01 1. 9.07077193e-01
      7.69714952e-01 3.56910080e-01 4.74088222e-01</_>
    <_>
      0. 5.46954632e-01 1.33616939e-01 5.97243369e-01 8.49736512e-01
      8.08121502e-01 7.69765794e-01 7.31900394e-01 7.29279399e-01
      7.82128990e-01 0. 7.86602676e-01 7.58358419e-01 1. 8.50002944e-01
      9.00714576e-01 9.14000630e-01 2.67126411e-01 5.33757389e-01
      4.63253200e-01 3.29455256e-01 5.33845782e-01 6.96260512e-01
      8.60031307e-01 9.11675513e-01 9.09655750e-01 8.92011642e-01
      2.66702294e-01 3.01811188e-01 6.09917760e-01 8.72931600e-01
      8.69000196e-01 8.17302287e-01 6.48418605e-01 2.16186985e-01
      3.46262693e-01</_>
    <_>
      0. 4.09819931e-01 4.59042519e-01 5.20730555e-01 7.97826052e-01
      7.69663334e-01 7.51525342e-01 7.49435425e-01 0. 0. 0. 0.
      5.72538972e-01 8.01771104e-01 8.04297328e-01 8.31659496e-01 0.
      5.35124958e-01 4.92959738e-01 3.07325721e-01 4.43724245e-01
      5.69527984e-01 4.33160275e-01 1. 9.66882527e-01 7.26718485e-01
      6.77395940e-01 0. 0. 4.42985207e-01 6.91319168e-01 9.38135862e-01
      9.42540646e-01 5.89321375e-01 4.58440572e-01 1.71783879e-01</_>
    <_>
      0. 5.21454453e-01 5.69876015e-01 6.20440245e-01 9.22301590e-01
      8.91090214e-01 8.26434851e-01 8.02593768e-01 7.94793785e-01
      8.18363011e-01 0. 8.27505171e-01 8.27646255e-01 8.63325894e-01
      9.10173178e-01 1. 4.54116791e-01 3.14019591e-01 6.21990323e-01
      4.72723067e-01 2.34903321e-01 7.06240118e-01 0. 9.33382034e-01
      9.74677503e-01 9.67923105e-01 8.59215140e-01 8.18671942e-01
      8.47280025e-01 6.54384613e-01 9.11134422e-01 9.11998689e-01
      8.13875854e-01 6.66869819e-01 2.56365120e-01 3.46966684e-01</_>
    <_>
      0. 5.35910308e-01 5.73162615e-01 6.25198066e-01 8.77903998e-01
      8.20971549e-01 7.81312466e-01 7.55984843e-01 7.38123357e-01
      7.64247537e-01 7.64231086e-01 7.45043874e-01 7.55861461e-01
      9.04903173e-01 1. 8.51608396e-01 3.09434444e-01 5.28373659e-01
      4.72469777e-01 3.69301081e-01 2.45081976e-01 5.23083150e-01
      6.44442439e-01 7.48935461e-01 8.30809832e-01 8.24524581e-01
      8.20643663e-01 7.60802329e-01 2.39512652e-01 7.90050864e-01
      8.24578941e-01 8.30872476e-01 7.94322968e-01 7.08326757e-01
      4.94849414e-01 3.46062809e-01</_>
    <_>
      0. 3.95665526e-01 5.17288387e-01 5.57723939e-01 6.26856208e-01
      9.35828805e-01 8.77642393e-01 8.93455386e-01 6.00424290e-01 0. 0.
      0. 6.40959203e-01 9.89483893e-01 1. 7.62823701e-01 7.64830887e-01
      6.95269525e-01 5.49639523e-01 3.90838057e-01 5.13009608e-01
      7.46910512e-01 0. 9.05595660e-01 9.14005399e-01 6.75424278e-01
      5.70486844e-01 0. 5.49852371e-01 6.00923121e-01 8.16244841e-01
      7.83703744e-01 7.53430009e-01 6.28363729e-01 5.25167346e-01
      1.48169622e-01</_>
    <_>
      0. 5.85394681e-01 6.24537706e-01 6.63039088e-01 9.43326831e-01
      9.03099000e-01 8.56265783e-01 8.21594000e-01 8.41708779e-01 0. 0.
      5.18103063e-01 9.12213743e-01 9.31802154e-01 9.98656034e-01
      9.30366695e-01 6.47161186e-01 3.93185586e-01 5.86904943e-01
      4.82556373e-01 4.20919120e-01 3.64908487e-01 7.46360540e-01
      8.89304161e-01 9.87467289e-01 1. 7.69138575e-01 6.80652618e-01
      3.32796931e-01 7.46055245e-01 9.99270737e-01 9.76312637e-01
      9.10985708e-01 7.93232977e-01 3.00329834e-01 4.52828497e-01</_>
    <_>
      0. 4.93536294e-01 8.32357109e-02 0. 7.48385906e-01 9.02566850e-01
      9.66293156e-01 7.48597145e-01 4.54490781e-01 0. 0. 0.
      7.74674237e-01 1. 9.87405837e-01 7.88278282e-01 7.44975805e-01
      4.02893722e-01 5.84916830e-01 6.83980286e-01 4.48425084e-01
      5.42905629e-01 8.18880618e-01 8.06426585e-01 7.66836166e-01
      7.41628289e-01 6.38909400e-01 5.88591158e-01 0. 6.19402885e-01
      6.57451212e-01 6.99405253e-01 7.16732204e-01 7.19953477e-01
      7.02275693e-01 6.52389765e-01</_>
    <_>
      0. 4.95621234e-01 3.28540087e-01 5.53621233e-01 5.33197641e-01
      8.48232985e-01 7.86092281e-01 6.89612567e-01 7.07675040e-01 0. 0.
      6.85871124e-01 7.16767907e-01 8.70061815e-01 1. 8.39739084e-01
      4.65177476e-01 2.39376828e-01 4.11920279e-01 3.80565792e-01
      2.94112682e-01 1.87745616e-01 4.56187874e-01 5.61286151e-01
      7.21984744e-01 7.43335068e-01 6.93479121e-01 5.99378586e-01
      7.16001868e-01 5.87027073e-01 8.20887387e-01 8.02258909e-01 0.
      6.25303328e-01 2.76655793e-01 3.82402956e-01</_>
    <_>
      0. 3.81420761e-01 4.27608788e-01 4.68126744e-01 9.02552426e-01
      8.78194451e-01 8.39275122e-01 8.57865691e-01 5.33941209e-01 0. 0.
      0. 9.19211566e-01 9.82589304e-01 1. 6.44940019e-01 3.35521579e-01
      5.42440474e-01 4.27289337e-01 0. 0. 6.20225072e-01 5.03828287e-01
      7.52166510e-01 7.38512218e-01 5.77283978e-01 6.20672584e-01
      6.41699791e-01 6.70129299e-01 6.94575727e-01 6.96649909e-01
      9.92227793e-01 9.87694561e-01 5.62266290e-01 0. 0.</_>
    <_>
      0. 5.19743383e-01 5.78956962e-01 5.73762000e-01 9.26279306e-01
      8.89020741e-01 1. 9.25953448e-01 8.37126613e-01 0. 0.
      8.61683547e-01 8.41612637e-01 9.54507232e-01 9.99185264e-01
      9.59812701e-01 3.86965454e-01 3.74623626e-01 4.96936679e-01
      4.60312426e-01 3.33388954e-01 2.34788120e-01 7.14179695e-01
      8.57995212e-01 8.80383730e-01 8.77140045e-01 7.05120087e-01
      7.86670208e-01 8.20677876e-01 8.63488615e-01 8.55657995e-01
      8.12935829e-01 6.48581326e-01 5.76693594e-01 2.66407907e-01
      3.51205587e-01</_>
    <_>
      0. 2.79515564e-01 3.54405582e-01 4.47022855e-01 5.14636099e-01
      9.72311795e-01 1. 8.70018005e-01 3.75827193e-01 3.56914997e-01
      3.86679232e-01 0. 0. 9.66049194e-01 9.74730551e-01 6.97331071e-01
      0. 5.93670905e-01 4.72265691e-01 0. 5.93306959e-01 6.04432940e-01
      4.74387020e-01 7.55747855e-01 6.93408847e-01 5.82649112e-01
      5.92109561e-01 6.32725954e-01 0. 6.50721431e-01 6.33958995e-01
      9.31554377e-01 9.51239645e-01 4.95076776e-01 0. 0.</_>
    <_>
      0. 4.69469875e-01 5.07237017e-01 5.63980103e-01 9.13512647e-01 1.
      8.88098180e-01 8.68211091e-01 4.40909043e-02 3.01405013e-01
      3.34195316e-01 7.79611245e-02 3.65916073e-01 9.65119183e-01
      9.82100904e-01 6.06023014e-01 6.01728439e-01 5.34411013e-01
      5.11522532e-01 3.77374709e-01 2.85004884e-01 5.78521073e-01
      6.39422417e-01 8.08771968e-01 8.38190496e-01 8.24023426e-01
      6.61682904e-01 7.34817266e-01 7.66401947e-01 8.01108479e-01
      7.92596042e-01 7.68283606e-01 6.18581951e-01 5.52226543e-01
      1.93102762e-01 3.06704909e-01</_>
    <_>
      0. 3.38146627e-01 4.15544540e-01 4.64053005e-01 5.06727755e-01
      8.43866289e-01 8.47033858e-01 8.00996780e-01 3.56501400e-01
      4.86775815e-01 0. 0. 5.54277718e-01 8.87984812e-01 1.
      6.20924950e-01 4.06459749e-01 5.18148005e-01 4.77361590e-01
      2.97907799e-01 1.85861051e-01 6.02420092e-01 4.99546409e-01
      7.41126239e-01 7.45014489e-01 6.63815379e-01 5.98159850e-01
      6.36565745e-01 6.72169805e-01 6.72020137e-01 6.66631877e-01
      6.42701983e-01 6.06224895e-01 5.05131125e-01 0. 1.09024808e-01</_>
    <_>
      0. 4.02745336e-01 4.52512562e-01 5.14715135e-01 5.19628882e-01
      8.70625973e-01 8.30841124e-01 8.28795850e-01 4.54053760e-01
      4.77617443e-01 0. 0. 8.67619395e-01 1. 8.91390204e-01
      6.22954428e-01 3.59026194e-01 0. 4.98777449e-01 3.72576714e-01
      2.32622430e-01 5.60312510e-01 6.16016924e-01 7.69341588e-01
      7.95339286e-01 7.53696203e-01 6.46881700e-01 6.89032614e-01
      5.38212359e-01 5.69519281e-01 7.64322639e-01 7.41780758e-01
      6.83158636e-01 5.58617592e-01 0. 2.00835109e-01</_>
    <_>
      0. 5.55358052e-01 5.96698701e-01 6.25286639e-01 9.69578624e-01
      9.00870621e-01 8.57647896e-01 8.28561783e-01 7.73663342e-01
      8.03182364e-01 8.31469715e-01 8.48932564e-01 8.37413311e-01
      8.78332496e-01 9.67775464e-01 1. 7.39144027e-01 7.14085340e-01
      6.17698252e-01 5.72247267e-01 2.22861618e-01 7.40682125e-01
      8.09157193e-01 9.44850206e-01 9.83120918e-01 9.22634900e-01
      8.18069816e-01 8.72352123e-01 9.20803010e-01 9.27487016e-01
      9.47043598e-01 9.20515478e-01 4.43410099e-01 6.81327522e-01
      2.50756264e-01 3.77248675e-01</_>
    <_>
      0. 0. 3.60118836e-01 5.47991216e-01 9.10789311e-01 9.09376144e-01
      9.32949603e-01 6.26033962e-01 6.47928417e-01 0. 0. 0.
      6.90158665e-01 7.31250048e-01 7.50572026e-01 7.37674296e-01
      6.89441383e-01 5.43527007e-01 0. 3.97234738e-01 6.04859352e-01
      6.82985306e-01 7.86588848e-01 7.56048441e-01 7.39878595e-01
      6.72173262e-01 5.66941619e-01 5.87923050e-01 6.15788698e-01
      4.43333447e-01 6.76313221e-01 9.84384716e-01 1. 0. 5.39757252e-01
      0.</_>
    <_>
      0. 4.57891077e-01 5.82574785e-01 0. 9.84566987e-01 9.58161414e-01
      9.79998171e-01 6.67631924e-01 6.39428318e-01 0. 0. 6.45585775e-01
      4.81399804e-01 9.93806183e-01 1. 7.43262768e-01 0. 6.50303304e-01
      4.49099451e-01 0. 0. 7.33780622e-01 0. 8.72263908e-01
      8.76438022e-01 8.57715309e-01 0. 7.20225096e-01 7.54050195e-01
      6.08075202e-01 8.16949606e-01 8.20894361e-01 8.07003379e-01
      2.97836095e-01 6.34323835e-01 0.</_>
    <_>
      0. 0. 4.28978562e-01 6.24823809e-01 6.88379169e-01 7.23549426e-01
      7.31410205e-01 7.20842540e-01 7.05916226e-01 5.02637804e-01
      8.63077715e-02 7.12298214e-01 7.17471361e-01 7.44550943e-01
      7.39150882e-01 6.89155757e-01 6.58183217e-01 0. 0. 4.88859355e-01
      5.73399007e-01 6.49395347e-01 7.33952343e-01 7.22170711e-01
      6.90806746e-01 6.18123949e-01 5.16533077e-01 5.37955105e-01
      6.00746512e-01 4.31563348e-01 6.47751749e-01 6.54024720e-01 1.
      6.33582056e-01 5.74860215e-01 4.14153904e-01</_>
    <_>
      0. 3.67922693e-01 5.83743691e-01 6.62094057e-01 6.84706271e-01
      9.47523713e-01 9.29045618e-01 9.35813069e-01 0. 0. 0. 0.
      6.51178598e-01 9.58242595e-01 1. 7.09189594e-01 0. 6.00420952e-01
      3.11128706e-01 0. 5.61553121e-01 6.70863330e-01 2.84749389e-01
      8.23094606e-01 8.09102178e-01 7.85628259e-01 6.38456762e-01
      6.61962509e-01 7.32178092e-01 7.61842430e-01 7.68003881e-01
      7.70267129e-01 7.47536004e-01 7.27634907e-01 0. 0.</_>
    <_>
      0. 0. 0. 4.89615470e-01 6.03601456e-01 9.09532607e-01
      8.92164052e-01 8.82096887e-01 6.46207035e-01 0. 0. 0.
      6.98946238e-01 1. 9.96772647e-01 0. 6.10490143e-01 0. 0.
      4.93633389e-01 6.08309090e-01 6.96021318e-01 7.02654421e-01
      7.15298176e-01 6.74431920e-01 5.92036903e-01 5.09539366e-01
      5.26386023e-01 5.50523579e-01 5.82028806e-01 5.90292156e-01
      5.95634520e-01 8.98651063e-01 5.52653790e-01 5.07552445e-01 0.</_>
    <_>
      0. 5.07671297e-01 5.50709188e-01 5.94718218e-01 8.30329478e-01 1.
      8.51143420e-01 7.92355657e-01 7.98828542e-01 0. 0. 7.83475220e-01
      8.37445855e-01 8.79294455e-01 8.08464050e-01 8.26358080e-01
      3.28434527e-01 0. 4.85660374e-01 4.17307019e-01 2.14586005e-01
      1.57930732e-01 6.51144624e-01 7.35821605e-01 7.83329844e-01
      7.68852472e-01 6.06473744e-01 6.83288097e-01 7.43825614e-01
      5.74789643e-01 8.20040762e-01 7.78306365e-01 7.50531614e-01
      6.08015656e-01 2.18963638e-01 2.94858128e-01</_>
    <_>
      0. 0. 2.23560676e-01 4.70836163e-01 5.25411606e-01 9.91021633e-01
      1. 9.20458436e-01 6.18481338e-01 0. 0. 0. 6.91750646e-01
      7.34292507e-01 7.51703441e-01 7.01455057e-01 6.56090081e-01
      4.80895460e-01 0. 0. 5.84191322e-01 6.21875226e-01 7.21491992e-01
      7.35576212e-01 7.03096986e-01 5.11476994e-01 5.63501000e-01
      6.04922235e-01 6.37204170e-01 6.52139843e-01 6.50924265e-01
      6.37533128e-01 6.00175500e-01 5.79983830e-01 4.73320931e-01 0.</_>
    <_>
      0. 6.86574280e-02 4.07399833e-01 5.06420314e-01 8.79962206e-01 1.
      8.60746026e-01 8.69110644e-01 5.72082162e-01 0. 0. 0.
      6.24708354e-01 9.70843017e-01 9.25808847e-01 7.00064361e-01
      5.81965506e-01 5.72190642e-01 4.02626365e-01 0. 5.05427599e-01
      6.66831613e-01 7.24733412e-01 7.33121097e-01 7.19157338e-01
      5.55350602e-01 5.94384730e-01 6.12764716e-01 6.38244331e-01
      6.55842066e-01 6.54800475e-01 6.41483903e-01 6.04156852e-01
      4.91512626e-01 0. 0.</_>
    <_>
      0. 5.23414254e-01 5.69029450e-01 5.59458852e-01 8.73101473e-01 1.
      8.34237397e-01 7.16762960e-01 7.36581683e-01 0. 0. 7.37921178e-01
      7.87851572e-01 8.22476447e-01 9.34825778e-01 8.31503630e-01
      5.33675730e-01 5.02379596e-01 4.56362575e-01 3.93523484e-01
      3.35056454e-01 2.83138573e-01 6.31451309e-01 4.69617546e-01
      8.39145958e-01 8.37542593e-01 7.70184457e-01 7.57651985e-01
      7.89848626e-01 0. 8.52388501e-01 8.26322079e-01 7.87672460e-01
      6.28091156e-01 3.09230357e-01 4.26011056e-01</_>
    <_>
      0. 4.48959619e-01 2.80502230e-01 4.77796167e-01 7.75143564e-01
      8.57964218e-01 7.37042964e-01 7.24355996e-01 6.22938156e-01
      6.23144925e-01 6.19334400e-01 0. 6.32618725e-01 6.70592129e-01
      9.18371856e-01 7.85013556e-01 7.79236078e-01 2.78302103e-01
      4.14507449e-01 4.13866580e-01 3.31368566e-01 2.00514749e-01
      5.72178304e-01 9.88769650e-01 1. 7.33817756e-01 6.10094547e-01
      6.60535216e-01 7.27177203e-01 7.32640684e-01 7.37967014e-01
      7.37680852e-01 6.77180171e-01 4.90657508e-01 2.56443471e-01
      3.62744987e-01</_>
    <_>
      0. 2.77907044e-01 3.89525384e-01 5.87040782e-01 6.28937781e-01
      8.59056413e-01 8.62208664e-01 6.14061534e-01 5.91641009e-01 0.
      5.79729974e-01 0. 5.93175888e-01 7.98295081e-01 8.03374171e-01
      8.52395654e-01 4.90359098e-01 3.06122839e-01 2.29873851e-01
      4.11647379e-01 4.51856107e-01 0. 5.41580617e-01 1. 9.88913476e-01
      7.60704339e-01 0. 3.18467319e-01 3.47755253e-01 8.14268351e-01
      8.24923873e-01 7.67058492e-01 7.39278853e-01 5.81193686e-01
      5.77362716e-01 5.43274105e-01</_>
    <_>
      0. 4.25844103e-01 0. 7.13010311e-01 8.03652644e-01 8.28835785e-01
      8.09860170e-01 8.01327765e-01 7.89009511e-01 5.86281538e-01 0. 0.
      6.64402485e-01 9.09366012e-01 9.05199170e-01 7.77285933e-01
      7.56002545e-01 3.35080594e-01 7.01416433e-01 7.00412452e-01
      7.44979084e-01 7.60179877e-01 9.46180761e-01 1. 9.74059045e-01
      8.20949316e-01 8.44445825e-01 0. 8.88548076e-01 9.67670143e-01
      9.58254695e-01 9.21673715e-01 6.27500296e-01 6.67094290e-01
      6.60548568e-01 6.67069733e-01</_>
    <_>
      0. 4.09428149e-01 5.02942979e-01 5.48127174e-01 9.45687413e-01
      9.02960718e-01 8.53749096e-01 8.15345287e-01 7.86005855e-01 0. 0.
      7.77997851e-01 7.99836636e-01 8.53564143e-01 9.02740717e-01
      9.16087449e-01 3.72058630e-01 5.60798883e-01 5.14066637e-01
      3.70192945e-01 4.66811776e-01 6.05088055e-01 0. 7.45330930e-01 1.
      7.78534293e-01 6.94415927e-01 6.54093444e-01 6.89072490e-01
      6.25224650e-01 9.66018558e-01 8.91566753e-01 6.72325790e-01
      1.49484918e-01 5.73732197e-01 4.22705054e-01</_>
    <_>
      0. 4.33793128e-01 2.33837947e-01 6.98239625e-01 7.27780998e-01
      7.47401953e-01 7.03436017e-01 6.75750017e-01 6.63216352e-01
      5.54939508e-01 6.24618828e-01 6.53645277e-01 6.32224619e-01
      9.77893174e-01 1. 6.33847773e-01 0. 3.48203510e-01 4.73070621e-01
      5.08033872e-01 5.25964558e-01 5.62993467e-01 7.06696033e-01
      7.77875245e-01 7.58054078e-01 6.80950403e-01 5.91068089e-01
      5.61104417e-01 5.64835787e-01 8.09590220e-01 8.21364045e-01
      7.62568772e-01 5.29641688e-01 5.63547432e-01 5.90314329e-01
      5.98108292e-01</_>
    <_>
      0. 3.53978842e-01 5.39964139e-01 7.15530813e-01 7.79304981e-01
      7.98487842e-01 7.75418222e-01 7.25326300e-01 7.32904077e-01
      7.04438150e-01 7.02523530e-01 7.28849709e-01 7.41844118e-01
      7.92238474e-01 8.18337917e-01 6.89347267e-01 6.68354154e-01
      3.09934080e-01 6.20613039e-01 6.65010631e-01 5.11830807e-01
      7.15958893e-01 6.80602491e-01 9.50640559e-01 9.09784436e-01
      6.68298841e-01 2.90819168e-01 3.20095420e-01 8.08310449e-01 1.
      9.86866951e-01 8.83887291e-01 6.16402745e-01 6.47912145e-01
      6.72066331e-01 6.12974107e-01</_>
    <_>
      0. 3.41748804e-01 5.03684282e-01 5.61668813e-01 9.56533253e-01
      9.24152434e-01 8.77378702e-01 8.41347337e-01 8.56560051e-01
      1.53707489e-01 1.17965110e-01 8.46456170e-01 8.24128032e-01
      8.52511466e-01 8.97146285e-01 9.60419059e-01 4.13838089e-01
      5.58059156e-01 5.51728845e-01 1.93508491e-01 5.36599219e-01
      5.94788969e-01 4.80149448e-01 7.53967702e-01 1. 9.94150937e-01
      9.12029803e-01 0. 8.47484529e-01 9.23032343e-01 9.82691288e-01
      8.86832058e-01 6.81932926e-01 6.60855174e-01 5.67210019e-01 0.</_>
    <_>
      0. 6.09549940e-01 5.71818352e-01 6.98620379e-01 8.50179672e-01
      9.68093395e-01 9.73365366e-01 9.33161080e-01 8.75552535e-01
      9.11941588e-01 0. 9.39033747e-01 9.09880638e-01 1. 9.57151055e-01
      7.99907565e-01 3.95446479e-01 7.00365603e-01 7.72842765e-01
      7.74988830e-01 7.42953479e-01 6.81212962e-01 9.22777772e-01
      9.51778233e-01 8.91156971e-01 5.08459508e-01 6.53599024e-01
      5.70302010e-01 7.59324849e-01 9.34544444e-01 9.49489772e-01
      8.73487055e-01 7.66317427e-01 6.15361989e-01 6.72530234e-01
      6.81530714e-01</_>
    <_>
      0. 4.01974857e-01 2.46403724e-01 6.98006749e-01 6.77156270e-01
      8.18845570e-01 7.49631941e-01 7.64304280e-01 7.41448045e-01 0. 0.
      0. 6.23895347e-01 8.69508862e-01 9.13384676e-01 7.64469802e-01
      7.44580686e-01 3.47952485e-01 6.99455082e-01 7.42289305e-01
      7.85428822e-01 7.43328094e-01 6.94002211e-01 1. 9.57584023e-01
      4.75514859e-01 6.92195296e-01 7.94853091e-01 9.18834269e-01 0.
      9.84193623e-01 8.72959554e-01 6.14415526e-01 6.27157867e-01
      6.22941613e-01 5.93065143e-01</_>
    <_>
      0. 5.23396730e-01 3.47884238e-01 7.04151869e-01 7.90594935e-01
      9.04015243e-01 9.09043074e-01 8.70010018e-01 2.62456656e-01 0.
      6.67554736e-01 0. 9.10819232e-01 9.74808872e-01 9.70455110e-01
      7.92814910e-01 7.06471980e-01 6.27570629e-01 7.08180010e-01
      7.56100535e-01 7.79886603e-01 7.66007543e-01 9.70634043e-01 1.
      9.70009506e-01 7.21877933e-01 6.45991206e-01 7.49234319e-01
      8.47505152e-01 9.33373272e-01 9.24451709e-01 8.87960851e-01
      6.09136939e-01 6.61596358e-01 6.61932170e-01 6.33511066e-01</_>
    <_>
      0. 5.74320436e-01 4.98033673e-01 3.65151048e-01 8.59235048e-01
      8.88746560e-01 9.29851353e-01 9.01170015e-01 8.79371285e-01
      6.81761503e-01 0. 0. 9.52578545e-01 9.73282516e-01 1.
      8.57192457e-01 3.92350763e-01 7.01410055e-01 7.36579180e-01
      7.41312146e-01 7.19274759e-01 6.92980826e-01 9.36525285e-01
      9.63399410e-01 6.71092093e-01 6.25327885e-01 2.13964731e-01
      7.13797450e-01 7.54076600e-01 8.70809555e-01 8.58253598e-01
      8.29598010e-01 7.90961206e-01 5.69628358e-01 6.06240749e-01
      6.28353298e-01</_>
    <_>
      0. 6.24503613e-01 4.40843254e-01 7.62505054e-01 9.72442567e-01 1.
      9.76836622e-01 9.21174228e-01 8.58981013e-01 8.96102548e-01 0.
      9.26116765e-01 9.35605764e-01 9.96802747e-01 5.19168913e-01
      7.90991485e-01 4.10195559e-01 6.22181654e-01 6.14445686e-01
      7.07474411e-01 6.89017415e-01 7.04757750e-01 9.16983664e-01
      9.48052347e-01 9.20835137e-01 6.70961499e-01 4.06846732e-01
      3.99308562e-01 7.31368542e-01 9.64273095e-01 9.79668915e-01
      9.29578483e-01 8.92844021e-01 6.74218893e-01 6.93227470e-01
      7.02581167e-01</_>
    <_>
      0. 3.83203864e-01 4.39430147e-01 4.83395100e-01 9.10882056e-01 1.
      6.06834412e-01 6.05732203e-01 8.79739821e-01 9.07299101e-01
      4.18609589e-01 0. 0. 6.86695218e-01 9.94853973e-01 6.63936317e-01
      6.56725407e-01 6.03184700e-01 5.43638229e-01 7.91980743e-01
      7.64850080e-01 7.61016607e-01 0. 4.99611557e-01 5.12963355e-01
      5.88299394e-01 5.97311854e-01 6.15753889e-01 5.73798656e-01
      4.16940540e-01 5.00637829e-01 6.32894754e-01 6.51102543e-01
      6.55963063e-01 6.30277812e-01 7.41068184e-01</_>
    <_>
      0. 8.15595567e-01 8.81039202e-01 8.27907801e-01 7.91121185e-01
      8.08229685e-01 8.41414571e-01 7.26135671e-01 6.06378496e-01
      3.06589305e-01 5.76694846e-01 7.14904547e-01 6.62677407e-01
      7.85405040e-01 9.05435443e-01 6.89516962e-01 6.12071097e-01
      6.88592196e-01 0. 8.61504748e-02 5.27858675e-01 7.53994703e-01
      5.88274658e-01 5.02866089e-01 8.89849424e-01 9.94189262e-01
      8.16370845e-01 8.64334583e-01 1. 9.16586339e-01 0. 0. 0. 0.
      7.07436085e-01 5.41932225e-01</_>
    <_>
      0. 6.15209043e-01 7.32044995e-01 7.89104819e-01 7.45997906e-01
      9.58491743e-01 9.21133280e-01 9.69054759e-01 8.61913264e-01
      8.43545258e-01 0. 8.57737422e-01 9.58624244e-01 8.15936148e-01
      9.92339969e-01 7.73310423e-01 7.10780919e-01 3.63931745e-01
      3.89064133e-01 7.57362366e-01 7.23697901e-01 7.34616756e-01
      9.18213964e-01 1. 9.10720885e-01 8.39893103e-01 6.60622239e-01
      7.22344816e-01 7.89840579e-01 8.01650643e-01 6.68187916e-01
      9.57872748e-01 9.89310682e-01 4.37841505e-01 4.21901524e-01
      1.85902372e-01</_>
    <_>
      0. 6.26385033e-01 7.25532353e-01 6.06350780e-01 0. 9.46837425e-01
      9.24031913e-01 6.35835528e-01 8.07874918e-01 6.94150448e-01
      7.82619298e-01 6.00223958e-01 8.50462019e-01 9.99618232e-01
      9.03345287e-01 6.52040839e-01 6.36273265e-01 2.53185898e-01
      2.72996515e-01 7.21282780e-01 0. 6.09490633e-01 8.39448750e-01
      8.14797163e-01 9.63006914e-01 8.52658629e-01 4.77718472e-01
      7.91569114e-01 7.91231513e-01 8.28755260e-01 7.80464351e-01 1.
      9.70838070e-01 3.67228806e-01 4.35435802e-01 5.37640035e-01</_>
    <_>
      0. 0. 5.83280027e-01 5.79401135e-01 5.65507948e-01 5.59331298e-01
      5.94354868e-01 6.46089911e-01 6.74833775e-01 0. 0. 6.86118484e-01
      6.60456717e-01 6.01033628e-01 5.20325840e-01 4.58963752e-01 0. 0.
      0. 0. 0. 0. 0. 0. 0. 6.39738739e-01 8.71885180e-01 8.63738716e-01
      1. 0. 0. 0. 0. 0. 0. 0.</_>
    <_>
      0. 7.16422737e-01 7.55398691e-01 8.21120799e-01 8.10280740e-01
      7.02396214e-01 3.70929062e-01 6.70960724e-01 6.82000518e-01 0.
      6.61642373e-01 2.50703752e-01 8.70315611e-01 8.42819750e-01 1.
      8.50151062e-01 7.67270684e-01 7.19715774e-01 4.01185989e-01
      5.32971561e-01 5.94577193e-01 7.61379659e-01 8.24288607e-01
      7.65185714e-01 9.63145733e-01 8.61348331e-01 0. 8.13553870e-01
      8.17789316e-01 7.55114794e-01 9.27393496e-01 5.01212895e-01
      9.84962642e-01 6.28228307e-01 8.14566612e-01 7.41901696e-01</_>
    <_>
      0. 4.09938723e-01 0. 0. 8.48652363e-01 7.16929972e-01
      6.96745932e-01 7.51623392e-01 7.89970815e-01 7.58020222e-01
      7.67638206e-01 8.66106987e-01 9.43000793e-01 9.60418701e-01 1.
      4.95630711e-01 4.47418153e-01 1.87876388e-01 1.52657285e-01
      6.57811522e-01 6.01192474e-01 4.40413058e-01 6.68072402e-01
      8.97469401e-01 8.84529293e-01 7.03943908e-01 1.88511118e-01
      1.81228638e-01 6.24125659e-01 7.54124224e-01 7.24782526e-01
      8.52909446e-01 9.90876436e-01 8.40058923e-01 7.54752159e-01
      4.18661326e-01</_>
    <_>
      0. 5.38506150e-01 8.78275096e-01 0. 0. 7.45427430e-01
      8.81456554e-01 9.84605432e-01 0. 0. 0. 9.56889033e-01
      8.78247499e-01 8.51334393e-01 5.32248914e-01 7.29638696e-01
      8.08073878e-01 5.06011128e-01 4.10650045e-01 4.10583735e-01
      3.12056690e-01 4.69615042e-01 8.59340727e-01 0. 9.42319095e-01
      9.56313193e-01 0. 5.29255509e-01 5.26457846e-01 0. 9.47002590e-01
      1. 7.71191180e-01 8.61826897e-01 9.84282672e-01 0.</_>
    <_>
      0. 0. 0. 9.85494018e-01 9.40982461e-01 8.13689649e-01
      7.52093852e-01 0. 0. 0. 0. 6.37924314e-01 6.19143009e-01
      6.24504566e-01 6.40423834e-01 6.18434727e-01 7.19070077e-01 0.
      4.24572557e-01 3.85181457e-01 0. 6.94160223e-01 7.74263322e-01 1.
      9.70794022e-01 9.82506096e-01 0. 3.61711532e-01 3.96829247e-01
      4.09217119e-01 4.00987208e-01 0. 7.52860546e-01 8.24061096e-01 0.
      0.</_>
    <_>
      0. 1.17054202e-01 0. 0. 8.63717973e-01 8.18959653e-01
      7.59700596e-01 6.95923388e-01 6.94836080e-02 0. 6.52247667e-01
      2.72605330e-01 6.89272940e-01 7.49159515e-01 7.45410919e-01
      6.51844025e-01 7.53737867e-01 4.23076123e-01 3.06682110e-01
      2.09690392e-01 7.20452726e-01 7.40476429e-01 6.39586389e-01
      9.27227139e-01 5.00621915e-01 0. 0. 4.20267284e-01 3.88127089e-01
      4.04911369e-01 3.85356218e-01 0. 1. 9.57079113e-01 0.
      3.18057239e-01</_>
    <_>
      0. 0. 0. 8.37588549e-01 9.12466168e-01 7.31888711e-01
      6.19024575e-01 6.28915787e-01 4.89748344e-02 0. 5.52819669e-01
      6.92842066e-01 6.95295453e-01 8.42381835e-01 8.38172495e-01
      6.76856160e-01 5.51519334e-01 5.79193115e-01 3.13442051e-01
      2.54397690e-01 2.32618347e-01 6.12077594e-01 7.09897757e-01
      6.04041874e-01 6.08186245e-01 5.84685206e-01 5.75491607e-01
      5.42716265e-01 5.18225372e-01 5.09844601e-01 4.92647052e-01
      7.31654286e-01 1. 8.93163383e-01 8.11174750e-01 0.</_>
    <_>
      0. 9.59313989e-01 1. 9.88992393e-01 7.86294222e-01 0. 0. 0.
      2.24227160e-01 4.43251312e-01 2.91048795e-01 4.57073003e-01 0. 0.
      0. 0. 5.43951750e-01 7.51694024e-01 7.33790338e-01 3.86473984e-01
      2.76838303e-01 4.22777981e-01 4.06560421e-01 5.03602862e-01
      5.38744986e-01 5.32917202e-01 5.40825009e-01 4.85993356e-01
      4.47426796e-01 4.09626901e-01 3.25029671e-01 0. 0. 0. 0. 0.</_>
    <_>
      0. 0. 5.94655156e-01 7.37651467e-01 0. 1. 9.95908141e-01
      4.71645623e-01 4.81857717e-01 3.83062899e-01 7.15739906e-01
      8.58337462e-01 8.18124652e-01 7.20817864e-01 6.50483429e-01
      3.20390373e-01 4.91589189e-01 6.36447489e-01 6.31897092e-01
      4.82727975e-01 5.68275869e-01 4.04129326e-01 3.93302530e-01
      7.63342261e-01 7.66893923e-01 6.84325516e-01 1.58302292e-01
      3.34323347e-01 3.04096907e-01 6.33210003e-01 6.54744446e-01
      6.61460698e-01 9.05218899e-01 6.41969681e-01 5.96304953e-01
      6.89666331e-01</_>
    <_>
      0. 2.89092958e-01 7.24512339e-01 4.03634369e-01 5.73105574e-01 1.
      9.72061276e-01 7.94837832e-01 8.35386038e-01 0. 0. 0. 0.
      7.78143823e-01 7.97907650e-01 8.37212682e-01 5.90090692e-01
      7.40590453e-01 3.21990907e-01 2.89475739e-01 0. 3.28166306e-01
      8.51548195e-01 6.34015024e-01 9.04544413e-01 0. 4.73601639e-01 0.
      4.18797761e-01 4.73961204e-01 8.31003428e-01 5.23775876e-01
      8.61048400e-01 9.09843326e-01 0. 2.64181733e-01</_>
    <_>
      0. 5.93490124e-01 5.10949314e-01 4.05192524e-01 5.02437353e-01
      8.75784993e-01 8.91076565e-01 5.23968160e-01 5.41775823e-01
      7.39088953e-01 6.52933776e-01 7.55276620e-01 0. 0. 8.03603292e-01
      7.84268439e-01 0. 4.04037565e-01 7.31770456e-01 4.00690973e-01
      7.39330053e-01 7.96156585e-01 9.03545201e-01 1. 9.21354115e-01
      7.82944262e-01 2.82152057e-01 3.06054473e-01 0. 7.48026550e-01
      8.28595698e-01 8.18395138e-01 9.06975210e-01 7.41704643e-01
      6.25460863e-01 5.59342265e-01</_>
    <_>
      0. 0. 1. 9.41477954e-01 7.02453792e-01 3.52455854e-01
      2.66481638e-01 0. 0. 0. 0. 0. 5.91716707e-01 3.55337381e-01
      3.88489604e-01 5.28385103e-01 3.40863049e-01 2.88594216e-01
      1.52360678e-01 4.36622292e-01 3.14008743e-01 0. 0. 4.64930862e-01
      6.60837293e-01 8.84650707e-01 9.02505338e-01 5.68700612e-01
      6.07487082e-01 0. 0. 0. 0. 0. 0. 0.</_>
    <_>
      0. 1.89505875e-01 6.87493920e-01 0. 7.97277167e-02 0.
      8.21348727e-01 8.15063596e-01 7.71528721e-01 8.01197886e-01
      5.27811885e-01 0. 0. 1. 9.91464913e-01 0. 7.07516730e-01
      6.73493505e-01 2.66134351e-01 4.50574458e-01 6.99514449e-01
      7.48414934e-01 0. 8.88862729e-01 8.91507924e-01 7.47329175e-01 0.
      5.40980279e-01 3.22170377e-01 7.11712301e-01 5.49813747e-01
      3.47705930e-01 9.19868231e-01 7.90964246e-01 4.21974659e-01 0.</_>
    <_>
      0. 0. 0. 1.32975966e-01 0. 0. 3.80670130e-01 7.68042147e-01
      8.32603633e-01 9.75697279e-01 9.31933880e-01 0. 6.30355716e-01
      6.49003267e-01 5.50894558e-01 0. 0. 0. 0. 0. 6.85325742e-01
      7.27239728e-01 7.12170422e-01 6.95889592e-01 6.45564020e-01
      7.47778475e-01 9.11765635e-01 8.76692891e-01 8.81228030e-01
      9.24788415e-01 6.15162790e-01 8.36442947e-01 9.94570017e-01 1.
      2.08121493e-01 1.95986718e-01</_>
    <_>
      0. 0. 4.68509793e-01 4.94265258e-01 4.81352448e-01 9.41427350e-01
      1. 9.00165677e-01 0. 8.18949282e-01 7.20257044e-01 3.73221874e-01
      4.90051597e-01 5.36323130e-01 4.53132033e-01 3.62405360e-01
      2.52159983e-01 7.11633086e-01 5.93479812e-01 0. 7.09616065e-01
      7.83927023e-01 4.58792955e-01 4.00663853e-01 9.45274472e-01
      8.97957742e-01 8.22231397e-02 7.45556474e-01 7.10346341e-01 0.
      5.81016243e-01 5.97544193e-01 6.51214361e-01 6.34153008e-01
      1.64061934e-01 1.50874779e-01</_>
    <_>
      0. 0. 0. 0. 9.94110048e-01 9.46949244e-01 1. 8.64351571e-01
      9.02428150e-01 5.29729605e-01 5.00079453e-01 8.46861660e-01
      8.52799416e-01 8.51741791e-01 8.21571231e-01 2.16608196e-01
      1.86538383e-01 1.77640945e-01 2.04416737e-01 0. 0. 3.58277768e-01
      4.23491091e-01 7.49379873e-01 7.97875524e-01 5.65584660e-01
      6.16772890e-01 6.37450337e-01 6.41146302e-01 6.66107178e-01
      6.99047387e-01 7.06271350e-01 0. 0. 0. 0.</_>
    <_>
      0. 0. 7.90163651e-02 6.33350670e-01 5.92429638e-01 7.92664707e-01
      7.07626104e-01 8.71152818e-01 8.12665880e-01 7.98317730e-01
      8.02080870e-01 2.69928724e-01 0. 1. 9.71390843e-01 9.99855459e-01
      3.69861335e-01 0. 1.41574606e-01 1.41276509e-01 8.06785047e-01
      8.55479896e-01 9.79661584e-01 7.03620374e-01 5.74985683e-01
      6.19930625e-01 6.38292015e-01 5.17867148e-01 6.45482242e-01
      6.67508721e-01 6.31836951e-01 9.09999430e-01 7.90801048e-01
      6.76390827e-01 6.19920909e-01 5.40046573e-01</_>
    <_>
      0. 0. 0. 0. 7.58514643e-01 6.74180925e-01 6.06473029e-01 0.
      5.54297686e-01 5.53260565e-01 5.83222687e-01 0. 0. 0. 0.
      9.08221781e-01 4.21708554e-01 5.07815003e-01 1.17537297e-01
      4.84064996e-01 0. 0. 5.86302936e-01 9.43853855e-01 0. 0. 0. 0.
      7.89959192e-01 6.49183869e-01 3.67117465e-01 1. 0. 0. 0. 0.</_></support_vectors>
  <decision_functions>
    <_>
      <sv_count>15</sv_count>
      <rho>5.6231719759179496e-02</rho>
      <alpha>
        3.4845621900558406e-06 1.4418463521117092e-05
        1.0327184345893310e-04 5.3540612804230095e-05
        7.0738212360981555e-05 3.6972420517246219e-05
        6.2532820855116305e-05 2.5660062230488034e-05
        -5.9086509862820498e-05 -5.2781472875106187e-05
        -3.1209590599085905e-05 -2.2396224463973254e-06
        -5.7167579970381335e-05 -1.0946023067351505e-04
        -5.8673991510861938e-05</alpha>
      <index>
        0 1 2 5 8 9 11 12 13 14 15 16 17 22 23</index></_>
    <_>
      <sv_count>16</sv_count>
      <rho>6.4306888869116852e-01</rho>
      <alpha>
        5.3848156270083838e-05 1.8675045878872614e-05
        2.2946533777415579e-05 5.4771278988163532e-05
        1.9179122910722407e-04 4.2995784817377811e-05
        -2.4405588685763457e-05 -8.6122248028483453e-06
        -3.5659487158500570e-05 -1.3696498956449239e-05
        -1.0030771790221502e-05 -2.9274641453881359e-05
        -1.5360705751253230e-05 -1.2128937279966488e-05
        -4.7328555512710293e-05 -1.8853061744754295e-04</alpha>
      <index>
        0 1 5 7 10 11 28 29 32 33 34 35 36 37 38 39</index></_>
    <_>
      <sv_count>26</sv_count>
      <rho>-2.4225036806660750e-02</rho>
      <alpha>
        2.7810275975235815e-04 3.9576647330053725e-05
        1.0589481808448087e-04 2.3229926013888590e-04
        5.2955086222167891e-05 1.7456203858762812e-04
        7.1582933349537256e-04 7.0264529174224744e-04
        9.6519211647184210e-05 -1.3020043535291658e-04
        -1.4491687615220979e-04 -6.9655621539726950e-05
        -8.1695395348240952e-07 -1.2410352611870039e-04
        -7.2835896168633134e-05 -1.6644060230453300e-04
        -1.5334547228128549e-04 -2.8353489707417796e-05
        -2.6108633425106975e-04 -2.1434138118862960e-04
        -1.2421144321081914e-04 -8.7665458350539362e-05
        -3.7044983289915933e-04 -1.8597377281543559e-04
        -8.4641935418221714e-05 -1.7934541528759917e-04</alpha>
      <index>
        0 3 4 5 7 8 10 11 12 40 42 43 44 45 46 47 48 49 51 52 53 54 55
        56 57 58</index></_>
    <_>
      <sv_count>17</sv_count>
      <rho>1.4383521355429258e+00</rho>
      <alpha>
        8.8949336209687442e-05 2.5728854689238144e-05
        2.8611426033724120e-04 1.5322475898120502e-05
        4.8387949142376913e-05 3.4084434574654590e-05
        5.1127374712510193e-05 -3.5685815720868214e-05
        -8.5937665047484802e-05 -1.4872107477167363e-05
        -3.3079874046083363e-07 -3.7974822372764680e-05
        -7.1533834753171230e-05 -3.4137992551577883e-05
        -7.2415914933904996e-05 -8.0063224578823009e-05
        -1.1676250938760607e-04</alpha>
      <index>
        1 4 7 8 9 10 11 59 60 61 62 63 64 65 66 67 68</index></_>
    <_>
      <sv_count>21</sv_count>
      <rho>-2.4333075988901420e-01</rho>
      <alpha>
        6.6868594181149010e-05 1.2439684146984373e-04
        2.5451549424481013e-05 1.2261754171428540e-04
        5.7814373552470271e-04 7.9081427212974222e-05
        5.5433725366256081e-04 2.6668324735771480e-04
        4.5021770147943133e-04 -1.1407856914576226e-04
        -7.9363071574240653e-05 -2.0361906796714015e-04
        -3.3386061567940879e-05 -4.1612515984958831e-04
        -3.3168126249526821e-04 -4.6304966643739651e-05
        -1.0021944835622015e-04 -4.9255897681244108e-04
        -2.2515160102180908e-04 -2.2463383341534820e-04
        -6.7587317764545040e-07</alpha>
      <index>
        0 4 5 7 8 9 10 11 12 71 72 75 76 77 78 80 81 83 84 85 86</index></_>
    <_>
      <sv_count>16</sv_count>
      <rho>1.9725748931861804e+00</rho>
      <alpha>
        4.5091690007024783e-05 7.2359587753978587e-05
        1.1761962987078955e-04 1.6931503182037610e-04
        4.2615048117399039e-04 3.3522879562551700e-05
        3.0221119015177956e-05 7.7720892069884550e-05
        -1.6553614808131640e-04 -2.2105573140271929e-04
        -1.0239160926665736e-04 -1.1971209352488811e-04
        -1.9356455135803668e-05 -1.0264212288746857e-05
        -1.7738771618967328e-05 -3.1594628995467431e-04</alpha>
      <index>
        0 1 4 6 7 8 9 11 90 94 95 97 98 101 103 104</index></_>
    <_>
      <sv_count>17</sv_count>
      <rho>-5.7161875217671376e-01</rho>
      <alpha>
        2.6323165886119106e-05 2.6934239877143082e-05
        4.1298267857098274e-05 8.1432441459829137e-06
        6.3483736381074975e-05 2.8044605026289991e-06
        1.3816162415787809e-04 5.3585886345645245e-05
        2.7137542511396434e-05 -8.9647451870485058e-05
        -3.0433075269816501e-05 -7.3408357768060402e-05
        -1.0924686139858491e-04 -8.5485107208034898e-06
        -4.3931066775071255e-05 -2.0224584774591572e-05
        -1.2432259087553948e-05</alpha>
      <index>
        0 4 6 7 8 9 10 11 12 105 107 108 110 111 112 113 114</index></_>
    <_>
      <sv_count>19</sv_count>
      <rho>2.3687727744927112e+00</rho>
      <alpha>
        3.6009008543092124e-05 1.4982018952438292e-04
        2.1679982373814437e-05 4.3324518442850107e-05
        9.4585431635450950e-05 8.8441406385830453e-05
        1.3760181684217035e-04 -2.2525398878752130e-05
        -1.3289540517586102e-04 -2.8851605769639222e-05
        -1.0307748548972595e-07 -5.8919544857509053e-06
        -1.7235184119056415e-04 -2.7545052856331275e-05
        -8.1500969808334485e-05 -4.2544999069961449e-05
        -1.2245178259196174e-06 -4.2745914964421629e-05
        -1.3281616236565628e-05</alpha>
      <index>
        0 1 4 5 7 10 11 116 118 119 121 123 126 128 129 130 134 135 136</index></_>
    <_>
      <sv_count>13</sv_count>
      <rho>4.0321389819791842e-01</rho>
      <alpha>
        3.5224584220208459e-05 2.0564087180415876e-05
        3.7335280407583398e-05 9.7607389555211188e-06
        1.6969885421221199e-06 2.7144071180543274e-05
        8.4681481207000975e-05 -9.0804664574449139e-07
        -3.6389110386781333e-05 -9.0917617153086174e-06
        -5.3882426781932599e-05 -4.6652396835159961e-05
        -6.9483489328468192e-05</alpha>
      <index>
        13 14 17 19 20 22 23 29 32 34 35 38 39</index></_>
    <_>
      <sv_count>20</sv_count>
      <rho>2.0614343794941364e-01</rho>
      <alpha>
        2.7927497476588826e-05 7.3323341601196849e-05
        1.6016532644122402e-05 3.7887270713546047e-06
        3.9292875628694440e-05 2.0354761545213861e-05
        1.5695720038290779e-05 1.9167388628017213e-05
        9.4111591146264583e-05 -8.3166818563835661e-05
        -3.3062311811822167e-05 -4.7741084476986603e-06
        -2.7863606959262792e-05 -1.2434612553405318e-06
        -4.2947884121743604e-05 -1.6203305219535383e-05
        -3.2627453588821340e-05 -6.3507595771371004e-06
        -1.8881932250519868e-05 -4.2556793984026554e-05</alpha>
      <index>
        13 14 15 16 17 18 21 22 23 41 42 45 47 51 52 54 55 56 57 58</index></_>
    <_>
      <sv_count>12</sv_count>
      <rho>7.1496851160369890e-01</rho>
      <alpha>
        6.3948118023509658e-05 2.2352151197012466e-05
        1.0963992181967182e-05 8.7446461376211083e-05
        1.2478180913525546e-05 -7.1866317650354119e-05
        -2.2802346472395082e-05 -1.7446004993780822e-05
        -3.4884177994102221e-06 -1.2760605120586665e-05
        -2.6513147438545075e-05 -4.2312064217153937e-05</alpha>
      <index>
        13 14 22 23 24 60 62 63 66 67 68 70</index></_>
    <_>
      <sv_count>14</sv_count>
      <rho>6.5547220221930685e-02</rho>
      <alpha>
        2.1140255728044454e-05 5.7155507438644751e-05
        2.9119288839374798e-05 6.6835057299089481e-06
        4.8334203427321891e-05 7.5162856639267439e-05
        1.1650312188207078e-04 9.9565868980583156e-05
        -5.5757591285596354e-05 -3.3924097707281137e-06
        -3.0286471697833758e-05 -2.0952221928729103e-04
        -1.0788907900800306e-04 -4.6816837615763987e-05</alpha>
      <index>
        13 14 17 20 21 22 23 24 72 75 76 77 78 83</index></_>
    <_>
      <sv_count>18</sv_count>
      <rho>1.9236361533508191e+00</rho>
      <alpha>
        7.7115106760799185e-05 6.7442685992259778e-05
        2.0893541986432512e-05 4.4094305580952681e-05
        2.3431581015460844e-05 5.2457263168573599e-05
        1.8671239632741247e-04 1.8129196756558565e-05
        -4.2691376229814076e-05 -4.8438345048143445e-05
        -1.8429420168116519e-05 -5.6055577693385239e-05
        -2.7433169293167558e-05 -1.9785621782447220e-05
        -2.8137230383709050e-05 -9.6281028018964666e-05
        -1.2779220392309442e-04 -2.5232105047607476e-05</alpha>
      <index>
        13 14 18 20 21 22 23 24 90 91 94 95 97 98 99 101 102 103</index></_>
    <_>
      <sv_count>12</sv_count>
      <rho>-2.1991760686341208e-01</rho>
      <alpha>
        1.6099410796705290e-05 1.1790917416366029e-06
        4.1235453293319378e-05 1.6685307229508815e-05
        2.6017518991395753e-05 4.7003942058035202e-05
        -2.3705159929141135e-05 -8.6051034372620293e-06
        -3.7424160837159922e-05 -4.3302011882841153e-05
        -1.9733181676931480e-05 -1.5451106347265339e-05</alpha>
      <index>
        14 15 17 18 22 23 105 107 108 110 112 113</index></_>
    <_>
      <sv_count>16</sv_count>
      <rho>2.0481146735175857e+00</rho>
      <alpha>
        2.7090508001501691e-05 2.1515125609058273e-05
        1.6213944349446503e-05 6.9734735260404570e-05
        2.7231421637509464e-05 2.1632680665816499e-04
        -3.4281528431907186e-05 -3.4969805889505509e-05
        -3.5282048489265011e-05 -1.6141033714038976e-05
        -4.7403118269441110e-06 -1.5133502459959458e-04
        -6.1772187921824238e-05 -7.2019570288479988e-06
        -3.5121297316579169e-06 -2.8876513882499856e-05</alpha>
      <index>
        13 14 16 17 22 23 116 117 118 121 123 126 129 132 134 136</index></_>
    <_>
      <sv_count>21</sv_count>
      <rho>-9.4736605937338805e-02</rho>
      <alpha>
        1.2651743253338692e-05 3.1665874352668470e-05
        1.2586897721861078e-05 1.7248147838395546e-05
        3.8837693473587048e-05 5.3996775427983396e-05
        9.6486680543986823e-06 7.4836334775266007e-05
        1.8913244971491687e-04 -8.7088256432318553e-06
        -1.8037175211992644e-05 -3.9992595276382455e-06
        -4.2517775883027727e-05 -4.1639774469633534e-06
        -6.8213398201159606e-05 -2.2217417714418916e-05
        -3.2078655906367190e-05 -7.5589211579761087e-05
        -1.9419219166294666e-05 -3.4025588160650887e-05
        -1.1163408017090959e-04</alpha>
      <index>
        27 28 29 32 34 35 36 38 39 40 42 43 48 50 52 53 54 55 56 57 58</index></_>
    <_>
      <sv_count>13</sv_count>
      <rho>9.4225749307743822e-01</rho>
      <alpha>
        1.0213870758059473e-05 5.3422722122692078e-05
        1.1944430612154166e-05 3.9108330885195863e-05
        7.3786808495357402e-05 -2.6789897621625500e-05
        -4.6741093877030436e-05 -1.4805863988641425e-05
        -3.9566693486035334e-05 -3.8812558180217332e-06
        -3.8592953458519567e-05 -4.6321941638636665e-06
        -1.3466210459721317e-05</alpha>
      <index>
        34 35 37 38 39 59 60 63 64 66 68 69 70</index></_>
    <_>
      <sv_count>17</sv_count>
      <rho>2.1652315248116674e-01</rho>
      <alpha>
        2.6488628938402655e-05 5.6524195867762286e-06
        1.4609912711925793e-05 7.0135609525763540e-05
        9.8786129361729193e-06 1.1743700462872656e-05
        5.9251243732350924e-05 1.3469820159729657e-04
        -5.6717844614949038e-05 -3.7512326017915088e-06
        -3.3634608799755336e-05 -1.3955153728253864e-05
        -8.3711423474019291e-05 -2.5461209305834507e-05
        -4.9803161230084734e-05 -1.8379584087807981e-05
        -4.7044111649064965e-05</alpha>
      <index>
        28 32 33 35 36 37 38 39 72 74 75 76 78 81 83 85 86</index></_>
    <_>
      <sv_count>17</sv_count>
      <rho>1.2065815145369267e+00</rho>
      <alpha>
        1.4027111329645875e-05 7.3821276590478789e-05
        3.1200684316529826e-05 5.0076360428267892e-05
        8.6784302237948239e-05 1.8366751816142744e-04
        -4.3693981265372665e-06 -1.0352034554776748e-05
        -3.4045444162045051e-05 -3.6958787417812940e-05
        -3.2402226363772967e-05 -2.1065338235828341e-07
        -5.5215723222627792e-06 -1.5708927687604267e-04
        -4.8110695598430640e-05 -6.2996688995298618e-05
        -4.7520475264960185e-05</alpha>
      <index>
        34 35 36 37 38 39 87 88 89 90 91 94 95 97 101 103 104</index></_>
    <_>
      <sv_count>13</sv_count>
      <rho>-8.7223966858073787e-01</rho>
      <alpha>
        2.6653638381108772e-05 8.5991376006809700e-06
        2.5342089326237051e-06 6.6565518813257148e-06
        4.5509457153426280e-05 1.0541555335837489e-05
        7.0750577461618479e-05 8.7339544091374018e-05
        -1.0010908627938973e-04 -6.4634729420132224e-05
        -3.0637249435761479e-05 -3.6750147253817632e-05
        -2.6453458448894372e-05</alpha>
      <index>
        28 30 31 34 35 36 38 39 105 108 110 112 114</index></_>
    <_>
      <sv_count>22</sv_count>
      <rho>1.1415473378192535e+00</rho>
      <alpha>
        7.2149499541440145e-05 1.7674384714490388e-05
        4.5729320575067857e-05 5.0048200394739745e-06
        9.0366103031470205e-05 1.1111516300395806e-04
        1.4456677844470148e-05 3.4445631068766952e-05
        1.1050257945719577e-04 1.9036059373686839e-04
        -1.0060305426360253e-04 -1.0419507411011857e-04
        -4.1212675609343391e-06 -5.8464398856566591e-05
        -7.7556281186718712e-06 -5.4404475196216987e-05
        -1.1267371257818745e-04 -1.1130845212497888e-04
        -2.6603416190543149e-05 -2.1281927813376097e-06
        -8.4049646188995522e-05 -2.5497455043048455e-05</alpha>
      <index>
        25 26 27 31 34 35 36 37 38 39 118 121 122 123 124 125 126 129
        130 131 136 137</index></_>
    <_>
      <sv_count>16</sv_count>
      <rho>6.0891615117523079e-01</rho>
      <alpha>
        3.8450892383971119e-06 1.0556455579050925e-05
        4.1622897324619254e-05 8.3423763037739646e-05
        2.3985784464118594e-05 5.7177876483903981e-05
        8.0192669086184997e-05 5.6269111100981719e-05
        -4.0945276714741153e-06 -8.1159304077797271e-05
        -3.1842351197799864e-05 -4.7839933441989198e-05
        -4.5498544140651751e-05 -4.5955989376490893e-05
        -5.7812849366835648e-05 -4.2870147041957489e-05</alpha>
      <index>
        40 41 42 43 48 51 55 57 59 60 63 64 66 67 68 69</index></_>
    <_>
      <sv_count>21</sv_count>
      <rho>1.1374948816127668e+00</rho>
      <alpha>
        1.5430611967212266e-04 1.9151617718940505e-04
        3.7810677985717392e-05 8.4451374806918326e-05
        2.8818887624775484e-04 3.1430415026835072e-05
        2.3694165424293503e-05 1.5826707212154826e-04
        1.2967775853950378e-04 9.5840644012605794e-05
        5.5087179318948460e-05 -1.9567216670535176e-04
        -1.8925205969788662e-05 -1.6698729456795792e-04
        -6.3822773068594586e-05 -2.5248061703361292e-04
        -1.6945833178657904e-05 -1.1099414442225431e-04
        -2.6144342766017581e-04 -2.4871917116212529e-05
        -1.3812708062304675e-04</alpha>
      <index>
        40 43 45 48 51 52 53 55 56 57 58 71 72 73 75 78 80 81 83 84 85</index></_>
    <_>
      <sv_count>23</sv_count>
      <rho>1.3696042083775946e+00</rho>
      <alpha>
        2.7145655589200970e-05 2.2153196672923469e-04
        1.5481602425243725e-04 9.6934807811225630e-05
        1.2609161471210229e-05 1.0611683939591123e-04
        1.0123858426890150e-04 1.1015489656752433e-05
        9.5501764400211144e-05 2.9098538016615266e-05
        1.2897278255679696e-05 1.3056778035363555e-04
        8.3452507775158238e-05 1.1241556656202750e-04
        -1.5907345443188976e-06 -1.1555383117672204e-04
        -1.3969728025999543e-04 -1.0127973385009394e-04
        -4.6110431800216592e-05 -3.3089214103342859e-04
        -1.6466732130049905e-04 -1.6722282030053905e-04
        -1.2832767027238772e-04</alpha>
      <index>
        40 41 42 43 44 45 48 50 51 52 54 55 57 58 88 89 90 94 96 97 98
        99 101</index></_>
    <_>
      <sv_count>19</sv_count>
      <rho>-4.6930058988296458e-01</rho>
      <alpha>
        3.6093127789897907e-05 1.3529538485613066e-05
        2.5651511394632654e-05 3.2818728110054904e-05
        2.0689862863024502e-05 8.0953120152155419e-05
        3.0183816275874824e-05 4.0498472360819605e-05
        4.2158972094598236e-05 6.4643957422741685e-05
        6.2783984088580412e-05 2.8823917609967975e-05
        -1.3292851912777968e-04 -2.2100632327808724e-05
        -1.3816608330155595e-04 -9.8505593656981544e-05
        -1.8703284633607089e-05 -3.9502395362510670e-05
        -2.8922500237717543e-05</alpha>
      <index>
        40 41 43 44 46 48 51 52 53 54 55 57 105 107 108 110 112 114 115</index></_>
    <_>
      <sv_count>26</sv_count>
      <rho>1.4348999594089444e+00</rho>
      <alpha>
        2.6756217841598536e-05 9.2482719567388665e-05
        7.8386763602960720e-05 4.3683902264502812e-05
        8.7161003064656142e-05 3.8921081684985120e-05
        1.1915764676699363e-05 6.2010876971938737e-05
        3.9586938901216428e-05 1.1805489771948495e-05
        1.7434388758396098e-04 6.8374338556491035e-05
        1.2300984111637963e-04 -1.5085219428279543e-04
        -5.3778409495268910e-05 -2.0434717473030499e-05
        -4.6615053599174322e-06 -1.4217296650891197e-04
        -8.9695592700327593e-05 -1.4710816183565093e-04
        -7.0175572682819332e-06 -2.0886067105637002e-05
        -6.6542577893319142e-06 -1.7880746264341140e-05
        -1.3216950333163501e-04 -6.5127146189597064e-05</alpha>
      <index>
        40 42 43 44 48 49 50 51 52 54 55 57 58 118 122 123 124 126 128
        129 130 131 132 133 135 136</index></_>
    <_>
      <sv_count>20</sv_count>
      <rho>-1.9980155532847674e+00</rho>
      <alpha>
        8.5645915852892762e-05 5.3160932471405591e-05
        2.5846296918604510e-05 2.0132093943434510e-05
        1.7670372981518950e-05 7.4534232027293119e-05
        4.9411116289744014e-05 1.3151330716887195e-04
        -4.1396881886683567e-05 -5.1695659102908169e-05
        -6.2498479182079362e-05 -1.2575646762498596e-05
        -6.8237972367202413e-05 -6.1879375872772965e-05
        -2.1139569323440925e-05 -4.7224649147276416e-06
        -4.2864780765114428e-05 -2.0144308814943871e-05
        -5.3957273680134116e-05 -1.6801854981259301e-05</alpha>
      <index>
        59 60 63 64 66 67 68 69 71 72 73 74 75 76 78 80 81 82 83 84</index></_>
    <_>
      <sv_count>16</sv_count>
      <rho>-8.4243997902287537e-02</rho>
      <alpha>
        2.5897911669436061e-04 1.5500426515865023e-04
        8.0474141315376151e-05 3.2138490243611422e-05
        3.7537658262889193e-04 1.0901239356017609e-04
        -1.1114796779528210e-04 -8.5141484268911745e-05
        -3.8519664696056424e-05 -2.4886191208596477e-04
        -1.6104869344841334e-06 -6.1845595418317381e-05
        -1.5846506111964472e-05 -2.8635418824457415e-05
        -9.4934906708558667e-05 -3.2444104675706894e-04</alpha>
      <index>
        60 64 66 67 68 69 87 90 91 92 93 95 96 97 100 104</index></_>
    <_>
      <sv_count>14</sv_count>
      <rho>-1.1075148619952211e+00</rho>
      <alpha>
        3.4245866777251504e-05 3.5155801981449394e-05
        5.1638198224369877e-05 3.8339822302147334e-05
        4.0524593144800349e-06 2.3879642645567681e-05
        5.8323150805450203e-05 2.0851459128334138e-05
        -9.2449783363943166e-05 -6.6303179591386122e-06
        -8.3946948702026753e-05 -4.5177121097880589e-05
        -7.4488294629592192e-06 -3.0833400593101843e-05</alpha>
      <index>
        59 60 61 64 66 67 68 69 105 106 107 108 110 112</index></_>
    <_>
      <sv_count>18</sv_count>
      <rho>1.2586785124254030e+00</rho>
      <alpha>
        3.7786207346152618e-05 1.6257331815149086e-04
        5.5367359951774693e-05 7.5549402155793995e-05
        3.0395700499625312e-05 7.2734324364562769e-05
        -5.0729795575589987e-05 -6.5380471234890072e-05
        -3.8852903758752358e-05 -1.1547815749669442e-05
        -3.9741788289827199e-06 -5.1997719443434315e-05
        -1.1211005210812991e-05 -5.2850725436764591e-05
        -6.2946182682599520e-05 -8.4068542526112440e-06
        -7.6453159012884885e-05 -5.5501282408115746e-08</alpha>
      <index>
        59 60 64 67 68 69 116 118 119 121 124 126 127 129 131 132 135
        136</index></_>
    <_>
      <sv_count>22</sv_count>
      <rho>1.0078891963644010e+00</rho>
      <alpha>
        2.5107238571929854e-04 2.9091548873472575e-04
        3.0315540894425139e-04 1.2763101940668989e-04
        1.7667146499151238e-04 4.2153764631399939e-05
        5.8692744180883379e-06 2.3161228731883419e-04
        -1.2940514904199654e-04 -1.0365189827340478e-04
        -4.8265191510469680e-06 -8.5608112827554629e-05
        -4.9678079726527166e-05 -3.2275288616976706e-04
        -1.0471201622140094e-04 -1.2590181880067682e-04
        -1.3929476002663298e-04 -2.5764556246208602e-05
        -2.3913086212283998e-05 -9.7505076168428941e-06
        -2.5636501850512673e-04 -4.7456685345330082e-05</alpha>
      <index>
        71 72 75 76 77 78 81 83 87 88 89 90 93 94 95 96 97 99 101 102
        103 104</index></_>
    <_>
      <sv_count>17</sv_count>
      <rho>-8.8652370218204879e-01</rho>
      <alpha>
        3.2215523029377921e-05 1.0512221519241342e-04
        1.6404419218601221e-06 3.6397745858232541e-05
        4.2432297654812978e-05 4.3967330019632486e-05
        2.3119906113554208e-05 2.1910044164193857e-06
        1.1171181347833289e-04 5.2125107790913571e-05
        -1.1012685140126075e-04 -1.0256966724633573e-04
        -1.8628913198854743e-05 -1.1580510332134449e-04
        -7.8432108003350631e-05 -1.5117715409554068e-05
        -1.0243026894849176e-05</alpha>
      <index>
        72 75 76 77 79 81 82 83 84 85 105 107 108 110 112 113 114</index></_>
    <_>
      <sv_count>21</sv_count>
      <rho>1.5561271972930337e+00</rho>
      <alpha>
        9.4698711636780503e-05 1.0901829713249045e-04
        7.2639875359407898e-06 9.4195224922476723e-05
        1.4767208720934920e-05 1.7258733955745562e-04
        4.4041250549028502e-06 7.0988323186725868e-05
        -4.6575317255909769e-05 -1.3862551016319516e-06
        -1.0995058608331530e-04 -5.0237647526135425e-06
        -1.3369905341071507e-05 -2.6524820969656252e-05
        -2.3686914153691377e-05 -1.3336067894096612e-04
        -8.8311179900205459e-06 -8.1043821253317660e-05
        -1.1432779623747869e-05 -5.2802438980326595e-06
        -1.0145701238373306e-04</alpha>
      <index>
        71 72 73 75 76 78 79 83 116 117 118 119 121 123 124 126 128 129
        130 131 135</index></_>
    <_>
      <sv_count>15</sv_count>
      <rho>-1.5790550607239782e+00</rho>
      <alpha>
        5.7692354666114636e-05 7.0490151296976017e-05
        1.8603027617743641e-05 1.9478943794415225e-05
        3.8762890412962545e-05 5.5341378373665330e-05
        5.4243070284446647e-05 1.8936481148260636e-06
        7.5524811072581131e-05 -1.1560960664046690e-04
        -1.0334186534575139e-04 -8.7897252209521933e-05
        -4.2214263053856698e-05 -3.2785489936098939e-05
        -1.0181798448035381e-05</alpha>
      <index>
        87 89 90 94 95 96 97 98 104 105 107 108 110 112 114</index></_>
    <_>
      <sv_count>25</sv_count>
      <rho>1.1561061656039828e+00</rho>
      <alpha>
        4.1518461256512313e-05 1.7038267284203324e-04
        1.8144104724167079e-04 1.5745731790421069e-04
        1.1092795697394397e-05 3.2370675902049922e-05
        5.6993354104663372e-04 8.1321541492960242e-05
        8.3296023221499861e-05 -7.1408333639741639e-05
        -2.6223293263687142e-04 -5.8364829047337744e-05
        -2.8427674472695458e-05 -3.0598318879815227e-05
        -1.5446673849536446e-05 -7.3749731983585657e-05
        -4.1525086412439839e-05 -1.5810583474028383e-04
        -1.3656320211527775e-04 -6.4392906732417559e-05
        -1.5385305344426212e-05 -3.1926826390176042e-05
        -2.6478420879302702e-05 -1.6829810008396796e-04
        -1.4590989939708941e-04</alpha>
      <index>
        87 90 92 94 95 96 97 99 104 116 118 119 120 121 123 124 125 126
        129 131 132 133 134 135 136</index></_>
    <_>
      <sv_count>19</sv_count>
      <rho>1.4041299269178373e+00</rho>
      <alpha>
        1.1942275030221654e-04 2.1256595385328514e-05
        1.4832661459925154e-04 8.7821344234770908e-05
        2.4623465933078762e-05 1.5466083438594396e-05
        -2.1267234043981828e-05 -3.1424841857142851e-05
        -1.0540922813045926e-05 -8.5835907654635947e-05
        -5.2227010118847790e-05 -8.6634510323557108e-07
        -1.9728680172704997e-06 -5.4113940411856523e-05
        -2.2450168050560477e-05 -2.8659007153402990e-05
        -5.9621709516631405e-05 -4.6886683201292867e-05
        -1.0502159513360566e-06</alpha>
      <index>
        105 107 108 109 112 114 116 118 119 121 122 124 126 128 129 130
        135 136 137</index></_></decision_functions></opencv_ml_svm>
</opencv_storage>
